svm_type epsilon_svr
kernel_type rbf
gamma 0.10882
nr_class 2
total_sv 2421
rho -91.5367
SV
1397.406898811528 1:-0.25511642 2:-0.19236756 3:0.045665757 4:-0.026176355 5:0.010172608 6:0.021272897 7:-0.042758921 8:-0.066427227 9:0.033575685 10:-0.14416981 11:-0.02039569 12:0.021030847 13:-0.049574565 14:-0.028664815 15:-0.12742081 16:-0.03852701 17:0.024337623 18:0.043848405 19:0.047615959 20:-0.038767667 21:0.15541307 22:-0.0057660857 23:-0.10901208 24:-0.0056594531 25:-0.010240886 26:0.0040657019 27:-0.039517967 28:0.033335853 29:0.11296304 30:-0.050642164 31:0.036735474 32:0.073274545 33:0.026246776 34:-0.064797397 35:-0.12731156 36:-0.017388815 37:-0.0312469 38:0.096128204 39:0.014619147 40:-0.050609724 41:0.045475908 42:0.033163551 43:-0.008138146 44:-0.0043784935 45:0.075910826 46:0.043167369 47:-0.0068704173 48:-0.049460657 49:0.10766214 50:-0.006152325 
1782.8876 1:-0.10945632 2:0.073655954 3:-0.024839253 4:0.067004409 5:-0.055859635 6:-0.10714107 7:-0.039820766 8:0.033215611 9:0.11243455 10:0.058976943 11:-0.079149713 12:-0.0075106111 13:-0.048286966 14:-0.062261039 15:-0.11868169 16:-0.066986427 17:0.0019441483 18:-0.01021465 19:-0.042547486 20:-0.029066896 21:0.091893893 22:-0.052943555 23:0.023071672 24:0.070705074 25:0.11440714 26:0.10410565 27:-0.059816461 28:0.067140551 29:-0.021361778 30:0.07717085 31:0.030201942 32:-0.059200833 33:0.028945726 34:-0.042498544 35:0.082123198 36:-0.064854843 37:-0.053713233 38:-0.12246491 39:0.0018734521 40:0.064279034 41:-0.073786516 42:-0.055533131 43:-0.051003043 44:0.014827516 45:-0.052289411 46:-0.0075097399 47:0.057158149 48:-0.041870608 49:-0.096827021 50:-0.014681111 
-1782.8876 1:0.29391064 2:-0.16447503 3:0.168299 4:0.042732357 5:0.056416172 6:-0.085350052 7:0.098563887 8:0.071360376 9:-0.041286105 10:-0.047756609 11:0.036122553 12:-0.046717833 13:0.14071181 14:-0.0090407304 15:-0.045321289 16:0.05249066 17:0.036309753 18:0.080331874 19:-0.05034868 20:-0.010904221 21:0.048291337 22:0.053879758 23:0.0036252182 24:-0.088587117 25:-0.018849525 26:-0.074188563 27:-0.027857648 28:0.13727871 29:-0.038557371 30:0.16907325 31:0.013117287 32:0.10365869 33:0.036489938 34:-0.080574673 35:0.026209144 36:-0.1070466 37:-0.015238755 38:0.047367404 39:-0.12154457 40:0.063158508 41:-0.039865167 42:-0.036674829 43:-0.10631014 44:-0.057079074 45:-0.094882266 46:-0.23552451 47:0.13280168 48:-0.023279502 49:0.0052505381 50:-0.023862691 
1782.8876 1:0.20471689 2:0.028076166 3:0.10867771 4:0.072853858 5:0.0297699 6:-0.10824252 7:0.007357961 8:-0.011551804 9:0.08349696 10:-0.0080618978 11:0.040663079 12:-0.074136783 13:0.010095585 14:0.10662242 15:-0.12452728 16:0.1457792 17:-0.21417108 18:0.022386113 19:-0.068246854 20:0.16513938 21:0.041151616 22:-0.059135053 23:-0.046212393 24:0.10840614 25:-0.0097337977 26:-0.04431823 27:0.11332151 28:-0.069557037 29:0.0068632248 30:-0.011384655 31:-0.036583976 32:0.0044133457 33:0.11584942 34:-0.026876345 35:-0.059054874 36:0.068230626 37:0.090824253 38:-0.13749408 39:0.065410575 40:0.01410345 41:-0.052562957 42:-0.046551109 43:-0.061728477 44:0.024286271 45:-0.062002855 46:0.0016947198 47:0.051372968 48:-0.036173633 49:0.1436743 50:-0.0016877714 
-1782.8876 1:-0.038363601 2:0.13407346 3:-0.012269426 4:0.044209991 5:0.01632564 6:0.072750872 7:0.083063506 8:0.06386995 9:0.10350901 10:0.0080326487 11:0.048467619 12:0.0039677727 13:0.035088665 14:0.0030239514 15:-0.0052864905 16:-0.00094700704 17:0.031370417 18:-0.010102141 19:-0.11116749 20:0.14611597 21:0.19098217 22:-0.045899633 23:0.033683676 24:0.0062852488 25:0.042326881 26:0.024929601 27:-0.053855865 28:-0.12433492 29:0.04713405 30:0.12845699 31:0.061684486 32:-0.1393578 33:-0.048081517 34:-0.055060842 35:0.10105295 36:0.14195656 37:-0.0017114406 38:0.1013964 39:0.057913046 40:-0.043831502 41:-0.030745242 42:0.0087532997 43:-0.025895058 44:0.062864979 45:-0.0079973999 46:-0.033630241 47:0.12654325 48:0.15858938 49:-0.024701117 50:0.052008801 
-1782.8876 1:-0.043443992 2:0.034433294 3:-0.027702172 4:-0.063855192 5:-0.0054519732 6:0.045063074 7:-0.047548854 8:-0.069820879 9:0.019506314 10:-0.069652869 11:-0.01069992 12:0.01534756 13:-0.030437916 14:-0.17412747 15:-0.053929362 16:0.085704817 17:0.00066665058 18:0.090638071 19:0.0060464102 20:-0.038805775 21:0.0044884325 22:0.044425758 23:-0.00034006286 24:0.0054655818 25:-0.016123088 26:-0.033007965 27:0.047492457 28:-0.03336809 29:-0.013343001 30:0.062549076 31:-0.071389743 32:0.10767701 33:0.0034007304 34:-0.052509512 35:-0.0012566408 36:-0.0069205041 37:-0.0078929537 38:0.002204733 39:0.047916605 40:-0.15939759 41:0.026842278 42:-0.025043347 43:0.15207956 44:0.044035688 45:-0.071077912 46:0.076079247 47:0.00808888 48:-0.0064913986 49:0.014139211 50:-0.00071977329 
1782.8876 1:0.088830828 2:0.035881268 3:0.0054362573 4:0.0063018636 5:-0.0082301334 6:0.021850136 7:0.0058038415 8:-0.055693944 9:-0.069604002 10:0.003833931 11:-0.025144946 12:0.032469958 13:-0.050981792 14:-0.040088455 15:-0.036582276 16:-0.0068603663 17:-0.013890024 18:-0.047756551 19:0.036391797 20:-0.012333129 21:-0.067894304 22:-0.038338892 23:0.0049181193 24:0.035227754 25:0.009258925 26:0.022306747 27:0.044245036 28:-0.045016646 29:-0.051166225 30:-0.0080553749 31:-0.016732126 32:0.0028695478 33:0.02085501 34:0.044154703 35:0.056511295 36:0.039306839 37:-0.10410808 38:-0.013796769 39:-0.026292065 40:0.0001371242 41:0.047618171 42:-0.064985931 43:-0.038057099 44:-0.025554797 45:-0.076470256 46:0.11909074 47:-0.043796916 48:0.017492309 49:-0.0058135717 50:-0.0067765042 
1782.8876 1:-0.15985838 2:0.045668127 3:0.018999171 4:0.029971522 5:-0.028026234 6:-0.0080272178 7:-0.061943414 8:0.061184548 9:0.029145387 10:-0.020695498 11:-0.089831614 12:-0.026678148 13:-0.024021474 14:0.01977695 15:-0.041954996 16:-0.0061360082 17:0.021428451 18:-0.060551361 19:-0.029270733 20:-0.031604399 21:-0.033864701 22:0.086081708 23:0.10484884 24:0.0023724248 25:0.051080885 26:0.023083216 27:0.029300763 28:-0.037967187 29:0.038133794 30:0.0076844152 31:0.018151437 32:-0.00030373 33:0.048622739 34:-0.0061268408 35:0.0084745631 36:0.032023728 37:-0.0038411316 38:-0.028548045 39:-0.02065732 40:0.019848876 41:-0.013973759 42:-0.02227948 43:0.041786237 44:-0.039118565 45:-0.034491444 46:0.038758638 47:0.038754878 48:0.034036271 49:-0.075058939 50:-0.065594292 
1782.8876 1:-0.010392481 2:0.0061821848 3:0.024724007 4:-0.043384904 5:0.02559119 6:0.009140514 7:-0.047235397 8:-0.00089727911 9:-0.045272735 10:-0.02105355 11:-0.091192182 12:0.10409714 13:0.034789369 14:-0.034845048 15:0.014405458 16:0.061583911 17:-0.01642121 18:0.0042633264 19:-0.056535478 20:-0.028511459 21:0.12871802 22:-0.094114071 23:-0.13191873 24:0.070780279 25:0.05721446 26:0.058734002 27:0.0056269881 28:0.0092927322 29:0.040065905 30:-0.040021043 31:-0.11347876 32:0.02833242 33:-0.048174059 34:-0.026091553 35:-0.017483774 36:0.015517854 37:0.036918273 38:-0.0074021821 39:-0.062819429 40:-0.023034715 41:0.075633505 42:0.040819715 43:-0.098608813 44:-0.056339747 45:-0.017198534 46:-0.030615995 47:-0.10376391 48:0.0067079524 49:0.028784544 50:-0.030056929 
1782.8876 1:0.066347972 2:-0.092086758 3:-0.044393543 4:-0.073268915 5:0.11747559 6:0.044476024 7:0.07062164 8:-0.024219514 9:-0.069704082 10:-0.055280087 11:0.13483131 12:-0.0021304369 13:-0.016169864 14:-0.049880346 15:-0.046684624 16:0.014910485 17:0.060611184 18:-0.01975921 19:-0.073089071 20:0.015461741 21:0.037282866 22:0.074089897 23:0.079767111 24:-0.012548976 25:0.042780629 26:0.057012951 27:0.056762313 28:0.032518853 29:0.079270076 30:-0.14034465 31:-0.099312401 32:0.090951319 33:0.084524632 34:-0.057172098 35:-0.10865196 36:0.015442253 37:0.061114561 38:-0.007493399 39:-0.010466995 40:-0.10876322 41:0.12074671 42:-0.027324816 43:0.0051226108 44:-0.1230958 45:-0.068331229 46:0.04456998 47:0.20445999 48:0.094119369 49:-0.032703038 50:0.077515838 
-1782.8876 1:-0.1618256 2:0.033756085 3:0.076764568 4:0.10239173 5:-0.098855627 6:0.0010526061 7:-0.038381877 8:0.083330019 9:0.013834496 10:-0.0028488866 11:0.050577492 12:0.019291421 13:-0.0031687813 14:-0.060618651 15:-0.038567517 16:0.017633458 17:-0.10271637 18:-0.02662887 19:-0.043732303 20:0.025400406 21:0.025177517 22:0.048924578 23:0.072263227 24:-0.074677903 25:-0.011007622 26:-0.078309864 27:0.0337766 28:-0.099097331 29:-0.021532638 30:0.010303045 31:0.0026158794 32:-0.038912819 33:-0.017427678 34:0.033745753 35:0.022720379 36:-0.060414542 37:0.028735848 38:0.015967986 39:-0.083593484 40:-0.027011826 41:-0.0039847564 42:0.10399243 43:0.012443891 44:-0.044630692 45:-0.049972157 46:0.048998494 47:0.050969416 48:0.018792625 49:-0.017690437 50:-0.032293632 
-1782.8876 1:-0.11680476 2:-0.27224361 3:0.048880759 4:-0.045311366 5:0.00087878059 6:0.0073977385 7:-0.01560531 8:-0.0060114506 9:-0.073885247 10:0.0674572 11:-0.0092899312 12:0.022914647 13:0.062672157 14:-0.046064884 15:0.047887713 16:-0.10813703 17:0.019658318 18:0.026890874 19:0.06114613 20:0.037714331 21:0.071215235 22:0.011616824 23:-0.05013215 24:-0.080290532 25:0.1506375 26:-0.00097943258 27:-0.078944345 28:-0.066140344 29:0.046633325 30:0.00040684361 31:-0.033809662 32:0.033336429 33:0.04769815 34:-0.03847722 35:-0.13779762 36:0.10558474 37:0.0242207 38:0.077459996 39:-0.045927893 40:-0.038889635 41:-0.069998542 42:-0.047252356 43:-0.01510318 44:0.027851676 45:-0.0093884843 46:0.015689827 47:-0.034404518 48:-0.13034504 49:-0.057262519 50:0.031053929 
-1782.8876 1:-0.18950522 2:-0.14920083 3:0.051162647 4:-0.06887271 5:0.0012345131 6:-0.010435555 7:-0.16079009 8:0.10925574 9:0.036522457 10:-0.15939025 11:-0.049847382 12:-0.12173019 13:-0.066908562 14:-0.065900915 15:0.016543536 16:-0.088337505 17:-0.028794075 18:0.051160749 19:0.037953735 20:0.11090628 21:0.022510517 22:0.059372638 23:0.033764187 24:-0.10587127 25:-0.0036680964 26:0.11805756 27:0.09697496 28:0.030815138 29:-0.023296514 30:0.062810777 31:0.026204963 32:0.067936 33:0.0093735352 34:0.050107046 35:-0.13163745 36:0.040659291 37:0.0012199638 38:0.068724404 39:-0.027558283 40:-0.049751469 41:0.078102477 42:-0.031327186 43:-0.018533379 44:-0.0065942244 45:-0.032554402 46:0.066650191 47:0.14912873 48:0.046455001 49:0.085967682 50:0.055792673 
1782.8876 1:0.1700199 2:-0.012193513 3:0.05122189 4:0.0099661946 5:-0.10062819 6:-0.017688978 7:-0.07125117 8:-0.0057424541 9:0.13537709 10:-0.024365774 11:0.057594832 12:0.12173734 13:0.09233527 14:-0.035977497 15:-0.10566938 16:-0.27116231 17:0.029877382 18:-0.022596503 19:-0.060108139 20:0.0030533317 21:-0.031565193 22:0.076520124 23:0.050370248 24:-0.10164465 25:-0.0043476322 26:0.070526269 27:-0.025196499 28:-0.048281862 29:0.020139073 30:0.0078911478 31:0.032370178 32:4.3514922e-005 33:-0.0057989366 34:0.051189914 35:-0.086562529 36:-0.084184125 37:-0.05597309 38:-0.073576442 39:0.034608858 40:-0.009106618 41:0.01961284 42:-0.0033324841 43:0.01478401 44:0.12591789 45:-0.024425736 46:0.12047237 47:-0.051994061 48:-0.045067055 49:-0.040275776 50:-0.042281529 
1782.8876 1:0.015837436 2:-0.097416346 3:0.052894106 4:0.15721697 5:-0.077864477 6:0.10309071 7:-0.0073408763 8:-0.034372172 9:0.0046490254 10:-0.037455538 11:-0.047877736 12:-0.0095573454 13:0.065145145 14:0.061947448 15:-0.0081283403 16:0.10789143 17:-0.010237377 18:-0.094043895 19:0.038420483 20:0.0010446758 21:0.0012799466 22:0.036775749 23:0.0906419 24:0.041480534 25:-0.0024808677 26:0.023839525 27:0.024710912 28:0.017457757 29:0.01885992 30:-0.023600574 31:-0.070229362 32:-0.065034385 33:0.025305345 34:-0.11078681 35:-0.027868341 36:-0.027369195 37:-0.0074009353 38:-0.020649278 39:0.02044076 40:0.11799169 41:0.078808875 42:-0.012340471 43:0.019736339 44:-0.0037497017 45:0.0098605523 46:-0.16179415 47:0.063580662 48:-0.0024567382 49:0.023132763 50:-0.024929015 
-1782.8876 1:0.12246818 2:0.042766327 3:-0.0035328031 4:0.039952753 5:0.099707964 6:0.12999049 7:-0.10120405 8:-0.13609055 9:-0.042761612 10:-0.0029170181 11:-0.16485221 12:-0.14212671 13:-0.07273171 14:-0.038070147 15:0.093758038 16:-0.13421472 17:-0.061631311 18:0.092750425 19:0.11315948 20:-0.01879129 21:0.056936509 22:-0.10153466 23:0.053226559 24:0.076942855 25:-9.966126e-005 26:0.10431823 27:0.062605487 28:-0.011777303 29:-0.0063238402 30:-0.003292986 31:0.0057861738 32:-0.066296927 33:-0.059216221 34:-0.10278152 35:0.061409041 36:0.12246242 37:0.012779626 38:-0.10752789 39:-0.12140776 40:-0.035976378 41:0.10925372 42:0.07841422 43:-0.11737722 44:-0.024039967 45:-0.019768069 46:0.031762259 47:-0.10464804 48:0.20165853 49:0.098499184 50:-0.041942427 
-1782.8876 1:-0.18916175 2:-0.17455914 3:0.15404658 4:-0.047255288 5:-0.0058282768 6:0.041471393 7:-0.044808535 8:-0.081897949 9:0.0054272 10:0.051608665 11:-0.028288341 12:0.015156861 13:-0.07518555 14:0.043999402 15:0.058046005 16:-0.015930855 17:-0.065381957 18:-0.0041639795 19:0.048278665 20:0.035600729 21:0.049038036 22:-0.039996563 23:-0.082215183 24:-0.062381692 25:0.083859139 26:0.065009792 27:-0.082624171 28:0.011668517 29:0.099864932 30:0.053785808 31:-0.00058046026 32:0.010352517 33:-0.011493552 34:-0.0060159579 35:0.038223957 36:-0.0070083371 37:-0.031459692 38:-0.012487312 39:-0.031498416 40:-0.083431976 41:-0.024769794 42:0.02451016 43:-0.058340608 44:0.016316403 45:-0.11477336 46:0.10640365 47:0.027066249 48:-0.020640528 49:0.041514564 50:0.085516662 
-1782.8876 1:-0.061675443 2:0.13071334 3:-0.12463448 4:-0.031482611 5:0.051040963 6:0.049462155 7:0.044289227 8:0.048380003 9:-0.014357729 10:-0.0043764587 11:0.017955662 12:0.015916006 13:-0.0017173796 14:-0.024715931 15:-0.040221774 16:-0.035601147 17:-0.024987684 18:-0.076714225 19:0.070847815 20:0.051302228 21:0.020472891 22:0.034264098 23:-0.027422703 24:0.026241343 25:-0.089837381 26:-0.020696513 27:0.050107719 28:-0.062810949 29:-0.028767237 30:0.043550468 31:0.01505308 32:0.027283927 33:-0.073112895 34:-0.034163782 35:0.10366284 36:0.013518512 37:-0.047114169 38:0.011218118 39:0.062171707 40:0.0088619566 41:0.055968727 42:0.028111041 43:0.076520522 44:-0.027930716 45:-0.0051360349 46:-0.096615711 47:0.041685193 48:-0.043987294 49:-0.096491394 50:-0.047381276 
-1782.8876 1:-0.013217581 2:0.020393506 3:-0.021456032 4:0.037989483 5:0.098344612 6:-0.010551924 7:0.052416177 8:-0.021418945 9:0.0010587183 10:-0.075251389 11:0.032715271 12:-0.0064971946 13:0.052743181 14:0.061157089 15:-0.10890661 16:0.057055519 17:0.035774595 18:0.087762271 19:-0.11916584 20:-0.19068672 21:-0.054220141 22:-0.056413395 23:0.070166142 24:0.063098691 25:-0.06688513 26:-0.064536726 27:0.094930726 28:0.054258737 29:0.053855942 30:0.055110667 31:0.027578395 32:0.02213525 33:-0.0056834883 34:0.087690334 35:-0.0012503473 36:0.11337789 37:0.017280832 38:0.048269117 39:0.00073809855 40:0.032232502 41:0.0594056 42:0.060798741 43:0.038223589 44:0.0073331098 45:-0.12119961 46:0.011171243 47:-0.059394565 48:-0.032970861 49:0.0048627804 50:-0.040701261 
-1782.8876 1:-0.14475766 2:-0.11976525 3:0.00013352155 4:-0.21820288 5:0.012845835 6:-0.06186682 7:-0.000690027 8:0.11611986 9:0.0211231 10:0.054704976 11:-0.050014568 12:0.068755699 13:0.038303483 14:0.015667347 15:-0.034011105 16:-0.059814499 17:-0.10282557 18:0.081732053 19:0.063496387 20:0.1099155 21:-0.14669995 22:0.10553517 23:0.0070812503 24:-0.076208011 25:0.065664738 26:-0.10530863 27:0.078929969 28:0.24901131 29:-0.19181088 30:0.028463505 31:0.077446863 32:0.084664963 33:0.032059481 34:0.068451095 35:-0.036896334 36:0.078917351 37:-0.040232903 38:-0.1702856 39:0.19292633 40:0.014218355 41:0.025648454 42:-0.10457068 43:0.0198819 44:0.022267173 45:-0.038437058 46:0.14370912 47:0.01981575 48:-0.028097774 49:0.14025058 50:-0.064232135 
1782.8876 1:-0.35437834 2:-0.25989088 3:0.043155876 4:0.027254354 5:0.017505707 6:0.046353151 7:-0.012286038 8:-0.025613905 9:-0.032879972 10:-0.0050393257 11:0.062904077 12:-0.031595192 13:-0.019575525 14:-0.082259537 15:-0.057366503 16:-0.051276098 17:0.069322039 18:0.095352423 19:0.053216637 20:0.0089840279 21:0.061181964 22:0.015724619 23:0.0046037559 24:0.00087773452 25:-0.07578922 26:-0.015290375 27:0.039213469 28:0.01822893 29:-0.039434391 30:0.042560665 31:0.017172955 32:0.06641396 33:0.006709045 34:0.096851269 35:0.060106327 36:0.022740666 37:0.086588387 38:0.098164535 39:0.063165033 40:0.026360202 41:-0.049789136 42:-0.044480556 43:-0.040153185 44:-0.038366014 45:0.10819984 46:-0.11576838 47:-0.10595379 48:0.036420084 49:-0.050982122 50:-0.03628594 
1782.8876 1:-0.19656299 2:0.096256369 3:0.037482907 4:0.059310454 5:-0.028979108 6:0.078881403 7:0.013182717 8:0.023881777 9:0.017638313 10:0.048325597 11:-0.0027480987 12:0.047425776 13:-0.066381556 14:0.050801566 15:0.030377952 16:0.011423141 17:-0.024676266 18:-0.034141681 19:0.022132908 20:-0.075027924 21:-0.066147483 22:-0.013785918 23:-0.011684323 24:-0.0051303774 25:-0.03792112 26:0.0058108026 27:0.0092013527 28:0.10928609 29:-0.030427514 30:-0.019412782 31:0.092674215 32:-0.033908733 33:0.051005045 34:-0.038134939 35:0.034796723 36:-0.02313847 37:0.030012687 38:0.043653954 39:-0.040453654 40:-0.042571938 41:-0.032667039 42:0.017685065 43:0.045090517 44:0.017868133 45:0.031977466 46:-0.009352311 47:0.035161524 48:0.052007067 49:-0.025560152 50:-0.040122651 
1782.8876 1:0.15482453 2:-0.0069090702 3:0.027365698 4:-0.16618021 5:-0.040085769 6:0.05111291 7:0.060370609 8:0.050058441 9:-0.0026396617 10:-0.043126532 11:0.0097805764 12:0.0051091752 13:0.071498141 14:-0.048932883 15:-0.10864933 16:0.098821143 17:0.025299259 18:-0.086653704 19:-0.095399173 20:-0.064117171 21:-0.020434376 22:0.035693812 23:-0.056076591 24:0.0086046769 25:0.17923534 26:-0.019164683 27:-0.0035260984 28:-0.16759557 29:0.03774247 30:0.034097177 31:0.071261024 32:-0.079059753 33:0.12274806 34:0.0078198778 35:-0.033279186 36:0.0665772 37:-0.026633491 38:0.0041153481 39:0.0068400399 40:0.024918067 41:0.012827276 42:-0.10711885 43:0.009648712 44:-0.050079528 45:0.012469836 46:-0.021759457 47:-0.016113323 48:0.044430421 49:0.056153973 50:-0.034125012 
-1782.8876 1:0.16034443 2:-0.055026088 3:-0.11831537 4:-0.10565844 5:-0.10200517 6:0.040269651 7:-0.063572707 8:0.14902228 9:0.078278635 10:-0.07104678 11:0.023408821 12:0.057956563 13:0.10901189 14:-0.041477663 15:-0.010331107 16:0.084007821 17:0.023183966 18:0.043755475 19:0.043457073 20:-0.0088807824 21:0.034746467 22:-0.05366771 23:0.12615758 24:0.00094680775 25:-0.014942023 26:-0.060395006 27:-0.035696425 28:0.05084944 29:-0.021656258 30:0.060736744 31:-0.1058828 32:-0.039025899 33:-0.08303422 34:0.028319979 35:0.066566222 36:0.0073619041 37:-0.030871756 38:-0.12953382 39:0.00058540203 40:0.049751671 41:-0.064340787 42:0.12479351 43:0.05163249 44:0.033481137 45:0.13282332 46:-0.08339141 47:-0.073432779 48:0.061794624 49:0.067369505 50:0.060479178 
-1782.8876 1:-0.0169385 2:0.14599033 3:0.013250431 4:0.030899211 5:-0.1007806 6:-0.02179325 7:-0.075799034 8:0.029210745 9:-0.050510974 10:0.00084916845 11:0.042380084 12:-0.031120099 13:-0.036313608 14:-0.09869506 15:0.051080023 16:0.056981887 17:-0.022818084 18:0.10374541 19:-0.075929514 20:-0.055465481 21:-0.0050944455 22:-0.12252106 23:0.01887682 24:0.021033354 25:0.010363328 26:0.052205052 27:-0.14042164 28:-0.042400498 29:0.0071066474 30:0.019318284 31:0.013128894 32:-0.014756898 33:0.072485543 34:-0.018323976 35:0.05336938 36:0.13330262 37:0.033847794 38:-0.052743433 39:0.018163819 40:0.067047463 41:0.028955223 42:-0.028021718 43:0.025838571 44:0.030614632 45:0.10798717 46:0.053928284 47:0.012876539 48:-0.025147534 49:0.11015109 50:0.0864656 
-1474.295856099403 1:0.17219849 2:-0.029275633 3:-0.028518602 4:0.024958926 5:0.14871995 6:0.017144819 7:-0.029536039 8:0.061132299 9:0.019263705 10:-0.058454542 11:-0.040741688 12:-0.034180774 13:-0.052788539 14:-0.0091122927 15:0.044321268 16:0.13051573 17:-0.087460188 18:-0.0090795466 19:0.051135991 20:0.014163513 21:-0.012386707 22:0.0066130623 23:0.077637057 24:-0.010297441 25:-0.048599723 26:-0.10244353 27:-0.0062674365 28:0.028778108 29:0.010029477 30:-0.071555638 31:0.075609667 32:-0.0047213873 33:-0.032983249 34:-0.12909024 35:0.090450208 36:0.080221828 37:-0.013675868 38:-0.048329511 39:0.050105959 40:-0.051849334 41:0.035631709 42:0.020505168 43:-0.012629995 44:0.018988525 45:0.0059540692 46:0.051537682 47:-0.021298726 48:0.015583583 49:-0.024176708 50:0.14150538 
1782.8876 1:0.26527336 2:-0.04677406 3:0.077165321 4:0.10747627 5:-0.05977454 6:-0.050215548 7:0.0042931108 8:-0.046412523 9:-0.10161303 10:-0.078457963 11:0.1433257 12:-0.16066206 13:-0.11734639 14:0.054710403 15:0.19852631 16:-0.035034884 17:0.00010471699 18:0.068480252 19:-0.033838711 20:-0.0028964256 21:-0.027095809 22:0.057696268 23:0.044549847 24:0.0049725986 25:-0.034895184 26:0.005021077 27:0.059282774 28:-0.042580834 29:0.060245831 30:0.1051155 31:0.0012346773 32:0.13092654 33:-0.039880949 34:-0.0041062183 35:0.067128664 36:0.070888353 37:-0.11391341 38:0.045554405 39:-0.084763409 40:-0.070344605 41:0.017579861 42:0.0068778519 43:-0.0129418 44:-0.010277801 45:0.032216036 46:0.13054229 47:-0.087065506 48:0.013777597 49:-0.086470637 50:0.00026706214 
1782.8876 1:-0.068083063 2:0.16533641 3:-0.0263162 4:0.049053242 5:0.016214764 6:-0.022221168 7:0.010147021 8:-0.0043044404 9:-0.038728278 10:0.00031276944 11:0.021295485 12:0.070307838 13:-0.0047835754 14:0.027324363 15:-0.002923083 16:0.01154283 17:0.064466449 18:0.015476274 19:0.044801699 20:0.065165367 21:0.047345671 22:-0.098427594 23:0.0073275587 24:-0.021786115 25:-0.0049267284 26:-0.041980656 27:0.035972214 28:-0.0078064601 29:-0.084739864 30:-0.043003037 31:0.075442107 32:0.056539572 33:-0.015351079 34:0.046770918 35:0.023453897 36:0.012120914 37:-0.085595739 38:-0.053378424 39:-0.020050212 40:-0.026241419 41:-0.061821638 42:0.014794765 43:-0.12349435 44:0.043277818 45:0.081147581 46:-0.050047554 47:-0.022662969 48:-0.057937231 49:-0.014386927 50:-0.0090105622 
1782.8876 1:0.13488359 2:0.0063067434 3:-0.032228401 4:0.03271461 5:0.00096387468 6:-0.06959004 7:0.079556776 8:0.050452556 9:-0.045084059 10:-0.047297396 11:0.10208643 12:0.036611935 13:-0.084158433 14:-0.055037466 15:-0.047838791 16:-0.071857573 17:0.065562343 18:-0.00024195333 19:-0.052581811 20:-0.059473643 21:0.0024149689 22:0.043386713 23:-0.035723967 24:0.091614602 25:-0.039899312 26:-0.077225479 27:-0.030633918 28:0.033982077 29:-0.025010643 30:-0.011117685 31:-0.053888966 32:0.064809636 33:-0.018010131 34:-0.053700799 35:-0.048817315 36:0.0057640403 37:0.010422379 38:0.025435289 39:-0.079830664 40:-0.0165556 41:0.0094495465 42:0.019235132 43:-0.11513981 44:-0.094120132 45:-0.010497367 46:-0.065142605 47:-0.049614356 48:0.090458667 49:0.095332696 50:-0.037831462 
-1782.8876 1:0.10969305 2:-0.013720576 3:0.16624311 4:-0.0055238034 5:0.06027886 6:0.0080277464 7:0.0084355522 8:-0.075947639 9:0.12759519 10:0.027762958 11:0.068056125 12:0.0072065101 13:0.015232534 14:0.097173426 15:-0.077103868 16:-0.010660171 17:-0.059849604 18:0.13893854 19:-0.022477586 20:0.047312146 21:-0.0085570189 22:-0.023337498 23:-0.0096858602 24:0.042560117 25:0.015337374 26:0.048739386 27:0.063834897 28:-0.019739567 29:0.034309655 30:-0.017169017 31:0.050901469 32:0.095220558 33:0.054294655 34:0.053622312 35:-0.20639827 36:0.051928759 37:-0.017007828 38:-0.10531176 39:-0.10178979 40:-0.14243455 41:0.066482222 42:0.042234376 43:0.20134483 44:0.15021266 45:-0.042964904 46:-0.13399899 47:-0.076730521 48:0.064433304 49:0.14084836 50:-0.065193192 
-1782.8876 1:-0.051691863 2:0.033628761 3:-0.082295001 4:0.025835745 5:-0.021654833 6:-0.060768278 7:-0.043784497 8:0.07477074 9:-0.055709827 10:0.028284127 11:0.096323954 12:0.06247646 13:-0.043774284 14:0.0083697067 15:0.0093212437 16:0.032319266 17:0.024922936 18:0.075628791 19:-0.029086534 20:-0.036069666 21:0.038604589 22:0.18523593 23:0.0083501628 24:-0.059641807 25:0.064711326 26:0.0037860162 27:-0.063211468 28:-0.032902654 29:0.023685607 30:-0.022492803 31:-0.087928419 32:0.08034928 33:0.043611137 34:-0.10766115 35:0.093854273 36:-0.050827068 37:-0.045137846 38:0.036531388 39:-0.099942606 40:-0.063263785 41:0.075482158 42:0.014939737 43:-0.02134906 44:-0.026277962 45:-0.041003885 46:0.021236064 47:-0.0027348174 48:-0.063508992 49:-0.00478337 50:0.00038174001 
-1782.8876 1:-0.056192815 2:0.10735313 3:0.028853324 4:0.073576682 5:0.049986008 6:0.015026175 7:0.017571072 8:-0.016812433 9:-0.031284643 10:0.16410009 11:-0.042152706 12:-0.047357938 13:-0.022009187 14:0.015259872 15:-0.075510118 16:0.033095748 17:-0.080157293 18:0.068330084 19:0.0096147699 20:0.024077628 21:0.20154015 22:-0.045813661 23:-0.065953009 24:0.16571944 25:0.034185113 26:0.026774706 27:-0.043140426 28:0.075572364 29:-0.021506925 30:-0.0035998485 31:-0.0002097402 32:-0.00071742309 33:0.024095934 34:-0.075118679 35:0.058883355 36:-0.12412743 37:-0.13127693 38:-0.092571929 39:0.061862979 40:0.017504845 41:0.097641345 42:0.045523521 43:0.0095967675 44:-0.079214887 45:0.053017971 46:0.010169697 47:0.0092994126 48:-0.011769815 49:-0.099315399 50:0.0056251032 
-909.4959205011462 1:-0.25584392 2:0.090513471 3:0.092062625 4:-0.10638746 5:0.000428405 6:0.023557334 7:-0.07188498 8:0.011990498 9:-0.046959373 10:0.031701244 11:0.045416773 12:0.08189267 13:-0.02927634 14:-0.047457848 15:0.050816763 16:-0.059492364 17:-0.0024585024 18:-0.0314027 19:-0.010155845 20:0.056988815 21:-0.10241909 22:-0.031106283 23:-0.0045516996 24:-0.085690201 25:0.049067931 26:-0.0080015944 27:-0.028550209 28:0.029986927 29:-0.056633897 30:0.16976235 31:0.077023884 32:0.065079566 33:0.050764433 34:-0.0058378908 35:-0.047118224 36:0.085090409 37:-0.046868687 38:-0.054844881 39:0.05599103 40:-0.0022386192 41:0.0058664137 42:-0.14040854 43:0.03457302 44:-0.090131102 45:-0.08686373 46:0.20825397 47:-0.1661987 48:-0.020064793 49:-0.033013631 50:-0.071031634 
1782.8876 1:-0.13937437 2:0.090239929 3:-0.01165128 4:0.054367388 5:-0.071841087 6:0.048721444 7:0.0042351639 8:0.014901294 9:0.062602161 10:-0.061202015 11:0.01639659 12:-0.011785804 13:-0.085571465 14:0.091796569 15:-0.043136492 16:0.040157783 17:-0.040756168 18:-0.048782433 19:-0.0075691907 20:0.034323191 21:0.073670914 22:0.047869892 23:-0.016264268 24:0.032757375 25:0.015043434 26:-0.0327645 27:0.012709116 28:-0.045060338 29:-0.002957953 30:-0.01442148 31:0.018070117 32:0.01809055 33:0.070599548 34:-0.038458391 35:-0.10196195 36:0.01672976 37:0.013730623 38:0.029476422 39:-0.028178369 40:0.006667225 41:0.071109555 42:0.058055826 43:0.026193366 44:-0.050977473 45:0.048214114 46:-0.013668457 47:0.0068978028 48:0.076240594 49:-0.033415777 50:0.05430408 
-1782.8876 1:-0.1374525 2:-0.058274957 3:-0.0043302726 4:0.031160029 5:0.037701136 6:-0.04086878 7:0.019836358 8:-0.016521722 9:0.013387611 10:0.038779322 11:-0.021775621 12:0.13671301 13:0.050536449 14:0.067615234 15:0.055615085 16:0.014805879 17:-0.02210693 18:-0.011130952 19:0.023796098 20:0.04383553 21:0.022570043 22:-0.061388047 23:0.037550722 24:0.12931924 25:0.036172258 26:0.040319239 27:0.072711892 28:-0.0048537314 29:-0.027883592 30:0.042501956 31:-0.09632769 32:0.035972482 33:-0.13523989 34:0.031656632 35:-0.028844819 36:0.032997674 37:-0.12134025 38:0.020641636 39:0.035831868 40:0.025915607 41:-0.069132334 42:0.14179984 43:-0.053406767 44:-0.060953533 45:0.074656111 46:-0.045786492 47:0.032800033 48:-0.14128577 49:0.058514178 50:-0.10489273 
-1782.8876 1:0.25007236 2:-0.17592812 3:0.0024421983 4:-0.22948791 5:0.058379014 6:0.03748625 7:0.0029622858 8:-0.11550108 9:0.12758949 10:0.11670771 11:-0.016642367 12:0.035439597 13:-0.11270236 14:0.048553049 15:0.059766111 16:-0.077626317 17:0.00988047 18:0.058616298 19:0.011109927 20:-0.093175402 21:-0.092626225 22:0.10660744 23:-0.11082283 24:0.060173068 25:-0.075317195 26:0.11925077 27:-0.047611925 28:0.12982585 29:-0.014425564 30:0.12266554 31:-0.0046938659 32:0.0011571952 33:-0.11326567 34:0.078402758 35:0.064481938 36:0.046716177 37:-0.096139482 38:-0.0011042508 39:-0.063111014 40:-0.035145823 41:0.027666621 42:-0.095610417 43:0.1054761 44:0.12321245 45:0.078586426 46:0.042102473 47:0.011652411 48:0.053748671 49:0.063870799 50:-0.00057857267 
1782.8876 1:0.024061843 2:0.14185321 3:-0.076392544 4:0.055909223 5:0.02012676 6:-0.01215659 7:-0.066926534 8:0.035450402 9:0.046353665 10:-0.051098661 11:-0.071733277 12:-0.041417631 13:-0.037038823 14:0.022857059 15:-0.12368762 16:0.048734756 17:0.093094749 18:-0.036807071 19:-0.036446694 20:0.035062336 21:0.024233517 22:0.016838477 23:0.028196008 24:0.039086216 25:0.053248152 26:0.088361711 27:-0.023571688 28:-0.026110696 29:0.03514558 30:-0.038602806 31:0.0092521665 32:-0.06831343 33:0.012364109 34:-0.029461833 35:-0.014194251 36:0.062359827 37:0.0028146868 38:-0.0042216441 39:0.02608007 40:0.077993286 41:-0.067625514 42:-0.049866188 43:0.075366928 44:0.013517147 45:0.023679713 46:0.083366578 47:-0.043938782 48:-0.019303635 49:0.040128893 50:0.051576925 
1782.8876 1:-0.063269779 2:-0.045719561 3:-0.087973744 4:0.0053806504 5:-0.048684667 6:0.046610815 7:-0.095244637 8:-0.022572275 9:-0.065706757 10:0.028862808 11:-0.058112272 12:0.048924854 13:0.035565624 14:-0.11889597 15:0.023674892 16:0.082793293 17:-0.046721301 18:-0.020531013 19:0.043082757 20:-0.037590866 21:0.0053536908 22:-0.090916188 23:-0.023704675 24:-0.08594873 25:0.026225487 26:0.0054454718 27:0.050430208 28:0.0097119237 29:-0.038918724 30:0.035868514 31:0.0077909949 32:-0.057270554 33:0.005726737 34:0.016866898 35:0.051933834 36:0.01902261 37:-0.07300261 38:-0.01821143 39:0.034039282 40:0.036415388 41:-0.057754232 42:0.043445198 43:0.049532818 44:-0.10742398 45:0.026972528 46:0.18430665 47:-0.085000362 48:-0.0085200408 49:0.054099009 50:-0.014065295 
-1782.8876 1:0.047649067 2:0.18362899 3:-0.049533739 4:0.034181956 5:0.070025474 6:0.097895671 7:0.031990597 8:-0.076920592 9:-0.063615599 10:-0.01170949 11:0.073166685 12:0.1047098 13:0.062765401 14:-0.00064909092 15:-0.01323334 16:-0.037296699 17:-0.032131641 18:-0.028272527 19:-0.043717727 20:0.04720721 21:0.025320829 22:-0.0044358611 23:0.07944802 24:0.053084664 25:-0.039255034 26:-0.0036482988 27:0.013732059 28:-0.06257183 29:-0.018133062 30:0.057877902 31:-0.040855381 32:-0.034845138 33:0.082038746 34:0.043052799 35:0.019612461 36:-0.095895721 37:-0.00076089624 38:-0.056013711 39:0.013237927 40:-0.0090902701 41:0.094369934 42:-0.012910272 43:0.014504306 44:0.031646431 45:0.0027464146 46:-0.11174348 47:0.027139783 48:0.113695 49:0.057225971 50:-0.078695911 
1782.8876 1:0.0028022162 2:0.1455882 3:-0.051531178 4:-0.013153477 5:0.0052351578 6:-0.04586309 7:-0.023771595 8:-0.024306089 9:-0.0024968573 10:0.047032484 11:-0.04461126 12:0.012285845 13:0.10293397 14:-0.025553206 15:0.10023325 16:-0.035301839 17:0.011889503 18:0.00064434909 19:0.0059555207 20:0.027781829 21:0.061219551 22:-0.0055503319 23:0.0042076356 24:-0.0059660847 25:-0.097656608 26:-0.094292941 27:-0.011394604 28:-0.11918036 29:0.028012355 30:0.040280704 31:0.029635096 32:0.077314062 33:0.028673077 34:-0.01643232 35:0.086184627 36:0.012751809 37:-0.057279001 38:0.050365684 39:-0.068151651 40:-0.026922522 41:0.026089275 42:0.017326764 43:-0.16896965 44:-0.072996874 45:-0.049779696 46:-0.09329791 47:-0.14057972 48:0.026938599 49:-0.020286534 50:0.055038763 
-1782.8876 1:-0.15304416 2:-0.012799332 3:-0.029886666 4:-0.040421508 5:-0.00028655316 6:0.062330566 7:-0.074836857 8:0.031741208 9:0.086451656 10:-0.00081664615 11:-0.030888342 12:0.0051396692 13:-0.037805855 14:0.01941228 15:0.025348954 16:-0.01174937 17:0.031963866 18:0.037011545 19:0.059914887 20:-0.083462612 21:0.018495939 22:-0.035844891 23:-0.015345851 24:-0.054997222 25:0.058496706 26:-0.052942813 27:0.044118727 28:0.04858085 29:-0.016863656 30:0.090066219 31:-0.039910079 32:-0.086011917 33:0.037476145 34:0.017275187 35:0.0036074513 36:0.076807637 37:0.041712958 38:0.10567167 39:-0.014723641 40:-0.028401074 41:0.12181191 42:0.04072452 43:-0.051583858 44:-0.011790553 45:0.046942202 46:0.014741333 47:0.03774834 48:-0.028913601 49:-0.015439852 50:0.02518734 
1782.8876 1:-0.068471508 2:0.088666072 3:-0.014725568 4:-0.011692695 5:-0.044591822 6:-0.00093465567 7:0.14591697 8:-0.03354035 9:-0.04929122 10:0.00057963543 11:-0.049549472 12:0.020341307 13:-0.10931993 14:-0.027114769 15:-0.051917734 16:-0.070396863 17:-0.012334747 18:0.031883286 19:0.090840695 20:-0.014811012 21:0.07111801 22:-0.023550241 23:0.026192962 24:0.020080709 25:-0.026425341 26:0.026996722 27:-0.015315972 28:-0.040706913 29:0.022506275 30:-0.04576511 31:-0.074782779 32:-0.017853711 33:0.0058826601 34:-0.057074954 35:0.024418782 36:0.057006746 37:-0.018040634 38:-0.021227385 39:-0.012054003 40:-0.06622524 41:0.0022895012 42:0.064803201 43:0.0045609966 44:-0.037139026 45:0.006886706 46:0.0045018632 47:-0.003252238 48:-0.00039007309 49:-0.023655575 50:-0.0073364436 
1782.8876 1:0.14917181 2:-0.030632756 3:-0.013520553 4:-0.029789623 5:0.038809465 6:0.11528675 7:0.0140569 8:-0.047178375 9:-0.093872929 10:-0.074859104 11:-0.11688567 12:0.026868931 13:0.1803508 14:0.07052623 15:0.045598596 16:0.10768638 17:0.12556409 18:-0.011773415 19:0.045502382 20:-0.016829472 21:0.072246138 22:0.025082242 23:-0.21220579 24:0.085159276 25:0.11622725 26:0.083984916 27:0.13191448 28:-0.066769737 29:-0.014664866 30:-0.11540649 31:-0.16237252 32:0.071427581 33:-0.066031228 34:-0.00016469247 35:0.11071541 36:-0.053194757 37:-0.054037405 38:0.049262419 39:-0.022805275 40:0.010890623 41:0.025792996 42:0.071798193 43:0.071715768 44:0.041002782 45:-0.032040178 46:-0.076722202 47:0.022036329 48:-0.015744256 49:0.0044565172 50:0.0074959184 
-1782.8876 1:0.19369447 2:-0.050630352 3:0.040784851 4:0.050794853 5:-0.044763376 6:-0.18771116 7:0.076323261 8:0.075016679 9:-0.035486744 10:-0.083433126 11:0.025175932 12:-0.018877768 13:-0.012662612 14:-0.046060479 15:-0.028177731 16:0.055864106 17:0.075130597 18:-0.1452509 19:-0.048499829 20:-0.049637021 21:-0.048712716 22:-0.0044793405 23:0.059630346 24:-0.11506808 25:-0.020828053 26:0.14374743 27:-0.13560331 28:-0.012439796 29:-0.036857272 30:0.068728676 31:-0.062278564 32:0.025755654 33:-0.033608589 34:-0.01533364 35:-0.030716409 36:-0.084032963 37:-0.056230104 38:0.039074134 39:0.01904264 40:0.062068764 41:0.000186696 42:0.037914346 43:-0.048361745 44:0.0029570588 45:-0.14600727 46:-0.036403399 47:-0.080079595 48:-0.0074677936 49:0.09223461 50:-0.015180243 
939.9317300338117 1:0.31672278 2:-0.2865391 3:0.17670125 4:0.20568342 5:-0.34525822 6:0.081629956 7:-0.083181219 8:-0.30145892 9:-0.064234182 10:0.12227988 11:0.21933952 12:-0.24686734 13:-0.036416001 14:-0.013268972 15:0.12223928 16:0.018213864 17:-0.046047767 18:0.1382443 19:0.035166686 20:0.0011894932 21:0.015001108 22:0.058455546 23:0.0092367471 24:-0.10650862 25:-0.014615628 26:0.14713465 27:-0.17056611 28:-0.080129641 29:0.14050306 30:-0.018046062 31:-0.034122181 32:-0.15517763 33:-0.02433293 34:-0.037055824 35:-0.11500216 36:-0.063506968 37:-0.076792179 38:0.099126576 39:0.034675826 40:-0.065921809 41:-0.010680208 42:0.12229092 43:-0.10216085 44:0.031421524 45:-0.068007156 46:-0.068377342 47:-0.030027875 48:0.020728073 49:0.09170349 50:0.12029968 
-1782.8876 1:-0.10640529 2:0.097749414 3:0.08493843 4:0.0029061298 5:-0.025432353 6:0.041222008 7:0.023501392 8:-0.036272052 9:-0.044472801 10:-0.019049829 11:0.14185823 12:0.027070448 13:-0.15238327 14:-0.014497535 15:-0.098050433 16:0.10399116 17:-0.031846399 18:0.093966009 19:0.032530446 20:-0.015307076 21:-0.011175697 22:-0.043662512 23:0.09603304 24:-0.066895865 25:0.061082617 26:-0.0607523 27:0.03244947 28:-0.0050525891 29:0.14452123 30:-0.030372705 31:-0.0056061082 32:-0.0065394267 33:-0.048571359 34:-0.056505914 35:0.11431677 36:-0.062477519 37:-0.064979849 38:-0.053714984 39:0.021313229 40:0.020279349 41:0.067323981 42:-0.0066435388 43:0.093343712 44:-0.0032062174 45:-0.17480323 46:-0.028629077 47:-0.14764983 48:-0.014503533 49:-0.058679236 50:-0.057502487 
-1782.8876 1:-0.20894555 2:0.080676481 3:0.024048383 4:-0.030024006 5:0.044881632 6:-0.012132487 7:-0.096079139 8:0.019936825 9:0.013440332 10:-0.076848592 11:0.046620751 12:0.04750662 13:0.048849424 14:-0.10102581 15:0.030249668 16:-0.029084337 17:-0.036997068 18:-0.049385086 19:-0.033040265 20:0.057175663 21:0.082466933 22:-0.036468566 23:0.04656532 24:0.063745139 25:0.064601701 26:0.12009708 27:-0.011958111 28:0.1350473 29:-0.048813449 30:0.098556449 31:0.0093752331 32:-0.03792594 33:0.011296608 34:-0.10196758 35:0.0020999816 36:-0.048632105 37:-0.05601328 38:0.037726891 39:-0.019369142 40:-0.036282009 41:-0.011494196 42:-0.041802445 43:0.077904568 44:-0.011235863 45:-0.019843554 46:-0.044105062 47:-0.15637346 48:0.026270489 49:-0.025840832 50:-0.043700362 
-1782.8876 1:-0.18944269 2:0.01749894 3:0.13961164 4:-0.10876084 5:0.034101754 6:-0.03450264 7:0.0094202186 8:-0.11179362 9:-0.030091466 10:-0.024740861 11:0.048071696 12:-0.035551065 13:0.018556793 14:-0.03351627 15:0.02623226 16:0.041492786 17:0.049313333 18:-0.072394551 19:0.076927664 20:0.018552384 21:0.030154504 22:-0.053740413 23:-0.06789179 24:0.099497171 25:-0.063202737 26:0.049191128 27:-0.012606941 28:0.13199529 29:-0.12842191 30:-0.14331289 31:0.10952962 32:0.072221705 33:0.035675149 34:-0.01434729 35:-0.12576414 36:-0.054255096 37:-0.072114988 38:-0.076880685 39:0.021779901 40:-0.027857993 41:0.00043343559 42:0.062948298 43:-0.10692565 44:-0.041455439 45:-0.049664285 46:-0.15270783 47:0.095511099 48:0.047382036 49:-0.018863169 50:-0.10534603 
13.5482631016178 1:0.019318461 2:0.0095493416 3:0.016959198 4:0.087938211 5:0.15262175 6:0.089542514 7:-0.0082035271 8:-0.028368645 9:-0.094985027 10:-0.0060182093 11:-0.075918133 12:0.098540175 13:0.093077523 14:-0.059523081 15:-0.015194924 16:-0.11277346 17:-0.1425175 18:-0.11704557 19:0.003220626 20:-0.16733166 21:0.032108547 22:-0.1450701 23:0.0008080933 24:0.036390637 25:0.064531893 26:-0.10218263 27:0.14645025 28:-0.10647466 29:0.034530349 30:-0.064105523 31:0.072565429 32:-0.019588259 33:0.03817721 34:-0.025405425 35:-0.021221878 36:-0.16031976 37:-0.063434207 38:-0.00079681326 39:0.058369881 40:-0.086415791 41:-0.012681643 42:-0.013468234 43:-0.021526911 44:-0.048243237 45:0.014315039 46:-0.013260712 47:0.044469694 48:-0.089062472 49:0.094275178 50:-0.005017382 
1782.8876 1:0.21262293 2:-0.072616637 3:0.044893039 4:-0.025862037 5:0.0470737 6:0.0878419 7:0.066221304 8:0.15260713 9:-0.10081133 10:-0.10431699 11:0.069490791 12:0.034330187 13:0.097992219 14:-0.024063637 15:-0.079225516 16:-0.23916863 17:-0.00030923243 18:0.042962805 19:0.064814077 20:0.025428936 21:-0.077321788 22:-0.036373925 23:0.047956979 24:-0.030200806 25:0.048189031 26:0.10130718 27:0.05217996 28:0.056201537 29:0.080053038 30:0.0032760454 31:-0.017740625 32:0.17924355 33:-0.014942841 34:0.075875539 35:0.15278574 36:0.02344789 37:-0.092874592 38:0.014135039 39:0.0081141429 40:0.037824122 41:-0.032126927 42:-0.16444554 43:0.12636303 44:0.0794808 45:-0.0096417704 46:-0.033936544 47:-0.0070637298 48:0.033253823 49:-0.0475841 50:-0.018997125 
-1782.8876 1:-0.17640097 2:-0.058844202 3:0.072662587 4:-0.006791604 5:0.014848945 6:-0.072741575 7:-0.0035589891 8:0.020720365 9:0.090951861 10:0.014276974 11:0.015197572 12:-0.077022329 13:-0.051332587 14:0.029113339 15:-0.030870204 16:0.005002407 17:0.10754527 18:0.025956585 19:0.0010950462 20:-0.021819186 21:-0.069215928 22:-0.043739182 23:-0.10553229 24:-0.0002399034 25:0.0010971266 26:0.070859293 27:-0.015166755 28:-0.022994382 29:0.014868005 30:-0.004529487 31:-0.040728724 32:-0.16797978 33:0.012171634 34:-0.060605168 35:0.013547913 36:0.0031934975 37:-0.027555199 38:0.091113954 39:-0.0083777724 40:0.065522633 41:-0.037430955 42:-0.1116789 43:-0.065509151 44:0.17319524 45:0.043623895 46:-0.0081253394 47:-0.01470696 48:0.028891784 49:-0.07474996 50:0.023457031 
486.1724805179203 1:-0.15800482 2:0.15606693 3:0.067864038 4:-0.008921679 5:-0.04096898 6:0.025470728 7:0.00044027409 8:0.093747868 9:0.063903043 10:0.026605886 11:0.059405752 12:0.017021965 13:0.051275365 14:-0.029060514 15:-0.027605036 16:-0.056331411 17:0.024787467 18:-0.039767449 19:0.060606164 20:0.0017530044 21:0.0030139446 22:0.027794315 23:0.032226022 24:-0.050053224 25:0.026804252 26:0.021527404 27:-0.0037684581 28:0.02441758 29:0.045868168 30:-0.0085206717 31:-0.074063382 32:-0.031822074 33:-0.093395153 34:0.03094643 35:0.043996152 36:-0.03322585 37:-0.02369853 38:-0.014362538 39:0.0091570849 40:0.010725859 41:-0.12342999 42:0.015738263 43:-0.045684055 44:0.075816146 45:-0.027336871 46:-0.091405324 47:-0.10400819 48:0.041881318 49:-0.012564209 50:-0.0060231496 
1782.8876 1:-0.20406134 2:0.14018547 3:0.15889884 4:-0.069904682 5:0.021634964 6:-0.022646578 7:0.046369926 8:0.014174127 9:-0.071530009 10:0.015806724 11:0.0071243952 12:-0.073758095 13:0.12434647 14:0.065333898 15:0.084102191 16:-0.0047245691 17:0.061733644 18:0.0070141667 19:0.0017799712 20:-0.053248415 21:-0.024874054 22:-0.0095532617 23:0.014388973 24:0.07963066 25:-0.018331566 26:0.032729038 27:0.016513175 28:-0.10074912 29:0.042575495 30:0.0073514531 31:-0.032360359 32:-0.12809841 33:0.012880549 34:-0.10717334 35:0.01709588 36:-0.01414249 37:0.019004019 38:0.06907292 39:-0.012779628 40:0.038836698 41:0.036929894 42:-0.0072169516 43:0.0043464391 44:0.018726345 45:0.069747293 46:0.0062918951 47:-0.098683738 48:0.1387268 49:-0.00046565348 50:0.025617596 
-1782.8876 1:-0.13782818 2:0.087692947 3:0.035703393 4:0.046348566 5:0.044522003 6:-0.010902541 7:-0.046853821 8:-0.042073169 9:-0.023700827 10:-0.013803498 11:-0.0025290749 12:0.0087104233 13:0.039547554 14:0.018407795 15:0.10077425 16:0.088242252 17:0.050600685 18:0.068516117 19:0.038061395 20:0.015900604 21:0.045988774 22:0.082699591 23:0.0071705858 24:-0.063357893 25:0.03824845 26:-0.070784123 27:0.016309138 28:-0.030989633 29:-0.034685755 30:-0.019705386 31:0.058866947 32:0.006744574 33:0.0060282699 34:-0.049674354 35:-0.012123213 36:-0.011049568 37:0.0074012275 38:-0.033769416 39:-0.088164266 40:0.029333603 41:0.029203166 42:0.0097721526 43:0.11315089 44:0.021447493 45:-0.065562759 46:0.03248019 47:0.10019585 48:-0.066956369 49:0.035426272 50:0.05771057 
1782.8876 1:0.12539699 2:-0.068573322 3:-0.081538609 4:-0.074996526 5:-0.125833 6:0.053175389 7:-0.028670593 8:0.1699134 9:0.15698998 10:-0.058931181 11:0.076518302 12:-0.032607124 13:0.072721201 14:-0.026484917 15:0.0030025693 16:0.039717803 17:-0.025130707 18:0.01537775 19:0.096778743 20:-0.08774084 21:0.014523833 22:0.0043627305 23:0.069530104 24:0.017170372 25:-0.098653339 26:-0.04735969 27:-0.11013101 28:0.0070540266 29:0.042526121 30:-0.021929065 31:-0.13138958 32:0.060148717 33:-0.11356717 34:0.044864755 35:0.07726653 36:-0.053734065 37:-0.021903112 38:-0.038245781 39:0.038770537 40:-0.0088459995 41:-0.0069043982 42:0.07977946 43:0.048368247 44:0.062302778 45:0.10546195 46:-0.063338315 47:-0.076022879 48:0.056593525 49:0.094511551 50:0.053753792 
1042.205191093412 1:-0.15221849 2:0.025603975 3:0.079300637 4:0.029212151 5:0.050462874 6:0.042425989 7:0.0056297715 8:-0.027839025 9:0.1055594 10:0.088209036 11:-0.093577889 12:-0.084380144 13:-0.13506502 14:-0.017174847 15:0.022812821 16:-0.012123354 17:-0.023863435 18:0.010121498 19:-0.074030966 20:-0.031161156 21:0.036982289 22:0.028998692 23:-0.032780662 24:-0.067651475 25:-0.022696841 26:0.086441773 27:0.055492868 28:0.098669127 29:0.063205903 30:-0.019201291 31:0.098978317 32:-0.023076812 33:-0.004503108 34:0.045287753 35:0.11450572 36:0.04017652 37:-0.096543352 38:0.054358519 39:0.014429176 40:-0.041944431 41:0.0094828164 42:-0.051432086 43:-0.026851945 44:-0.1220238 45:-0.07351898 46:-0.01328522 47:0.028070948 48:0.032718391 49:0.053562616 50:0.044273739 
-1782.8876 1:0.029502318 2:0.033511407 3:-0.078034781 4:-0.071230765 5:-0.011367281 6:-0.0037332062 7:-0.010918778 8:-0.0082947523 9:-0.090269714 10:-0.090411095 11:0.021378639 12:-0.046775886 13:-0.011014543 14:0.097614295 15:0.060666933 16:0.020112811 17:-0.040235056 18:-0.089040912 19:0.040457388 20:0.07498782 21:0.020352292 22:0.00025689946 23:-0.049742723 24:0.084821747 25:-0.054848152 26:0.00025750069 27:-0.0080098949 28:-0.010141947 29:0.044362276 30:0.038519786 31:0.083278591 32:0.041709237 33:0.12030848 34:0.041234817 35:-0.017511616 36:-0.05727219 37:0.03097641 38:0.013211618 39:-0.058249275 40:-0.020746508 41:0.070097948 42:0.056251969 43:-0.031048774 44:0.063096409 45:-0.083196145 46:0.055042123 47:0.077475249 48:-0.024077143 49:0.077860525 50:0.013360098 
-1782.8876 1:0.10299562 2:-0.045774439 3:-0.002212856 4:0.094813057 5:0.036872958 6:-0.14512175 7:0.083663592 8:-0.081086843 9:-0.14615707 10:-0.12074383 11:-0.084909186 12:-0.095244658 13:-0.019687939 14:0.17932456 15:0.03784846 16:-0.1553089 17:-0.1516083 18:-0.12497194 19:0.079015654 20:0.06200911 21:-0.18640673 22:0.003813433 23:0.062559006 24:0.10768232 25:-0.12654435 26:0.024610497 27:-0.11340393 28:0.031436895 29:-0.092601229 30:0.10989608 31:0.22511703 32:-0.021170128 33:-0.034432694 34:-0.0016972022 35:0.07580126 36:-0.073525711 37:0.16844617 38:0.046338545 39:0.048287182 40:-0.0047346326 41:-0.026883249 42:0.025920871 43:0.0032223546 44:0.12667823 45:0.01097514 46:0.033490917 47:0.085881519 48:-0.061294196 49:-0.00036906327 50:0.092530139 
1782.8876 1:0.1860537 2:-0.0096645307 3:-0.019462559 4:0.048855054 5:-0.13103257 6:-0.14487196 7:0.065319298 8:-0.026512463 9:-0.058248491 10:-0.017773575 11:-0.0046488282 12:0.16415561 13:-0.042645682 14:-0.0088862653 15:0.084368261 16:-0.049899997 17:0.059777353 18:0.063245762 19:0.028063969 20:0.047326436 21:-0.039879134 22:-0.08144233 23:-0.017624353 24:-0.0058315103 25:0.047125286 26:0.052723182 27:0.032510004 28:0.095090292 29:-0.080527873 30:-0.0010984417 31:-0.11024419 32:0.022130861 33:0.064947852 34:0.032541634 35:-0.064603903 36:-0.0089821354 37:-0.029840573 38:0.083905082 39:-0.056981098 40:0.0037795149 41:0.025455837 42:0.058324588 43:0.015538273 44:0.11747985 45:0.12714417 46:0.04736366 47:0.0060944802 48:-0.017731105 49:-0.06105222 50:-0.1397447 
1782.8876 1:-0.14964611 2:0.14036713 3:0.023178661 4:0.078608142 5:0.017716706 6:-0.07012121 7:0.034870017 8:-0.070239151 9:-0.0058866229 10:0.062984506 11:-0.052109672 12:-0.024049656 13:-0.030250576 14:0.060236959 15:-0.0067683111 16:-0.0071786469 17:0.065764324 18:-0.0045115859 19:0.03724149 20:0.10940738 21:0.042844871 22:-0.088015725 23:-0.016874453 24:0.0018058648 25:-0.034167777 26:0.061575954 27:-0.056791783 28:-0.063769506 29:-0.0072795121 30:0.016828818 31:-0.058963981 32:0.10166809 33:0.010087145 34:-0.028343056 35:0.019061048 36:0.037014772 37:-0.083896029 38:-0.005172807 39:0.077202282 40:0.063473856 41:-0.054095172 42:-0.049793611 43:0.051763201 44:-0.087624946 45:0.0016960736 46:-0.028112534 47:-0.0012812016 48:0.038724142 49:-0.032598191 50:-0.012973394 
-1695.160621499501 1:0.16952916 2:-0.043487469 3:-0.1292153 4:-0.16233337 5:0.02088918 6:-0.087114607 7:-0.016658961 8:-0.098537788 9:-0.025088608 10:0.10065883 11:0.027506502 12:-0.036528526 13:-0.032755931 14:0.060920672 15:-0.10618805 16:0.21468821 17:-0.12063947 18:-0.086696013 19:-0.06844433 20:-0.060618236 21:-0.039586338 22:-0.1118957 23:-0.046480594 24:0.12666744 25:0.082726112 26:-0.061846179 27:0.10802772 28:0.035010263 29:0.078352539 30:0.12798496 31:0.075838054 32:0.032603863 33:0.0091666258 34:-0.0058431673 35:-0.093885914 36:0.023464087 37:-0.10680946 38:-0.068406781 39:0.00028881226 40:0.014928775 41:-0.048107381 42:-0.035516827 43:-0.078002539 44:0.035054708 45:0.026578162 46:-0.077196335 47:0.12717086 48:0.0059431226 49:0.061410933 50:-0.029628354 
1782.8876 1:0.1248533 2:-0.049204509 3:-0.089671972 4:-0.033673425 5:-0.063767674 6:0.16160452 7:0.042094215 8:0.06425512 9:-0.072022536 10:0.017570779 11:0.18029342 12:-0.02486787 13:-0.07969555 14:0.16451345 15:0.11217827 16:-0.019395482 17:-0.073081673 18:-0.10757151 19:-0.013218344 20:-0.013081023 21:0.071971673 22:0.034676772 23:0.21337348 24:0.22286871 25:-0.073479436 26:-0.037150177 27:0.01730172 28:0.13363821 29:-0.031826886 30:0.027751965 31:-0.042271072 32:-0.0003916432 33:0.10322086 34:-0.023713992 35:-0.01529925 36:-0.13727906 37:-0.046742506 38:-0.11310878 39:0.0029086299 40:-0.077137394 41:0.035793434 42:-0.099023807 43:0.065198765 44:-0.0013460582 45:0.04600063 46:0.10092842 47:-0.024717524 48:0.018577005 49:-0.0030278915 50:-0.027745195 
-1782.8876 1:0.037492943 2:0.085408146 3:-0.013524123 4:-0.055640842 5:0.04036675 6:0.10496723 7:0.00067780582 8:0.003245375 9:0.087991269 10:-0.036685498 11:-0.095382899 12:-0.17227811 13:-0.078439116 14:-0.11917375 15:-0.15884716 16:-0.070677734 17:0.16043096 18:0.027557666 19:-0.15214484 20:-0.013289801 21:0.028063438 22:-0.014453628 23:0.029350164 24:0.10289052 25:-0.039297137 26:0.075509246 27:0.030308474 28:0.022131033 29:0.10501936 30:-0.0089082418 31:-0.14171227 32:-0.016565486 33:0.072496118 34:-0.1104304 35:-0.06758743 36:-0.10120767 37:-0.12347587 38:-0.0056599193 39:0.065511254 40:0.0040666032 41:-0.099708738 42:-0.1538128 43:0.070815616 44:0.036101633 45:0.16635115 46:-0.022540909 47:0.03554311 48:0.053224118 49:0.1679061 50:0.041097158 
1782.8876 1:0.12379839 2:-0.064422718 3:0.16108773 4:0.05137031 5:-0.036641803 6:-0.061101884 7:-0.060263675 8:-0.010335701 9:-0.0020863143 10:0.023556582 11:-0.082131103 12:-0.093608799 13:0.064075328 14:-0.032995758 15:0.038520639 16:0.042848673 17:0.0049759098 18:0.040230282 19:-0.07828226 20:-0.033985684 21:-0.036605329 22:0.034032812 23:0.040444382 24:-0.16264584 25:-0.018099765 26:0.07519304 27:-0.030486101 28:0.0062671416 29:-0.024326183 30:0.10664241 31:0.024586174 32:0.0034336838 33:0.075462396 34:0.013566727 35:-0.046279115 36:0.06068922 37:-0.013650885 38:-0.015656512 39:0.064974689 40:-0.018890674 41:5.1308073e-006 42:-0.014416125 43:0.044337097 44:-0.046425867 45:0.015798103 46:-0.040531631 47:0.052270895 48:-0.00055725529 49:0.089209548 50:0.10256426 
-1782.8876 1:-0.17255605 2:-0.17975999 3:0.066169501 4:-0.13563797 5:0.008566305 6:-0.029391898 7:0.082308973 8:-0.045871131 9:-0.099342811 10:-0.0014048556 11:-0.024035289 12:-0.029995017 13:-0.0045238181 14:-0.043622732 15:-0.0051993408 16:-0.082381793 17:0.05423445 18:0.021505013 19:0.02304035 20:0.032191305 21:-0.069352872 22:0.040781836 23:-0.024668573 24:0.022253353 25:0.031707109 26:-0.057260431 27:-0.015285412 28:-0.030831399 29:-0.02195138 30:0.032016982 31:-0.12137439 32:-0.052084654 33:0.014920658 34:-0.04143596 35:0.044044414 36:-0.073034309 37:-0.070735969 38:0.048417084 39:-0.065763893 40:0.029743544 41:0.01162837 42:-0.090847379 43:0.017129952 44:-0.0049091178 45:-0.0024756507 46:0.0068148567 47:0.031374956 48:-0.056726042 49:-0.0040460659 50:0.10631952 
-1782.8876 1:-0.1807956 2:0.043376976 3:0.10179306 4:-0.014211271 5:0.038718296 6:-0.011751198 7:-0.041088307 8:-0.034068419 9:0.0050684651 10:-0.0027654329 11:-0.045498867 12:0.041119143 13:-0.1053975 14:-0.069912087 15:0.006802733 16:0.010248124 17:0.051714658 18:0.0084650638 19:0.057926439 20:0.036542877 21:0.055859148 22:0.012582672 23:0.032001254 24:-0.03609104 25:-0.080681312 26:0.010311789 27:0.032503071 28:-0.10553711 29:-0.026634339 30:-0.14600165 31:0.10574119 32:0.02187549 33:-0.0085163197 34:-0.04405184 35:-0.043875358 36:-0.068220716 37:-0.2712515 38:-0.057138505 39:-0.096864813 40:-0.039410726 41:0.099042046 42:-0.0034415003 43:0.004995365 44:-0.024604316 45:-0.014403823 46:-0.085159023 47:0.0083131105 48:0.045373391 49:-0.023749277 50:-0.031174939 
-384.3804799503284 1:0.13804567 2:-0.03726642 3:0.037149708 4:-0.012537519 5:0.062317968 6:-0.028634644 7:0.032597728 8:0.042439026 9:0.072953955 10:0.063527005 11:-0.0091868486 12:0.19437945 13:0.056418123 14:-0.10406171 15:-0.017027297 16:0.085953951 17:0.17981962 18:0.035252287 19:-0.16868473 20:0.058475958 21:-0.027868619 22:0.0097996864 23:0.037978575 24:0.046669171 25:0.03065275 26:-0.0065395804 27:-0.045971512 28:0.11278388 29:-0.002204117 30:0.020044833 31:-0.1101889 32:0.075107381 33:0.013786068 34:-0.074411219 35:-0.022521236 36:-0.037692856 37:0.038838534 38:-0.10040525 39:-0.040506151 40:-0.020461101 41:0.0032573828 42:0.082920881 43:-0.032600143 44:-0.085065146 45:-0.031962173 46:0.085062259 47:0.11381319 48:-0.056674274 49:-0.036951967 50:-0.076293713 
-1074.237399954253 1:0.22524272 2:-0.084474407 3:-0.082495788 4:-0.13759913 5:0.037569063 6:0.024565353 7:-0.027619574 8:0.12625021 9:0.038011531 10:0.035313807 11:0.039509464 12:0.10640892 13:0.03103812 14:-0.0083983856 15:0.20962308 16:0.061506242 17:0.078996901 18:0.133234 19:0.011510646 20:-0.073637681 21:0.070032709 22:-0.039713051 23:-0.12621419 24:0.018471399 25:0.021565528 26:0.0048386748 27:0.040656541 28:-0.16936549 29:0.017588277 30:0.2780317 31:0.019781644 32:0.011887249 33:0.093273119 34:0.032235449 35:0.098768735 36:0.12212358 37:-0.14259338 38:0.037550135 39:0.028243084 40:-0.0056300448 41:0.05831191 42:0.023648455 43:0.10506116 44:-0.11817027 45:0.053521961 46:-0.065148801 47:0.093625785 48:-0.076297529 49:-0.060958177 50:-0.068960446 
-378.4398453167708 1:0.1513814 2:-0.0019858402 3:-0.096154677 4:-0.072881066 5:0.026886875 6:-0.01488609 7:0.078023136 8:-0.050905704 9:0.1024744 10:0.03611633 11:0.044178573 12:-0.078305216 13:0.068544485 14:-0.0078515531 15:-0.0020391954 16:0.015137716 17:-0.015713304 18:-0.021267997 19:0.067558471 20:-0.12928665 21:0.035442366 22:-0.0047377223 23:0.031788817 24:-0.040799559 25:0.067039206 26:-0.11487903 27:-0.0009340173 28:-0.058220448 29:-0.082828185 30:0.023791321 31:2.9506055e-005 32:-0.0071896302 33:0.07982289 34:-0.076569864 35:-0.10143288 36:-0.0069725541 37:-0.19037243 38:-0.16208131 39:-0.046413605 40:0.0085901652 41:0.021451337 42:-0.097585706 43:0.018434912 44:-0.052614867 45:0.0059210455 46:0.11239434 47:0.0895108 48:-0.056654485 49:0.032811287 50:-0.023381473 
-1748.866174533998 1:0.22236875 2:-0.15340188 3:0.0995103 4:-0.011233663 5:0.30884929 6:0.28441515 7:0.2846867 8:-0.32538504 9:-0.017079319 10:0.10428383 11:0.13471538 12:-0.10319149 13:0.073956419 14:-0.18445245 15:-0.082764801 16:0.043658259 17:-0.052177798 18:-0.058975453 19:0.043011136 20:0.1376084 21:-0.045345345 22:0.14112158 23:0.10110576 24:0.13490959 25:0.011013529 26:-0.015153292 27:-0.10254629 28:0.052904647 29:-0.05577921 30:0.044329736 31:-0.12341407 32:0.066219866 33:0.078101496 34:-0.02545548 35:0.058617178 36:-0.095378124 37:0.001941063 38:0.0023723887 39:0.020826435 40:-0.032315506 41:0.0061314492 42:0.0096977726 43:0.056090458 44:0.017798695 45:0.010990066 46:0.089953662 47:-0.048736768 48:-0.074348064 49:-0.060562354 50:-0.023653559 
681.7153111012472 1:-0.00043250436 2:0.14961726 3:-0.15676675 4:-0.025835688 5:-0.023401311 6:0.010894665 7:0.02002943 8:0.016530066 9:0.064629381 10:0.0057732177 11:0.065957759 12:-0.10450269 13:0.063748911 14:-0.14065445 15:-0.043159255 16:-0.040538293 17:0.071581997 18:0.011412837 19:0.25993794 20:0.0093071711 21:-0.14737652 22:0.073999585 23:0.091991847 24:-0.13854158 25:-0.044698545 26:0.17731227 27:0.19766045 28:-0.0010878335 29:0.039527245 30:-0.1018545 31:0.016345028 32:-0.12994542 33:0.036366559 34:-0.02203238 35:-0.0042053873 36:-0.085055512 37:0.016855552 38:-0.060184514 39:0.065203235 40:-0.064328919 41:0.010115007 42:0.096730713 43:0.10525705 44:-0.019542352 45:0.013301706 46:0.048603924 47:-0.081565104 48:-0.06434642 49:-0.016108645 50:-0.07273312 
1782.8876 1:-0.010862119 2:-0.025200185 3:-0.055593314 4:0.043408257 5:-0.0094130515 6:-0.017830705 7:0.013256242 8:-0.02264994 9:-0.090832222 10:-0.12880245 11:-0.066690989 12:0.016984243 13:-0.019725648 14:-0.075103261 15:0.039219409 16:0.044301522 17:-0.013917071 18:0.14188607 19:0.086963047 20:-0.024119523 21:0.081912976 22:-0.049363656 23:0.07653464 24:-0.032249765 25:0.03769815 26:0.075116087 27:-0.012898452 28:-0.060026439 29:-0.025931441 30:-0.09270629 31:0.020549215 32:0.039884678 33:0.090351294 34:0.047423343 35:0.095000715 36:0.0061276581 37:-0.024777379 38:-0.062786266 39:0.12338515 40:-0.005693503 41:0.057275474 42:0.051049445 43:-0.081872104 44:-0.011317571 45:0.036272758 46:0.1103364 47:-0.0037686643 48:-0.034158266 49:-0.010903441 50:0.027874244 
1782.8876 1:0.14053947 2:0.046288361 3:-0.038318986 4:-0.021817622 5:-0.069326269 6:-0.031861484 7:-0.0055133145 8:-0.014349772 9:-0.049039308 10:0.09589508 11:-0.063382507 12:0.01887243 13:-0.078218307 14:0.014311523 15:0.00621258 16:0.016494451 17:0.014966079 18:0.041086168 19:0.040638087 20:-0.034838819 21:-0.055986021 22:0.011830175 23:-0.045114894 24:0.048446857 25:0.031924686 26:-0.02082091 27:-0.055636449 28:0.018438 29:0.0047600935 30:0.0035572053 31:0.01514797 32:0.045302545 33:0.017597174 34:-0.019061547 35:0.025901503 36:0.0002945566 37:-0.0088222826 38:0.025087301 39:0.08333512 40:-0.0020580006 41:-0.034835296 42:0.10172936 43:0.059729587 44:-0.045787283 45:0.027583893 46:0.0067972037 47:-0.034879539 48:-0.020062693 49:-0.0033135298 50:-0.021461558 
239.1573884214337 1:-0.053059188 2:0.15379416 3:0.042214176 4:0.034331921 5:-0.0098418377 6:-0.08427339 7:-0.064510148 8:-0.055422593 9:-0.088553973 10:0.0807253 11:0.079653427 12:-0.029089473 13:0.054104086 14:-0.08806376 15:-0.036888659 16:0.050099449 17:0.044043531 18:0.008546897 19:0.020475937 20:0.031286171 21:0.022705127 22:-0.091909672 23:0.014946327 24:0.092915821 25:-0.034460384 26:-0.040133469 27:0.0062312608 28:0.11916832 29:-0.010722478 30:-0.018075329 31:-0.0094603796 32:0.059774122 33:-0.016468033 34:0.013380772 35:-0.16318032 36:-0.011635294 37:0.024156229 38:0.085654446 39:-0.058407096 40:-0.082420615 41:0.003880712 42:0.093667003 43:0.035542423 44:-0.0047211564 45:0.042940787 46:0.010566502 47:-0.069857774 48:-0.033565218 49:-0.010873087 50:0.11025299 
-1616.705247760083 1:0.34917466 2:-0.2296409 3:0.15008714 4:0.10704669 5:0.12457707 6:0.062587508 7:-0.05366521 8:-0.071718349 9:0.048286338 10:0.015084815 11:-0.096226754 12:0.18637337 13:0.039199711 14:0.16842917 15:-0.086454806 16:0.10914883 17:-0.01652383 18:-0.065281574 19:0.13184149 20:-0.23002965 21:0.086937282 22:0.038310385 23:0.29986399 24:0.12340643 25:-0.0050624385 26:0.032337851 27:0.10276531 28:-0.020845378 29:-0.11135851 30:-0.19113168 31:0.052594892 32:0.057291681 33:0.047217067 34:0.013708304 35:-0.055857571 36:-0.14703078 37:0.071077844 38:0.12839068 39:0.0671262 40:0.049791884 41:-0.10287516 42:-0.0071596752 43:-0.044234922 44:-0.014955393 45:-0.15995419 46:-0.0059929965 47:0.12580404 48:-0.055040602 49:0.0063106755 50:-0.18476056 
1782.8876 1:-0.31731275 2:-0.34685178 3:-0.013204446 4:-0.076589596 5:0.081918475 6:-0.057562188 7:-0.032561849 8:-0.15004137 9:-0.015327956 10:-0.20418073 11:-0.018367616 12:-0.0001722926 13:-0.054515764 14:-0.041341004 15:-0.10284876 16:0.036637289 17:-0.050853761 18:-0.10542206 19:-0.049279437 20:0.04187405 21:0.12273716 22:0.058558442 23:0.043345898 24:0.038115404 25:-0.10858178 26:-0.033680905 27:-0.047246461 28:0.023154494 29:-0.069067668 30:-0.11505076 31:-0.077810949 32:-0.020070142 33:0.010235123 34:-0.13015985 35:-0.041793825 36:-0.060629827 37:-0.041254742 38:-0.009013638 39:0.099813284 40:-0.0084656085 41:0.068896699 42:0.013041614 43:-0.0073683142 44:0.037801974 45:-0.028112349 46:-0.02975777 47:0.020007634 48:-0.093042904 49:0.11683994 50:0.03392791 
1782.8876 1:0.11874862 2:-0.013199953 3:-0.057225206 4:-0.080580173 5:0.090889465 6:-0.19740662 7:-0.057199093 8:-0.027644096 9:0.18977555 10:-0.24736837 11:0.0046859848 12:0.054139286 13:-0.14935989 14:-0.046717975 15:0.04543947 16:-0.11891263 17:0.039894977 18:-0.0025935509 19:-0.10708609 20:0.018486927 21:-0.037700903 22:0.011390848 23:0.030603036 24:0.047725124 25:0.079733183 26:0.065759861 27:0.12714986 28:-0.009125202 29:0.027863251 30:0.0086662411 31:0.13236224 32:-0.061363335 33:-0.011986854 34:-0.036333363 35:0.081064963 36:-0.021382369 37:-0.058404651 38:-0.060011625 39:-0.0037748496 40:0.10913223 41:0.06236861 42:-0.056343697 43:0.0023491661 44:-0.10425025 45:-0.073386045 46:-0.12613748 47:-0.08188795 48:-0.01662059 49:-0.098645482 50:-0.010274653 
-1782.8876 1:-0.052273959 2:0.20068681 3:-0.076816321 4:0.090392212 5:-0.05857618 6:0.010739038 7:-0.015030005 8:0.076610038 9:0.02280405 10:-0.056995466 11:-0.047508226 12:-0.01188774 13:-0.017698349 14:0.062363176 15:-0.056270639 16:-0.00060017137 17:-0.019492284 18:-0.082379586 19:0.010722623 20:0.041164441 21:0.016414609 22:0.12807576 23:-0.08582758 24:0.040622198 25:0.087224433 26:0.045929425 27:0.075755918 28:0.0078699909 29:0.00080874122 30:0.036050827 31:-0.065052841 32:-0.055087285 33:-0.041234265 34:-0.041874726 35:0.024218568 36:0.062130498 37:0.0034000783 38:0.086441344 39:0.045705842 40:-0.026255325 41:0.079021546 42:-0.065788159 43:-0.03481049 44:-0.04138114 45:0.016686553 46:0.024399513 47:-0.11704572 48:-0.069167276 49:-0.050246226 50:-0.0097035882 
1782.8876 1:0.010369123 2:-0.058361781 3:-0.017498735 4:-0.039570517 5:-0.0087143993 6:-0.044042079 7:-0.0039047554 8:-0.054071863 9:-0.087008496 10:0.045589565 11:-0.069500325 12:0.0431889 13:0.026795575 14:-0.08686182 15:-0.028470362 16:-0.026566585 17:-0.049330243 18:0.094169745 19:-0.0058622816 20:0.057999472 21:-0.011813588 22:-0.058819239 23:0.04136947 24:0.042504829 25:-0.018331204 26:0.017790035 27:-0.073559592 28:-0.0051333448 29:0.058473488 30:0.0080990774 31:0.019204979 32:-0.038782472 33:-0.052819172 34:-0.017022321 35:-0.075093701 36:0.0053646685 37:0.093349728 38:0.040926272 39:0.011992938 40:0.03010998 41:0.020177635 42:-0.087381615 43:0.089165458 44:0.0075593966 45:0.030681839 46:-0.0022477503 47:0.0019036962 48:0.019772898 49:0.0090168647 50:-0.035199547 
-1782.8876 1:-0.039391382 2:0.027251675 3:0.024285071 4:0.052558393 5:0.020199664 6:0.0014552159 7:0.048926609 8:-0.0033712092 9:-0.00010851208 10:-0.10406388 11:-0.062700978 12:0.069762516 13:-0.018610827 14:0.029732641 15:-0.10895065 16:0.056054297 17:-0.033443367 18:-0.014296656 19:0.01745321 20:0.11865319 21:0.021553168 22:0.011590913 23:0.032984794 24:-0.19281941 25:-0.099631355 26:0.013573895 27:-0.063845757 28:-0.073755934 29:-0.0366173 30:0.0059341864 31:-0.091044816 32:-0.024267208 33:0.014064932 34:0.029728287 35:-0.087034702 36:0.0634854 37:-0.065533471 38:0.018505961 39:-0.021992661 40:-0.13826358 41:0.053058985 42:0.013605366 43:0.010370859 44:0.0055875032 45:0.060350142 46:0.10188182 47:-0.053856762 48:0.039363461 49:0.0016449637 50:0.05825058 
-1782.8876 1:0.021840775 2:0.054208926 3:0.0025704413 4:0.068806697 5:0.050765124 6:0.0019113738 7:-0.031260558 8:0.011707427 9:-0.027347057 10:-0.011156834 11:-0.029911642 12:-0.027118646 13:-0.0010562241 14:0.045022309 15:0.027138708 16:0.011224017 17:0.06876129 18:-0.047855498 19:-0.073119906 20:0.012688845 21:0.008704634 22:0.064947883 23:0.027408793 24:0.019221961 25:-0.028879819 26:0.011611097 27:0.02898276 28:0.011633252 29:-0.099601115 30:0.0034371652 31:-0.033356651 32:0.049892494 33:-0.005428255 34:0.064510815 35:-0.027935282 36:0.071304081 37:0.0098838335 38:0.017209452 39:0.0069107023 40:0.020482027 41:-0.028355167 42:-0.0090945714 43:0.07380463 44:-0.017752355 45:0.037100248 46:-0.021012634 47:0.088335333 48:-0.11217545 49:-0.036981487 50:-0.0081389046 
1782.8876 1:-0.072902651 2:0.1467695 3:0.026453253 4:-0.041319761 5:0.01731251 6:-0.068867845 7:0.13626951 8:0.019991871 9:-0.024408756 10:0.053436883 11:-0.052407399 12:-0.033727068 13:0.015639471 14:0.0083231897 15:0.054474832 16:-0.073792738 17:-0.089573568 18:0.03271717 19:0.028540767 20:0.055200137 21:0.075883701 22:0.058362808 23:-0.071969358 24:-0.019957557 25:-0.035581417 26:0.16810899 27:0.017306159 28:-0.079789025 29:0.042240842 30:0.0010011164 31:0.021835721 32:-0.038092021 33:0.105126 34:-0.071763864 35:-0.00010269227 36:0.03794819 37:0.024890525 38:0.039392848 39:0.061817072 40:-0.013175018 41:0.038197768 42:0.026830049 43:0.0033889913 44:0.042324377 45:0.12621324 46:-0.029641322 47:-0.16804359 48:-0.053705032 49:-0.087968693 50:-0.074465757 
-1504.74602637074 1:-0.24813576 2:-0.22054222 3:0.034938496 4:-0.12622482 5:0.037305372 6:0.065083809 7:0.0022315602 8:0.062455711 9:0.01562011 10:-0.10187022 11:-0.0037482448 12:0.016406838 13:0.020424347 14:0.014477843 15:0.0027429091 16:0.063204472 17:-0.012593005 18:0.03195505 19:-0.05108681 20:-0.003145827 21:0.016803787 22:0.062688017 23:-0.0021632482 24:-0.060385438 25:-0.048225673 26:0.04431375 27:0.058836126 28:0.066302073 29:0.068350943 30:-0.12484749 31:-0.0070823538 32:-0.02810698 33:-0.020273879 34:0.054042213 35:-0.03640137 36:0.068017217 37:0.026752783 38:0.1435572 39:-0.0013089183 40:0.061116168 41:0.017348137 42:0.0061803134 43:0.061777693 44:0.014787774 45:-0.064011587 46:-0.041015371 47:-0.087735524 48:-0.0094083614 49:0.012695004 50:0.019375774 
-1782.8876 1:-0.11281859 2:-0.096094322 3:-0.022293153 4:-0.061901697 5:-0.041143748 6:-0.054478158 7:0.03118779 8:0.0080645077 9:-0.094080124 10:-0.016436039 11:0.019246123 12:-0.022426822 13:0.023463206 14:0.02061537 15:-0.00062498569 16:0.016192572 17:0.041446686 18:0.048061641 19:-0.13822266 20:0.04547257 21:-0.04276077 22:-0.029278483 23:0.058633386 24:0.055051767 25:-0.035452675 26:0.0068768188 27:0.099711689 28:-0.10941556 29:0.045495601 30:0.020870334 31:-0.071177565 32:0.08950878 33:-0.015935825 34:0.040059327 35:-0.022405843 36:-0.013959075 37:0.04044145 38:-0.018824806 39:-0.011747674 40:0.078537058 41:0.024032866 42:0.082679038 43:-0.04018958 44:0.034975428 45:0.11648464 46:-0.042386357 47:0.012577463 48:0.0073465219 49:0.029598753 50:0.033195887 
-1782.8876 1:0.14505083 2:0.12649603 3:-0.040481194 4:-0.049822507 5:0.0086878485 6:-0.10970923 7:-0.067614084 8:-0.0037065995 9:-0.009890192 10:-0.006657734 11:0.013458549 12:0.0208094 13:0.019011947 14:-0.060592098 15:0.035093478 16:-0.051950638 17:0.060920502 18:0.0021722973 19:-0.082375625 20:0.068753158 21:-0.059003028 22:0.045614317 23:-0.077909038 24:0.031059391 25:-0.025325001 26:-0.03528101 27:0.013083953 28:0.016585348 29:-0.07950997 30:0.060530476 31:0.073307417 32:-0.014642384 33:-0.019197528 34:-0.020159916 35:0.0068497745 36:-0.040563469 37:0.026312469 38:-0.076858796 39:0.013471032 40:-0.034193675 41:-0.080732971 42:0.071658399 43:0.013144388 44:-0.03682093 45:0.027969432 46:0.097484516 47:0.025775859 48:-0.0052770075 49:0.070138044 50:0.084482288 
-1782.8876 1:-0.24910214 2:-0.16819806 3:-0.014819107 4:-0.046734674 5:-0.029324874 6:0.046681114 7:-0.024142399 8:0.058401852 9:-0.0066368095 10:-0.023377091 11:-0.06707139 12:0.15288415 13:-0.13722653 14:-0.059378279 15:0.012349267 16:0.068331664 17:0.054624811 18:-0.07594475 19:0.054507321 20:0.020156128 21:0.075524777 22:0.096758853 23:0.0010255034 24:-0.11093475 25:0.036574823 26:0.058217026 27:0.028851962 28:-0.11549436 29:0.0051714898 30:-0.030086427 31:-0.0069705607 32:-0.010964566 33:0.026344305 34:0.0064085277 35:0.079825855 36:-0.065368102 37:0.0077031107 38:-0.033124279 39:0.085994998 40:-0.037111692 41:0.0057885906 42:-0.042378936 43:0.1024083 44:-0.034638257 45:0.043733182 46:-0.033423978 47:0.014145822 48:-0.077339155 49:-0.041906107 50:-0.014419223 
-1782.8876 1:-0.11390125 2:0.021530399 3:-0.010349722 4:-0.035558184 5:-0.024710706 6:0.042305647 7:-0.072360733 8:0.057997879 9:0.14539675 10:0.025747044 11:0.062839989 12:-0.0051859985 13:-0.039890692 14:0.02116739 15:-0.064425898 16:0.095223749 17:-0.02723076 18:-0.062680688 19:0.10680808 20:-0.084108488 21:0.0011320502 22:0.0033933321 23:0.056855008 24:-0.0088304928 25:-0.062669336 26:0.007410297 27:-0.10586814 28:-0.065387378 29:-0.02470044 30:-0.037328237 31:-0.067943987 32:0.067944083 33:0.037119346 34:0.056437283 35:-0.060532261 36:-0.045964579 37:0.0025083555 38:-0.023528872 39:0.0065476903 40:0.04921908 41:-0.0065981418 42:-0.078104356 43:-0.072791299 44:0.063447511 45:-0.033251982 46:0.0050381981 47:-0.032910037 48:-0.0011956454 49:0.10689856 50:-0.074232058 
-1199.332877099988 1:0.48863386 2:-0.27464253 3:0.30658652 4:-0.13130656 5:-0.72766959 6:-0.16092473 7:0.57821056 8:-0.12327626 9:0.16175501 10:-0.066782355 11:-0.2937345 12:0.23279735 13:-0.1042821 14:-0.19527649 15:-0.16510834 16:-0.074695456 17:-0.018337499 18:-0.16723442 19:-0.11748922 20:-0.14829942 21:-0.032574968 22:0.014887918 23:0.069303437 24:-0.018922368 25:0.027976268 26:-0.020102012 27:0.084738974 28:0.00014154615 29:0.010031921 30:-0.041925318 31:-0.090770664 32:0.11422573 33:-0.15399592 34:-0.05846151 35:-0.038338834 36:-0.097981726 37:0.19746092 38:-0.24583895 39:-0.10805782 40:0.0085159948 41:0.079561501 42:-0.055067545 43:-0.12644244 44:0.067651928 45:-0.018521043 46:0.078074354 47:0.057234083 48:-0.10899199 49:0.030116015 50:0.025951719 
1782.8876 1:-0.16169709 2:0.010817035 3:0.043747202 4:-0.0062768898 5:-0.10712335 6:0.042700325 7:-0.058222766 8:-0.0043734147 9:0.0089188258 10:-0.068388501 11:0.04449203 12:0.045173278 13:-0.023798201 14:0.005910862 15:0.025918585 16:-0.00053303543 17:-0.046901831 18:-0.008544689 19:-0.012866411 20:-0.050144119 21:-0.04931987 22:0.042841695 23:0.064502882 24:-0.049449203 25:0.050620245 26:0.10588576 27:-0.090481779 28:0.05340377 29:-0.10533918 30:0.016098682 31:-0.0093748969 32:-0.019077215 33:-0.072538748 34:0.039673884 35:0.066652539 36:0.058861688 37:-0.0042383906 38:-0.034849314 39:0.037337896 40:-0.072426261 41:0.023197013 42:-0.14074702 43:0.046555534 44:-0.017044762 45:-0.19546166 46:0.086160809 47:-0.020804665 48:-0.043840712 49:0.0058495325 50:0.083656475 
-1782.8876 1:-0.20618508 2:-0.065084162 3:0.018250858 4:-0.038842439 5:0.020823519 6:0.021433709 7:0.14546653 8:-0.02756646 9:-0.041715159 10:0.07627762 11:0.0024107527 12:-0.085480852 13:0.029356055 14:-0.091291199 15:-0.076258545 16:-0.067689815 17:0.10686213 18:-0.036753178 19:-0.024696768 20:-0.15242601 21:-0.060633318 22:-0.06810638 23:-0.025180155 24:-0.019447387 25:0.035207036 26:-0.06122486 27:-0.056459891 28:-0.053032175 29:0.058178426 30:0.013157838 31:-0.076211373 32:-0.05992273 33:0.086083959 34:-0.13498498 35:0.057841252 36:0.075779935 37:-0.015456665 38:-0.020928697 39:-0.054444505 40:0.14221073 41:0.064843074 42:-0.15387583 43:0.061583513 44:-0.011363866 45:0.09653493 46:0.086637909 47:0.085600809 48:0.061865403 49:-0.0078434277 50:0.037912837 
-1782.8876 1:0.13507426 2:0.0084718168 3:-0.14225045 4:-0.097589362 5:0.093747634 6:-0.035311817 7:-0.0099635105 8:0.087659288 9:-0.037077033 10:-0.027072154 11:0.027064763 12:0.035514729 13:-0.023608916 14:0.021445294 15:-0.14436641 16:0.0052162162 17:0.023978632 18:0.090584181 19:0.038092023 20:0.015561793 21:-0.0035858656 22:0.076790424 23:0.057930811 24:-0.025966796 25:-0.065985288 26:-0.07481466 27:-0.043434575 28:0.080050975 29:-0.0034239032 30:-0.076285763 31:0.029052442 32:0.06725169 33:0.018087389 34:0.00098191443 35:0.026268277 36:-0.054782602 37:-0.14895553 38:-0.068416157 39:-0.061943091 40:-0.099691261 41:-0.024279661 42:0.033976503 43:0.0015576986 44:0.029105227 45:-0.024181182 46:0.068029682 47:0.062252813 48:-0.0038823005 49:-0.043052622 50:0.056401329 
-1782.8876 1:-0.076254236 2:0.027603437 3:-0.034092546 4:-0.038859715 5:-0.0081798842 6:-0.069214378 7:-0.036835407 8:0.015888995 9:-0.03487103 10:0.022482452 11:-0.052611319 12:-0.052338043 13:-0.026549338 14:-0.058847206 15:-0.0087288624 16:-0.025255741 17:-0.013308664 18:-0.023311889 19:-0.022083042 20:0.027797186 21:-0.012835769 22:0.0031636788 23:-0.049821694 24:0.04033202 25:-0.0074191093 26:-0.11548206 27:-0.022328249 28:0.0057891888 29:0.11893477 30:-0.06333038 31:-0.014603718 32:-0.034576511 33:0.071904079 34:-0.019708401 35:0.026447823 36:0.029253854 37:-0.074224187 38:-0.0010284002 39:0.0027808043 40:0.083310246 41:-0.028009775 42:0.023221209 43:-0.071703218 44:0.0598591 45:-0.063196956 46:0.053097407 47:-0.025804488 48:-0.030620484 49:0.061604715 50:0.083264168 
-1782.8876 1:-0.13116943 2:0.14769953 3:0.0076589399 4:0.017560173 5:-0.0095047009 6:-0.010577298 7:0.011615943 8:0.047644236 9:-0.015576821 10:0.022442433 11:-0.029754698 12:-0.082567596 13:0.0068144384 14:0.041992273 15:-0.035433307 16:-0.054613455 17:0.041671267 18:-0.033590196 19:0.037904707 20:-0.034598114 21:-0.0044670404 22:0.025694476 23:0.050604823 24:0.074409638 25:-0.065285884 26:-0.072034479 27:0.020019536 28:-0.055834897 29:0.048404889 30:0.036108288 31:0.030406822 32:0.053548109 33:-0.018481767 34:0.01513678 35:-0.022199812 36:-0.0061647673 37:-0.046258385 38:0.0019708567 39:0.043866818 40:0.0068893819 41:-0.0040859148 42:0.046947841 43:0.032442032 44:0.011466223 45:0.0082830861 46:-0.020390999 47:0.015195697 48:0.024637735 49:0.069456883 50:0.047503287 
-1782.8876 1:-0.1262057 2:-0.10998821 3:0.10472202 4:-0.15339357 5:0.0077869937 6:0.027344396 7:-0.043787553 8:-0.051340364 9:-0.10858758 10:-0.020690747 11:0.0520665 12:0.000703721 13:0.054160182 14:-0.0084525388 15:-0.073333804 16:-0.12511082 17:0.02773461 18:-0.11277214 19:0.040283033 20:-0.037822518 21:-0.023025056 22:0.019825312 23:0.029074329 24:0.089611589 25:-0.046498428 26:-0.12898181 27:0.06820355 28:-0.033618974 29:-0.044523515 30:-0.014598135 31:-0.074714261 32:0.019472139 33:-0.049181464 34:-0.07699615 35:-0.042725035 36:-0.015308018 37:0.022011259 38:-0.0065163445 39:0.17423654 40:0.044319293 41:0.029997926 42:0.088926627 43:0.017330342 44:-0.038045652 45:0.063842 46:-0.050959164 47:0.011599434 48:0.063696116 49:-0.03262994 50:0.021576601 
-1782.8876 1:-0.15060722 2:0.082448926 3:0.091507358 4:0.049727023 5:0.016298392 6:-0.013325308 7:0.015672206 8:0.02060179 9:0.039656449 10:-0.0088981566 11:0.048587616 12:-0.093203529 13:-0.041161261 14:0.098630882 15:0.058376353 16:0.030901133 17:0.0033678351 18:-0.00060268405 19:0.027719058 20:-0.0016151367 21:-0.07494216 22:-0.034195232 23:-0.025586434 24:0.013733903 25:0.096678286 26:0.015954546 27:0.031338011 28:0.010928085 29:-0.042532999 30:0.010552427 31:-0.0096469963 32:0.026534191 33:-0.00027582437 34:0.00546144 35:-0.06594406 36:0.052810281 37:-0.00039429369 38:-0.038464876 39:0.041672323 40:0.024288199 41:0.0063085437 42:0.044400819 43:-0.048234077 44:0.016019883 45:0.0021879123 46:-0.033070223 47:0.015565637 48:-0.064470141 49:-0.072191068 50:0.1155819 
-1782.8876 1:-0.16315879 2:0.092503653 3:0.049964507 4:-0.02364658 5:-0.044051618 6:0.0026690972 7:-0.009315463 8:-0.017180057 9:-0.017361271 10:0.074366012 11:-0.084987531 12:-0.043951479 13:-0.057497198 14:0.012728153 15:0.0046981875 16:0.012540174 17:-0.082805231 18:-0.019552924 19:0.011542615 20:-0.014792152 21:0.078434063 22:-0.11776475 23:-0.010031792 24:0.027295841 25:-0.035359113 26:0.0039762584 27:-0.0055842475 28:-0.021140373 29:-0.074032055 30:-0.12608987 31:-0.011262753 32:0.10277441 33:0.0077870667 34:-0.050197075 35:0.0089617494 36:-0.034367504 37:0.067729257 38:0.12184956 39:-0.1059484 40:-0.014253232 41:-0.04294833 42:0.10007345 43:-0.014636191 44:0.018962615 45:0.058578819 46:0.045240008 47:-0.12482665 48:0.058573183 49:0.0029030955 50:0.022858593 
1782.8876 1:0.099174956 2:0.10445763 3:0.0025658275 4:0.057308338 5:0.086111213 6:-0.05993176 7:0.053391446 8:0.04034234 9:-0.07568138 10:-0.023054092 11:0.023481372 12:0.012353644 13:0.072374437 14:-0.014267461 15:-0.03601816 16:-0.073512738 17:-0.1114629 18:-0.070848353 19:-0.0056795487 20:-0.050905953 21:0.043263635 22:0.021607548 23:-0.038613318 24:0.0051807829 25:0.1323973 26:-0.048338973 27:0.097385743 28:0.070616228 29:0.057773495 30:0.077006908 31:0.074307729 32:0.018406449 33:-0.066957193 34:-0.041271642 35:0.0017348542 36:-0.022619896 37:0.088090059 38:0.007921333 39:0.027757463 40:-0.031592633 41:0.08205374 42:-0.0081431494 43:-0.042930574 44:-0.088599234 45:-0.0079807274 46:-0.0044338269 47:-0.059157828 48:-0.055989521 49:-0.018195257 50:-0.016452599 
1782.8876 1:0.035274679 2:0.097557726 3:-0.06726481 4:-0.023436052 5:0.010448983 6:0.030097082 7:-0.021300169 8:-0.070794111 9:0.05228914 10:0.068187122 11:-0.0077803335 12:0.022035161 13:0.052638383 14:-0.013917282 15:0.011326905 16:-0.05521383 17:0.033430621 18:0.046269181 19:0.0045722925 20:-0.051061732 21:-0.0053327982 22:0.025496125 23:-0.037732749 24:0.023690054 25:-0.053369759 26:0.076273888 27:0.043736006 28:-0.0043726977 29:0.046549875 30:0.054747204 31:-0.01385101 32:-0.024652594 33:-0.017343886 34:0.064190049 35:-0.11958872 36:0.0021560871 37:0.033590695 38:-0.0411001 39:0.015267878 40:-0.017458947 41:-0.013916544 42:-0.05322381 43:-0.0017947162 44:0.061357736 45:0.035692236 46:-0.0062439489 47:-0.062392103 48:-0.037362745 49:-0.037106538 50:0.0656544 
-1782.8876 1:0.15655379 2:-0.055046634 3:0.00024106703 4:-0.02736965 5:-0.0061485605 6:0.065660182 7:-0.033030228 8:0.03117524 9:0.013129026 10:-0.10342796 11:-0.071403472 12:-0.020897928 13:-0.10395169 14:-0.079457554 15:0.036510456 16:0.0062079755 17:0.049786053 18:-0.056137624 19:-0.059543976 20:-0.010974943 21:-0.010537023 22:-0.024206196 23:-0.033472293 24:0.0065673119 25:-0.084699813 26:-0.1046814 27:0.042739803 28:-0.013803468 29:-0.0095142347 30:0.045933709 31:0.083090915 32:-0.051998034 33:-0.062617786 34:0.043094827 35:-0.01369225 36:0.027075991 37:0.016008131 38:-0.086740432 39:0.012973069 40:-0.042382366 41:-0.092915129 42:-0.062097481 43:0.0077293568 44:-0.048103969 45:0.075581453 46:-0.0074312306 47:0.0046772996 48:0.018185131 49:-0.097938191 50:0.08448836 
1782.8876 1:-0.14850859 2:0.13124518 3:0.028309599 4:0.05405736 5:-0.037100908 6:0.051275366 7:0.063215775 8:-0.016715069 9:0.0068123003 10:-0.033528989 11:-0.045151535 12:-0.051998855 13:0.017951998 14:0.055931007 15:-0.034495005 16:-0.092257501 17:-0.077312608 18:-0.09778199 19:-0.02281379 20:0.030871263 21:0.079795112 22:0.067988382 23:-0.021429418 24:0.079189321 25:0.0040553251 26:0.061070898 27:-0.014606791 28:-0.005639856 29:0.035245582 30:0.1359277 31:-0.12400645 32:-0.015364813 33:-0.01759405 34:-0.066849581 35:-0.053029489 36:0.078810666 37:0.020684353 38:0.069928058 39:0.016400971 40:0.061246304 41:0.085920563 42:-0.067553283 43:-0.020085182 44:0.0096195431 45:0.0077611785 46:-0.055618621 47:0.039297265 48:0.052854934 49:0.019710046 50:-0.065621576 
1782.8876 1:0.094068788 2:0.12056645 3:0.013711036 4:0.016023957 5:0.023477719 6:-0.0782491 7:-0.013153522 8:-0.00024525015 9:0.042574904 10:0.006661421 11:-0.091662859 12:0.045805405 13:-0.019675008 14:-0.0014826602 15:0.018736888 16:0.015754396 17:0.021378434 18:0.03754744 19:0.043343904 20:0.0029434644 21:0.01767956 22:0.11808074 23:-0.015598552 24:-0.0085154811 25:-0.063096099 26:-0.047772151 27:0.0098765825 28:0.024463001 29:0.021771702 30:0.038846758 31:0.035802272 32:0.01512343 33:-0.061773227 34:-0.064202281 35:0.014531806 36:0.016391597 37:0.022556834 38:0.032981504 39:0.018916333 40:-0.10613722 41:0.055064085 42:-0.068299267 43:-0.031066155 44:-0.1465203 45:0.075314129 46:0.041882634 47:-0.017778349 48:-0.014431342 49:-0.016314516 50:0.0083881519 
-1782.8876 1:-0.065404728 2:0.12783174 3:0.10536792 4:0.080801493 5:-0.027448282 6:-0.018356497 7:0.029778863 8:0.028675469 9:-0.017445113 10:0.022345666 11:0.069578783 12:0.061664307 13:-0.009337563 14:0.049087344 15:0.050460909 16:0.017914649 17:-0.10396224 18:0.026887997 19:0.069809192 20:0.0040772672 21:-0.00034399312 22:-0.023507432 23:0.0050919618 24:0.072033726 25:0.024625348 26:-0.0062660089 27:0.031865761 28:0.046037132 29:0.047883353 30:0.047861482 31:-0.028589332 32:0.004259423 33:-0.011554577 34:-0.052296384 35:0.023967517 36:0.073757369 37:-0.013607995 38:-0.017164035 39:-0.051610511 40:0.081746388 41:-0.062069253 42:-0.045503157 43:-0.060321644 44:-0.0062223073 45:-0.098486576 46:0.013767725 47:-0.041970138 48:0.052098072 49:0.022057419 50:-0.019688223 
-771.0377201951443 1:0.23293055 2:0.096621891 3:-0.039733459 4:0.053084734 5:0.20594864 6:-0.33279056 7:-0.066323328 8:-0.12199017 9:0.17260767 10:-0.097054466 11:0.0086496276 12:0.0070165641 13:-0.11393732 14:-0.043394854 15:0.11910264 16:-0.14050258 17:0.0071226892 18:-0.049181673 19:-0.086753347 20:-0.025341828 21:-0.14225097 22:-0.10207252 23:0.14709276 24:0.11986923 25:-0.01295069 26:0.062301016 27:0.085063851 28:-0.086828569 29:-0.012807668 30:0.079018529 31:-0.063310968 32:0.047765894 33:0.029207509 34:-0.015213468 35:0.052897697 36:-0.023316928 37:-0.035997687 38:-0.059540781 39:-0.022260437 40:-0.042082972 41:0.021038547 42:-0.040056248 43:0.10225705 44:0.00090798495 45:-0.098907874 46:-0.031048249 47:0.0027579684 48:0.099946153 49:0.051466234 50:-0.044724284 
-1782.8876 1:-0.17170154 2:-0.20421456 3:-0.020054336 4:-0.026112828 5:-0.060338347 6:-0.036740417 7:0.05413702 8:0.056371355 9:0.082334949 10:-0.077873289 11:0.062039185 12:-0.12105159 13:-0.14598998 14:0.054477285 15:-0.085485717 16:0.039522212 17:0.071899432 18:0.0042251687 19:0.065439103 20:-0.098293406 21:-0.062996032 22:0.062015754 23:0.031138806 24:0.024898675 25:0.18428604 26:-0.15999389 27:0.092688084 28:0.039099446 29:0.12716556 30:7.5734623e-005 31:-0.081073793 32:-0.009627046 33:0.075186246 34:0.030312718 35:0.013461842 36:-0.084371577 37:-0.16853817 38:0.036786665 39:0.18371792 40:-0.095109246 41:-0.019428947 42:0.15547025 43:-0.028029198 44:0.014383123 45:0.065611165 46:-0.038967966 47:-0.043284931 48:-0.044560506 49:0.030215874 50:-0.0010712228 
-1782.8876 1:-0.10011557 2:0.058008595 3:-0.068332439 4:0.11128098 5:-0.028907052 6:-0.060582373 7:0.045866513 8:-0.01793627 9:0.066411985 10:0.051655227 11:0.051270239 12:0.0032724135 13:-0.082586814 14:-0.0029470187 15:-0.038002454 16:0.0048630401 17:-0.060120112 18:0.019017619 19:-0.070760253 20:0.13533641 21:-0.046608394 22:-0.0085038238 23:0.046971856 24:-0.017363259 25:0.053804611 26:0.020333885 27:0.012264915 28:0.14280658 29:0.0087188446 30:-0.0041598237 31:0.033358568 32:-0.12095241 33:-0.0073224193 34:-0.010073414 35:0.10178144 36:-0.05491168 37:0.0055957424 38:0.048975488 39:0.036716613 40:0.084378299 41:0.02828014 42:0.075246079 43:-0.01809841 44:-0.060208633 45:-0.016042087 46:-0.097985218 47:-0.0011080263 48:-0.082988541 49:0.1081682 50:0.083015691 
1782.8876 1:-0.02921475 2:0.039004252 3:0.019264328 4:0.01608557 5:-0.01340117 6:0.0087246958 7:-0.050514763 8:0.0055233863 9:0.035383018 10:0.025923257 11:-0.17045896 12:-0.053106742 13:-0.016135797 14:-0.00030783774 15:0.0063260304 16:-0.081866297 17:0.02763599 18:0.002576226 19:0.059695387 20:-0.029710196 21:0.0087673254 22:-0.023047013 23:0.019216619 24:-0.016800953 25:-0.018299511 26:0.0059998059 27:0.011847982 28:0.029252294 29:0.0048390822 30:-0.014322664 31:0.0032343068 32:-0.05034922 33:0.076094514 34:0.0027952899 35:0.016484857 36:-0.0036667011 37:0.076683337 38:0.074721894 39:0.048415189 40:0.017909497 41:-0.057471062 42:-0.02521106 43:0.064616232 44:-0.02967905 45:-0.064498934 46:0.024655632 47:0.066512778 48:-0.035367271 49:0.097937259 50:-0.058866457 
1782.8876 1:0.155672 2:-0.048107241 3:-0.041881233 4:-0.099532599 5:0.034397768 6:-0.020434887 7:0.00019444473 8:0.017366444 9:0.035060652 10:-0.046167771 11:0.0022565196 12:-0.025536021 13:0.10088214 14:-0.10188165 15:-0.073069894 16:0.0081544971 17:0.025097941 18:-0.09352175 19:0.10981809 20:-0.091307373 21:0.01879636 22:-0.012106979 23:0.024379199 24:-0.012140344 25:-0.010524939 26:0.0077867104 27:-0.12994138 28:-0.058296239 29:0.057778938 30:0.071823094 31:-0.051112686 32:-0.0092495621 33:-0.055850581 34:-0.01167916 35:0.010517705 36:-0.030339151 37:-0.091340184 38:-0.012648247 39:-0.066003955 40:0.0020897207 41:0.071926893 42:-0.043323025 43:-0.01460238 44:-0.047366184 45:0.0082083629 46:-0.011034868 47:0.040954918 48:0.052330873 49:-0.047491995 50:0.076010894 
-1782.8876 1:0.0054621753 2:0.14196306 3:-0.004881794 4:-0.0022573261 5:-0.00018083761 6:0.053963407 7:-0.00035462241 8:-0.062762984 9:0.000673034 10:0.015044461 11:-0.060378382 12:-0.025555054 13:0.017833065 14:-0.0080665053 15:-0.05832081 16:-0.055605107 17:-0.011934592 18:0.10231955 19:0.06665729 20:-0.017588133 21:0.053542414 22:-0.06753823 23:-0.0065140483 24:-0.038068058 25:0.0057797748 26:-0.072059953 27:-0.016427931 28:-0.036966528 29:0.023671264 30:0.068421683 31:0.036099775 32:-0.05648431 33:0.061409922 34:-0.068518547 35:-0.016865205 36:-0.030805187 37:0.045782697 38:-0.017908061 39:-0.095548173 40:-0.085048347 41:0.040991117 42:0.081164542 43:-0.022509065 44:-0.031553481 45:-0.073762687 46:-0.037068715 47:0.0027869839 48:0.059380768 49:-0.051588448 50:0.060987922 
-188.309401115826 1:0.13974501 2:0.049058682 3:-0.10475578 4:0.0036944945 5:0.010986803 6:-0.0065761679 7:0.04536437 8:0.05788859 9:0.0014852747 10:0.065980372 11:0.13986972 12:0.020336251 13:-0.08218285 14:-0.076514612 15:-0.032291466 16:-0.018518742 17:0.03858285 18:-0.0013769482 19:-0.016643323 20:0.0026857171 21:0.056962962 22:-0.032987741 23:-0.054910949 24:-0.0091394122 25:-0.033371899 26:-0.018051751 27:0.13981508 28:-0.01294609 29:0.13264291 30:-0.0096616363 31:-0.12131228 32:-0.027032537 33:0.074775407 34:0.043322889 35:0.082247388 36:-0.0099639229 37:-0.012855203 38:0.028495718 39:-0.13069055 40:-0.060589789 41:0.065589234 42:-0.055313086 43:0.033460412 44:0.054980085 45:-0.058004418 46:-0.045891295 47:-0.00019736057 48:-0.073205847 49:-0.018569027 50:-0.01807813 
-1782.8876 1:-0.14824892 2:-0.080745696 3:0.070415679 4:-0.046891598 5:-0.0094979859 6:0.067631709 7:-0.0079568254 8:0.0064475649 9:0.002159839 10:-0.006852318 11:-0.006711875 12:0.026071254 13:-0.078346518 14:0.084356951 15:0.054557738 16:0.0017713848 17:-0.035411569 18:-0.038781787 19:0.067050451 20:0.036877374 21:0.048646913 22:-0.019903657 23:-0.07169884 24:-0.0089413536 25:0.042259449 26:0.036363212 27:-0.023250592 28:0.074301316 29:-0.034624028 30:-0.032040591 31:0.090376955 32:0.032316274 33:-0.033798307 34:0.044972616 35:-0.048294702 36:-0.0090444023 37:0.020462941 38:-0.0090136189 39:0.059013895 40:-0.06003055 41:0.057720086 42:0.016025932 43:0.017301293 44:-0.045951329 45:-0.048779988 46:-0.011867128 47:-0.043706111 48:-0.047443796 49:-0.0096974254 50:0.029601701 
-1782.8876 1:0.072004236 2:0.11904495 3:0.023866705 4:0.070509733 5:-0.093051569 6:0.028782548 7:-0.03745026 8:0.064642239 9:0.077206859 10:0.010252103 11:-0.20903457 12:-0.025594822 13:-0.0050204591 14:0.065444992 15:0.038392758 16:-0.055506253 17:-0.065085293 18:-0.040087188 19:0.046826642 20:-0.036182916 21:0.0023473163 22:-0.073659148 23:0.048974574 24:0.1138138 25:0.099134279 26:-0.0076077413 27:-0.064788627 28:0.013176139 29:-0.052514384 30:0.035854072 31:-0.051844284 32:0.022800708 33:0.01252465 34:0.0071240597 35:-0.024670689 36:0.01653818 37:-0.0077213078 38:0.028047204 39:0.043188835 40:0.028314332 41:0.0051656955 42:0.044833186 43:0.02884567 44:0.043185979 45:-0.021384426 46:0.088305565 47:-0.057962777 48:-0.014457954 49:-0.026175001 50:-0.033318288 
1782.8876 1:-0.017129197 2:0.044695438 3:-0.047889022 4:-0.079218706 5:0.0062117974 6:-0.039172955 7:-0.028451237 8:-0.08122089 9:0.06564715 10:0.039868185 11:-0.085794836 12:0.018258384 13:-0.11120129 14:-0.0045508956 15:0.017791355 16:-0.017167777 17:0.080421714 18:-0.0042031225 19:0.0048607153 20:-0.0046139941 21:0.0078426081 22:0.085969574 23:0.014827338 24:-0.024775475 25:0.061897985 26:-0.037644265 27:-0.066857075 28:-0.05935722 29:0.10050512 30:-3.0962598e-005 31:0.10838796 32:0.015418706 33:0.061858323 34:0.051755938 35:0.040752841 36:0.045064353 37:0.023712723 38:-0.11379972 39:-0.047795213 40:0.072852602 41:0.043525327 42:0.0017859206 43:0.15216055 44:-0.017371574 45:0.065709064 46:-0.03823029 47:0.066188033 48:-0.0049110317 49:0.0090742377 50:0.1140062 
-1782.8876 1:0.24897891 2:-0.11485492 3:-0.015759903 4:-0.10451548 5:0.023522506 6:0.081871657 7:0.001321354 8:0.065703272 9:-0.0036484893 10:0.079934824 11:-0.089144605 12:-0.16865646 13:0.075962412 14:0.1088785 15:-0.063176302 16:-0.10531047 17:-0.086933686 18:0.10945818 19:0.040845595 20:-0.042559984 21:-0.10247817 22:-0.0023292032 23:0.047006985 24:-0.025447487 25:-0.14202212 26:0.15165426 27:-0.015627398 28:-0.022609967 29:-0.096500218 30:-0.015968779 31:-0.049934065 32:-0.055265151 33:-0.074683815 34:0.04431415 35:0.1358642 36:-0.15742052 37:-0.0062682243 38:0.09459261 39:-0.18299244 40:-0.011417664 41:0.017841602 42:0.081598668 43:-0.077213012 44:0.069548453 45:-0.040785028 46:0.072346611 47:0.12441537 48:0.020159731 49:0.099568955 50:-0.0061687257 
-1782.8876 1:0.086691753 2:0.18352618 3:-0.085254773 4:0.087830776 5:0.010147693 6:-0.062622473 7:-0.097593877 8:0.030544606 9:0.071510781 10:-0.027260024 11:-0.054988774 12:-0.15066782 13:0.036054757 14:0.010503665 15:-0.0082038526 16:0.023768384 17:0.0289841 18:-0.055756532 19:0.062035095 20:0.0021857653 21:0.038481134 22:0.081491758 23:-0.027248705 24:0.07107211 25:0.032567579 26:-0.096301123 27:-0.084408577 28:0.046192464 29:-0.060619907 30:-0.030136487 31:-0.074504492 32:0.073317698 33:-0.022055995 34:0.028616399 35:-0.049832741 36:-0.11391883 37:0.027903445 38:0.04004775 39:0.013703621 40:0.029449481 41:0.087195611 42:-0.030429753 43:0.049384544 44:-0.042623187 45:-0.034889879 46:0.023619593 47:0.038567486 48:0.010826722 49:-0.029599159 50:0.04914254 
-1782.8876 1:0.35294793 2:-0.18270111 3:0.042271202 4:-0.011851335 5:0.026955007 6:0.078101593 7:-0.057870197 8:-0.0015396265 9:-0.043171456 10:-0.027548206 11:0.11662525 12:0.072983677 13:-0.028918734 14:0.093382633 15:-0.1094325 16:-0.0062235915 17:-0.095842719 18:-0.24402512 19:-0.068639647 20:-0.060223539 21:-0.044780876 22:-0.0048153965 23:0.096788895 24:-0.040005032 25:-0.028393556 26:0.17874738 27:-0.077543817 28:0.06063238 29:0.16439421 30:-0.058757854 31:0.032115468 32:0.061331234 33:-0.015060319 34:0.056047402 35:-0.046181269 36:0.022959885 37:0.042402365 38:-0.055360123 39:-0.017014971 40:0.11020909 41:-0.020099373 42:0.13960802 43:0.17332446 44:-0.064161952 45:-0.031765903 46:-0.077960125 47:-0.028890113 48:0.030316844 49:-0.013909342 50:-0.054631606 
-1375.764129774216 1:0.26013759 2:-0.069437525 3:-0.066155216 4:-0.11166293 5:0.067823284 6:0.03163174 7:0.060906668 8:0.12782209 9:0.030979203 10:0.1619066 11:0.016872316 12:-0.1069314 13:-0.027321859 14:-0.12349409 15:0.035507548 16:-0.070900214 17:0.0085170734 18:-0.15417682 19:-0.087060121 20:0.039458552 21:-0.028049777 22:-0.060831499 23:-0.080283321 24:-0.041543085 25:-0.017642478 26:0.082760365 27:0.097420522 28:-0.0176925 29:-0.10057605 30:-0.11685043 31:0.11062887 32:0.015117016 33:-0.020231822 34:-0.17185471 35:0.066973686 36:0.058659927 37:-0.0027166622 38:0.031507334 39:0.052611705 40:-0.036937576 41:0.040523348 42:-0.10519161 43:0.019531202 44:0.071671415 45:-0.036593071 46:-0.007985729 47:0.064117951 48:0.048732524 49:-0.10371565 50:-0.070374539 
-1782.8876 1:0.016186715 2:-0.033459868 3:-0.033325043 4:-0.068707849 5:-0.11145052 6:-0.048912653 7:0.035492432 8:0.084952173 9:-0.055919791 10:-0.063465111 11:0.01318629 12:-0.078944413 13:0.13661701 14:-0.0042532658 15:-0.14777592 16:-0.0056017725 17:0.026672767 18:0.011203311 19:-0.0019431875 20:0.027846745 21:-0.12120177 22:-0.016191939 23:0.088481253 24:-0.054508121 25:-0.018958652 26:-0.0314262 27:0.002043511 28:0.049815444 29:0.01468776 30:0.064810721 31:0.07955215 32:0.016320324 33:0.093349236 34:-0.078893905 35:-0.080886467 36:-0.015276773 37:-0.04978242 38:0.045484259 39:-0.065148613 40:-0.010125295 41:-0.12256574 42:0.10749389 43:-0.12154695 44:-0.083148469 45:-0.003468792 46:-0.079267407 47:0.087090386 48:-0.10792612 49:-0.043613535 50:-0.085257126 
-1782.8876 1:0.20488127 2:-0.12788933 3:0.056391748 4:0.0106053 5:0.02244597 6:-0.030846026 7:-0.13313109 8:-0.02658422 9:-0.11698486 10:0.023215698 11:0.058635152 12:-0.060829361 13:0.043676918 14:0.11247614 15:-0.069166096 16:0.0078561165 17:-0.00077384619 18:-0.12646681 19:-0.013288302 20:-0.047801954 21:-0.12880525 22:0.054526875 23:0.068281239 24:-0.022467041 25:-0.018619649 26:0.095094775 27:0.025403804 28:-0.0074724128 29:0.046467061 30:-0.080656234 31:-0.031114329 32:0.1403391 33:-0.057915987 34:-0.016384393 35:0.11091391 36:-0.067586641 37:0.012308318 38:-0.052902209 39:0.028007114 40:0.098226835 41:-0.028795399 42:-0.07908398 43:0.063415431 44:-0.036833689 45:-0.054017863 46:0.076461862 47:-0.087225353 48:0.037287095 49:0.022923857 50:0.010852873 
1782.8876 1:0.038127227 2:0.026502448 3:-0.046760244 4:-0.046372104 5:0.071920193 6:-0.062650195 7:-0.075168446 8:0.10973058 9:0.020992547 10:-0.018138828 11:0.04238598 12:-0.034210337 13:0.068740154 14:-0.10073429 15:-0.073298842 16:-0.015964082 17:0.10629131 18:0.040773656 19:-0.028037944 20:0.12075991 21:-0.12826882 22:0.076299463 23:0.096003746 24:-0.08530243 25:0.040864231 26:0.036968264 27:0.039113214 28:-0.06350794 29:0.019713306 30:-0.038224496 31:0.067597877 32:0.02897241 33:0.021195671 34:0.048423053 35:-0.042536054 36:-0.025815648 37:0.06579324 38:-0.020566756 39:0.054792556 40:-0.00074941263 41:-0.022912859 42:0.16301648 43:-0.010933004 44:-0.03452862 45:-0.14621571 46:-0.089475141 47:-0.066402564 48:0.058853068 49:0.017034095 50:-0.089715057 
-1782.8876 1:-0.15438313 2:0.085153532 3:0.13430238 4:-0.059346471 5:0.0027695727 6:-0.087897108 7:0.042756496 8:-0.033829896 9:-0.02071689 10:0.039070103 11:-0.0092333966 12:-0.012307144 13:0.039906711 14:0.083163945 15:-0.0091272584 16:-0.075375022 17:0.10933151 18:-0.058058878 19:0.068711331 20:0.053729111 21:-0.078852414 22:0.010459168 23:0.036220231 24:0.082366361 25:-0.086386119 26:0.035590904 27:-0.069414566 28:-0.030000824 29:0.048643292 30:-0.059875516 31:-0.10260962 32:-0.12644177 33:-0.041200784 34:-0.06323118 35:0.037383689 36:-0.059401281 37:0.03370454 38:0.011959591 39:0.011064819 40:0.051991969 41:0.17211603 42:0.1304226 43:0.014872444 44:0.035822807 45:0.001256231 46:-0.08097431 47:-0.066583626 48:-0.10181383 49:-0.054777406 50:-0.099755312 
-1782.8876 1:-0.11029271 2:0.10047669 3:0.0043167891 4:0.0385963 5:0.054408017 6:0.024810109 7:-0.00530806 8:0.041026244 9:-0.022151081 10:-0.080557173 11:-0.067516137 12:-0.056028752 13:0.031388238 14:0.047247514 15:0.026583885 16:0.024755475 17:-0.021633345 18:0.035638129 19:-0.060450703 20:-0.052119962 21:-0.054925141 22:0.032485862 23:0.02707119 24:-0.062501017 25:-0.039357054 26:0.045010162 27:0.031773738 28:-0.030252828 29:0.015936577 30:-0.024220444 31:-0.06595753 32:-0.03763524 33:-0.022420207 34:0.075857771 35:-0.016359529 36:0.061741015 37:0.049889099 38:0.066702831 39:0.054930893 40:0.084185954 41:-0.0044156164 42:-0.0016358005 43:-0.0335701 44:-0.020920093 45:-0.036979583 46:-0.087350535 47:0.03650635 48:-0.056262296 49:-0.0038802517 50:0.006021137 
-794.2811340605566 1:0.24329898 2:-0.0017203997 3:0.050368849 4:0.007541196 5:0.0087252555 6:-0.083919725 7:0.04818532 8:0.047972126 9:-0.0098766538 10:0.05214384 11:-0.030492285 12:0.027303442 13:0.049778913 14:-0.010782134 15:-0.041190551 16:-0.0097039875 17:0.02512747 18:0.057576081 19:0.044601426 20:0.065174945 21:-0.00046132537 22:-0.01008438 23:-0.097325589 24:-0.042349055 25:-0.082493784 26:0.053475483 27:0.0056474604 28:0.04802693 29:-0.033410353 30:0.043111888 31:-0.0088078778 32:-0.036000053 33:-0.097170624 34:-0.011691606 35:-0.053926182 36:-0.059326186 37:0.032271697 38:-0.11800431 39:-0.074106791 40:0.017853455 41:0.03346909 42:-0.066883308 43:-0.00088480471 44:0.12535837 45:-0.050680506 46:-0.01347335 47:0.0098021143 48:0.067418684 49:0.025666848 50:0.053044562 
1782.8876 1:-0.21910943 2:0.055110397 3:0.078797192 4:0.03643641 5:0.030255987 6:0.022624897 7:0.003725749 8:0.051770721 9:0.016260913 10:0.035572748 11:0.029016083 12:0.0025466137 13:-0.013801625 14:0.006809488 15:-0.094510622 16:0.12895162 17:-0.10351031 18:-0.021780216 19:0.05577296 20:-0.007079939 21:-0.043594521 22:0.059552305 23:0.058417093 24:-0.060982483 25:0.031807108 26:-0.018711246 27:-0.011140616 28:-0.01468413 29:0.070224154 30:0.06209196 31:0.047354668 32:0.008680206 33:-0.1216683 34:0.087812209 35:0.046071242 36:0.068988265 37:-0.023195834 38:-0.083901967 39:0.052152092 40:0.022016382 41:-0.028333476 42:0.10076766 43:-0.08391784 44:0.090199078 45:0.12276309 46:0.03231699 47:-0.082837794 48:0.011982229 49:-0.040982221 50:-0.039481976 
1782.8876 1:0.16979496 2:-0.074345837 3:0.07812417 4:-0.033610287 5:-0.073297466 6:-0.017047348 7:0.043400316 8:-0.012183214 9:0.011555425 10:-0.087416772 11:-0.0055037414 12:-0.055616847 13:0.047644923 14:-0.058275393 15:0.010937451 16:-0.063072238 17:0.041630425 18:-0.07976285 19:-0.066803961 20:-0.048627789 21:-0.11770615 22:0.12526338 23:0.013788846 24:-0.041916312 25:0.077259433 26:-0.0083420433 27:0.073123405 28:-0.091013942 29:0.0038740871 30:0.11932932 31:0.067867939 32:0.076423979 33:0.10721089 34:-0.1266993 35:0.0099086661 36:0.11746946 37:0.020341 38:0.0010781875 39:0.021549877 40:0.074319753 41:0.12949784 42:0.008375708 43:0.046823516 44:0.040081178 45:-0.059972692 46:-0.066922146 47:-0.053786452 48:-0.04627205 49:0.093206479 50:-0.10095197 
1782.8876 1:0.063116758 2:-0.065225074 3:-0.025064573 4:-0.025540889 5:0.019907176 6:-0.0098173512 7:-0.058470527 8:0.039678069 9:-0.0055018954 10:0.028158263 11:0.065943928 12:0.050987892 13:-0.030756551 14:-0.024570739 15:-0.054339653 16:0.0052566503 17:0.045946724 18:-0.05029221 19:0.031104527 20:0.045939193 21:0.016272218 22:0.050051724 23:-0.045014507 24:-0.037297237 25:-0.00069700298 26:0.0043088539 27:0.021888215 28:0.041036435 29:0.023140162 30:0.02407515 31:-0.03379298 32:-0.021085554 33:0.016569433 34:0.018021366 35:-0.068344494 36:0.03877757 37:0.012984082 38:0.032697432 39:-0.00067871643 40:0.06063243 41:0.085068662 42:0.068263691 43:-0.041158084 44:-0.039893811 45:0.043518479 46:-0.02745164 47:0.06448727 48:0.055808811 49:-0.017508491 50:-0.059292222 
1782.8876 1:-0.20148129 2:0.056239667 3:0.046078813 4:0.054505408 5:0.10827819 6:-0.020835143 7:-0.10497538 8:-0.013074052 9:-0.04093784 10:-0.020466107 11:0.055767444 12:-0.0084811867 13:-0.029736342 14:0.024857594 15:0.019283381 16:0.018111667 17:0.018186277 18:0.03604352 19:0.023222169 20:0.011502224 21:-0.052944616 22:0.038508078 23:-0.05783573 24:-0.012943635 25:0.028546187 26:-0.088115263 27:-0.10622908 28:-0.003889129 29:0.0057755678 30:-0.024814513 31:0.01090703 32:0.0008420051 33:0.093493413 34:-0.072083929 35:-0.032468826 36:-0.022783261 37:0.058466888 38:0.041177706 39:-0.050933445 40:-0.010142617 41:0.0095869859 42:0.009034113 43:0.051227207 44:0.040621012 45:-0.049212492 46:0.050349004 47:0.052785116 48:-0.024492998 49:0.057408191 50:0.060039704 
-1782.8876 1:0.051409911 2:0.055876002 3:-0.048987141 4:0.092794267 5:0.023433515 6:-0.03514673 7:0.03492974 8:-0.08528826 9:-0.039714827 10:0.031930563 11:-0.06736602 12:0.049328396 13:0.047449927 14:0.035455255 15:-0.052985057 16:-0.049950409 17:0.031210685 18:0.055554519 19:-0.087157378 20:0.011148575 21:-0.067811591 22:-0.016001162 23:0.00019493019 24:0.057327917 25:-0.035362712 26:-0.061487996 27:-0.022202837 28:-0.0019741516 29:0.015218933 30:-0.0095239706 31:0.01076801 32:0.041409315 33:0.072188763 34:-0.080274067 35:-0.03563619 36:-0.017957056 37:-0.0047834923 38:-0.079182976 39:-0.038482901 40:0.060616077 41:0.013779096 42:0.081739884 43:0.032498784 44:0.022883919 45:0.054217518 46:-0.0042686333 47:-0.0030590795 48:-0.20256003 49:-0.016659098 50:-0.039228072 
-1782.8876 1:-0.14880072 2:0.041851941 3:0.020567312 4:0.023839282 5:-0.03503258 6:-0.0046859628 7:0.062056542 8:0.0089595944 9:-0.062714493 10:0.10685134 11:-0.018408328 12:0.10366802 13:-0.091780328 14:0.042136751 15:-0.093103879 16:0.064589929 17:-0.055817115 18:0.085804144 19:0.040171312 20:-0.022855378 21:0.058091963 22:-0.11214459 23:0.028542861 24:0.016975596 25:0.045619055 26:0.0018274379 27:-0.067307912 28:-0.0044189145 29:0.083882168 30:-0.0049197021 31:-0.044743478 32:0.077823789 33:0.04201891 34:-0.048482965 35:0.0086146177 36:-0.086770591 37:0.062587293 38:0.029414882 39:-0.080320411 40:-0.083025617 41:-0.014332899 42:-0.094110101 43:-0.028002911 44:5.1966681e-006 45:-0.086315957 46:0.012184283 47:-0.061608807 48:0.018680232 49:0.067901455 50:-0.01229639 
1782.8876 1:0.036820467 2:0.10226162 3:0.02075343 4:0.036771394 5:0.14616319 6:-0.30631179 7:0.10582661 8:-0.1777298 9:0.35209699 10:0.054070014 11:0.11537644 12:0.014779636 13:0.00054554882 14:0.049423708 15:0.068439574 16:-0.067087451 17:0.021441609 18:-0.06394689 19:-0.077448761 20:0.031111131 21:-0.17650901 22:-0.056114489 23:0.261056 24:0.049779683 25:-0.14657997 26:-0.046688993 27:0.008204565 28:-0.017865336 29:0.053162908 30:-0.014783468 31:0.045148888 32:0.13701549 33:0.092673786 34:-0.022077534 35:-0.048760809 36:-0.036906401 37:-0.029069749 38:-0.10370848 39:-0.0078663087 40:0.072977625 41:0.11341894 42:-0.11390881 43:0.19038914 44:-0.053908134 45:-0.021276195 46:-0.21297906 47:-0.034146435 48:-0.0017554188 49:-0.081321134 50:-0.021251678 
