svm_type epsilon_svr
kernel_type rbf
gamma 0.16494
nr_class 2
total_sv 656
rho -57.3028
SV
-147.0334 1:0.11015954 2:-0.076348175 3:-0.016360312 4:0.12050109 5:0.0018835889 6:0.03753646 7:-0.047040951 8:-0.0033672347 9:0.025658606 10:0.011975278 11:0.17481873 12:-0.052169703 13:-0.055702388 14:0.058707843 15:-0.046043229 16:-0.10002878 17:-0.077371525 18:0.0031576887 19:0.066320936 20:-0.052874089 21:0.16266801 22:0.12348926 23:0.035119427 24:0.050730519 25:-0.13363592 26:-0.13365601 27:0.0042827398 28:-0.060010316 29:0.21648816 30:0.15037287 31:-0.072890636 32:-0.16329478 33:0.0049662243 34:-0.016502746 35:-0.052730465 36:0.03890923 37:0.13553598 38:0.11540444 39:0.13823101 40:0.012477047 41:0.0048592701 42:0.07599246 43:-0.00017748091 44:-0.0066992734 45:-0.15880528 46:-0.013156638 47:-0.053710021 48:-0.17534138 49:0.048068831 50:-0.037786074 
-147.0334 1:0.026177257 2:-0.10025951 3:-0.12107704 4:0.13278436 5:-0.096849677 6:0.0005106478 7:0.13548213 8:0.097791832 9:-0.13689443 10:0.020460591 11:-0.044289256 12:0.065853813 13:-0.11535927 14:0.014976052 15:-0.10862759 16:-0.019337701 17:-0.098815035 18:0.119398 19:-0.050074468 20:0.032936384 21:0.010188714 22:0.08930978 23:-0.0438088 24:-0.0149357 25:0.036443047 26:0.014042244 27:-0.046570054 28:0.077436034 29:0.14606221 30:-0.080018994 31:0.0021823021 32:-0.10702322 33:-0.079243581 34:-0.062518486 35:0.045768296 36:0.0022100413 37:0.17034338 38:-0.034350444 39:0.022456445 40:0.1005163 41:0.031018281 42:-0.055921554 43:0.070646936 44:-0.025097712 45:-0.018685977 46:0.06781185 47:-0.010282526 48:0.017360567 49:0.03610943 50:-0.0041047884 
-147.0334 1:-0.013323414 2:-0.084171667 3:0.014723221 4:-0.0405576 5:0.027358823 6:-0.017753031 7:0.123429 8:0.01681812 9:-0.079242412 10:-0.071042517 11:0.0015707228 12:-0.061940734 13:0.0016894172 14:0.013120991 15:-0.04047871 16:0.051694348 17:-0.10336369 18:0.016162817 19:-0.03813629 20:-0.020627998 21:-0.029184674 22:-0.012729294 23:0.030003892 24:-0.0010893958 25:0.068201865 26:-0.11531949 27:-0.023748487 28:0.018331956 29:0.1154189 30:-0.058328201 31:0.048660899 32:-0.065464342 33:0.0025828134 34:0.014497298 35:0.030433578 36:0.010904599 37:-0.069097564 38:-0.030329279 39:0.02334567 40:-0.03245094 41:-0.072540789 42:-0.00049875383 43:0.11430213 44:-0.10199746 45:-0.0466417 46:0.076904736 47:0.025173909 48:-0.036378523 49:-0.062785929 50:0.049703442 
-92.4755976506929 1:-0.10604519 2:-0.18011132 3:-0.0068309042 4:-0.10359134 5:-0.10801326 6:0.093267003 7:0.20260751 8:-0.068077866 9:-0.17343904 10:-0.061635401 11:0.011700117 12:0.069726123 13:-7.9729887e-005 14:-0.076051344 15:-0.1129076 16:-0.014183238 17:-0.11693735 18:0.13340401 19:0.088599453 20:-0.017262911 21:-0.014744341 22:0.065780011 23:0.086840936 24:-0.12720869 25:0.075903614 26:-0.053826135 27:0.0243253 28:0.077314448 29:-0.0097174761 30:-0.041965239 31:-0.07237275 32:-0.059247102 33:-0.074528489 34:0.12648895 35:-0.045496279 36:-0.036155614 37:0.047572269 38:0.028742314 39:-0.0065997808 40:0.076797304 41:0.025272901 42:0.0019915585 43:-0.057211672 44:-0.04105147 45:-0.0078064868 46:-0.017796064 47:0.14620727 48:-0.037237924 49:-0.026554257 50:-0.060160068 
147.0334 1:-0.16186621 2:-0.060572159 3:-0.0073417877 4:-0.10430264 5:-0.014262631 6:-0.058222849 7:-0.069187291 8:0.13560965 9:-0.18495985 10:-0.15650628 11:-0.016771874 12:-0.15674631 13:-0.093152595 14:0.12706348 15:0.062155503 16:-0.13383208 17:-0.22559361 18:0.011695422 19:0.13841317 20:0.19048367 21:0.11179553 22:-0.1028784 23:-0.065422194 24:-0.067067996 25:0.057866577 26:-0.096096423 27:-0.076353349 28:0.02599443 29:-0.057083436 30:0.1070916 31:-0.050065702 32:0.02906731 33:0.048715303 34:0.057160638 35:-0.070420484 36:-0.0037089192 37:-0.035988768 38:-0.1974769 39:-0.097940657 40:0.13444269 41:-0.096906057 42:0.076374649 43:0.041766127 44:-0.011770818 45:-0.10503174 46:0.042843065 47:0.091119868 48:0.082726584 49:-0.19988309 50:-0.047736735 
-147.0334 1:-0.26850475 2:0.21726062 3:-0.02909432 4:-0.080963707 5:-0.089881611 6:0.064597752 7:-0.097676609 8:0.11134079 9:-0.10197794 10:0.11800694 11:0.0055788027 12:0.056516532 13:0.15761034 14:-0.020726077 15:-0.21562222 16:-0.10189664 17:-0.030798658 18:0.018520191 19:-0.070737722 20:-0.0027046417 21:-0.033814306 22:0.0040414388 23:0.17524213 24:-0.12968355 25:-0.20102268 26:0.0078631208 27:-0.080584021 28:0.14033555 29:0.045076558 30:0.28457301 31:0.0033490374 32:-0.1074775 33:-0.18792414 34:0.056515806 35:0.081519324 36:-0.10635673 37:-0.059112137 38:-0.026595124 39:-0.00099255396 40:0.045581149 41:-0.021656932 42:-0.013878212 43:0.007101591 44:0.14382876 45:-0.23524269 46:0.15676883 47:0.31422511 48:-0.14795248 49:0.15400306 50:0.04201923 
-147.0334 1:-0.21168399 2:0.12499036 3:0.00022803313 4:-0.15811097 5:0.1487906 6:0.093094056 7:-0.1039676 8:0.02619105 9:-0.007060564 10:-0.040697832 11:-0.0011180343 12:-0.061898884 13:0.10120855 14:0.057513964 15:0.095851727 16:-0.020178254 17:-0.28794074 18:0.073196266 19:0.11682998 20:0.013085497 21:0.10399944 22:0.17250318 23:0.052949676 24:-0.034220854 25:-0.028440799 26:-0.1098646 27:0.016300136 28:-0.055586851 29:-0.15604456 30:0.0055323258 31:0.095171536 32:-0.1116477 33:0.14518753 34:0.19229472 35:-0.015221633 36:0.16323937 37:-0.089798428 38:-0.15208227 39:-0.15666513 40:-0.098513468 41:0.21078739 42:0.11581846 43:-0.068389109 44:-0.051044143 45:0.089321264 46:-0.14303959 47:0.09393132 48:-0.039948367 49:-0.084767913 50:0.090654343 
147.0334 1:-0.29345215 2:-0.10363269 3:0.22940289 4:0.0071336724 5:0.026706625 6:0.025093093 7:0.0033177803 8:-0.023976725 9:-0.15654916 10:-0.036895769 11:0.011854524 12:-0.07290133 13:0.06494135 14:-0.049114753 15:-0.1272945 16:-0.025432948 17:-0.11840769 18:0.19352044 19:0.10261168 20:0.003468952 21:-0.054317712 22:-0.023637598 23:0.043268273 24:-0.030719408 25:0.043122745 26:0.0042437147 27:-0.13379786 28:0.13965564 29:0.029976121 30:0.12469607 31:0.063842584 32:-0.016053838 33:0.21131162 34:0.096779801 35:-0.08628902 36:-0.1586116 37:0.016099683 38:-0.093273319 39:0.055274434 40:-0.1012995 41:-0.12670463 42:-0.03658918 43:0.036683309 44:0.064734861 45:0.074875678 46:0.030884615 47:0.1138956 48:0.061936319 49:-0.084779673 50:0.0070641847 
93.67346099693847 1:-0.38464775 2:0.011374838 3:0.087379556 4:-0.061603946 5:0.011284846 6:-0.017925911 7:-0.0097365494 8:0.028815954 9:-0.066576832 10:-0.073087545 11:0.0631638 12:0.066626615 13:0.084553567 14:-0.034295866 15:-0.16605834 16:-0.17812917 17:-0.15991689 18:-0.042552742 19:0.037482515 20:0.034531998 21:-0.0093664335 22:0.030272381 23:0.086590321 24:-0.047581686 25:0.15199686 26:-0.18617438 27:0.063635872 28:-0.048722155 29:0.16204167 30:0.15317952 31:0.014620361 32:0.073981187 33:0.031245792 34:0.060252145 35:-0.0052595853 36:0.10318902 37:0.0091917518 38:-0.12280464 39:0.045748335 40:-0.057339262 41:-0.087748889 42:-0.10326572 43:0.024081084 44:0.019987091 45:-0.038135619 46:-0.11282007 47:0.07145579 48:0.015040246 49:0.042813492 50:0.034167047 
-147.0334 1:-0.39569074 2:0.22204258 3:0.045451666 4:-0.0077306762 5:-0.074304199 6:-2.457675e-005 7:-0.036981328 8:-0.0062932573 9:-0.041200406 10:-0.043631768 11:0.17920956 12:-0.10320537 13:-0.21518801 14:-0.1011524 15:-0.13975153 16:-0.13388788 17:-0.096696844 18:0.028178176 19:-0.076762952 20:-0.1254756 21:-0.024981083 22:-0.081686002 23:0.2338514 24:-0.11152198 25:0.069188031 26:0.043388781 27:0.06173042 28:-0.036339407 29:0.1441805 30:0.0726328 31:0.012433608 32:-0.020622352 33:-0.004797855 34:0.045955998 35:-0.068249116 36:0.016114523 37:0.10862045 38:0.047526697 39:-0.10422504 40:0.0091469304 41:-0.059877791 42:-0.055043443 43:0.013865514 44:-0.0060413003 45:-0.062243908 46:-0.066218762 47:0.097984253 48:0.072933979 49:-0.013333437 50:0.029455259 
31.58547861874111 1:-0.12545707 2:0.14324591 3:-0.22982896 4:-0.1770636 5:-0.095132516 6:0.3349043 7:-0.39132083 8:0.0064612788 9:-0.052219246 10:-0.27968252 11:-0.21067731 12:0.34506006 13:0.034629601 14:-0.24137739 15:-0.077380387 16:0.21918246 17:0.068345608 18:-0.38174944 19:-0.35488196 20:0.030359955 21:0.038871506 22:-0.078202919 23:0.35864194 24:0.018925997 25:-0.26277831 26:-0.13322715 27:-0.076925035 28:0.1117133 29:0.21941017 30:0.2563044 31:-0.038967989 32:-0.17914831 33:0.031007232 34:-0.0049692195 35:0.24343709 36:0.076343349 37:0.14216223 38:-0.3517599 39:0.0046112428 40:-0.3383632 41:0.057103983 42:0.0057006298 43:-0.2969603 44:0.072052926 45:0.2703814 46:-0.15280597 47:-0.39528902 48:-0.1462581 49:0.23732244 50:-0.32478519 
147.0334 1:-0.2527831 2:0.21371843 3:-0.056769512 4:0.037823781 5:-0.19108439 6:0.20648789 7:-0.047560778 8:-0.11565115 9:0.083140843 10:0.0011672197 11:0.13017705 12:0.018547048 13:0.10611361 14:0.087206119 15:0.076453708 16:-0.031119475 17:-0.17123165 18:0.037087725 19:-0.13502321 20:-0.16390123 21:-0.1289015 22:-0.093060337 23:0.10490727 24:-0.081454735 25:0.042560381 26:-0.2080104 27:-0.30257947 28:0.18029032 29:-0.10369975 30:0.050003831 31:0.061029237 32:0.10487773 33:-0.042224936 34:0.042146227 35:0.20930123 36:-0.10569297 37:-0.00048073849 38:-0.134252 39:0.0030397973 40:-0.11491136 41:-0.18202407 42:0.066220678 43:-0.049628286 44:-0.08515898 45:-0.089202825 46:-0.19897994 47:-0.052140848 48:0.053536129 49:0.16508664 50:-0.061909704 
147.0334 1:-0.30342886 2:0.24036981 3:-0.040660435 4:0.079356258 5:-0.081043279 6:0.16123182 7:0.018993329 8:-0.19839872 9:0.0076308334 10:-0.066665122 11:0.21312413 12:-0.044886878 13:-0.11203769 14:0.03583107 15:-0.17352387 16:-0.033474344 17:-0.15527619 18:0.04483367 19:-0.18530579 20:0.10644598 21:-0.025802099 22:-0.21323832 23:-0.13021337 24:-0.10960998 25:0.0088616944 26:-0.030948616 27:-0.13880362 28:-0.086212815 29:0.088143339 30:-0.13123862 31:-0.15114392 32:0.041659467 33:0.114924 34:-0.015681513 35:0.018779482 36:-0.031545268 37:0.019575713 38:0.1106617 39:0.20930105 40:0.1240889 41:-0.043704339 42:-0.1127064 43:0.13164839 44:-0.082772093 45:-0.016773248 46:-0.10846409 47:-0.046233268 48:-0.095155285 49:-0.039822818 50:0.047073105 
-86.40845125081414 1:-0.68492241 2:0.48667808 3:0.22818371 4:0.18520863 5:-0.11657673 6:0.40203743 7:0.021836957 8:-0.62581335 9:0.12640677 10:0.22744706 11:0.082774265 12:0.065918268 13:-0.4765707 14:0.10034232 15:-0.51746364 16:-0.017498673 17:-0.13372127 18:-0.0033549863 19:-0.51401794 20:0.13824071 21:-0.056258622 22:-0.18395514 23:-0.11382992 24:-0.43428662 25:0.065779149 26:-0.20523386 27:-0.088859988 28:-0.031153446 29:0.011440901 30:0.17136299 31:0.035598356 32:0.023485217 33:0.1470636 34:-0.076536042 35:-0.021192948 36:-0.22782354 37:0.1362356 38:-0.21018436 39:-0.21347462 40:0.17578338 41:-0.20541801 42:0.13081254 43:-0.18140455 44:0.0067690992 45:-0.052777364 46:-0.13278475 47:0.017780905 48:0.037535725 49:0.0058284398 50:-0.039528635 
34.35952490777007 1:0.39816748 2:0.11815237 3:-0.028308603 4:-0.028528479 5:-0.071300538 6:0.079849802 7:0.081289879 8:-0.065730201 9:-0.18011682 10:-0.027236797 11:0.037652017 12:-0.038631043 13:0.18303662 14:-0.016574642 15:-0.07776504 16:0.0035901145 17:0.12488886 18:0.08608188 19:-0.094432309 20:-0.093122847 21:0.088150806 22:0.013907235 23:0.094258166 24:-0.074504213 25:-0.014766904 26:-0.12157547 27:0.01221465 28:-0.058257487 29:-0.089432552 30:0.039854017 31:-0.10786912 32:0.10719386 33:-0.062836649 34:0.052150311 35:-0.06478841 36:0.074168772 37:0.035872577 38:0.058794188 39:0.14256963 40:-0.056558763 41:-0.008741131 42:-0.095866082 43:-0.0035106919 44:0.14847414 45:-0.13372125 46:0.083804397 47:-0.076875686 48:-0.06268136 49:0.033354656 50:-0.0026175437 
147.0334 1:0.35785483 2:-0.0002200872 3:-0.20632174 4:0.094618629 5:0.11078712 6:0.018632845 7:0.11413476 8:0.049325229 9:0.072455259 10:0.025718632 11:-0.0034812739 12:0.01667178 13:0.036207206 14:-0.081729198 15:0.02205856 16:0.0041291939 17:-0.011089579 18:-0.045432736 19:0.16202703 20:0.048765932 21:-0.021234577 22:0.14613478 23:0.085759996 24:0.0016575262 25:0.016801954 26:0.013483385 27:-0.10726775 28:0.042564256 29:-0.053164522 30:-0.092181015 31:0.14180074 32:-0.079968688 33:-0.16611541 34:0.015636597 35:0.048629466 36:0.058544711 37:-0.025241766 38:-0.068484787 39:0.02102659 40:-0.050678288 41:0.11329188 42:-0.002428047 43:-0.013150337 44:-0.1216028 45:0.054770291 46:0.092180852 47:0.038751044 48:0.008363165 49:0.10182791 50:0.023218848 
-147.0334 1:0.17161374 2:-0.0835692 3:-0.022548651 4:0.0021948223 5:-0.022600738 6:-0.11293578 7:0.025909134 8:0.021634636 9:0.085330167 10:0.04598136 11:0.054168508 12:-0.03268356 13:-0.051330335 14:-0.089360179 15:0.061486759 16:-0.19458669 17:0.069681203 18:-0.095907394 19:0.086722337 20:0.1749299 21:-0.057546093 22:0.13739517 23:-0.033877071 24:-0.015371207 25:-0.10549173 26:0.040942722 27:-0.17752186 28:0.13231615 29:0.25448856 30:-0.02104585 31:-0.00012049844 32:-0.0122319 33:-0.013419729 34:0.11157984 35:-0.042422336 36:-0.025569395 37:-0.017680208 38:0.02594089 39:0.29530749 40:0.064211811 41:-0.052817618 42:0.020432802 43:-0.14814341 44:-0.12041419 45:-0.085663787 46:-0.025491142 47:0.13042414 48:-0.029746161 49:0.031217625 50:-0.076599106 
-147.0334 1:0.1950148 2:-0.041910328 3:-0.16010706 4:0.13645152 5:-0.037637139 6:-0.098151787 7:-0.034281231 8:-0.047870863 9:-0.0085129664 10:0.078231432 11:0.21525992 12:-0.043431192 13:0.1022283 14:-0.1119501 15:0.079143013 16:-0.06696971 17:0.014384476 18:-0.054128114 19:0.031713864 20:-0.010080233 21:-0.11743541 22:0.069647065 23:0.048955979 24:0.028833478 25:-0.026598133 26:0.0044787585 27:-0.028450816 28:0.08144473 29:0.016425553 30:0.10383484 31:0.12205989 32:-0.051420233 33:-0.12704972 34:0.057711497 35:-0.089555224 36:-0.022693703 37:-0.065755299 38:-0.06361784 39:-0.079672679 40:0.056540626 41:0.012506833 42:0.0008351925 43:-0.030064397 44:-0.099179856 45:-0.14659506 46:0.00010122788 47:-0.16977393 48:-0.00011784992 49:-0.045633468 50:-0.060993087 
-147.0334 1:0.087080093 2:0.064622605 3:-0.063097138 4:-0.0086082012 5:-0.064916334 6:-0.010136356 7:-0.23028131 8:-0.062852779 9:-0.11989494 10:0.14413479 11:0.092370889 12:-0.097085921 13:0.0542031 14:0.059177621 15:-0.21647053 16:0.20230227 17:-0.22379828 18:-0.13214863 19:0.068070815 20:0.057112199 21:-0.15689076 22:0.10912551 23:-0.19104432 24:0.19831475 25:-0.20141673 26:-0.027561584 27:0.22380116 28:0.2839984 29:-0.13106758 30:-0.14092998 31:0.030374098 32:-0.055721462 33:-0.01830837 34:-0.056030638 35:-0.00048550509 36:-0.078492737 37:0.068098979 38:0.29817363 39:-0.052039329 40:0.083876031 41:0.21600998 42:-0.11380698 43:-0.27010341 44:-0.12715021 45:-0.17437841 46:0.07917616 47:-0.036381412 48:0.084568503 49:0.16809093 50:0.040716636 
147.0334 1:-0.054692874 2:-0.15953114 3:-0.035397788 4:-0.05040526 5:0.052050363 6:-0.019837184 7:-0.077460092 8:0.041313057 9:-0.021749684 10:0.10104786 11:0.06737747 12:-0.11700936 13:-0.025768916 14:-0.084112108 15:0.044194799 16:-0.0025144569 17:-0.00081613017 18:-0.001571547 19:0.04615723 20:-0.015236111 21:-0.052655787 22:0.065879488 23:-0.025229636 24:-0.037779283 25:0.077424679 26:0.16543042 27:0.1320765 28:0.019485238 29:0.041832072 30:-0.11904599 31:0.080650864 32:0.058951749 33:-0.16033777 34:-0.12265326 35:-0.023562557 36:-0.0015902991 37:0.053741227 38:-0.10381313 39:-0.036267842 40:0.11111957 41:-0.16513479 42:-0.039004838 43:-0.017114766 44:-0.13272677 45:0.028898095 46:0.00076710471 47:-0.12416456 48:0.035305411 49:0.049179206 50:0.018145817 
147.0334 1:-0.11499857 2:-0.12785331 3:0.14036657 4:-0.058552866 5:0.059039284 6:-0.089885518 7:-0.061219675 8:0.074916634 9:-0.039287026 10:-0.0068287471 11:0.033273762 12:-0.07507188 13:0.0073007754 14:-0.028666805 15:-0.061525148 16:0.051370151 17:-0.1303531 18:-0.0039078245 19:0.041264342 20:0.13308848 21:-0.048375995 22:-0.0042598233 23:-0.0069534241 24:0.070271127 25:-0.015764754 26:-0.022969233 27:-0.0032538072 28:-0.057003866 29:0.016047677 30:-0.022475672 31:0.043308772 32:0.055645984 33:-0.0060128179 34:-0.11798206 35:-0.011917674 36:-0.011794556 37:-0.029529091 38:-0.096111775 39:0.072198708 40:0.039531008 41:0.077100417 42:-0.053369523 43:0.10433527 44:-0.064696717 45:-0.00074473732 46:0.057842636 47:0.082353228 48:-0.10586825 49:-0.053971789 50:0.060124281 
147.0334 1:-0.057333507 2:-0.2792652 3:-0.013248055 4:-0.03966934 5:0.043533249 6:-0.064304851 7:-0.058443622 8:-0.13426051 9:-0.063331958 10:0.071204113 11:0.067681636 12:-0.022174929 13:0.062248855 14:-0.009865408 15:0.18554068 16:-0.095168945 17:0.025775445 18:-0.20306024 19:-0.0060195748 20:0.010194329 21:-0.014680381 22:-0.0466244 23:-0.075621187 24:-0.064498342 25:-0.1384112 26:-0.0055337906 27:-0.051530129 28:0.040551485 29:-0.02107993 30:-0.037896954 31:0.18420726 32:-0.0081568668 33:0.07151207 34:-0.12873462 35:-0.15329798 36:-0.15049664 37:0.053835591 38:-0.11539145 39:-0.012978564 40:0.0014161679 41:0.068176468 42:-0.15002105 43:0.066599603 44:-0.0069574224 45:-0.11678594 46:0.073682782 47:-0.080948197 48:0.084702435 49:-0.066279691 50:0.14139957 
147.0334 1:-0.026736419 2:-0.14047459 3:0.082535193 4:-0.15361841 5:-0.07884754 6:-0.16306816 7:-0.030295554 8:0.045042244 9:-0.070712535 10:-0.073067983 11:0.045316914 12:-0.034884084 13:-0.020097909 14:0.16279603 15:-0.070761493 16:0.11202865 17:-0.024198165 18:-0.14005812 19:-0.044982478 20:0.25893586 21:-0.16684336 22:0.087376858 23:-0.069454693 24:0.067690201 25:-0.10206441 26:-0.098863475 27:0.091313304 28:-0.016834682 29:-0.070397511 30:0.026002652 31:0.11284562 32:-0.062821445 33:0.085681625 34:0.10820696 35:0.18995941 36:-0.12915309 37:0.11994094 38:0.11959374 39:-0.0073442759 40:-0.039133488 41:-0.067239401 42:-0.21761719 43:-0.19679742 44:-0.15961386 45:-0.11377834 46:-0.041011012 47:0.096073398 48:-0.06483027 49:-0.080306287 50:0.079997146 
147.0334 1:-0.065636025 2:-0.20322488 3:0.051159931 4:-0.073413973 5:0.074935038 6:-0.0095815153 7:-0.0001464822 8:-0.055932816 9:-0.12597056 10:0.10085969 11:0.075604397 12:-0.039440828 13:-0.011132699 14:0.022689091 15:-0.021664918 16:-0.11597474 17:-0.1545195 18:-0.057736 19:0.041944219 20:-0.09254813 21:0.019985869 22:-0.1249806 23:-0.10868316 24:0.031880088 25:0.029606739 26:-0.078081733 27:-0.060535515 28:0.039271723 29:-0.063703791 30:0.039471446 31:-0.059580919 32:-0.012576116 33:-0.052380962 34:-0.012571366 35:-0.029052208 36:-0.015965325 37:0.03140824 38:-0.0035865013 39:0.10470817 40:0.0050366355 41:-0.038981148 42:-0.011660042 43:0.032277382 44:-0.10734421 45:0.16775013 46:0.090570115 47:0.019743555 48:-0.0562808 49:-0.014818696 50:0.079220837 
147.0334 1:-0.27052409 2:-0.13675182 3:-0.030874294 4:-0.06996494 5:0.01920811 6:-0.043250526 7:-0.065610254 8:-0.072842554 9:-0.10627669 10:-0.028826805 11:0.031907164 12:0.011541471 13:0.10312086 14:-0.043062926 15:0.051116141 16:0.069196635 17:0.090213098 18:-0.04450174 19:-0.028636484 20:0.067048681 21:-0.081263363 22:0.07129649 23:-0.015070051 24:0.025276958 25:-0.18092699 26:-0.081990317 27:-0.010506168 28:0.020326293 29:0.045356865 30:0.023560648 31:0.027663511 32:0.22027736 33:-0.054164885 34:-0.069766547 35:-0.047037427 36:0.010790435 37:0.16157508 38:-0.020530163 39:0.047551441 40:-0.045936304 41:-0.025528556 42:-0.070891687 43:-0.040430954 44:-0.14480255 45:-0.088054063 46:-0.058578128 47:-0.085259952 48:-0.0092586575 49:-0.094556752 50:0.0047203308 
147.0334 1:-0.097590222 2:-0.035739322 3:-0.071757571 4:-0.095570789 5:0.06628348 6:0.014388945 7:-0.19419461 8:-0.022333438 9:0.084819311 10:-0.065936368 11:-0.12681544 12:-0.013275546 13:-0.060345593 14:-0.021187908 15:-0.15037938 16:0.027895959 17:0.15432717 18:0.062621064 19:-0.060326874 20:0.028282532 21:-0.081347002 22:-0.084445716 23:-0.097639058 24:-0.14224896 25:-0.075871849 26:0.21939388 27:0.0052750018 28:-0.0023130801 29:-0.22105695 30:0.12141308 31:-0.018291831 32:0.030269602 33:-0.15868048 34:-0.017895987 35:-0.029975543 36:0.01591314 37:0.063144463 38:-0.082656461 39:-0.028736357 40:-0.20871822 41:-0.12832432 42:-0.16920203 43:0.10507845 44:-0.055877283 45:-0.15895399 46:0.04867518 47:0.10145033 48:-0.022838197 49:-0.024341779 50:0.16347485 
147.0334 1:-0.097252358 2:-0.11574982 3:0.082817156 4:0.08784183 5:-0.22660717 6:-0.11682706 7:-0.021514213 8:-0.027835873 9:0.018707531 10:-0.065425476 11:-0.20079944 12:0.019892572 13:0.14633786 14:-0.05112134 15:0.16481743 16:-0.0084166653 17:0.1316968 18:0.03702109 19:-0.19375445 20:-0.015099746 21:0.029876835 22:0.29616167 23:0.18561729 24:-0.077589148 25:-0.16058814 26:0.029943248 27:0.045016457 28:-0.14743141 29:0.021046746 30:0.025847003 31:0.033771864 32:0.1864467 33:0.10631626 34:-0.16685404 35:-0.10486296 36:0.055209731 37:0.075397459 38:0.055643965 39:0.02976808 40:0.055089303 41:-0.11848826 42:0.061089553 43:0.062889072 44:0.079530455 45:0.091419931 46:-0.19541188 47:0.071306875 48:-0.1097837 49:0.16298237 50:-0.0096542731 
147.0334 1:-0.09539978 2:0.047048262 3:0.043872352 4:-0.019820832 5:0.098631361 6:0.10002884 7:-0.018789896 8:0.11309666 9:-0.049899055 10:-0.021417077 11:-0.077713752 12:0.12302589 13:-0.087607261 14:0.065758566 15:-0.04557794 16:-0.10916586 17:0.12174646 18:-0.12958436 19:-0.15724738 20:-0.12209854 21:0.24092289 22:-0.099915974 23:0.17004606 24:-0.032087857 25:0.18359641 26:-0.035521484 27:0.1039165 28:0.24875103 29:0.099617985 30:-0.07344221 31:0.058814842 32:-0.09715937 33:-0.027720842 34:0.021755302 35:-0.049451377 36:-0.064157611 37:0.035170032 38:0.18985719 39:0.13930338 40:0.074331958 41:0.031326447 42:0.037517569 43:-0.12798651 44:-0.0091530381 45:-0.018424501 46:0.0029473625 47:0.083893476 48:0.04795935 49:0.0022717396 50:0.077394022 
147.0334 1:-0.15819321 2:-0.061706757 3:-0.099893569 4:-0.09532888 5:-0.25401424 6:0.038994073 7:0.07162076 8:0.025293393 9:-0.040989936 10:-0.024438997 11:-0.20755282 12:-0.094917472 13:0.025372816 14:-0.12654001 15:-0.015009699 16:0.083066146 17:-0.019771605 18:0.19815909 19:0.067517467 20:-0.021629782 21:-0.039952663 22:0.1470782 23:0.068979382 24:0.091891012 25:0.0111882 26:-0.038425211 27:0.026083186 28:0.15667747 29:0.048164645 30:-0.20655225 31:0.043652434 32:0.07795677 33:-0.025231845 34:0.084993547 35:0.050814361 36:-0.19787982 37:0.027040284 38:0.076909018 39:-0.020131661 40:0.087607816 41:0.039661159 42:-0.12606623 43:0.015950159 44:0.00031940599 45:-0.11102906 46:-0.20283855 47:0.11528098 48:0.15928747 49:0.056983848 50:-0.17852445 
147.0334 1:-0.16233888 2:-0.066328438 3:0.020973074 4:-0.074894397 5:-0.003047394 6:0.048108636 7:0.079776328 8:-0.04022149 9:-0.0084731563 10:-0.14969922 11:-0.061521184 12:0.15435547 13:0.17825428 14:0.14568678 15:-0.16985598 16:-0.1499288 17:0.1688474 18:-0.084695952 19:-0.10352747 20:0.022828555 21:0.28370553 22:-0.034852129 23:0.01487562 24:0.17350469 25:0.086798902 26:0.061371263 27:-0.11379381 28:0.18653693 29:0.056707362 30:-0.15143253 31:0.070252006 32:-0.090090911 33:-0.21555056 34:0.01605592 35:0.084567939 36:-0.13679367 37:-0.014974541 38:0.22381325 39:0.039835306 40:0.21363058 41:0.067959835 42:-0.011504016 43:-0.11391512 44:-0.10418148 45:-0.12433986 46:0.046384312 47:0.10763258 48:-0.038281846 49:0.064952429 50:-0.060753106 
147.0334 1:-0.043795118 2:0.16993469 3:-0.072807731 4:0.1933843 5:0.24729303 6:-0.064468028 7:0.094043532 8:-0.0026197 9:0.26499279 10:0.2210607 11:-0.10583063 12:-0.080983104 13:-0.11630066 14:-0.076445187 15:0.018194584 16:0.045888203 17:-0.0049933722 18:0.047160716 19:-0.075127282 20:0.053912687 21:0.013749955 22:0.049495014 23:0.14906636 24:-0.20351498 25:0.10416941 26:-0.1664567 27:-0.067905389 28:-0.14632394 29:-0.078021496 30:-0.012321552 31:-0.01204139 32:0.10057902 33:-0.078037454 34:0.0907056 35:-0.022228866 36:-0.085140543 37:0.011533228 38:-0.095430762 39:-0.12227419 40:0.15237111 41:-0.0031977338 42:-0.027097898 43:-0.11752119 44:-0.037336201 45:0.090658345 46:-0.034149783 47:-0.12582903 48:0.052293415 49:0.12650759 50:-0.23137923 
14.67262911488353 1:-0.22905378 2:-0.090236299 3:-0.02848926 4:-0.062368317 5:-0.082592924 6:-0.16004716 7:0.057520059 8:0.14412697 9:-0.063300605 10:-0.02684681 11:0.018918885 12:0.010647034 13:0.10074674 14:0.1763356 15:-0.02924206 16:-0.042334645 17:0.0068952908 18:-0.091052128 19:0.060990266 20:0.069828494 21:-0.022759718 22:-0.0016889808 23:0.076171591 24:-0.030478578 25:-0.0078423382 26:-0.068710503 27:0.014212883 28:-0.13588796 29:0.0024783974 30:-0.065034032 31:-0.051950036 32:0.18832759 33:-0.12587385 34:-0.078584006 35:-0.11759418 36:0.11286491 37:-0.034677742 38:-0.1209371 39:0.021543564 40:0.070388663 41:0.11407654 42:-0.021715545 43:-0.0048146943 44:-0.035474203 45:-0.06867106 46:-0.06237184 47:0.10646995 48:0.038354142 49:0.12178373 50:0.057088178 
147.0334 1:-0.15058324 2:-0.039148192 3:0.021163219 4:0.007394039 5:0.054897013 6:-0.030160394 7:-0.10228239 8:0.14383375 9:0.019549805 10:0.10329268 11:-0.020262186 12:0.028018588 13:-0.11319001 14:0.06099976 15:0.0670054 16:0.060055102 17:0.12218144 18:0.02644622 19:-0.0045384586 20:-0.11600674 21:0.089320207 22:-0.064730874 23:-0.035568334 24:-0.093133691 25:-0.064459691 26:-0.06752916 27:-0.05235612 28:-0.017897168 29:0.050603534 30:-0.03001222 31:-0.11772638 32:0.077804832 33:0.031306072 34:-0.0057966694 35:-0.059863369 36:0.12759409 37:0.016865459 38:0.063017125 39:0.09718593 40:0.06380699 41:-0.021755174 42:-0.10253916 43:-0.048864707 44:-0.055589675 45:-0.092866527 46:0.13634075 47:0.051186956 48:0.013320121 49:-0.10340891 50:0.051470799 
-110.6469063213556 1:-0.21360498 2:-0.046264474 3:0.061375577 4:0.055802199 5:0.059918713 6:0.048711403 7:-0.057211745 8:0.00057744439 9:-0.021225107 10:-0.095319642 11:0.041365801 12:0.017126044 13:0.066295493 14:-0.03420246 15:-0.11572826 16:0.024802042 17:0.17646281 18:0.050566826 19:0.11471295 20:0.071200171 21:-0.03854743 22:0.053556896 23:0.080014955 24:-0.058870629 25:0.024357752 26:-0.054407813 27:-0.076616861 28:-0.12828757 29:-0.052178687 30:-0.19596651 31:0.042695621 32:0.090924967 33:-0.015311712 34:0.043358639 35:-0.013335776 36:0.031189397 37:0.028496835 38:-0.028947216 39:0.06433034 40:0.061572308 41:0.049963521 42:-0.041317966 43:0.075536829 44:0.023910232 45:0.10411032 46:0.017784863 47:-0.061142355 48:-0.052632786 49:-0.022109762 50:0.102255 
147.0334 1:-0.12989031 2:-0.073827293 3:0.014106677 4:0.031960443 5:-0.0092561994 6:0.018836754 7:-0.048689135 8:0.15725118 9:0.18005038 10:0.028379192 11:-0.012329929 12:0.11574104 13:-0.025453151 14:0.032996367 15:0.078775266 16:0.089295541 17:0.057995065 18:-0.060599255 19:0.046037377 20:-0.10073263 21:0.072719606 22:-0.037257191 23:0.11573861 24:-0.073258169 25:-0.0030481894 26:-0.10955395 27:-0.010048318 28:-0.0038652985 29:0.0007046237 30:0.01132357 31:-0.057999181 32:0.10390807 33:0.095557134 34:0.01876931 35:-0.03797497 36:0.11005018 37:-0.052261771 38:0.09377986 39:0.021108992 40:0.12194498 41:-0.1372336 42:-0.019189194 43:-0.044911681 44:0.078389819 45:-0.077039244 46:0.081069815 47:0.058566409 48:-0.041152575 49:-0.0022956372 50:-0.03816305 
147.0334 1:-0.22576529 2:0.050595667 3:-0.0034625263 4:0.063271541 5:0.10451717 6:-0.097010761 7:-0.023374867 8:0.072252929 9:0.063938812 10:0.0019959082 11:0.013102266 12:0.12440208 13:0.042307236 14:-0.058083156 15:-0.037465249 16:0.041549055 17:0.11192625 18:0.18345645 19:0.036251476 20:0.085977467 21:0.039430206 22:0.039799176 23:0.1114609 24:0.038445876 25:0.033638019 26:-0.050565415 27:0.021874185 28:-0.055890903 29:-0.070441593 30:-0.092019072 31:0.040361075 32:-0.011029715 33:-0.0043593298 34:0.19084466 35:-0.014568213 36:-0.0045490472 37:-0.00083391897 38:0.066000019 39:0.0037241693 40:-0.013749574 41:-0.011898563 42:-0.080224891 43:0.026444447 44:0.034148384 45:-0.024093095 46:0.031479563 47:-0.037868369 48:0.077720526 49:-0.11632243 50:0.038370598 
-19.1310333399445 1:-0.27780315 2:0.18019891 3:-0.065180791 4:0.18011396 5:0.27989731 6:0.032852511 7:-0.020005596 8:0.010853768 9:0.0462625 10:0.073877408 11:-0.1912547 12:0.19195095 13:0.13821011 14:0.005290502 15:0.086909329 16:-0.093403549 17:0.13351729 18:0.13382195 19:-0.13834661 20:0.011740818 21:0.26206164 22:0.054716813 23:0.087963475 24:-0.21274095 25:0.040069295 26:0.0097028915 27:-0.085106404 28:-0.12017975 29:-0.14223821 30:-0.22666534 31:0.10272812 32:0.099516706 33:0.067640866 34:-0.055086027 35:0.028227167 36:-0.11910007 37:-0.066311966 38:0.024205538 39:0.094784561 40:-0.02285558 41:-0.034592033 42:-0.11037313 43:-0.032977047 44:0.078836499 45:0.063610348 46:0.12821649 47:-0.040290814 48:0.20216285 49:0.037712842 50:-0.053782555 
147.0334 1:-0.16926878 2:0.20631089 3:0.19581331 4:0.082277773 5:0.2835067 6:-0.16920937 7:-0.0040938545 8:0.03843809 9:0.14263414 10:0.22374891 11:-0.051681353 12:0.21645527 13:0.093402796 14:-0.16445022 15:0.074467472 16:-0.12952465 17:0.0059269874 18:0.060908216 19:-0.038913553 20:0.17232833 21:-0.0061149917 22:0.058040533 23:0.12016469 24:-0.018444738 25:0.05615856 26:-0.14467614 27:-0.087793363 28:-0.020192077 29:-0.014355878 30:0.025369549 31:-0.038397434 32:0.029330091 33:-0.058549315 34:0.043504081 35:0.030945061 36:0.050369116 37:0.028338772 38:0.063157575 39:0.13684742 40:0.058130251 41:-0.066549693 42:0.075072687 43:0.2177093 44:0.10258355 45:-0.041317287 46:0.0087893859 47:-0.060104607 48:0.15743829 49:0.033584554 50:-0.19588439 
147.0334 1:-0.20154441 2:0.16384215 3:-0.083488016 4:0.18893562 5:0.050428505 6:0.0046198388 7:0.014790466 8:0.036934935 9:0.13915259 10:-0.084220221 11:0.12207459 12:0.062593521 13:-0.10973537 14:0.079127739 15:-0.02616738 16:-0.076239707 17:0.19346153 18:-0.01244172 19:-0.092345212 20:0.063197939 21:0.13837408 22:-0.020397553 23:0.068197935 24:-0.046865926 25:-0.10045519 26:-0.016133742 27:-0.0040374093 28:-0.059919773 29:-0.01837229 30:-0.05239613 31:-0.041676376 32:-0.015871358 33:-0.0095526827 34:0.066637584 35:-0.12432926 36:0.032811523 37:-0.10909108 38:0.22614755 39:0.19392325 40:0.052708019 41:-0.099345557 42:-0.10076604 43:0.11668408 44:0.12463105 45:-0.075049169 46:-0.14479155 47:0.097343108 48:-0.085088098 49:-0.062934599 50:-0.013462759 
147.0334 1:-0.26422654 2:0.06360335 3:0.037901367 4:0.052171224 5:0.22507068 6:-0.29295355 7:-0.021158121 8:-0.051462562 9:0.44247351 10:-0.071115306 11:0.25278554 12:0.27853391 13:0.15558785 14:-0.21404929 15:0.044660012 16:0.0460447 17:-0.14923249 18:0.19368001 19:-0.065273327 20:0.15254085 21:0.01048062 22:0.054639322 23:-0.017648366 24:-0.016626685 25:-0.11069064 26:0.031600432 27:0.044515121 28:-0.15088566 29:-0.074358072 30:-0.10076388 31:0.012935107 32:0.065568397 33:0.00044460353 34:0.023223212 35:0.031367825 36:0.059840448 37:-0.094222098 38:0.24236092 39:0.078289872 40:-0.06749595 41:-0.064058285 42:0.060958144 43:0.0025868668 44:0.022135245 45:-0.056293667 46:0.11567529 47:-0.0751103 48:0.18316231 49:-0.060963898 50:-0.036723143 
147.0334 1:-0.068494697 2:0.39210682 3:-0.061192768 4:0.33718566 5:0.07443339 6:-0.072093445 7:-0.47030234 8:0.11663207 9:0.23903638 10:0.17614791 11:-0.054852166 12:0.43124983 13:-0.10361933 14:1.2934061e-005 15:0.17605267 16:0.30384416 17:0.28422664 18:0.020275975 19:0.049370151 20:-0.073331715 21:0.15226984 22:0.17704646 23:0.17173316 24:-0.084728623 25:0.22421366 26:-0.25260819 27:-0.080085118 28:0.017700635 29:-0.10304901 30:-0.14812845 31:-0.1905423 32:-0.045362155 33:-0.1574662 34:0.20164706 35:0.10042789 36:0.057141434 37:-0.028860491 38:0.1781556 39:-0.093708481 40:0.0053658513 41:-0.13297453 42:0.0055134959 43:-0.00043179095 44:0.035702772 45:-0.15363689 46:-0.11999109 47:0.017933075 48:-0.16806967 49:-0.13347843 50:-0.029188682 
147.0334 1:-0.15795189 2:0.30054037 3:-0.19172538 4:0.19722437 5:0.12667458 6:-0.27908988 7:-0.19345624 8:0.11514833 9:0.28821299 10:0.033729371 11:0.23008966 12:0.2711079 13:0.091489817 14:-0.13828922 15:0.15013562 16:0.27409726 17:0.14069248 18:0.23422984 19:0.11268686 20:-0.026346195 21:-0.031218498 22:-0.029473883 23:0.16903917 24:-0.038949633 25:0.011247112 26:-0.22746303 27:-0.0055119473 28:-0.04067445 29:-0.12489371 30:-0.026944698 31:-0.1090272 32:0.13003699 33:-0.071035929 34:0.22379258 35:-0.058903779 36:0.058828913 37:-0.0037213075 38:-0.068163502 39:-0.034817045 40:0.01121677 41:-0.13890936 42:0.080537045 43:-0.035375917 44:-0.095741454 45:0.015549793 46:0.1217409 47:-0.012597587 48:0.15695797 49:-0.072035716 50:0.15650389 
147.0334 1:-0.24507031 2:0.3104292 3:-0.1044163 4:0.23148758 5:-0.21385148 6:-0.075807207 7:0.074409199 8:0.1137823 9:0.042229957 10:-0.39043746 11:-0.13591833 12:0.13780925 13:0.031257981 14:-0.083890479 15:0.16038934 16:-0.027094583 17:0.049789696 18:0.11980388 19:0.022232909 20:0.057286808 21:0.03825648 22:-0.022871787 23:0.015298495 24:-0.36174327 25:0.031745944 26:-0.025254712 27:-0.02133691 28:0.16343809 29:0.1277025 30:-0.075748811 31:0.32841571 32:-0.0081275182 33:0.038719221 34:0.08845156 35:-0.14935855 36:-0.092807123 37:-0.12798633 38:0.1271619 39:-0.025108145 40:0.049205898 41:0.1520612 42:0.12031111 43:0.033469478 44:-0.10585658 45:0.093539546 46:-0.026001392 47:0.068592546 48:-0.042523356 49:0.094000832 50:0.068967478 
-114.4942727078226 1:-0.042419222 2:0.088072776 3:-0.052631944 4:-0.0068102736 5:-0.079723905 6:0.0030879917 7:0.025413936 8:-0.059887678 9:0.099269836 10:-0.036182601 11:-0.058919448 12:-0.054429854 13:0.0044865252 14:0.0071118922 15:-0.063348738 16:0.00084263018 17:-0.058231251 18:0.012910931 19:0.18601765 20:-0.029981282 21:0.032407269 22:-0.11712821 23:0.040584685 24:0.11768831 25:0.21234901 26:-0.14251062 27:-0.020403462 28:0.1083428 29:-0.069618389 30:0.0035368658 31:0.060218347 32:0.069038901 33:-0.042695698 34:0.21678143 35:-0.037745833 36:0.091398192 37:-0.09152025 38:-0.036242001 39:-0.0558243 40:-0.082543797 41:-0.11902694 42:-0.065608783 43:-0.15452987 44:0.098186814 45:-0.0088403083 46:-0.027495889 47:0.0333334 48:0.26447571 49:0.034515603 50:0.083321423 
56.95762226815681 1:-0.17605906 2:-0.21145618 3:-0.020334015 4:0.055302431 5:0.0061237365 6:-0.03292325 7:-0.048077206 8:-0.014320042 9:0.12615764 10:-0.019042111 11:-0.058941906 12:-0.15820036 13:0.0076069079 14:0.038370061 15:-0.001026604 16:0.022105681 17:-0.0071381076 18:-0.018035688 19:0.090754698 20:0.068989663 21:0.26800216 22:-0.078792195 23:0.25489047 24:-0.01854853 25:-0.036376816 26:0.079058841 27:0.12288609 28:0.1083826 29:0.057328848 30:0.14008214 31:-0.13501093 32:-0.11300356 33:-0.021227722 34:-0.11410119 35:0.23466271 36:0.14450416 37:-0.01196433 38:0.004575313 39:0.042719782 40:0.097629149 41:0.12668617 42:-0.017303178 43:0.081944831 44:-0.16311612 45:-0.0066939347 46:-0.42007427 47:-0.17816428 48:0.15082111 49:0.10883023 50:0.16574765 
-121.4262914261788 1:-0.40879998 2:-0.08832138 3:-0.1044443 4:-0.21642273 5:-0.12521448 6:-0.054372147 7:0.098208495 8:-0.089192619 9:0.10045959 10:-0.038879415 11:-0.18063017 12:-0.047798099 13:0.0046806123 14:0.025047706 15:-0.19581987 16:0.041792275 17:-0.12105409 18:0.015424951 19:-0.0001893609 20:-0.28931139 21:-0.071877135 22:0.10035247 23:-0.12028437 24:0.06279014 25:-0.034747534 26:-0.23265515 27:0.07796145 28:-0.16953532 29:0.070273504 30:0.10202381 31:-0.10833689 32:0.13433283 33:-0.19169405 34:-0.059468803 35:0.002662665 36:-0.044746041 37:-0.11190809 38:0.077724431 39:-0.12505587 40:0.045549216 41:-0.030977054 42:-0.030272796 43:-0.11243899 44:0.13235452 45:-0.10348182 46:0.00058123128 47:0.1039939 48:-0.0040101458 49:-0.028310391 50:0.12326032 
147.0334 1:-0.24124971 2:-0.070693222 3:0.022032587 4:-0.07216217 5:-0.072013868 6:-0.064025425 7:0.031040669 8:0.18341498 9:-0.052798352 10:0.010962691 11:0.0036466613 12:0.14326875 13:-0.0071564387 14:0.090280837 15:-0.13452282 16:-0.18991629 17:-0.079220455 18:-0.25922735 19:0.084758034 20:-0.2837919 21:-0.025148073 22:0.0068577827 23:0.26049633 24:0.031329874 25:0.15988029 26:-0.13187089 27:-0.063697058 28:-0.050397837 29:0.23065151 30:0.17245996 31:0.11018102 32:0.22569413 33:-0.080710493 34:-0.033606791 35:0.1764202 36:-0.20938819 37:-0.062404351 38:-0.17650896 39:-0.21342108 40:0.032240298 41:-0.10928126 42:-0.17300949 43:-0.078146434 44:0.15090574 45:-0.0057732302 46:0.010593018 47:0.019688231 48:0.1925167 49:0.15486456 50:0.072986403 
-147.0334 1:-0.22593455 2:0.17403744 3:-0.01977 4:-0.054169714 5:0.078432792 6:-0.050984236 7:0.043318724 8:-0.3329069 9:-0.024033127 10:0.0038274489 11:0.071753834 12:0.040267156 13:0.039587726 14:-0.00593285 15:-0.043242449 16:0.0074193181 17:-0.0056150084 18:-0.10827609 19:0.022720435 20:0.053750588 21:0.046183259 22:-0.021384601 23:-0.071596224 24:0.20367094 25:0.002353684 26:0.054147971 27:0.066458093 28:-0.15596397 29:-0.01489498 30:0.082240152 31:-0.061415336 32:0.096266339 33:-0.048661065 34:-0.037469559 35:0.010163072 36:-0.15591453 37:-0.081671094 38:-0.083356487 39:-0.067889393 40:0.22945742 41:0.10714668 42:-0.20158758 43:0.063095861 44:0.1246938 45:-0.14627229 46:-0.17456659 47:-0.017573792 48:0.02309492 49:0.076397026 50:0.06917235 
83.85758155688795 1:-0.31250628 2:0.087408789 3:-0.11114892 4:-0.063807558 5:0.0015240988 6:-0.013233574 7:0.0095019909 8:-0.24540038 9:0.20898557 10:0.060283963 11:-0.030797301 12:0.020236517 13:0.13171044 14:0.088617061 15:0.10999922 16:-0.069326161 17:0.21209818 18:0.016212185 19:0.10522526 20:0.06227021 21:0.11644938 22:-0.045620595 23:0.025559692 24:-0.00096535796 25:0.028641802 26:0.035790124 27:0.040486109 28:-0.10661249 29:0.078666012 30:-0.015409476 31:-0.087288621 32:-0.052035966 33:-0.022765921 34:-0.087073805 35:0.12935332 36:-0.042526631 37:-0.12363626 38:0.14751796 39:-0.079392709 40:0.28627347 41:0.16248571 42:-0.059542038 43:0.018140689 44:0.17555895 45:-0.076226296 46:-0.11489398 47:0.10922379 48:-0.10302011 49:-0.010094718 50:0.017242562 
147.0334 1:-0.25635805 2:0.21795319 3:-0.19224008 4:0.03333773 5:0.038590874 6:-0.012068046 7:0.042701462 8:-0.1254322 9:0.091174667 10:0.18956535 11:0.028806927 12:-0.14759504 13:0.2344629 14:0.054856663 15:0.22785059 16:0.068972887 17:-0.24544221 18:-0.13569442 19:-0.045060818 20:-0.026444151 21:-0.23968536 22:0.06404833 23:0.1503765 24:-0.027604736 25:0.07992513 26:-0.11761291 27:0.097748351 28:0.10368412 29:-0.032043449 30:0.20233208 31:0.014765845 32:-0.074662175 33:-0.10372373 34:0.098311588 35:0.04281886 36:-0.06688003 37:-0.026923213 38:-0.11143816 39:0.037665355 40:0.089448393 41:0.068173253 42:0.037448295 43:0.041627682 44:0.082879486 45:-0.099114066 46:-0.157208 47:0.061343429 48:-0.16306693 49:-0.029030159 50:-0.024373033 
147.0334 1:-0.33027897 2:0.2001597 3:-0.23152744 4:-0.17138872 5:0.32237422 6:-0.063451402 7:0.060086059 8:-0.21632008 9:0.21202751 10:-0.10098819 11:0.05177768 12:0.056723371 13:0.12144668 14:0.13424078 15:0.092791088 16:0.13207762 17:-0.21291395 18:0.055447953 19:0.14583649 20:-0.14609039 21:-0.097118691 22:-0.026773774 23:-0.033471688 24:0.059199339 25:-0.10359936 26:-0.18883576 27:0.014122293 28:0.019608985 29:0.00676529 30:0.20992939 31:0.030837819 32:-0.06254365 33:0.13437848 34:-0.015865925 35:0.056061016 36:-0.046604882 37:-0.038382235 38:-0.0012633991 39:-0.1003546 40:-0.18784731 41:0.016570698 42:-0.15670782 43:-0.038878533 44:0.081019158 45:0.0060338224 46:0.039274033 47:0.26821859 48:0.0083080826 49:0.046682836 50:-0.057952711 
147.0334 1:-0.28582608 2:0.25227062 3:-0.11221218 4:0.032676804 5:0.1669132 6:-0.25827649 7:-0.10616538 8:-0.12261911 9:0.12330792 10:-0.089552868 11:0.28745494 12:0.16414708 13:0.1382966 14:-0.095818113 15:0.15295283 16:0.063161272 17:-0.29992808 18:0.034512943 19:-0.056905936 20:0.064964977 21:-0.1098318 22:-0.055269628 23:-0.16305117 24:0.39315501 25:0.037157728 26:0.15598115 27:0.30820934 28:-0.071638408 29:0.017527182 30:-0.034006476 31:-0.07952186 32:0.077086359 33:-0.094980589 34:0.036023357 35:0.003585963 36:-0.095397584 37:0.087227912 38:-0.088274072 39:-0.17380606 40:0.13508421 41:0.022172936 42:-0.044452292 43:-0.041328947 44:-0.055941753 45:-0.045585918 46:-0.10953026 47:0.20263392 48:-0.054803883 49:0.13056442 50:0.17411729 
62.54284579035656 1:-0.47952515 2:0.31153745 3:-0.16544846 4:0.063609268 5:0.094655298 6:0.079240316 7:-0.025544154 8:-0.078839745 9:0.19535298 10:0.14494739 11:0.0016996794 12:0.0086214101 13:0.25407719 14:-0.06674443 15:0.27462431 16:-0.24171994 17:-0.26969551 18:-0.28810896 19:0.0090979261 20:0.014931928 21:-0.020525229 22:0.0506931 23:0.14178136 24:0.20985029 25:0.068017376 26:-0.021934944 27:0.26629788 28:0.20442559 29:0.052715254 30:0.096741439 31:-0.045413471 32:-0.092712657 33:-0.038590882 34:0.15424267 35:0.020403947 36:-0.1284875 37:0.024684297 38:0.045883266 39:0.32664632 40:0.11448114 41:0.13398257 42:-0.22635149 43:0.039280428 44:0.087479346 45:-0.037583113 46:-0.14779859 47:0.026464571 48:-0.074162423 49:-0.092264319 50:0.06013518 
54.33058027513175 1:-0.40367416 2:0.4945044 3:-1.6221261 4:-0.81488218 5:0.56284991 6:0.27245135 7:-0.58989151 8:-0.058522174 9:0.0004745598 10:-0.11709151 11:-0.14957155 12:-0.18411283 13:-0.14815675 14:-0.013763618 15:-0.1034223 16:-0.089589935 17:0.094803805 18:0.0066162535 19:0.063829704 20:0.0073895359 21:0.11238848 22:-0.19136 23:-0.10126407 24:-0.0035370655 25:-0.04452872 26:-0.081536352 27:-0.0024379061 28:-0.16003036 29:0.21429628 30:-0.052498242 31:-0.042762767 32:0.092026367 33:0.05168613 34:0.022682494 35:0.055654964 36:-0.066253601 37:-0.14270697 38:-0.055819814 39:-0.0033040712 40:-0.050627388 41:0.015307227 42:0.033302404 43:-0.0010616443 44:0.0010068519 45:0.048277487 46:0.054925758 47:0.00042053462 48:-0.042345251 49:-0.085069899 50:-0.071889797 
30.83835647936603 1:-0.34203195 2:0.52900994 3:-1.3336796 4:-0.30019309 5:-0.74250795 6:-0.40172487 7:0.84449748 8:0.18753246 9:-0.1000146 10:0.27588215 11:0.18682798 12:0.20619903 13:0.060809278 14:0.022280707 15:0.047698653 16:-0.041925837 17:0.080191607 18:-0.045085742 19:0.10602963 20:-0.069534882 21:0.097478411 22:0.048315911 23:0.077660903 24:-0.15791246 25:-0.020734912 26:-0.11430746 27:0.05106235 28:0.049917125 29:-0.185654 30:0.051641402 31:0.15334791 32:-0.0911105 33:-0.04259085 34:-0.017030357 35:0.21108228 36:0.045574579 37:0.16218513 38:0.02961885 39:-0.070134793 40:0.10232067 41:0.031005356 42:0.018161289 43:-0.0025540179 44:0.047192763 45:-0.043594548 46:-0.094733057 47:-0.038203513 48:-0.032128349 49:0.073082236 50:0.011885279 
-147.0334 1:-0.27100175 2:0.085120658 3:0.12615063 4:-0.082957488 5:-0.12853351 6:0.0076989919 7:0.0062402761 8:0.091685721 9:-0.15282076 10:-0.15055578 11:-0.095355549 12:-0.055853948 13:0.0065197766 14:0.094446462 15:-0.019745956 16:-0.098445244 17:-0.10139536 18:0.1026444 19:-0.023951318 20:-0.10861092 21:-0.10179855 22:-0.05160173 23:0.10012308 24:-0.14645405 25:0.050106449 26:-0.0054778822 27:-0.064132263 28:-0.085338673 29:-0.12502276 30:-0.042133655 31:-0.04434683 32:0.059544866 33:-0.084485967 34:0.033137218 35:0.0093060545 36:-0.10309047 37:0.066998066 38:-0.053396503 39:0.0056800757 40:-0.010252016 41:0.087099817 42:-0.083979562 43:0.08744966 44:-0.10028415 45:0.12419529 46:0.012311249 47:0.029263039 48:0.027719334 49:-0.025855499 50:0.13988817 
147.0334 1:-0.069379965 2:0.026274745 3:0.013048331 4:-0.070167131 5:-0.031574696 6:-0.044966654 7:0.030067448 8:0.0023772133 9:-0.090202906 10:0.085217941 11:0.068138842 12:-0.033200377 13:-0.040293501 14:0.031223338 15:-0.032102118 16:0.037510422 17:0.091517569 18:0.087508501 19:-0.11753925 20:-0.035759643 21:-0.069091412 22:-0.014348503 23:-0.12829907 24:-0.0047805482 25:0.003478468 26:0.023788952 27:-0.049855848 28:-0.084370977 29:-0.037601613 30:0.050619036 31:-0.025413568 32:-0.036173909 33:0.05758219 34:0.12743616 35:0.066224183 36:0.13115786 37:-0.032164429 38:-0.072144089 39:0.012435477 40:-0.025954704 41:-0.097126044 42:-0.040289814 43:0.13861465 44:-0.015525366 45:0.014567054 46:-0.075899312 47:0.038210534 48:-0.040347138 49:-0.080770077 50:0.08068898 
147.0334 1:-0.22327953 2:-0.00373299 3:-0.0094235423 4:-0.11968106 5:0.047169191 6:0.02640476 7:0.090460092 8:0.086171875 9:-0.096758963 10:-0.14210636 11:-0.018587313 12:-0.13142746 13:0.047142567 14:0.0013045457 15:0.0044473363 16:-0.024238312 17:0.051760075 18:0.049238285 19:0.067487205 20:-0.059423495 21:-0.066820272 22:0.10728387 23:-0.055673551 24:-0.013151711 25:0.11646168 26:-0.023400862 27:-0.057164804 28:0.097615098 29:-0.0047248175 30:-0.10725656 31:-0.092008021 32:0.084387648 33:-0.043685704 34:0.01248007 35:-0.13038062 36:-0.0041617703 37:0.064702502 38:-0.08034628 39:0.022146555 40:0.030200796 41:-0.0019941093 42:-0.12035759 43:0.02996397 44:0.12963356 45:0.01562181 46:-0.15727951 47:-0.010813826 48:-0.047673314 49:0.0043876487 50:-0.027807306 
147.0334 1:-0.23046183 2:0.064489168 3:0.044923183 4:-0.1192009 5:0.017349804 6:0.035996515 7:0.061636428 8:0.12947176 9:-0.0024280327 10:-0.10374672 11:-0.018291035 12:-0.056484864 13:0.031462877 14:0.060849648 15:0.022260158 16:0.018337379 17:-0.070936298 18:0.097152336 19:-0.039275713 20:-0.10683336 21:-0.032252923 22:0.12983958 23:0.031113465 24:-0.024453463 25:0.10954379 26:-0.12018521 27:-0.094233923 28:0.073597867 29:-0.035874027 30:0.023794548 31:-0.029892984 32:0.086503484 33:0.047449078 34:0.15713818 35:-0.18749892 36:0.081436614 37:0.19168064 38:-0.067627099 39:0.02299856 40:-0.08157304 41:-0.07308606 42:-0.095042973 43:-0.057432509 44:0.1377326 45:-0.034503935 46:-0.2242165 47:0.027149902 48:-0.0023407208 49:-0.064592386 50:-0.011631873 
104.7308269112893 1:-0.13137937 2:0.21685847 3:-0.042365546 4:-0.0012738037 5:0.040253272 6:-0.076379289 7:-0.037783322 8:-0.036776054 9:0.14333762 10:-0.088850063 11:-0.043794009 12:-0.0086852241 13:-0.059135929 14:0.10003775 15:0.11529247 16:0.0042558719 17:0.038825038 18:0.062333819 19:0.013144233 20:-0.15826582 21:-0.014203271 22:0.12757883 23:-0.113004 24:-0.10869625 25:0.018888949 26:-0.045073695 27:-0.17719582 28:0.056555993 29:-0.15467687 30:-0.084516095 31:-0.022762033 32:0.0037658855 33:-0.058378951 34:0.13684497 35:-0.24280264 36:-0.084651129 37:0.14022991 38:0.021016033 39:0.040051261 40:-0.0097329488 41:0.058786752 42:-0.057175507 43:-0.095803403 44:0.0545879 45:0.13907585 46:-0.060714153 47:-0.12223572 48:-0.16641561 49:-0.065717157 50:-0.0067909529 
147.0334 1:-0.19843468 2:0.18090101 3:-0.092776554 4:0.12502656 5:0.016153315 6:0.039759251 7:0.0094526193 8:-0.057208976 9:-0.0058835643 10:-0.05697304 11:-0.045338468 12:-0.016734262 13:-0.082131105 14:0.10766839 15:0.087133459 16:0.15063401 17:0.062164011 18:-0.037384237 19:-0.15454201 20:-0.06713089 21:-0.019009578 22:0.11143582 23:-0.099252216 24:-0.12513524 25:0.11600762 26:-0.093444103 27:-0.12112738 28:-0.013750543 29:-0.0014782426 30:-0.097263901 31:-0.0088137953 32:-0.038690343 33:-0.16741498 34:0.013676915 35:-0.11705225 36:-0.075762756 37:0.074709977 38:-0.06389205 39:0.066734318 40:-0.050468595 41:0.0012876338 42:-0.10242247 43:-0.086712213 44:-0.019279535 45:0.031696256 46:-0.039852092 47:0.043801288 48:-0.047307367 49:-0.05874325 50:0.03220222 
147.0334 1:0.015247315 2:0.15731567 3:-0.045709929 4:-0.081713316 5:-0.008685696 6:0.23481333 7:0.031829768 8:-0.036110526 9:-0.0084222508 10:0.05884548 11:0.043515898 12:-0.025554409 13:0.03080484 14:0.085049238 15:0.12356547 16:0.11864481 17:-0.040230135 18:0.13180958 19:-0.013545562 20:0.063292585 21:-0.040515128 22:0.047083737 23:-0.032267188 24:0.008898233 25:0.06041923 26:0.087817996 27:0.039668201 28:0.15898765 29:-0.058321057 30:0.23797038 31:0.093542143 32:0.13027362 33:-0.092608094 34:0.13436047 35:0.028501526 36:0.091226535 37:-0.057117385 38:0.12105831 39:0.26333891 40:0.072237366 41:0.015585552 42:-0.054256172 43:0.023228119 44:-0.050681837 45:-0.076909047 46:-0.23321124 47:0.35122463 48:0.06627257 49:-0.031772557 50:0.019258758 
147.0334 1:-0.39698441 2:0.1206366 3:0.068899603 4:0.13178635 5:0.036787607 6:-0.16158907 7:0.017474659 8:-0.041027052 9:0.23733281 10:-0.16509828 11:0.1856762 12:0.062114751 13:0.057891471 14:0.005876572 15:0.12818656 16:0.065913829 17:-0.23045072 18:0.035920512 19:-0.15482439 20:-0.069570531 21:-0.086285135 22:0.2705278 23:-0.11459009 24:0.11507084 25:-0.10231912 26:0.035351157 27:-0.012468973 28:0.0153139 29:-0.082847111 30:0.051377454 31:-0.10673751 32:0.059959791 33:-0.13958924 34:-0.0015699369 35:-0.20600081 36:0.075615058 37:0.0085141832 38:0.014108697 39:-0.14642658 40:-0.1352821 41:-0.086701438 42:-0.068366748 43:0.1425491 44:0.07635111 45:0.092055393 46:-0.0071404378 47:-0.070473062 48:0.014800109 49:0.084227277 50:-0.079873811 
147.0334 1:-0.2350677 2:0.21016427 3:0.050889981 4:0.13542013 5:-0.22538615 6:0.0027314463 7:-0.10965751 8:0.1702364 9:0.099692377 10:-0.25396951 11:0.068492921 12:0.084473511 13:-0.083624181 14:0.063111261 15:-0.034228886 16:-0.17637894 17:-0.12652482 18:0.072946631 19:-0.092508216 20:-0.03762839 21:0.2091706 22:0.071698858 23:-0.022162837 24:-0.10900145 25:-0.10046489 26:0.09787233 27:-0.15061253 28:-0.011536339 29:-0.048827032 30:0.056561273 31:0.21169943 32:-0.050060596 33:-0.035772897 34:0.048102713 35:-0.21968969 36:-0.049313642 37:-0.04629404 38:0.27027945 39:0.1802125 40:-0.2804975 41:0.11484323 42:0.10548448 43:-0.025330501 44:0.0065488758 45:-0.067780315 46:-0.050010186 47:0.083752397 48:0.056271279 49:-0.14328731 50:-0.16830362 
147.0334 1:-0.31183504 2:0.11761393 3:0.09675927 4:-0.0058338071 5:0.13059319 6:0.010291395 7:0.022245436 8:-0.055211521 9:0.077836427 10:-0.091885978 11:0.068751745 12:-0.0080398838 13:0.029182427 14:0.0044580774 15:0.076126416 16:0.11186564 17:0.019403069 18:-0.074448286 19:-0.075945321 20:-0.074178062 21:-0.041058367 22:0.13970826 23:-0.22719401 24:0.046070156 25:0.1045915 26:0.044959985 27:-0.080533841 28:0.094460893 29:-0.16066036 30:-0.20660543 31:-0.04116659 32:-0.036233206 33:-0.25868258 34:0.12732031 35:-0.016507644 36:-0.010575882 37:0.084014811 38:-0.0054508589 39:0.0084500821 40:-0.050722767 41:0.075237739 42:-0.016759662 43:-0.037559073 44:-0.041542526 45:0.029354088 46:-0.071299091 47:0.042065026 48:-0.18042697 49:0.025169985 50:-0.065293414 
147.0334 1:-0.14230887 2:0.064245302 3:0.092513205 4:0.17307212 5:-0.19093031 6:0.079109158 7:-0.10991378 8:-0.10022903 9:-0.081366353 10:-0.22644373 11:-0.070636974 12:-0.022161786 13:-0.058821297 14:0.14979949 15:0.19921529 16:-0.17808359 17:-0.17270609 18:0.25860358 19:0.14976815 20:-0.046981622 21:0.21655329 22:0.021801458 23:0.066627083 24:0.10371116 25:-0.092793902 26:0.12364097 27:-0.0082054628 28:0.087488852 29:-0.012126949 30:-0.10469032 31:0.15908461 32:-0.029431007 33:0.10750615 34:0.10716429 35:-0.050962038 36:0.24277241 37:-0.35325559 38:-0.039034153 39:0.16421349 40:-0.070375853 41:0.053858531 42:-0.075295984 43:0.083052508 44:-0.1369137 45:0.0084259318 46:0.015311053 47:0.014548772 48:-0.11379819 49:0.080202192 50:-0.11562901 
-147.0334 1:-0.4046269 2:0.055068677 3:0.063292295 4:-0.03779372 5:-0.020123187 6:0.035589943 7:-0.068568836 8:0.034090612 9:-0.04083724 10:0.028324998 11:-0.035569597 12:0.0029262014 13:0.19585607 14:0.1468406 15:-0.14590563 16:0.0011768998 17:0.21089418 18:0.34845201 19:0.076186894 20:-0.25321078 21:-0.26051118 22:-0.16987495 23:-0.066299889 24:0.071210954 25:-0.21406267 26:0.052845258 27:-0.095022477 28:-0.0066373837 29:0.094289975 30:-0.090022007 31:0.1205975 32:-0.052091973 33:0.15970128 34:-0.082170612 35:0.0084079158 36:-0.054853609 37:0.037935969 38:0.042562254 39:-0.13263378 40:0.10108486 41:0.15474406 42:-0.16409099 43:-0.14143922 44:-0.092055829 45:0.01623453 46:-0.032609155 47:-0.049219165 48:0.064435962 49:-0.090818234 50:0.026186006 
-147.0334 1:-0.28822867 2:0.11568989 3:0.041003317 4:0.026034379 5:0.03036453 6:-0.11941802 7:0.068212352 8:-0.062094209 9:-0.16144213 10:-0.17349231 11:-0.048207041 12:0.0033625944 13:0.08339226 14:-0.028579306 15:-0.11127681 16:0.063713973 17:-0.095336129 18:0.0022534973 19:-0.060787135 20:-0.17716407 21:-0.18169483 22:0.18355754 23:0.13932857 24:-0.061691339 25:0.030881866 26:-0.019316829 27:0.028339889 28:-0.02948984 29:-0.011473768 30:-0.00089639376 31:0.1459412 32:-0.081384551 33:0.069409191 34:-0.022709286 35:0.089452904 36:0.040091083 37:-0.037070441 38:-0.0088773677 39:-0.027250143 40:-0.026440567 41:0.051099828 42:-0.02158639 43:-0.039318808 44:0.045205759 45:0.11596559 46:-0.12939069 47:-0.023746301 48:-0.030502941 49:-0.052048186 50:-0.025857288 
-147.0334 1:-0.31621654 2:0.14199039 3:-0.060561768 4:-0.0040553845 5:-0.11182144 6:0.059002866 7:-0.13615338 8:-0.066015191 9:0.044307734 10:-0.033404378 11:-0.16030577 12:-0.11691866 13:0.21168972 14:-0.01718037 15:-0.035488739 16:-0.0048816996 17:-0.057356234 18:0.25632643 19:0.017396157 20:-0.12907028 21:-0.21236124 22:-0.047038352 23:-0.046569933 24:-0.033829798 25:0.0057684895 26:-0.11059773 27:-0.098490201 28:0.12698367 29:0.022222639 30:-0.21688132 31:0.090811323 32:-0.12357602 33:0.14192268 34:-0.03469168 35:-0.052115414 36:0.045660118 37:0.048345027 38:-0.090652139 39:-0.00023570663 40:0.19209228 41:0.11511459 42:-0.100461 43:-0.12459074 44:0.054627983 45:0.12342545 46:-0.055943547 47:0.074752549 48:0.039306453 49:-0.0092483089 50:-0.13109445 
147.0334 1:-0.20892515 2:0.1031702 3:0.058475825 4:0.044035881 5:0.018302676 6:-0.19766338 7:-0.1112793 8:0.057192685 9:-0.088527003 10:-0.070771749 11:-0.14462015 12:-0.067360637 13:0.21023427 14:0.03532024 15:-0.15170319 16:0.018153632 17:-0.1727813 18:-0.046207406 19:-0.068301158 20:-0.041459373 21:-0.20535624 22:0.023337173 23:0.055234523 24:0.10707764 25:0.058140251 26:-0.026348918 27:0.076920294 28:0.020769045 29:0.20007455 30:0.033758466 31:0.22224628 32:-0.048507486 33:0.077554397 34:-0.051470464 35:-0.017321981 36:0.079553911 37:-0.024162979 38:-0.021411653 39:-0.016725254 40:0.14110121 41:-0.030335261 42:-0.087988014 43:0.03617084 44:-0.052455967 45:-0.054493258 46:-0.080993773 47:0.00072715955 48:0.081367662 49:0.16717759 50:-0.11720489 
147.0334 1:-0.28118577 2:0.12526292 3:0.048622421 4:0.091058517 5:-0.13427675 6:0.068318646 7:-0.18952737 8:-0.11853689 9:0.062232564 10:0.06262165 11:-0.061399143 12:-0.17751685 13:0.1264143 14:-0.0919379 15:-0.016005531 16:0.049263631 17:0.0049284486 18:0.12307715 19:-0.095737015 20:-0.11635504 21:-0.14494053 22:0.08524727 23:0.0013394533 24:-0.083833303 25:0.052807653 26:0.067990685 27:-0.056393808 28:0.14075049 29:-0.074423771 30:-0.1405343 31:0.19009748 32:-0.14813286 33:0.074905689 34:-0.035860858 35:-0.10306198 36:-0.015215818 37:0.044712474 38:0.013825166 39:-0.044807747 40:0.13812746 41:0.13657125 42:-0.091211167 43:-0.098070452 44:0.1027994 45:0.20082197 46:0.0022052139 47:0.14350448 48:0.01530801 49:0.10278077 50:-0.13046109 
147.0334 1:-0.24860821 2:0.24927004 3:-0.053202239 4:0.063440522 5:-0.26847644 6:0.03103843 7:-0.16102414 8:-0.042893344 9:0.088966778 10:-0.073653852 11:-0.20654577 12:0.036906434 13:0.21203501 14:0.055949959 15:-0.12332415 16:-0.0028607133 17:-0.26223215 18:-0.0034325799 19:0.014971285 20:-0.17436747 21:-0.05862997 22:0.095929618 23:0.11296771 24:0.014423122 25:-0.17257049 26:-0.027176661 27:-0.090723294 28:0.12768171 29:-0.095564836 30:-0.026277207 31:0.16364894 32:-0.059693551 33:0.17084759 34:-0.10244915 35:-0.088347175 36:0.045689932 37:-0.094145267 38:-0.039344215 39:-0.025949931 40:0.20733238 41:0.086187585 42:-0.043300968 43:-0.28605692 44:-0.00018533667 45:0.007034745 46:-0.054560147 47:0.10325947 48:0.012976826 49:-0.036702585 50:-0.18853197 
147.0334 1:-0.17541826 2:0.10554741 3:-0.044835002 4:0.057757394 5:-0.037916818 6:-0.16989083 7:-0.10161108 8:-0.13188392 9:0.11414083 10:-0.18821947 11:-0.21228457 12:-0.073349209 13:0.15380809 14:0.089338234 15:-0.2633874 16:-0.023828783 17:-0.074056373 18:0.041151624 19:0.097300371 20:0.036997107 21:-0.14250832 22:-0.08967661 23:-0.026591618 24:0.12284206 25:0.082784299 26:-0.062473554 27:-0.11412823 28:0.083219905 29:0.052443402 30:-0.13986095 31:0.22884504 32:-0.13220696 33:0.12966107 34:-0.0031681638 35:-0.035980179 36:0.085281832 37:0.017123221 38:-0.12560649 39:-0.045697582 40:0.19834137 41:0.11764911 42:-0.16884075 43:0.035669979 44:-0.076337004 45:0.034910822 46:-0.03285328 47:0.11101782 48:-0.020519641 49:0.061910614 50:-0.074329853 
147.0334 1:-0.26026253 2:0.11873424 3:-0.074193394 4:0.012566453 5:0.034114674 6:-0.28809637 7:-0.088334104 8:0.024279101 9:0.16279332 10:-0.24707187 11:0.14293244 12:0.11689643 13:0.34670958 14:-0.086800645 15:-0.19657247 16:-0.082569221 17:-0.28181489 18:-0.027922017 19:-0.19590354 20:0.22266055 21:-0.095052209 22:-0.37086816 23:-0.20273229 24:0.3568812 25:0.0067974172 26:0.25038355 27:0.24784272 28:0.06851046 29:-0.039125013 30:-0.24826713 31:0.03704933 32:-0.066757548 33:-0.052800121 34:-0.13708254 35:0.28021212 36:-0.12968054 37:0.035325498 38:0.29581786 39:-0.0090989844 40:0.20870087 41:0.17216835 42:-0.069926354 43:-0.11754198 44:-0.19762777 45:0.075196364 46:-0.11872719 47:-0.24101087 48:-0.15801344 49:-0.025390076 50:-0.13605857 
147.0334 1:-0.32394009 2:0.43539888 3:-0.0025397307 4:0.31946362 5:-0.20347759 6:-0.17707332 7:-0.30162021 8:0.14571097 9:-0.35119445 10:-0.0093909507 11:0.22653274 12:-0.10348987 13:0.28406693 14:-0.12512785 15:-0.10794538 16:-0.034947909 17:-0.28886454 18:0.050981996 19:-0.14756947 20:-0.17964234 21:0.01994689 22:-0.057605484 23:-0.014923916 24:-0.010852156 25:-0.043849945 26:-0.012187937 27:-0.22736897 28:0.02016315 29:-0.12153363 30:-0.028298925 31:-0.031011794 32:0.018566049 33:0.13552905 34:-0.039693155 35:0.036244126 36:-0.0065476953 37:-0.060330269 38:-0.055321995 39:-0.098635313 40:0.027096705 41:0.056749355 42:-0.11827356 43:0.024809137 44:0.10838943 45:0.032460598 46:0.029881599 47:0.010703469 48:-0.057431094 49:0.20095059 50:-0.030003439 
147.0334 1:-0.13731701 2:0.28416623 3:-0.10296233 4:0.10328943 5:-0.22891041 6:-0.16072242 7:-0.15993792 8:-0.11770003 9:0.057669207 10:-0.10418642 11:-0.17400594 12:0.04341351 13:0.1614324 14:0.060747401 15:-0.002664956 16:0.15738845 17:-0.11425116 18:0.14819548 19:-0.021275892 20:-0.11794375 21:-0.032553353 22:-0.19168566 23:-0.019289636 24:-0.073804656 25:-0.073281652 26:-0.034358522 27:-0.15135044 28:0.14393814 29:0.10279986 30:-0.14485553 31:0.28677424 32:-0.17972717 33:0.1566007 34:0.052689432 35:-0.029190119 36:0.08381628 37:-0.0062939878 38:0.030716042 39:0.04000908 40:0.23408631 41:0.077516591 42:0.010510146 43:0.060478522 44:-0.17127104 45:0.042539801 46:-0.004788446 47:0.042441384 48:-0.027852615 49:0.0745493 50:-0.064563476 
147.0334 1:-0.13894 2:0.16789424 3:-0.027727183 4:0.025396011 5:-0.2959487 6:-0.27785719 7:-0.41027636 8:-0.38807462 9:0.1416048 10:0.16316731 11:-0.14209576 12:-0.40317129 13:0.051981796 14:0.15527549 15:0.095679026 16:-0.17872802 17:0.034702258 18:0.091675204 19:-0.091340248 20:-0.15415874 21:0.39523415 22:0.36773582 23:0.21835829 24:0.22088566 25:0.099262824 26:0.13889617 27:-0.062584375 28:-0.22324799 29:0.022149346 30:0.099118226 31:-0.081235491 32:-0.15975517 33:0.34815579 34:0.041894308 35:0.089520627 36:0.13108517 37:0.1312904 38:0.030147101 39:0.0061861271 40:-0.03073489 41:-0.048851139 42:-0.039719203 43:-0.14592202 44:-0.18687345 45:-0.053550767 46:-0.012693384 47:-0.051838147 48:-0.058877585 49:-0.00075991686 50:0.22240459 
45.00759113798657 1:-0.4689707 2:0.70264851 3:-0.062008346 4:0.49230971 5:-0.012422986 6:-0.59000334 7:-0.63427566 8:0.53376559 9:-0.16898774 10:0.41103608 11:-0.055943572 12:-0.33704274 13:-0.079165797 14:-0.008676193 15:-0.52628232 16:0.338916 17:0.050497232 18:-0.081004919 19:0.0016443567 20:-0.21256107 21:-0.17723144 22:0.0085759466 23:-0.028938337 24:-0.12052518 25:-0.07826224 26:0.19272876 27:0.2618156 28:0.059003092 29:-0.13484181 30:0.18554625 31:0.21647363 32:0.065463822 33:0.070143817 34:-0.20270795 35:-0.082509709 36:-0.050606657 37:0.019745775 38:-0.082290185 39:0.063450623 40:0.18536376 41:0.074944369 42:0.0049022467 43:0.11213643 44:0.10390681 45:-0.03920822 46:0.024589969 47:-0.0083215067 48:0.015261384 49:-0.036831631 50:0.009458809 
107.6037435846108 1:0.52817306 2:0.25748558 3:-0.091608211 4:-0.039820941 5:0.12696831 6:0.036976812 7:0.016866964 8:0.089902778 9:-0.091726631 10:-0.019696009 11:-0.014362508 12:-0.088734578 13:0.10270318 14:0.022056719 15:-0.12443455 16:0.057524785 17:0.13848239 18:0.025396779 19:-0.047547134 20:0.041863064 21:0.13387549 22:0.06244122 23:-0.08189201 24:-0.012641067 25:-0.055055229 26:-0.099092668 27:-0.0428779 28:0.12542889 29:0.1067888 30:0.11172639 31:-0.059099431 32:-0.12818192 33:0.050590704 34:-0.10343005 35:-0.061103109 36:-0.022032728 37:-0.03114422 38:-0.13602905 39:-0.0093859987 40:0.18985582 41:0.073898618 42:0.12711862 43:-0.17563132 44:0.17663734 45:-0.16305128 46:0.036028277 47:0.025372032 48:0.0082698331 49:-0.056574023 50:-0.0079537153 
-147.0334 1:-0.28915816 2:-0.043584079 3:0.18725879 4:-0.019726312 5:0.10784751 6:0.24098596 7:0.058161325 8:0.1005914 9:-0.044245097 10:0.028150412 11:0.10806262 12:0.054914973 13:0.038674117 14:0.10107815 15:-0.058120269 16:-0.0045112224 17:-0.013703857 18:0.1020565 19:0.04510857 20:0.17010389 21:-0.061353167 22:-0.14332733 23:0.1000594 24:-0.0060419863 25:-0.034899121 26:0.07421923 27:-0.23909928 28:0.071980285 29:-0.055278028 30:0.18774453 31:-0.055327345 32:0.030084841 33:0.12252678 34:-0.1003211 35:-0.098320525 36:-0.07635499 37:-0.10924889 38:-0.1884509 39:-0.062189044 40:0.15369732 41:0.17518903 42:-0.074591497 43:-0.18766646 44:0.13529683 45:0.030514508 46:0.16784226 47:-0.20335983 48:0.011397781 49:-0.058983892 50:0.0028751789 
-104.6876504703871 1:-0.26327234 2:0.011415573 3:-0.044894145 4:0.0051214744 5:-0.073020895 6:0.12228471 7:-0.073964375 8:-0.13512486 9:-0.22034009 10:0.066133353 11:-0.042767313 12:0.095324286 13:0.019202264 14:0.0400971 15:-0.06061819 16:0.19334765 17:0.064124806 18:0.07974475 19:0.079155358 20:0.23960613 21:-0.024400706 22:0.047250517 23:-0.018378637 24:0.045081018 25:0.11232281 26:-0.028822601 27:0.0064744623 28:0.012917419 29:-0.12201371 30:0.28164178 31:0.15048882 32:-0.092073094 33:0.03094149 34:-0.18123349 35:-0.18801172 36:0.012892515 37:-0.29370923 38:-0.051088311 39:-0.06515228 40:0.0040422898 41:-0.079631957 42:0.014142234 43:0.023798504 44:-0.096913492 45:-0.11382605 46:0.21549485 47:0.10396993 48:-0.060398885 49:0.20967616 50:0.20797187 
147.0334 1:-0.1253245 2:-0.026786087 3:0.022859794 4:-0.06308059 5:-0.025367019 6:0.079065806 7:-0.032725271 8:-0.059797345 9:0.0068738306 10:0.086471072 11:0.096092909 12:0.068384132 13:-0.02800669 14:0.028365164 15:0.03483171 16:0.077447647 17:0.19773912 18:0.069706711 19:0.039018819 20:0.083863171 21:-0.05173257 22:-0.062160161 23:0.0011539051 24:-0.037561509 25:-0.042518748 26:0.059726108 27:-0.013338089 28:-0.10326432 29:-0.040049774 30:0.022814448 31:-0.0087194652 32:-0.035466293 33:0.050664833 34:-0.034248667 35:0.01694961 36:-0.039343336 37:-0.01693276 38:-0.045479994 39:-0.11354785 40:0.0645175 41:0.011395368 42:-0.1358945 43:-0.040838483 44:-0.026592273 45:0.0093755178 46:-0.030230908 47:0.042015372 48:0.053556903 49:0.014479973 50:-0.040964 
7.32917122333613 1:-0.23523032 2:-0.008913917 3:-0.059963168 4:-0.15535649 5:-0.11082347 6:-0.044989975 7:0.062252474 8:-0.061135212 9:0.21874199 10:0.036125841 11:-0.11470513 12:0.12284189 13:0.11238296 14:0.025684477 15:0.132844 16:-0.062936535 17:0.15739741 18:-0.15759902 19:0.036422622 20:0.22299008 21:-0.061162682 22:0.12286002 23:0.016139083 24:-0.028429495 25:-0.09535383 26:-0.13674534 27:0.06287431 28:-0.060672197 29:0.15226287 30:0.073670383 31:0.057645594 32:0.16579974 33:0.15722624 34:-0.11910311 35:-0.061335249 36:0.012651056 37:0.0018221609 38:0.12680656 39:-0.10611818 40:0.0092071396 41:0.14649897 42:-0.0081609367 43:-0.066000584 44:-0.077547421 45:0.11283189 46:-0.01448282 47:0.097829286 48:0.06903499 49:-0.0633761 50:0.0062258317 
147.0334 1:-0.19991854 2:0.012637345 3:0.098165784 4:-0.089271166 5:0.012400973 6:-0.0083680372 7:-0.096485607 8:-0.1353088 9:0.079532621 10:0.19580577 11:0.066283247 12:0.1351765 13:0.15410819 14:0.07358001 15:0.1519566 16:-0.11307159 17:0.24171508 18:-0.091276389 19:0.057329942 20:0.080677084 21:0.050261014 22:-0.10294197 23:0.18881463 24:-0.027641692 25:-0.0066048287 26:0.11943354 27:-0.10504281 28:-0.13280258 29:0.13662836 30:0.14815812 31:0.1705558 32:-0.17634605 33:-0.058406027 34:-0.16281684 35:-0.0053299579 36:0.16521912 37:0.0189636 38:-0.1981841 39:-0.15722939 40:0.096294026 41:0.13436955 42:-0.12783472 43:0.025270367 44:0.07503757 45:0.054865244 46:0.07380762 47:-0.14436788 48:0.17418239 49:0.046605607 50:0.13886096 
68.03331408488242 1:-0.2233617 2:0.075469861 3:-0.11711246 4:0.031599387 5:-0.084812228 6:0.10659344 7:0.2380148 8:0.17798283 9:0.19864712 10:0.46736609 11:-0.20197656 12:0.1664008 13:0.19652578 14:-0.24157564 15:0.10832518 16:-0.20502958 17:-0.0023667297 18:0.069765297 19:-0.14653348 20:0.38130431 21:0.097214663 22:-0.0066562772 23:-0.16463842 24:-0.1643391 25:0.03463563 26:0.019774197 27:0.15322836 28:-0.16972112 29:0.17381148 30:0.064225759 31:0.16239077 32:0.12402507 33:-0.0049351056 34:-0.17683058 35:-0.33656007 36:-0.093921345 37:-0.14575071 38:-0.086805733 39:0.12375787 40:-0.063680233 41:0.054424757 42:-0.37482307 43:-0.17840354 44:-0.22280221 45:-0.076522081 46:0.072926763 47:-0.30752438 48:0.24885181 49:0.18794299 50:0.043357831 
147.0334 1:-0.18521257 2:0.2772705 3:-0.019111682 4:-0.24169937 5:0.0046503298 6:0.33840374 7:0.036776413 8:-0.013145338 9:0.074179124 10:0.044696959 11:-0.034456548 12:-0.029707683 13:0.0040489593 14:-0.062383612 15:-0.14399211 16:0.15212945 17:-0.036181831 18:0.034684447 19:0.11674305 20:0.20661946 21:-0.1464944 22:0.16381197 23:-0.036374234 24:-0.15790522 25:0.15193458 26:0.14945338 27:-0.064671348 28:-0.22297366 29:-0.12760802 30:-0.00071042726 31:-0.083369083 32:0.001171311 33:-0.12049225 34:0.16620925 35:0.069170789 36:0.20033793 37:0.0061315124 38:-0.028232463 39:0.0043163658 40:0.079506628 41:0.12080564 42:-0.15893443 43:0.0052287481 44:0.011944347 45:0.033623756 46:0.18870762 47:-0.010041104 48:0.06210869 49:-0.17062978 50:0.068760775 
147.0334 1:-0.12345844 2:0.30507341 3:-0.077094007 4:0.026977008 5:-0.20472032 6:0.10802349 7:-0.024357542 8:-0.19588621 9:-0.10845501 10:0.33422289 11:-0.044348278 12:0.24459449 13:-0.048442286 14:0.046727567 15:-0.0031379695 16:0.083603113 17:-0.077306794 18:0.093616696 19:0.13514876 20:0.17951253 21:0.18670682 22:0.099921217 23:-0.015156559 24:-0.031522837 25:0.0040281676 26:0.16817143 27:0.081271487 28:-0.051075377 29:-0.045024697 30:-0.050170108 31:0.082513937 32:0.19103975 33:0.14274504 34:-0.31045565 35:-0.021248546 36:0.061379027 37:-0.091364014 38:0.21416852 39:0.039831 40:-0.20069075 41:-0.031256238 42:-0.026779114 43:-0.11155165 44:-0.020476125 45:0.040703001 46:-0.20643731 47:-0.034286995 48:0.20583135 49:-0.099836275 50:0.10981663 
147.0334 1:0.41931475 2:0.10848191 3:0.0589213 4:-0.016903684 5:0.031058912 6:0.018897298 7:-0.04646218 8:0.1643968 9:-0.043529098 10:0.0070547885 11:-0.065375213 12:-0.059057562 13:0.02637942 14:0.032967127 15:-0.038465934 16:0.069153575 17:0.015178599 18:-0.014244481 19:0.057243261 20:-0.015112797 21:0.060977766 22:-0.088224571 23:-0.076956624 24:-0.023175817 25:0.094781816 26:-0.10413461 27:-0.015266118 28:-0.073306995 29:-0.11268714 30:0.13619638 31:-0.011499445 32:-0.017941982 33:-0.12973813 34:-0.029361115 35:-0.0035242858 36:0.1390842 37:0.10539123 38:0.156908 39:0.10019304 40:-0.013687317 41:0.035987626 42:-0.029300156 43:0.14518596 44:-0.0070190322 45:-0.032643936 46:0.020422146 47:0.07417313 48:-0.15469036 49:-0.082533559 50:-0.12305461 
-147.0334 1:-0.033801958 2:-0.02790445 3:-0.046840987 4:0.096132791 5:0.029417175 6:0.021186823 7:-0.020472372 8:0.029484313 9:-0.010245299 10:-0.05558619 11:0.054556663 12:0.07577866 13:0.015184341 14:0.02682988 15:0.067819396 16:0.061499966 17:-0.083969043 18:0.018495043 19:-0.11222979 20:-0.075250144 21:0.0085016465 22:0.10209841 23:-0.0033471872 24:0.14995554 25:-0.08318938 26:0.075237492 27:-0.05122287 28:0.0506388 29:0.033428218 30:-0.051363964 31:0.19217514 32:-0.053519783 33:-0.1544804 34:0.034429826 35:0.029145003 36:-0.024951335 37:-0.024193205 38:0.049776045 39:0.014880071 40:-0.0062032641 41:0.0019283971 42:0.0022082114 43:0.023201038 44:0.052634027 45:0.0080661653 46:0.11004536 47:-0.020061875 48:-0.037819696 49:-0.014578912 50:0.16821725 
-147.0334 1:0.03510409 2:-0.050449802 3:-0.0029063469 4:0.011863101 5:-0.0098273298 6:0.03446186 7:0.031246109 8:-0.003891649 9:0.028751849 10:-0.020881265 11:-0.023630387 12:-0.076476891 13:-0.090157756 14:-0.0088508984 15:-0.029689513 16:0.058296429 17:-0.094793686 18:-0.11168746 19:0.060823376 20:-0.055330678 21:-0.0055941968 22:-0.012938992 23:0.032619786 24:0.077536086 25:0.14303236 26:-0.0014202927 27:0.039170905 28:-0.012447453 29:0.049574394 30:-0.041792255 31:0.084775491 32:-0.042103956 33:-0.038361997 34:-0.058422093 35:-0.027498557 36:-0.019458349 37:-0.052265354 38:-0.061029921 39:-0.032086799 40:0.0015267965 41:-0.034284736 42:0.0056894419 43:0.019032419 44:-0.02281416 45:-0.0015004793 46:0.046487955 47:0.039099697 48:-0.0033400214 49:-0.039789738 50:0.041609744 
-147.0334 1:-0.04844824 2:-0.080707613 3:0.06844283 4:0.10358609 5:0.033877408 6:0.061961619 7:-0.057953858 8:0.04321157 9:0.067400935 10:0.028936905 11:0.020646353 12:-0.017914085 13:-0.0028317566 14:-0.025184603 15:0.0022930636 16:0.015295494 17:-0.0050524799 18:0.022474685 19:0.028398247 20:0.088940997 21:0.018932074 22:-0.099836124 23:-0.030926281 24:0.059562713 25:-0.019214794 26:-0.0090075102 27:-0.038982289 28:0.10132278 29:0.11621049 30:-0.1339913 31:0.036367815 32:-0.064513771 33:-0.11822028 34:-0.023856866 35:-0.10111067 36:-0.06370818 37:0.068222997 38:-0.11485732 39:-0.06344981 40:-0.026054865 41:-0.016746127 42:-0.11276457 43:0.12148002 44:-0.096790607 45:0.076706949 46:-0.014624894 47:-0.040473901 48:0.024108981 49:-0.015392047 50:0.065293305 
-138.8536747875366 1:-0.082676851 2:-0.068660232 3:0.088687538 4:-0.18089272 5:-0.087994949 6:0.0054792863 7:0.005666843 8:0.17339252 9:0.029216702 10:-0.020789725 11:-0.039596206 12:-0.055639458 13:-0.016718906 14:0.11966817 15:0.00086426163 16:-0.021217572 17:-0.2102085 18:-0.011938683 19:-0.016353403 20:0.15597575 21:-0.0098832533 22:0.2248647 23:0.031953192 24:0.063224407 25:0.072552586 26:-0.063319366 27:-0.060284779 28:0.047421354 29:-0.074091679 30:-0.033701392 31:0.19284002 32:0.097873348 33:-0.069969253 34:-0.076433725 35:-0.10321928 36:-0.031636115 37:0.057865247 38:-0.0026548655 39:-0.043447287 40:-0.061222049 41:-0.071311602 42:-0.10359131 43:0.086073142 44:0.074269488 45:-0.23054095 46:0.031226645 47:-0.16321529 48:-0.11528005 49:-0.0052598508 50:-0.0067531375 
-147.0334 1:-0.37848885 2:0.053574528 3:0.10738754 4:-0.0065871344 5:-0.068822145 6:0.06626481 7:0.12453395 8:0.023335182 9:-0.031634847 10:0.055953911 11:-0.14112501 12:-0.047891829 13:-0.035569558 14:-0.09929864 15:0.029354033 16:0.013805387 17:0.041141684 18:0.098606916 19:0.041885987 20:0.010390582 21:0.092959978 22:-0.066407253 23:0.12661932 24:-0.024455413 25:-0.17445947 26:-0.018628239 27:-0.0036445768 28:0.15484862 29:-0.066459143 30:0.20591291 31:0.015263558 32:-0.010956224 33:-0.12736475 34:-0.0025516082 35:-0.011871451 36:-0.043189802 37:0.0061095486 38:-0.043663901 39:-0.071054779 40:0.027722628 41:-0.056498013 42:-0.10809397 43:0.063186193 44:0.13764596 45:-0.14431705 46:-0.098993484 47:0.0075936172 48:0.0051509594 49:0.0091842259 50:-0.028233897 
108.2172502484861 1:-0.14432116 2:-0.11349638 3:0.1508865 4:0.0065862691 5:-0.061880295 6:-0.033704994 7:0.016493815 8:0.016560557 9:-0.015362232 10:-0.0071111967 11:0.11162886 12:-0.036753005 13:-0.033715262 14:0.015836181 15:0.08401262 16:0.061737602 17:-0.092192799 18:-0.049246995 19:-0.022287928 20:0.008179849 21:0.0011872916 22:0.050647326 23:-0.027947049 24:0.11232542 25:-0.079067807 26:-0.11218042 27:0.027698308 28:-0.027139957 29:0.017425832 30:-0.11938058 31:0.11796362 32:-0.092380833 33:-0.01337288 34:0.043422412 35:-0.050328449 36:-0.017494055 37:0.080309831 38:-0.08627632 39:-0.061233558 40:-0.11819647 41:-0.00030280307 42:-0.047458807 43:0.18750771 44:-0.10337549 45:0.039290329 46:0.0056442413 47:-0.045510091 48:0.17355971 49:0.033537423 50:-0.055849361 
-67.14183145433978 1:-0.11014259 2:-0.053211878 3:0.17710728 4:-0.090255501 5:0.034148201 6:0.099754641 7:-0.0039763441 8:0.27922212 9:0.021708063 10:-0.11983417 11:-0.087110157 12:0.067531026 13:-0.0073552563 14:-0.02569925 15:-0.043718786 16:-0.10494173 17:0.0016773554 18:0.011381145 19:-0.063116908 20:0.035587632 21:-0.0087650824 22:-0.015858963 23:0.18099056 24:0.12633947 25:-0.060099964 26:0.036707124 27:0.078487153 28:-0.0067415831 29:-0.044005451 30:0.015172966 31:0.035629968 32:0.041682608 33:-0.15113859 34:0.053012157 35:-0.020468475 36:-0.1480482 37:-0.075806864 38:-0.047993075 39:0.057784481 40:-0.048544298 41:0.075585437 42:-0.09437975 43:-0.037341616 44:-0.042935084 45:0.084702354 46:0.035590615 47:-0.086738925 48:-0.056093178 49:0.10099539 50:-0.088053156 
85.72863426371937 1:-0.24484004 2:-0.10947464 3:0.062086536 4:-0.05004819 5:-0.062944145 6:0.071040838 7:-0.030856189 8:0.006934428 9:0.080498359 10:-0.030162023 11:0.0043086112 12:-0.10748555 13:-0.0040405591 14:0.072941564 15:0.025340821 16:-0.05769645 17:-0.079840004 18:0.0063755212 19:-0.078902626 20:-0.14382283 21:0.073794509 22:0.082323198 23:-0.090618287 24:0.068111201 25:-0.03141504 26:-0.038228458 27:0.12030279 28:0.083561364 29:0.10248166 30:-0.026332947 31:0.021081422 32:-0.072170945 33:-0.043922778 34:-0.013581004 35:-0.045983665 36:-0.032831972 37:-0.025836639 38:0.015680635 39:0.0089718929 40:-0.12153373 41:0.1133897 42:-0.033417814 43:0.012850563 44:0.018618102 45:-0.04823432 46:-0.076109804 47:-0.067219217 48:0.11076729 49:-0.057785665 50:-0.083183253 
147.0334 1:-0.22726057 2:-0.067135787 3:0.14605854 4:-0.054488713 5:0.065129894 6:0.021692459 7:-0.024376525 8:0.12377031 9:0.063820216 10:-0.035602741 11:0.16669313 12:0.018689517 13:-0.059830558 14:0.061003816 15:0.027056684 16:-0.13345829 17:0.069494321 18:0.036402198 19:-0.12883499 20:-0.13333937 21:0.071697183 22:0.037607294 23:0.065631659 24:0.019617015 25:0.029844175 26:0.17478219 27:0.059254107 28:0.069980794 29:0.14162994 30:0.010744449 31:0.046108413 32:-0.15037676 33:-0.14207246 34:-0.01656705 35:-0.093633675 36:-0.12369376 37:0.020299867 38:0.14360901 39:-0.00017555945 40:-0.026575987 41:0.064778687 42:0.027613189 43:0.044978944 44:0.023868006 45:0.033498722 46:0.065085012 47:-0.12790271 48:0.069988895 49:-0.049413303 50:0.055292047 
147.0334 1:-0.16442358 2:-0.043774327 3:0.1821785 4:-0.040949681 5:0.068608403 6:-0.10316244 7:-0.13233012 8:0.098742353 9:0.10601055 10:-0.060735703 11:0.10843911 12:0.020168128 13:-0.10174003 14:0.13075883 15:-0.17697425 16:-0.18927437 17:0.091947659 18:-0.051181818 19:-0.076629657 20:-0.11875009 21:0.16017191 22:0.092732548 23:0.0073606035 24:0.02211612 25:-0.028243009 26:0.10233225 27:0.12026689 28:0.1492161 29:0.16171014 30:0.12739404 31:0.095061174 32:-0.025385072 33:-0.18687204 34:0.093612196 35:-0.01545639 36:0.01214528 37:-0.058435522 38:0.078399096 39:-0.14945836 40:-0.11772893 41:0.1280793 42:-0.018293226 43:-0.033268374 44:0.11880791 45:-0.045401518 46:0.027199153 47:0.14898371 48:0.027885101 49:-0.15907312 50:0.095600103 
-147.0334 1:-0.4971883 2:0.071930031 3:0.1531873 4:0.0092384158 5:-0.023600469 6:0.11828814 7:0.11169178 8:0.0463806 9:-0.023738505 10:-0.093696069 11:-0.02633908 12:-0.063082784 13:-0.042450802 14:-0.034011678 15:0.18579553 16:0.1953324 17:-0.12459233 18:0.13756442 19:-0.26624838 20:-0.033818362 21:0.006298692 22:0.091396362 23:-0.1249066 24:0.12657902 25:-0.07458602 26:0.070146033 27:-0.10040902 28:0.20306986 29:-0.01418245 30:0.21130876 31:0.069338065 32:0.19225045 33:-0.013742583 34:0.134905 35:0.12111517 36:-0.060055751 37:0.061459133 38:-0.11597159 39:-0.092324902 40:-0.025117196 41:0.040026648 42:-0.12274514 43:-0.10664605 44:-0.04833613 45:0.072525264 46:-0.058088869 47:0.0059576706 48:-0.017161217 49:0.078403501 50:0.02465325 
147.0334 1:-0.22047845 2:0.13776947 3:0.10666978 4:0.036002325 5:-0.035378028 6:0.13110459 7:0.0039234867 8:0.010908824 9:0.051544042 10:0.0049472869 11:-0.084111668 12:0.10177805 13:-0.20386325 14:-0.20160105 15:0.16778425 16:0.23630369 17:0.059032857 18:-0.079966209 19:-0.020706046 20:0.052174652 21:-0.071419157 22:0.060763584 23:-0.13598602 24:0.14864863 25:-0.20128498 26:0.052558137 27:0.010861252 28:0.020956185 29:0.13315047 30:0.18492867 31:0.11954782 32:-0.18578392 33:0.071652964 34:0.067797223 35:-0.088975584 36:0.065806673 37:-0.027516236 38:-0.048834505 39:-0.084365837 40:0.049108889 41:0.027813437 42:-0.20242925 43:0.14018748 44:0.030151693 45:-0.16682007 46:-0.1176976 47:0.068187325 48:0.075255604 49:-0.068892014 50:0.012724883 
147.0334 1:-0.19606019 2:-0.028026285 3:-0.009449493 4:0.062898262 5:-0.021961664 6:0.16006375 7:0.11808789 8:0.10125438 9:0.0034873823 10:-0.17970099 11:-0.068051027 12:0.036869667 13:-0.014309951 14:0.032106563 15:0.066991985 16:0.10675897 17:0.061990343 18:0.043560629 19:-0.073565137 20:-0.011015095 21:-0.08519223 22:0.097964106 23:-0.078770243 24:-0.0094357042 25:-0.12764852 26:-0.047681723 27:0.09089549 28:0.127 29:0.043600296 30:0.082989701 31:0.14721171 32:-0.039082779 33:-0.09858114 34:-0.04823497 35:-0.092096471 36:0.017893237 37:0.043362741 38:-0.10053452 39:-0.01742011 40:0.041361109 41:0.083201229 42:0.080323705 43:0.114606 44:-0.11312964 45:-0.070216866 46:-0.11092202 47:-0.074769197 48:0.15477757 49:-0.082619442 50:0.0046248261 
147.0334 1:-0.39229271 2:0.0051093302 3:0.12849254 4:0.050792485 5:-0.021026444 6:0.06864174 7:-0.004865799 8:0.11747205 9:-0.0093871455 10:-0.042217158 11:-0.036440773 12:-0.051143163 13:-0.086117099 14:0.1314023 15:0.082768399 16:-0.0071632273 17:0.14219298 18:0.06314742 19:-0.13983764 20:-0.093555599 21:-0.087977745 22:0.032643097 23:-0.023151046 24:0.012188493 25:-0.047827717 26:-0.00079571176 27:0.062072847 28:-0.13541492 29:0.14028741 30:0.085102396 31:-0.029343473 32:-0.049617023 33:-0.070415377 34:0.032819298 35:0.073184279 36:-0.031711139 37:0.18123786 38:-0.027384174 39:-0.0027893797 40:0.12904924 41:-0.05865856 42:0.016487855 43:0.16803022 44:0.11269329 45:-0.01281187 46:-0.11088235 47:-0.127831 48:0.0012582066 49:-0.13920547 50:0.025275035 
-55.88455672577701 1:0.43035811 2:0.23282194 3:0.10515477 4:-0.10428841 5:-0.10061356 6:0.0029525217 7:-0.0032519272 8:-0.06556092 9:-0.04199171 10:-0.004306464 11:-0.0073602279 12:-0.0012268169 13:-0.026198841 14:-0.012768827 15:0.064501555 16:0.022445633 17:-0.069857342 18:0.022460869 19:-0.10031826 20:-0.0033204146 21:0.049118976 22:-0.0018945178 23:-0.0047999958 24:0.074653483 25:-0.097828824 26:0.0087899401 27:-0.10768445 28:0.11504695 29:0.025033075 30:-0.017803229 31:0.035758154 32:-0.0074180848 33:-0.037870346 34:0.062744722 35:0.14960483 36:0.013021543 37:0.025379371 38:0.068989631 39:-0.11068578 40:-0.028540959 41:0.054447686 42:-0.033843448 43:-0.10847766 44:-0.076375152 45:-0.042544284 46:0.063992761 47:0.13849181 48:-0.074095047 49:-0.16294976 50:0.093717696 
-80.36939068868398 1:0.36644754 2:0.13093953 3:-0.02734098 4:0.1137667 5:-0.058725885 6:0.10590168 7:0.12609356 8:0.12076169 9:0.00013153061 10:0.12505934 11:-0.048905503 12:-0.17768919 13:0.071839455 14:0.033778053 15:0.02670377 16:-0.065442897 17:-0.016773045 18:0.019898049 19:-0.25109345 20:0.090378721 21:0.12167688 22:0.051661912 23:-0.056455599 24:-0.12176573 25:0.12648336 26:0.12378366 27:-0.087417633 28:-0.040852406 29:0.03477622 30:-0.20099312 31:0.036713732 32:0.12437152 33:-0.019187735 34:-0.13278368 35:0.057336248 36:0.043530636 37:0.027437497 38:-0.11429477 39:0.012306476 40:-0.10592602 41:0.16617038 42:0.046088528 43:0.10188571 44:-0.10835434 45:0.1317449 46:-0.18347365 47:-0.036859156 48:-0.048001498 49:-0.21537867 50:0.038375072 
59.10697036016779 1:0.50108573 2:0.019531498 3:0.022383854 4:-0.032513861 5:0.068402548 6:0.063757008 7:-0.081260055 8:0.056272609 9:0.11488393 10:-0.1098013 11:0.11440766 12:-0.061022529 13:-0.0060705558 14:0.018305833 15:0.10483128 16:0.063536762 17:0.084397801 18:-0.081003593 19:0.12566718 20:0.060827184 21:0.12748271 22:-0.042292294 23:-0.11413664 24:-0.020119464 25:0.0082608124 26:-0.14197017 27:0.0081725531 28:-0.041926805 29:-0.050725654 30:0.11817464 31:-0.18364076 32:0.13214594 33:-0.049164419 34:-0.086498021 35:-0.060586853 36:-0.14912969 37:-0.079958732 38:0.25412537 39:-0.092359198 40:0.053784978 41:-0.036516633 42:-0.0051041432 43:-0.057082076 44:-0.15694466 45:-0.16249271 46:-0.074819407 47:0.099559133 48:-0.10918466 49:0.11714276 50:-0.079548057 
-147.0334 1:-0.1197639 2:-0.025281382 3:0.0026431807 4:0.20697401 5:-0.14163817 6:0.020337837 7:0.03975233 8:-0.028680201 9:-0.02129945 10:0.11460467 11:0.028378815 12:-0.045414003 13:0.0063486478 14:-0.024628462 15:-0.030669757 16:0.036788563 17:0.064379043 18:0.011430148 19:0.055047493 20:0.035264686 21:0.18975256 22:0.20838826 23:-0.075113198 24:0.049138659 25:-0.10158724 26:0.18703424 27:-0.10356769 28:0.0035831193 29:-0.017679582 30:0.25660865 31:-0.067782978 32:0.0084591791 33:-0.013448129 34:0.019325023 35:0.053278893 36:0.12597401 37:-0.099139192 38:0.030099101 39:-0.15589389 40:-0.034616291 41:-0.018507826 42:0.19682339 43:-0.1353472 44:0.11747783 45:-0.0050163955 46:-0.15552671 47:-0.12959215 48:0.024759246 49:-0.044359025 50:0.058431811 
-101.4427228479186 1:0.030700305 2:-0.10217977 3:-0.059748311 4:0.090495701 5:-0.029425672 6:0.065329054 7:-0.022335361 8:0.020092364 9:-0.075921697 10:0.064629168 11:0.10573468 12:-0.11638958 13:0.023642373 14:-0.12246208 15:0.12869434 16:-0.11408354 17:-0.077285055 18:0.068293255 19:-0.11247035 20:0.023569761 21:0.044328685 22:0.21345116 23:-0.053400037 24:0.11076497 25:-0.14898093 26:-0.050800237 27:-0.021767616 28:0.093778431 29:-0.0092851119 30:-0.03029272 31:0.016714109 32:-0.071169986 33:-0.19751931 34:-0.11221701 35:0.085677954 36:0.04147043 37:0.12708897 38:0.024993519 39:-0.055591103 40:-0.025842773 41:-0.0022491832 42:-0.16967063 43:0.015263947 44:0.055148339 45:0.023218971 46:-0.10860687 47:0.041772325 48:-0.12445732 49:-0.082299578 50:-0.013185158 
-28.7638426119077 1:0.036477166 2:-0.01904624 3:0.058713577 4:-0.008418477 5:-0.031441592 6:0.039232222 7:0.016418941 8:-0.086175734 9:-0.051756714 10:0.079937303 11:0.1209216 12:-0.038827019 13:-0.0093473394 14:-0.057752986 15:-0.086603808 16:0.052341835 17:-0.10292012 18:-0.064215152 19:0.13390593 20:0.079326347 21:0.026903366 22:0.080919836 23:-0.062003337 24:0.029183448 25:0.018268284 26:-0.046489832 27:-0.065125608 28:-0.057463624 29:0.0088042415 30:0.00062072198 31:0.096684089 32:-0.069510859 33:-0.13339312 34:0.054476617 35:0.035237646 36:-0.0012860427 37:-0.0029010617 38:-0.099484143 39:-0.033481199 40:-0.013604593 41:0.069500827 42:-0.12222438 43:0.21721468 44:-0.059651348 45:0.016630533 46:0.020539985 47:0.044518805 48:0.040007571 49:-0.039399313 50:-0.077705867 
-58.79473269060676 1:-0.085584314 2:-0.12486643 3:-0.025880541 4:-0.066377269 5:0.12533238 6:-0.11188926 7:-0.1344755 8:0.015569273 9:-0.067092812 10:-0.047088872 11:-0.15970629 12:-0.17861829 13:0.022634858 14:0.030836799 15:0.099462752 16:0.078379996 17:-0.041922059 18:0.025162024 19:-0.055186585 20:0.11054826 21:0.20205019 22:0.0064970943 23:-0.20765913 24:-0.10889582 25:-0.010631807 26:0.084545257 27:0.13170197 28:0.0090239034 29:0.083159369 30:-0.022179987 31:0.10293147 32:0.083574785 33:0.3323936 34:0.037438543 35:0.18641481 36:-0.1978706 37:0.098121035 38:0.14427471 39:-0.10420377 40:-0.22986644 41:0.030568751 42:0.13374481 43:-0.17862588 44:0.068282561 45:-0.078984972 46:-0.1859381 47:0.025135378 48:-0.12689282 49:0.043710079 50:0.043672834 
-147.0334 1:-0.098047068 2:-0.12551308 3:0.11008806 4:-0.024967115 5:0.027438804 6:-0.072243644 7:0.018660806 8:0.022237046 9:-0.024247568 10:0.045743454 11:0.010799004 12:-0.0091017617 13:0.1680376 14:-0.13602116 15:0.062126344 16:-0.045153254 17:0.083432923 18:-0.064708213 19:-0.25517259 20:0.14945096 21:-0.040225474 22:-0.16494346 23:0.022796541 24:-0.040134199 25:0.10581896 26:0.30721203 27:0.10928771 28:-0.094238687 29:-0.069094679 30:-0.16687962 31:-0.079727089 32:-0.058886598 33:-0.0077709947 34:-0.18780911 35:0.21565261 36:-0.11927283 37:0.073903543 38:0.025929265 39:0.03049484 40:-0.063425051 41:0.04600124 42:-0.041900873 43:-0.19111533 44:0.011009087 45:0.11465755 46:-0.059230374 47:-0.10442771 48:-0.0010806368 49:0.02369329 50:-0.13688873 
147.0334 1:0.095530222 2:-0.16261016 3:0.078708199 4:-0.040552435 5:-0.06703544 6:0.013326407 7:-0.046918072 8:0.083549106 9:0.054061145 10:-0.11559605 11:0.0093907646 12:-0.066703867 13:0.0012940721 14:-0.20379104 15:0.055721118 16:-0.099548172 17:-0.10675496 18:-0.15646834 19:-0.086571107 20:-0.11519356 21:-0.37226391 22:-0.014722787 23:0.074924595 24:-0.018664011 25:0.15189614 26:0.12362669 27:0.014849671 28:0.11038835 29:0.16069688 30:0.13792812 31:-0.021509192 32:0.051901621 33:0.099296546 34:-0.18452719 35:-0.096865814 36:-0.03766214 37:-0.16376341 38:0.0054064941 39:-0.18619576 40:0.10605214 41:-0.024680917 42:0.092448958 43:0.14077058 44:0.0039174037 45:-0.2895539 46:-0.15940992 47:-0.018451849 48:-0.21345143 49:0.11309963 50:0.13537332 
-48.48958311670737 1:-0.11671905 2:-0.064361051 3:0.007693048 4:-0.11398987 5:0.031094374 6:0.1174416 7:0.0031013484 8:0.11421016 9:0.2903739 10:-0.10304714 11:0.12610449 12:0.050543374 13:-0.25147545 14:-0.060963011 15:0.24902286 16:-0.24407705 17:-0.11262617 18:0.10419801 19:0.00064014748 20:0.23070671 21:-0.13155804 22:-0.16931324 23:0.12356358 24:-0.12901612 25:-0.3826292 26:0.12993204 27:0.29041724 28:0.10120038 29:0.16620682 30:-0.090859955 31:-0.042954561 32:-0.072319064 33:0.15125987 34:-0.25263853 35:-0.097579734 36:-0.23306936 37:0.078387788 38:0.17161631 39:-0.09448848 40:0.19089126 41:-0.095621418 42:-0.06476598 43:-0.053639897 44:-0.055032358 45:-0.041480387 46:-0.094449124 47:0.067941429 48:0.10947658 49:0.11219838 50:0.16331849 
-147.0334 1:-0.29675381 2:-0.14153252 3:0.03981961 4:0.050709441 5:-0.061388319 6:-0.039536846 7:0.0076704379 8:-0.0035228553 9:0.022087011 10:-0.07388169 11:0.0089057844 12:-0.10694795 13:-0.13953747 14:0.053218574 15:-0.014070142 16:0.15759598 17:0.085052969 18:0.1075608 19:0.00054686392 20:0.05205937 21:0.060734142 22:0.18012492 23:-0.14458617 24:-0.061029144 25:0.044793277 26:0.014357214 27:-0.086516245 28:-0.012304724 29:0.1196856 30:0.028221129 31:-0.20434815 32:-0.01664678 33:-0.30829391 34:-0.13731139 35:-0.070815747 36:-0.19290635 37:0.044230297 38:-0.21416689 39:-0.12694919 40:0.051307529 41:0.053027712 42:-0.046053856 43:-0.087481514 44:-0.0067204479 45:0.056489195 46:-0.10161692 47:0.071674303 48:0.12777031 49:-5.0538913e-005 50:-0.26306044 
-5.848446438254423 1:-0.35911295 2:-0.11269009 3:0.10789592 4:-0.04055655 5:-0.010578269 6:-0.06470641 7:-0.07339077 8:0.020747766 9:-0.013722304 10:0.027833741 11:0.087729762 12:-0.19835893 13:-0.046544498 14:-0.022940431 15:-0.066995126 16:0.045533686 17:-0.0059039853 18:-0.056450883 19:0.021390044 20:0.20485999 21:-0.10079305 22:0.14842029 23:-0.18477053 24:-0.03571267 25:-0.095405938 26:-0.04150689 27:-0.13745042 28:0.034313682 29:-0.095244425 30:0.094024087 31:-0.031931307 32:0.0792433 33:-0.048462595 34:-0.0038287032 35:-0.010059305 36:-0.18618004 37:0.10608572 38:-0.03246108 39:-0.10181618 40:0.031708688 41:0.018142686 42:-0.15873605 43:-0.11111698 44:0.022840843 45:-0.0014320524 46:-0.0015117124 47:-0.052737284 48:-0.0066563053 49:-0.057433537 50:-0.12042963 
-37.64920917971717 1:0.32395019 2:0.10019381 3:0.090756741 4:-0.061715559 5:0.0098529208 6:-0.051265855 7:-0.019926841 8:0.037537494 9:-0.014483491 10:0.051844241 11:-0.010329029 12:-0.011855128 13:-0.0042956791 14:-0.010485757 15:0.014782723 16:-0.060875988 17:0.040403736 18:-0.029521471 19:0.027259261 20:0.0043452418 21:0.1350228 22:0.038145646 23:-0.036542624 24:0.094461978 25:0.018820139 26:-0.024163347 27:-0.15908572 28:0.15467586 29:-0.062187113 30:-0.016215376 31:-0.10658706 32:0.16503973 33:-0.0023951219 34:-0.028661156 35:-0.019343233 36:0.076305893 37:-0.0097546371 38:0.066190712 39:0.0030169631 40:-0.061844104 41:0.0058609617 42:-0.072475368 43:-0.0074722103 44:0.16351065 45:0.035137218 46:-0.051096228 47:0.06206942 48:-0.056741566 49:0.12465251 50:0.025109318 
147.0334 1:0.36573965 2:0.045759326 3:0.015821523 4:-0.10624066 5:0.026819578 6:0.048496655 7:0.018468283 8:-0.021597084 9:-0.014522338 10:-0.0010039227 11:-0.034721447 12:0.11219322 13:0.01134561 14:-0.012031376 15:0.056387927 16:0.032501384 17:-0.030472469 18:-0.21770564 19:0.11741852 20:-0.083171734 21:-0.047759076 22:-0.043230111 23:-0.080008561 24:0.099732211 25:-0.061555993 26:0.045510759 27:-0.012536106 28:-0.12781349 29:0.12050783 30:0.052147227 31:-0.15285992 32:0.083497409 33:-0.015020544 34:-0.065907036 35:0.14231583 36:-0.037580599 37:-0.035784441 38:0.082799707 39:-0.031546452 40:0.064274019 41:-0.17728453 42:-0.070422126 43:0.0020962107 44:-0.080721627 45:-0.02515128 46:0.037981399 47:0.11278688 48:0.1644251 49:-0.16463025 50:0.10486297 
15.11280277552558 1:0.23260468 2:-0.14348057 3:-0.1599555 4:0.074966538 5:0.048852312 6:0.1583404 7:0.078145678 8:-0.045810136 9:-0.246711 10:0.040863551 11:0.078200643 12:0.098403839 13:0.094914734 14:-0.078520967 15:-0.1585199 16:0.093878972 17:-0.13875899 18:0.11660558 19:0.030487337 20:-0.20416361 21:-0.045711679 22:0.11352656 23:-0.011242222 24:0.037263447 25:-0.15082796 26:0.066194195 27:0.19577613 28:0.0070425758 29:0.01426192 30:0.14135087 31:0.053331628 32:0.10448014 33:-0.01943876 34:-0.11342686 35:0.026465761 36:-0.17047858 37:-0.18259487 38:0.20339622 39:0.048575458 40:0.11850316 41:0.16739668 42:0.13428794 43:0.10218962 44:0.14799815 45:0.22903207 46:-0.029891503 47:0.065020307 48:-0.020598816 49:-0.14177558 50:0.12797142 
-147.0334 1:0.13271291 2:-0.064049374 3:-0.13393337 4:0.17491487 5:0.091889575 6:0.078995968 7:0.093411951 8:-0.040919144 9:-0.23174567 10:-0.012207749 11:0.15486111 12:0.095091585 13:0.13517766 14:0.074408425 15:0.06221442 16:0.046724369 17:0.063673011 18:-0.11319812 19:-0.026211415 20:-0.017908821 21:-0.10428175 22:-0.078933432 23:0.12125562 24:-0.1085103 25:-0.048030294 26:0.074375868 27:0.037760587 28:0.057237155 29:-0.04348287 30:0.0287793 31:-0.032657717 32:-0.015512822 33:-0.063875652 34:0.16301747 35:-0.015914435 36:-0.06268368 37:-0.012147778 38:0.034356526 39:0.058784976 40:-0.033306929 41:-0.057138944 42:0.14635212 43:-0.13018547 44:0.13062956 45:0.15169522 46:-0.032323194 47:0.0091723005 48:-0.16833976 49:-0.079373327 50:0.00078968558 
-147.0334 1:0.11795366 2:0.0027719572 3:-0.001827622 4:-0.0021469636 5:0.084282401 6:0.038612722 7:-0.067556364 8:-0.0030980201 9:-0.006010109 10:-0.040041773 11:0.018901285 12:0.037110814 13:0.028222791 14:-0.01687498 15:-0.075394683 16:-0.20900096 17:0.076590257 18:-0.13098422 19:-0.25672886 20:-0.11077112 21:-0.10137156 22:-0.013942284 23:0.074508338 24:0.27487462 25:0.042737583 26:0.070234453 27:0.14449641 28:-0.030915738 29:-0.038014365 30:0.10333885 31:-0.21336711 32:0.0022518512 33:-0.0088609247 34:0.052870644 35:-0.11104495 36:-0.0071944751 37:0.14223927 38:-0.0071828689 39:0.0085196425 40:-0.039149796 41:-0.0057358488 42:0.093363414 43:-0.062370075 44:0.017094839 45:0.09454827 46:0.10265223 47:-0.069990563 48:0.23123231 49:-0.0052392285 50:0.048504308 
147.0334 1:0.18772417 2:-0.16488741 3:-0.040945734 4:0.11762401 5:-0.0097578126 6:-0.049131124 7:0.039663961 8:-0.032595396 9:0.0014655157 10:-0.044321453 11:-0.093204639 12:0.039846323 13:0.1367289 14:0.11288968 15:-0.058347384 16:-0.18853645 17:0.10468743 18:-0.11812188 19:-0.052760102 20:-0.030637985 21:0.057065701 22:0.11088692 23:-0.03062605 24:0.034432082 25:-0.11070309 26:-0.1254844 27:0.0085484759 28:0.10671988 29:-0.10813886 30:0.031193417 31:0.051020924 32:0.090777766 33:0.026177308 34:-0.029739461 35:0.21803828 36:0.045439328 37:-0.13603481 38:0.0049880926 39:-0.085989296 40:-0.21439699 41:0.076620935 42:0.016403393 43:-0.058378496 44:0.075003074 45:0.077037063 46:0.030245228 47:0.027891133 48:0.15046858 49:-0.21358655 50:-0.044176159 
-147.0334 1:0.046496912 2:-0.11393061 3:-0.041368216 4:0.053076911 5:0.063213488 6:-0.015645008 7:-0.076870449 8:0.03183047 9:0.14655323 10:0.076180051 11:-0.039111564 12:0.047575874 13:0.13158006 14:0.046529751 15:0.069149036 16:-0.10848544 17:-0.078453445 18:-0.10304303 19:-0.052198039 20:0.075301801 21:0.061664206 22:0.13931675 23:-0.1494784 24:0.0054024341 25:-0.089445514 26:-0.11519028 27:0.2461466 28:0.15732512 29:-0.071992494 30:-0.029223726 31:0.068757589 32:-0.16072997 33:0.132576 34:-0.012072314 35:-0.051388443 36:0.016350725 37:-0.088985353 38:-0.16470021 39:0.018848123 40:-0.057272641 41:0.043082842 42:-0.097452406 43:-0.094805378 44:-0.13900547 45:0.14439202 46:0.068094497 47:-0.030188281 48:0.17720093 49:-0.16036994 50:-0.057511059 
-147.0334 1:0.071011048 2:0.008059008 3:-0.16200133 4:0.022815394 5:-0.11397796 6:-0.026725064 7:-0.077108066 8:-0.049978462 9:-0.024442164 10:-0.17206495 11:-0.043642171 12:0.13464568 13:0.042282255 14:0.12519958 15:0.017710332 16:-0.031757607 17:0.00076864022 18:-0.064030234 19:0.26760649 20:-0.082312477 21:-0.10617646 22:-0.030322888 23:-0.057326312 24:0.037265353 25:0.10330469 26:0.035310077 27:-0.067828722 28:0.015441399 29:0.025880305 30:0.016529461 31:-0.073919697 32:0.10243853 33:-0.032872708 34:-0.1784086 35:-0.059541906 36:0.038919348 37:0.22323116 38:0.21476706 39:-0.071002505 40:-0.16512477 41:-0.073297928 42:0.068110526 43:0.099227857 44:-0.12167825 45:0.05822594 46:-0.13412688 47:-0.14569375 48:-0.020251543 49:-0.14683723 50:0.2261781 
-138.9088561199171 1:-0.040612723 2:-0.19701769 3:0.052872795 4:-0.09919173 5:0.0037809268 6:-0.067964571 7:0.047874108 8:-0.044011447 9:-0.0030505962 10:-0.0041103696 11:-0.007801579 12:0.064083013 13:-0.06747484 14:0.0031381667 15:0.040687912 16:0.016517197 17:0.14693036 18:-0.096502973 19:-0.019035149 20:-0.048321692 21:-0.0028986602 22:-0.041260871 23:-0.065085009 24:-0.15766935 25:0.047533345 26:0.059299676 27:-0.10877261 28:0.044594967 29:-0.014483545 30:0.0055295239 31:0.076696375 32:0.015838814 33:0.022721256 34:-0.044692618 35:0.067193113 36:-0.038322683 37:-0.014461766 38:-0.033783275 39:-0.18017236 40:0.056969279 41:0.012250244 42:0.00086169087 43:0.11643449 44:-0.028355638 45:-0.037240658 46:0.014419325 47:0.02422421 48:0.031585346 49:-0.061371809 50:0.050881711 
-147.0334 1:-0.22898563 2:-0.042410657 3:-0.014344443 4:0.0081926208 5:-0.065731446 6:-0.053170544 7:-0.016042551 8:0.0044918198 9:-0.099864671 10:-0.089025614 11:0.030866178 12:0.10794844 13:-0.095088721 14:-0.030242747 15:0.0049838477 16:-0.012721175 17:0.1328046 18:-0.088488951 19:-0.016303036 20:0.036864828 21:-0.0061439688 22:0.1067648 23:0.072836988 24:0.016821362 25:-0.055996057 26:0.05344442 27:0.0064149261 28:-0.0058186141 29:0.0093842575 30:-0.059655729 31:0.002327889 32:0.057362548 33:-0.056000168 34:-0.17538289 35:-0.10190213 36:-0.016142226 37:-0.051787922 38:-0.064586708 39:0.016576897 40:-0.066608421 41:0.040740733 42:0.055460666 43:0.10247936 44:0.13839141 45:-0.050750431 46:-0.016528519 47:-0.049300732 48:-0.066283454 49:0.0028208516 50:-0.037517758 
147.0334 1:-0.072912971 2:-0.12946704 3:0.081376706 4:-0.065876292 5:-0.039878288 6:-0.024314697 7:-0.03362551 8:-0.0020130483 9:-0.11953788 10:-0.10050617 11:-0.040807392 12:0.048834718 13:-0.037349171 14:-0.13831038 15:0.05564451 16:0.042819996 17:0.17974157 18:-0.20223564 19:0.0096465478 20:-0.0054802257 21:-0.0061336467 22:0.01201985 23:-0.11527742 24:-0.0679266 25:0.10163456 26:0.02558044 27:0.04184239 28:-0.071497578 29:-0.06787458 30:0.050126771 31:0.082350666 32:0.084274635 33:-0.088674464 34:-0.046022062 35:0.04313575 36:0.028644322 37:-0.082133137 38:0.035066957 39:-0.029714285 40:-0.094545021 41:-0.0018502454 42:0.06675898 43:0.0058190969 44:0.03802939 45:-0.0061155436 46:-0.080735179 47:0.068398908 48:-0.082189615 49:0.012305371 50:0.040162154 
-147.0334 1:-0.26028017 2:-0.04544639 3:0.023209216 4:0.059760133 5:0.10717677 6:-0.2503758 7:0.030492484 8:0.15089811 9:0.023223504 10:0.12762054 11:0.042681858 12:-0.036765367 13:-0.04154866 14:-0.055566846 15:-0.16755318 16:0.20806161 17:0.012845017 18:0.11907005 19:-0.12546804 20:0.0019784986 21:0.07369444 22:0.13790115 23:0.042143036 24:0.16542651 25:-0.12760953 26:-0.033766684 27:-0.039396019 28:-0.17121998 29:0.043594799 30:0.067086547 31:-0.15552472 32:0.044109426 33:-0.37850918 34:0.063666646 35:0.072584728 36:-0.30652969 37:-0.071881346 38:-0.22338991 39:0.20867062 40:-0.13205422 41:0.13558396 42:-0.081167387 43:-0.10489619 44:-0.22101484 45:0.0921662 46:0.022422573 47:-0.00736587 48:0.076801416 49:-0.16488456 50:-0.069575631 
-147.0334 1:0.20688387 2:0.0043792162 3:-0.045342725 4:0.040767515 5:0.026813841 6:0.1180086 7:0.0094250348 8:-0.027916673 9:0.027651198 10:-0.014622809 11:-0.072700227 12:-0.050334214 13:0.12349115 14:-0.035365081 15:-0.012793423 16:0.10910915 17:0.044550868 18:0.057708556 19:-0.039721667 20:-0.037037959 21:-0.0062044654 22:0.014146152 23:0.12480465 24:0.13199762 25:0.026395851 26:-0.090410199 27:0.086260343 28:0.10718964 29:-0.03922795 30:0.085567992 31:-0.048205631 32:-0.065598175 33:0.010019471 34:-0.062233914 35:0.067642166 36:0.054242297 37:-0.007549285 38:-0.042104901 39:-0.13672417 40:0.029794498 41:-0.083344082 42:0.16662716 43:0.10889761 44:0.037379955 45:0.051568368 46:-0.036860469 47:0.1036168 48:0.022906499 49:-0.012161129 50:0.10879076 
-147.0334 1:0.16768448 2:-0.069780065 3:-0.09310374 4:0.14236327 5:0.088575586 6:-0.032305289 7:0.024087942 8:0.066887869 9:0.082627727 10:0.02860712 11:0.17447557 12:0.016883509 13:0.094208284 14:0.081093841 15:-0.033960796 16:0.086850996 17:-0.064501893 18:0.046833309 19:-0.054695464 20:-0.10583013 21:-0.0032964732 22:-0.083488066 23:-0.07528601 24:0.1082218 25:0.04924848 26:0.036698906 27:-0.083947023 28:-0.024477005 29:0.14227914 30:-0.11437753 31:-0.098621916 32:-0.098723329 33:-0.15341909 34:-0.14034911 35:-0.025582317 36:-0.019073577 37:0.0094465318 38:0.018746751 39:-0.025918892 40:0.16034485 41:-0.15364564 42:0.089448293 43:0.023656883 44:0.07146757 45:-0.0577307 46:-0.0030275943 47:-0.13114431 48:0.056037202 49:-0.011710966 50:-0.056727786 
147.0334 1:0.23103725 2:-0.10275075 3:-0.016522312 4:0.0075693281 5:0.076462245 6:0.037809413 7:0.071756798 8:0.098240086 9:-0.039729718 10:-0.093408434 11:0.087291537 12:-0.0084622134 13:0.12460173 14:0.003864641 15:-0.11522396 16:0.061943859 17:-0.041070027 18:0.034348863 19:0.092362481 20:-0.016297983 21:0.078593863 22:-0.029146888 23:0.16264414 24:-0.038235593 25:-0.020226625 26:-0.31857177 27:-0.048868257 28:0.12826001 29:-0.029552371 30:-0.033725167 31:0.011298365 32:0.12385762 33:0.11571833 34:0.050744684 35:0.041187887 36:-0.11190494 37:-0.091201983 38:-0.010099447 39:-0.044993794 40:0.0025306238 41:-0.037249742 42:0.12008067 43:0.098344564 44:-0.028597139 45:-0.021488326 46:0.00020947196 47:-0.10182248 48:-0.022837653 49:0.12185029 50:-0.10728688 
147.0334 1:0.1151095 2:-0.14235382 3:-0.11762473 4:-0.11358289 5:-0.1522775 6:-0.089772074 7:0.12057925 8:-0.068215612 9:0.048147875 10:-0.020968176 11:-0.14699181 12:-0.19065908 13:0.02728909 14:0.092467562 15:0.0091448137 16:0.098440149 17:-0.10679976 18:-0.035628148 19:-0.034141394 20:-0.01851518 21:-0.0013115517 22:-0.020276963 23:0.033488408 24:-0.017069613 25:-0.054805627 26:-0.091144103 27:-0.18534885 28:-0.0075214946 29:0.077888651 30:0.021445011 31:0.098402013 32:0.0019987727 33:-0.1536589 34:0.072202339 35:-0.013931129 36:-0.092470794 37:-0.089846184 38:0.10306087 39:0.10014269 40:-0.01422927 41:0.073818684 42:0.073157204 43:-0.025976671 44:-0.011808119 45:-0.01946054 46:0.17759637 47:-0.088101133 48:0.073782888 49:-0.015826827 50:-0.046691399 
147.0334 1:0.025275454 2:-0.19830102 3:0.014268777 4:-0.090523908 5:-0.10638601 6:-0.065826747 7:-0.079248046 8:0.062447201 9:0.015207038 10:-0.1320387 11:-0.14041449 12:-0.020711668 13:0.028998586 14:-0.0078240428 15:-0.0145437 16:0.15652163 17:-0.20183431 18:-0.0074123742 19:0.03437708 20:-0.028775606 21:-0.028273155 22:-0.083157379 23:-0.033653357 24:-0.042417988 25:0.11897129 26:-0.16096984 27:-0.091643402 28:-0.076690285 29:0.083938463 30:0.023844361 31:-0.0033006331 32:0.052710129 33:-0.06478237 34:-0.18791708 35:0.041913219 36:0.033836453 37:-0.16063326 38:0.16174234 39:0.0064485858 40:0.026739428 41:0.062786239 42:0.057486499 43:0.10627837 44:0.075718811 45:0.16414707 46:0.18158524 47:-0.023634843 48:0.093125655 49:-0.21301825 50:0.020115947 
