svm_type epsilon_svr
kernel_type rbf
gamma 0.40262
nr_class 2
total_sv 2328
rho -40.6944
SV
-148.3129 1:-0.039716124 2:-0.030081951 3:-0.023583194 4:0.046075492 5:-0.029394065 6:0.077923174 7:0.038749678 8:-0.00066007323 9:0.001418054 10:0.05083355 11:0.0063456811 12:0.011918759 13:0.076618846 14:-0.080890765 15:0.0025251989 16:-0.065600344 17:0.05280767 18:-0.079432458 19:-0.04217373 20:0.0093651886 21:0.092768081 22:-0.025165863 23:-0.0045818994 24:0.13053463 25:0.024310211 26:-0.017029861 27:-0.010792283 28:-0.074909801 29:-0.052314973 30:-0.026483393 31:0.056233316 32:-0.014066028 33:0.071456062 34:-0.023450591 35:-0.053178265 36:0.076045487 37:-0.043910784 38:-0.0029753102 39:0.013327054 40:-0.034860906 41:-0.099522969 42:-0.14610822 43:0.075515141 44:-0.00338934 45:-0.076613491 46:0.0053912162 47:0.037795879 48:0.034154641 49:0.082181163 50:-0.010586877 
-148.3129 1:0.21238353 2:-0.16316221 3:-0.074099838 4:0.058491603 5:-0.040274449 6:-0.10718826 7:-0.0050017718 8:0.069986315 9:0.0032727941 10:0.10933208 11:-0.057612667 12:-0.12882703 13:-0.026302059 14:-0.01643983 15:-0.077177045 16:0.042928582 17:0.079834483 18:0.028787879 19:0.015523046 20:0.091999734 21:0.032693451 22:0.057879702 23:0.035341696 24:-0.068858817 25:-0.045009832 26:-0.078031871 27:0.039409389 28:-0.054922753 29:0.017482855 30:0.038559257 31:-0.033386693 32:0.040013871 33:0.034708822 34:-0.0099067246 35:0.059822315 36:0.012400996 37:-0.100215 38:0.038496081 39:-0.030283205 40:-0.11067851 41:-0.0072287675 42:0.004934283 43:-0.027523896 44:0.00012658667 45:-0.0008088162 46:0.088821882 47:0.085972897 48:0.038270155 49:-0.11782753 50:0.047916939 
-120.53531385131 1:-0.10854445 2:0.00071249046 3:-0.099715008 4:-0.012656239 5:0.0051370437 6:0.0054366215 7:0.015695847 8:-0.089431009 9:-0.10595771 10:0.071373718 11:0.071967079 12:-0.069598486 13:0.0076863313 14:-0.0085334935 15:0.052979074 16:-0.016802615 17:-0.0025135865 18:0.061382796 19:-0.10840597 20:0.0068954348 21:0.11743709 22:0.0045421787 23:0.025237424 24:0.07388487 25:-0.027502045 26:-0.014049709 27:0.05270383 28:-0.068266634 29:-0.068002504 30:0.0087633772 31:-0.13765082 32:0.041687741 33:0.029098257 34:0.015062708 35:0.041835513 36:0.022985435 37:0.03561727 38:0.00071923177 39:-0.10423884 40:-0.013288563 41:-0.048475739 42:-0.089676447 43:0.010329943 44:0.048385599 45:0.032580691 46:-0.031506527 47:-0.012063933 48:-0.051654016 49:0.086645321 50:0.037824056 
148.3129 1:-0.14041008 2:0.013230291 3:-0.037245873 4:-0.10106091 5:0.043562257 6:-0.068700911 7:-0.0013464109 8:-0.051952063 9:0.0537311 10:-0.023969582 11:-0.12269123 12:-0.00018971138 13:-0.089668778 14:0.074746524 15:-0.10359985 16:0.047639873 17:0.04376325 18:-0.017446238 19:0.068705145 20:-0.062278974 21:0.030127982 22:0.015744882 23:0.046426937 24:-0.023805118 25:0.038236077 26:-0.071179817 27:-0.039361122 28:0.10161856 29:-0.039187688 30:0.10967673 31:0.015471168 32:-0.031984402 33:-0.045102613 34:0.15185918 35:0.09214618 36:-0.0097768141 37:0.083438686 38:-0.076145335 39:-0.052779334 40:-0.027825949 41:0.015189593 42:0.037457672 43:0.011286903 44:-0.066983146 45:-0.051703923 46:-0.18028244 47:-0.0042820008 48:-0.029469354 49:0.028687886 50:0.025179796 
126.6365164172649 1:0.36702531 2:-0.30969482 3:-0.12974111 4:-0.013388097 5:-0.011368195 6:-0.11325612 7:0.035087012 8:0.050952046 9:-0.027550057 10:0.048386716 11:0.0030589563 12:0.020277193 13:-0.041755712 14:-0.15599889 15:0.0053895717 16:0.081195005 17:0.011823531 18:0.021955182 19:0.018009284 20:-0.019920715 21:-0.064078935 22:-0.039107639 23:0.11363463 24:0.064574883 25:-0.055104324 26:0.13912951 27:-0.094364018 28:0.064063991 29:0.017424947 30:-0.056049512 31:0.034141375 32:-0.080324921 33:0.008727201 34:0.056076305 35:0.064974295 36:0.028635363 37:-0.055215846 38:0.077569609 39:-0.010300006 40:-0.04811226 41:0.026702362 42:-0.043452365 43:-0.099486088 44:-0.082981102 45:0.064089376 46:-0.072667706 47:0.07342417 48:0.016449713 49:0.070133408 50:0.0047611933 
2.680157191831049 1:0.036705937 2:0.2346098 3:0.04069329 4:-0.090127147 5:-0.071778639 6:0.054023192 7:0.014869736 8:-0.086795169 9:-0.041930377 10:0.080498279 11:-0.042897211 12:0.061327496 13:-0.14768975 14:0.026208786 15:0.019513233 16:0.017870196 17:0.029165497 18:0.04137428 19:0.090399091 20:0.031634824 21:0.058518424 22:-0.14639058 23:-0.088752358 24:0.14266874 25:-0.028479008 26:0.062023144 27:0.0071606057 28:-0.016231812 29:-0.075357127 30:-0.0028908496 31:0.0011500567 32:0.072454734 33:0.028338033 34:0.15756032 35:-0.027625015 36:-4.8745234e-005 37:0.015251856 38:0.14516528 39:0.00026278445 40:-0.066396147 41:0.045855787 42:-0.017684424 43:0.10768562 44:-0.09154347 45:0.023100532 46:-0.150542 47:0.23351546 48:-0.0052750139 49:0.034534732 50:0.033819706 
148.3129 1:0.14201603 2:0.020352418 3:-0.0076692971 4:-0.10464693 5:-0.014885603 6:0.039587346 7:-0.0099942226 8:0.06456128 9:-0.038543395 10:-0.054169223 11:-0.050550564 12:-0.039247646 13:0.05604278 14:0.045189432 15:-0.041499182 16:0.039715572 17:0.00072544719 18:0.027368779 19:0.017770968 20:0.091663217 21:0.0063794167 22:-0.07789628 23:-0.059440236 24:0.046209623 25:-0.087939287 26:-0.092895024 27:-0.03836223 28:-0.020463431 29:-0.035960005 30:0.029855617 31:0.014361764 32:-0.013612048 33:0.080035896 34:0.0015154889 35:0.071019157 36:0.028114601 37:-0.008503502 38:0.005155809 39:-0.019355384 40:-0.0071218456 41:-0.076241599 42:-0.015628934 43:0.062802693 44:-0.11131596 45:0.060773146 46:-0.080109845 47:-0.012715728 48:0.046463721 49:-0.018035993 50:0.038875557 
81.660346196657 1:-0.11250879 2:0.02372939 3:-0.14803646 4:0.016592141 5:-0.051656701 6:0.012858378 7:-0.066198146 8:0.056641936 9:0.0070565598 10:-0.088798683 11:0.034279119 12:-0.088582691 13:0.038067992 14:0.076298258 15:0.025993202 16:-0.0274828 17:-0.038922264 18:-0.021294262 19:0.14079551 20:0.013364779 21:0.11512207 22:0.045327362 23:0.083779933 24:0.13006483 25:0.07398913 26:-0.11127526 27:-0.032198939 28:-0.078417613 29:-0.085615079 30:-0.10731626 31:-0.14359937 32:-0.026847397 33:-0.060388405 34:-0.037005453 35:-0.11472547 36:0.053084872 37:0.14810585 38:0.0056750542 39:0.11058725 40:-0.02200827 41:-0.12485664 42:0.0084499522 43:0.1446609 44:0.034791946 45:-0.080010167 46:0.087226176 47:-0.21871101 48:0.043269483 49:-0.0060235667 50:-0.11694779 
121.7489135255835 1:0.036911379 2:0.11273111 3:-0.072242168 4:0.0099050831 5:-0.024238692 6:0.029134668 7:-0.07775481 8:-0.0043472549 9:-0.013520226 10:0.048551185 11:0.072167855 12:-0.068887743 13:-0.058282784 14:0.037291444 15:-0.12353427 16:-0.099227283 17:0.16838258 18:-0.015613006 19:-0.10816228 20:-0.023548241 21:0.043112645 22:-0.013533986 23:0.068148691 24:0.01090417 25:0.039448634 26:0.031860402 27:-0.060505885 28:0.051572495 29:-0.023594385 30:0.074772421 31:-0.040028796 32:-0.029087685 33:0.16758148 34:0.10909283 35:0.023059146 36:-0.054745598 37:0.19269816 38:0.049184851 39:0.052404337 40:-0.041135191 41:0.026864025 42:0.045606975 43:-0.12746761 44:0.095208808 45:-0.012064944 46:0.11197069 47:0.082200757 48:0.07420409 49:-0.045374469 50:-0.11302188 
148.3129 1:-0.11798877 2:0.025286539 3:0.035989363 4:-0.043787817 5:-0.088456653 6:-0.033689399 7:-0.023574842 8:-0.01525866 9:-0.0067983701 10:-0.064764837 11:0.03979172 12:0.067368067 13:-0.014402847 14:0.08796961 15:0.0017757938 16:-0.048135597 17:-0.11019781 18:-0.011096297 19:-0.031153354 20:0.037384599 21:0.0070514556 22:0.10346307 23:-0.12033171 24:0.097919098 25:0.05078494 26:-0.15937972 27:-0.041652499 28:0.057813863 29:0.060689175 30:-0.039811852 31:-0.0095317914 32:-0.079673337 33:-0.035744877 34:-0.029775749 35:0.0096557569 36:0.043206102 37:0.019375248 38:-0.060570274 39:0.026227836 40:0.12230375 41:-0.039841541 42:0.064300799 43:0.030564607 44:-0.084516655 45:0.057690561 46:-0.033229798 47:0.035097819 48:0.036531792 49:0.14207317 50:0.070527199 
-148.3129 1:-0.26895094 2:-0.076660963 3:-0.099255491 4:-0.021620758 5:-0.050320657 6:-0.12183669 7:0.069931562 8:-0.1416257 9:0.018219461 10:0.062554642 11:-0.12474736 12:0.090200308 13:-0.01158795 14:-0.069609676 15:-0.081946187 16:0.06734053 17:-0.032741942 18:-0.030554062 19:-0.078084543 20:0.0086115333 21:-0.059980957 22:-0.029642322 23:0.1234667 24:0.037842079 25:-0.034138814 26:-0.02799373 27:-0.038934616 28:-0.048984993 29:-0.068054626 30:-0.047882395 31:0.033331426 32:0.036459131 33:-0.068270596 34:-0.063739091 35:0.06000034 36:0.073627879 37:-0.022140629 38:0.0086243879 39:-0.04169824 40:0.020550667 41:0.030679711 42:0.02406885 43:-0.040789491 44:-0.080918307 45:-0.016858355 46:0.048476757 47:-0.01862224 48:-0.1285603 49:-0.03311712 50:-0.090518545 
148.3129 1:-0.097694564 2:0.024249079 3:-0.10784525 4:-0.032504348 5:-0.085023828 6:0.053749782 7:0.0098793239 8:0.03297201 9:-0.043784948 10:-0.044389694 11:0.042244102 12:-0.03861426 13:0.020849008 14:0.16312852 15:-0.051125967 16:0.015397721 17:-0.051180101 18:0.044059273 19:-0.015668673 20:-0.007328719 21:0.085256645 22:-0.0095480528 23:0.018679293 24:-0.027092408 25:0.027984695 26:-0.061500003 27:0.065213892 28:-0.085702847 29:-0.039254923 30:-0.064869377 31:-0.01673668 32:0.030584205 33:-0.069071965 34:-0.15036038 35:-0.064966009 36:0.013511314 37:0.080514586 38:0.069420781 39:0.080520941 40:-0.02442973 41:-0.06599062 42:0.10894149 43:0.167659 44:0.040493762 45:0.018552889 46:-0.047616312 47:-0.12087627 48:-0.026684303 49:0.024866485 50:-0.035490568 
-148.3129 1:0.041463784 2:0.10806834 3:-0.11653235 4:-0.01207195 5:-0.015941877 6:-0.040872608 7:-0.096721592 8:0.044174202 9:0.0071202511 10:0.003586057 11:0.048357593 12:-0.023260795 13:-0.0394811 14:-0.016211497 15:-0.065881045 16:-0.026889528 17:0.029438279 18:0.063880984 19:0.096970211 20:-0.042749185 21:0.084977385 22:-0.043274822 23:0.039969905 24:-0.010430507 25:-0.10724158 26:-0.012314462 27:-0.017450821 28:-0.033126915 29:0.13538838 30:-0.017556077 31:0.0086887987 32:-0.054370269 33:-0.010640384 34:0.10965438 35:0.036736368 36:-0.015316243 37:-0.10873982 38:-0.032765185 39:0.014092285 40:-0.049389847 41:0.057182529 42:0.062759855 43:0.059755258 44:0.01621065 45:-0.067892454 46:0.06820538 47:0.0014818709 48:-0.073372099 49:-0.056502884 50:0.068667232 
22.03527723352135 1:-0.16873224 2:-0.071693976 3:0.036584142 4:0.019309409 5:0.198043 6:0.016059314 7:-0.057767575 8:0.015737399 9:-0.084656501 10:-0.072226204 11:-0.1403708 12:-0.14227169 13:-0.090240412 14:0.084849257 15:-0.1644006 16:0.18977822 17:-0.12814659 18:0.020510875 19:0.06703883 20:0.053705036 21:0.037566776 22:0.079346967 23:0.007030336 24:-0.10847869 25:-0.24925202 26:0.033834541 27:-0.00090510446 28:0.18138433 29:0.15097558 30:0.038269523 31:0.036619201 32:0.049594331 33:0.093566671 34:0.062896188 35:-0.1879009 36:-0.0066213205 37:-0.11562679 38:0.013631165 39:0.020309607 40:0.16113474 41:0.11942084 42:-0.028685225 43:0.06621344 44:0.012051483 45:-0.004664305 46:-0.069385354 47:-0.0146747 48:0.13544449 49:0.16105561 50:0.038553742 
148.3129 1:0.15275913 2:0.043800768 3:0.10105787 4:-0.11100424 5:-0.012247559 6:-0.039002601 7:-0.0334257 8:-0.0041708728 9:0.09352456 10:-0.091060469 11:-0.11867307 12:0.035880347 13:0.026651427 14:-0.045229567 15:-0.041007038 16:0.098566557 17:-0.11884821 18:-0.0037230461 19:0.042861135 20:-0.011710579 21:0.062984046 22:0.084216611 23:-0.0059822486 24:0.027706148 25:0.059932545 26:-0.022105385 27:0.018648636 28:0.1532314 29:-0.078498095 30:0.013629663 31:-0.057830771 32:0.03883728 33:-0.08311256 34:0.0033081528 35:-0.074025624 36:0.056207041 37:-0.0061559975 38:0.0018337121 39:0.083867292 40:0.08632315 41:-0.10445899 42:0.073053146 43:0.019030513 44:-0.074274148 45:0.064198904 46:-0.028188576 47:-0.11133018 48:-0.019753021 49:-0.04151715 50:-0.049675457 
148.3129 1:0.18074289 2:-0.078819279 3:0.078161849 4:-0.00049946934 5:-0.0085286736 6:0.065613808 7:0.052342983 8:0.016475504 9:-0.058241366 10:-0.044466474 11:-0.042981681 12:-0.021958926 13:0.0049753748 14:-0.062127454 15:0.048411958 16:0.086603327 17:-0.028991533 18:0.070089281 19:-0.0014451716 20:0.0071590489 21:0.042663287 22:-0.059737045 23:0.082679215 24:-0.06073225 25:0.0053560337 26:0.0047865227 27:-0.05531232 28:-0.0091268863 29:0.014161204 30:0.062357255 31:-0.037530716 32:0.010376695 33:0.0081555283 34:-0.0053175201 35:0.028811696 36:-0.059123601 37:-0.030755015 38:-0.034573546 39:0.060353299 40:0.032200914 41:0.0066508342 42:0.0077085088 43:-0.001646042 44:0.023720951 45:-0.016409214 46:0.019085221 47:0.038994819 48:0.036514142 49:-0.027930732 50:-0.010786567 
148.3129 1:-0.02021372 2:0.0087005279 3:-0.11738107 4:-0.015353537 5:0.10990059 6:-0.052727339 7:0.02262419 8:-0.042429918 9:0.11227448 10:-0.034142408 11:0.025757781 12:-0.1375723 13:0.046468724 14:-0.057946687 15:0.028576599 16:0.019691869 17:0.0089121787 18:-0.015983998 19:-0.095130852 20:-0.013812858 21:0.14710024 22:-0.017571666 23:-0.004408773 24:0.024585822 25:0.14953634 26:-0.085584815 27:0.033716902 28:-0.017037999 29:-0.013820391 30:-0.165728 31:0.10246124 32:-0.047334618 33:-0.038883545 34:-0.095632983 35:-0.0090281373 36:0.084014242 37:0.079784295 38:-0.23139217 39:0.11793445 40:-0.10230832 41:0.18052864 42:0.10261456 43:0.042231626 44:0.077381873 45:-0.05050587 46:-0.10719189 47:0.047644196 48:-0.015842715 49:-0.18322907 50:-0.11933188 
-148.3129 1:-0.094527536 2:0.054813316 3:0.0019224688 4:-0.038413134 5:0.057853239 6:0.07802482 7:0.050091175 8:0.046562072 9:0.011790015 10:-0.13975372 11:-0.060422982 12:0.0050630328 13:-0.0013408564 14:-0.063101419 15:-0.056544699 16:0.091325409 17:-0.032240744 18:0.1259985 19:-0.012985228 20:-0.06259151 21:0.0086944174 22:0.060335913 23:0.0072791256 24:-0.018632178 25:0.0099986755 26:-0.011766965 27:0.058617903 28:0.062818588 29:-0.0035085518 30:0.052200706 31:0.044467443 32:0.093726446 33:-0.025932637 34:-0.06239931 35:0.0057459928 36:0.06621215 37:-0.037449986 38:-0.13000466 39:0.0033401127 40:-0.00045065344 41:-0.00044881858 42:0.020475984 43:0.021180785 44:0.074861133 45:0.1110444 46:0.033497279 47:0.16349475 48:-0.087945057 49:-0.1255667 50:-0.068372897 
148.3129 1:-0.17471446 2:-0.017009258 3:0.046167865 4:0.02347076 5:-0.0070550492 6:-0.028254903 7:0.0078422779 8:-0.021721581 9:0.054074674 10:-0.0034110404 11:-0.010912205 12:0.036279519 13:0.0065003459 14:-0.12961717 15:-0.038144618 16:-0.024100072 17:-0.0088656018 18:0.0099991874 19:-0.024648787 20:0.038015923 21:0.019041877 22:0.070483471 23:0.051158351 24:0.055476993 25:0.043738029 26:0.0069367994 27:0.046419973 28:-0.017622094 29:0.020676516 30:-0.019746555 31:0.027403018 32:-0.029685142 33:-0.070743885 34:-0.001137155 35:0.039511822 36:-0.047497513 37:0.0081918099 38:-0.079830298 39:-0.060706272 40:-0.026726503 41:0.082849055 42:-0.001880498 43:0.082062087 44:-0.033609308 45:0.016536013 46:0.093365879 47:-0.10297344 48:0.046477726 49:-0.013341399 50:-0.013303456 
-2.143319402050046 1:-0.23371313 2:-0.10562252 3:-0.006929617 4:0.20382419 5:-0.049686125 6:0.055811791 7:-0.010102607 8:-0.21730049 9:0.050646009 10:-0.042722511 11:0.095091931 12:0.048971855 13:-0.019294578 14:0.14923608 15:-0.051066856 16:0.013521792 17:-0.037526697 18:0.039977973 19:0.036758927 20:0.0095851562 21:0.14951183 22:0.14991212 23:-0.12965332 24:-0.083846681 25:0.023286374 26:-0.029070877 27:0.097546151 28:0.025738979 29:0.0078868796 30:-0.026052426 31:0.02066424 32:0.059466568 33:0.26497872 34:0.13144442 35:0.042041319 36:-0.11156503 37:-0.055293307 38:0.0084340272 39:0.065489001 40:0.15292025 41:-0.064675585 42:-0.1002786 43:-0.0023299017 44:0.069868554 45:0.037123178 46:0.040390708 47:-0.044742356 48:0.084983562 49:0.069209537 50:-0.0054431904 
148.3129 1:-0.24191772 2:-0.15311811 3:0.097069251 4:-0.034001932 5:-0.045363144 6:-0.13483042 7:-0.0028176308 8:-0.068111221 9:-0.026921121 10:-0.02946146 11:-0.084545369 12:0.021270735 13:0.12698301 14:-0.026433457 15:-0.044356419 16:0.089163237 17:0.049071512 18:-0.11684046 19:0.083232342 20:0.042900657 21:-0.050405338 22:-0.02906972 23:0.059358611 24:-0.046280333 25:-0.072616363 26:0.019041051 27:0.036667419 28:0.029502592 29:-0.09353371 30:0.062212725 31:0.029122931 32:0.032502181 33:-0.026257618 34:-0.04627931 35:0.13111805 36:-0.031963833 37:0.07190424 38:0.090652317 39:-0.034735916 40:0.01185205 41:-0.064313012 42:-0.096805977 43:0.020952702 44:0.085051431 45:0.11922888 46:-0.12105133 47:-0.073276595 48:0.030941597 49:-0.077327307 50:-0.012344509 
148.3129 1:0.30110954 2:-0.37389275 3:-0.16466689 4:-0.10699279 5:-0.0052246104 6:-0.02420127 7:0.039473674 8:-0.1223156 9:-0.045040339 10:-0.13933897 11:-0.062716459 12:0.11548205 13:0.049398745 14:-0.021634466 15:-0.013981596 16:-0.0069849489 17:0.0034974658 18:0.067394977 19:-0.054249336 20:-0.052837052 21:0.071076426 22:0.016240079 23:-0.056405206 24:0.09951206 25:-0.047786411 26:0.022885795 27:-0.034401094 28:-0.033220049 29:0.021145283 30:0.040924153 31:0.016001052 32:-0.0028721216 33:0.033518143 34:-0.065705082 35:0.077428904 36:0.074313919 37:0.019045935 38:0.034510162 39:-0.074784311 40:-0.074028794 41:-0.061503707 42:-0.064127577 43:-0.1353621 44:-0.028651676 45:-0.058809313 46:-0.01825777 47:0.067543021 48:0.10467284 49:0.027206236 50:0.1187113 
-148.3129 1:-0.023808272 2:0.20859547 3:-0.11538727 4:-0.09480157 5:-0.0019582819 6:-0.093187982 7:0.027011125 8:-0.00098457875 9:0.0047477911 10:-0.037437858 11:-0.13936257 12:0.059650209 13:-0.15581559 14:0.0061595472 15:-0.015032479 16:0.03214266 17:0.0061123831 18:0.097599849 19:-0.018740881 20:-0.012307167 21:0.074600581 22:0.070551462 23:-0.044664624 24:-0.046424453 25:-0.039400842 26:0.05281062 27:0.077513982 28:-0.14552177 29:0.013769195 30:0.04531148 31:0.0083108963 32:-0.040179479 33:-0.091285383 34:0.085486172 35:0.036414425 36:0.057950167 37:-0.050483729 38:0.0023986795 39:0.012217818 40:0.002343912 41:0.05466716 42:-0.056092721 43:0.069876296 44:-0.021565491 45:0.12738312 46:-0.028436005 47:0.0093613296 48:-0.14691928 49:-0.018994553 50:0.038107193 
148.3129 1:-0.10457604 2:0.029886672 3:0.13002035 4:0.06769324 5:-0.079537557 6:0.040525592 7:0.22569216 8:-0.063515632 9:-0.23767781 10:0.037414966 11:0.20744458 12:-0.10564227 13:0.023239121 14:-0.025932426 15:0.0077490361 16:0.085951074 17:-0.2031664 18:-0.073329494 19:0.11232317 20:-0.19570491 21:0.051447714 22:-0.011221834 23:0.034630618 24:-0.008850581 25:0.037392966 26:-0.047576358 27:0.189718 28:-0.026738294 29:-0.042275605 30:-0.00036697782 31:0.11670351 32:-0.17338262 33:0.041173469 34:0.058375573 35:0.061894083 36:0.030992643 37:-0.066236793 38:0.11352973 39:-0.063802748 40:0.09273754 41:0.076898453 42:-0.038070222 43:0.0085093461 44:-0.092163369 45:0.0317003 46:0.017644894 47:0.041151255 48:-0.081440036 49:-0.12187067 50:0.063194298 
-148.3129 1:0.070651833 2:0.12392268 3:0.063825325 4:-0.022331013 5:0.043820074 6:-0.024691665 7:-0.1284639 8:-0.09868356 9:-0.013879841 10:-0.047210075 11:0.011517178 12:0.099956885 13:-0.12527414 14:-0.023024428 15:0.045563313 16:0.015421862 17:-0.071412698 18:-0.048318029 19:0.0217952 20:0.014432046 21:-0.027137636 22:0.11161265 23:0.010125029 24:0.11822795 25:-0.027357327 26:0.12162376 27:-0.045412206 28:-0.047227514 29:0.14462016 30:-0.018084674 31:0.069266295 32:-0.0079039549 33:-0.047901364 34:0.10371975 35:0.11992087 36:-0.049905782 37:-0.14145857 38:-0.03630681 39:0.12115507 40:0.12060552 41:-0.11887716 42:-0.0028755036 43:0.021590009 44:0.046394279 45:0.11612606 46:-0.11526656 47:0.0070832222 48:0.013508744 49:0.095756903 50:-0.13515081 
-148.3129 1:0.011076765 2:0.14453065 3:-0.15715342 4:-0.057949306 5:0.022681008 6:-0.022930828 7:0.062127907 8:0.0752458 9:-0.035846303 10:-0.009476038 11:0.0073413482 12:-0.074882677 13:-0.10784613 14:0.01352532 15:-0.091978274 16:0.0012794718 17:-0.0022273153 18:-0.046314228 19:0.049403634 20:0.16565232 21:0.012289669 22:0.088300138 23:-0.02238746 24:-0.018428083 25:-0.035726205 26:0.074784612 27:-0.007053637 28:0.12760134 29:-0.002512966 30:-0.0099252158 31:-0.048768125 32:0.032033172 33:0.0035802908 34:0.0089801033 35:0.0748991 36:-0.019423663 37:0.11052657 38:-0.013023955 39:-0.0032158554 40:-0.12642266 41:0.017376888 42:0.1668746 43:0.094591399 44:0.083518212 45:-0.036545647 46:-0.01663993 47:-0.075188127 48:0.061941271 49:-0.086675727 50:-0.027479872 
148.3129 1:-0.084320105 2:0.02094921 3:-0.065671669 4:0.018836972 5:0.10797678 6:0.0072755773 7:0.064922462 8:-0.0078661077 9:0.091627692 10:0.025123991 11:-0.045421883 12:-0.022146826 13:-0.011961336 14:-0.11382522 15:-0.12337752 16:-0.025326274 17:0.091417423 18:-0.012315689 19:0.045657706 20:0.077697421 21:0.00019852841 22:0.04308949 23:-0.0066725409 24:-0.037884738 25:0.00029890581 26:0.015955509 27:0.061096302 28:0.13229676 29:0.073815834 30:-0.054404117 31:0.062724473 32:0.080957351 33:-0.0021861876 34:0.0092600621 35:-0.028833706 36:0.032474948 37:-0.020665912 38:-0.0049877043 39:0.055153153 40:-0.007233972 41:0.028548731 42:-0.019489749 43:0.044341611 44:-0.13172505 45:0.08394136 46:-0.047304046 47:-0.07264851 48:0.001225889 49:0.030520996 50:0.052666966 
16.30291261218322 1:-0.012648319 2:0.067848867 3:0.039123904 4:0.020220202 5:-0.075950995 6:0.057180876 7:-0.082628163 8:-0.032444302 9:-0.0063934988 10:0.02738281 11:0.081546406 12:-0.017578145 13:-0.047450243 14:0.036757844 15:-0.079809664 16:-0.10288222 17:0.017916456 18:-0.050028262 19:-0.015178855 20:0.047992152 21:0.036007038 22:-0.0011938829 23:0.034077091 24:-0.019111561 25:0.021192176 26:-0.085415417 27:0.023800464 28:-0.01961364 29:0.1139279 30:0.16772831 31:-0.058262071 32:0.0043952924 33:0.063973204 34:0.099467342 35:0.19965298 36:0.069393818 37:0.13419326 38:0.023960897 39:0.1533452 40:-0.069167904 41:0.023866364 42:0.051558679 43:-0.13028446 44:0.050606684 45:-0.04688821 46:0.14965067 47:-0.10368847 48:0.017808862 49:-0.078460338 50:0.063283857 
-148.3129 1:-0.010108019 2:0.12167432 3:0.057789803 4:-0.041122669 5:-0.053784032 6:0.082916665 7:0.091728078 8:-0.051332067 9:0.043527535 10:-0.039620305 11:0.01666487 12:0.16613238 13:-0.15645291 14:0.055165022 15:-0.064017145 16:0.16689416 17:0.07159461 18:-0.10031876 19:0.12300398 20:0.14435245 21:0.21018505 22:-0.11211862 23:0.058585432 24:0.22427974 25:0.14871305 26:0.027033976 27:-0.01520256 28:0.077689982 29:-0.025419287 30:-0.051923501 31:-0.078046437 32:0.054608234 33:0.13469139 34:0.065963499 35:-0.040752545 36:0.1846039 37:0.074457846 38:0.069474823 39:0.069928063 40:-0.11581878 41:0.21822006 42:0.15154916 43:-0.00030023736 44:-0.18580001 45:-0.0033473543 46:0.081847265 47:-0.094213388 48:0.046258265 49:0.017688818 50:-0.051683953 
-148.3129 1:0.14181971 2:0.015601915 3:0.047806085 4:-0.013712992 5:-0.035465877 6:0.058527163 7:-0.021288737 8:-0.038824857 9:-0.047511827 10:0.10881756 11:0.025193972 12:-0.039811968 13:0.010605757 14:0.032590672 15:-0.038898615 16:0.059607525 17:-0.011502866 18:-0.14277859 19:0.054350562 20:0.0070410977 21:0.055677257 22:0.028747743 23:-0.010743919 24:-0.017608921 25:-0.0080017969 26:-0.1289196 27:-0.0017157642 28:0.008156813 29:0.053964517 30:-0.050585997 31:-0.068291153 32:-0.019813858 33:0.062634844 34:0.0075614839 35:0.028689099 36:-0.074970575 37:0.031425285 38:-0.033969417 39:-0.013114048 40:-0.033216627 41:-0.030003756 42:-0.016019608 43:0.065105739 44:-0.10119425 45:-0.038071292 46:0.025754818 47:-0.03285118 48:-0.030733954 49:0.002973487 50:0.023271092 
148.3129 1:-0.23285589 2:-0.055091865 3:0.15190013 4:-0.025837331 5:-0.052439968 6:-0.076089806 7:0.0041358131 8:-0.040411092 9:0.14812396 10:0.14166146 11:-0.031699536 12:-0.0011711891 13:0.068495524 14:-0.12071041 15:0.099506335 16:0.051196766 17:0.065012805 18:0.058560461 19:-0.042303797 20:-0.14052068 21:0.35527014 22:-0.14681965 23:0.05107844 24:-0.068013168 25:0.091208656 26:0.024901062 27:0.095312754 28:-0.0032822792 29:0.098951539 30:0.00258816 31:0.049807032 32:0.10601075 33:0.1868699 34:-0.10442856 35:0.10630882 36:-0.086833311 37:-0.0056365163 38:-0.11736639 39:-0.11610097 40:0.010649022 41:-0.031496406 42:-0.0064267564 43:-0.0067813121 44:0.061951745 45:0.096672425 46:-0.15195134 47:-0.15830449 48:-0.11230018 49:0.11130984 50:0.060153832 
-58.45288912177406 1:-0.16852111 2:-0.0017865756 3:-0.085451475 4:0.10024 5:-0.027883599 6:-0.063240519 7:-0.10641779 8:-0.075990031 9:-0.20520175 10:0.080018623 11:0.0034354695 12:-0.10090285 13:0.037879064 14:-0.055321858 15:-0.24240249 16:-0.084794911 17:-0.073090875 18:0.12485295 19:-0.039551873 20:-0.1426588 21:-0.10885715 22:0.23124806 23:-0.01052924 24:-0.051876348 25:-0.01298655 26:0.028361848 27:-0.017066392 28:0.07625374 29:-0.040119834 30:-0.18495163 31:0.012228621 32:-0.093729824 33:-0.11232176 34:-0.12564893 35:-0.0089802787 36:-0.013884352 37:-0.044084935 38:-0.02235036 39:-0.019943412 40:-0.051229875 41:0.03788198 42:-0.10828319 43:0.014748359 44:-0.02623311 45:-0.0030932113 46:0.11804699 47:-0.059656469 48:0.10993434 49:-0.016301455 50:0.130639 
74.66513576750316 1:0.21933135 2:-0.032859736 3:-0.038577333 4:0.086205353 5:0.060105139 6:0.024533661 7:-0.016555778 8:0.074212977 9:0.0048044821 10:0.042985474 11:0.023612437 12:-0.10851819 13:0.03149512 14:-0.062533271 15:-0.0015347757 16:-0.064987845 17:0.027723403 18:-0.078308948 19:-0.026730792 20:-0.028077818 21:-0.01351848 22:-0.0051697377 23:-0.041874272 24:-0.057410954 25:-0.094926578 26:0.0031243823 27:-0.091378253 28:0.024364531 29:-0.10553042 30:-0.060234135 31:0.038766256 32:-0.0025325144 33:0.010909029 34:-0.035280953 35:0.11675308 36:0.022781786 37:-0.015407273 38:0.03153688 39:-0.034400219 40:0.0057970297 41:0.062010695 42:-0.0060710981 43:-0.016439902 44:0.10055077 45:0.011854184 46:-0.026812889 47:0.0099695241 48:-0.10494624 49:-0.088449178 50:0.06199459 
-148.3129 1:0.025893591 2:0.15991133 3:-0.2094906 4:-0.078200948 5:0.020397902 6:-0.077703416 7:0.034318446 8:-0.097590649 9:0.12394504 10:0.073723512 11:-0.020368221 12:0.089179781 13:0.12583159 14:-0.14975737 15:0.061900174 16:0.017291329 17:-0.11949885 18:-0.051486277 19:0.036656635 20:0.066293962 21:0.035884876 22:-0.081349312 23:-0.041711738 24:-0.15418176 25:-0.096117406 26:-0.036438651 27:-0.034270018 28:-0.081153115 29:0.018458729 30:0.14050402 31:-0.023464867 32:-0.18735637 33:-0.087833229 34:0.025790984 35:-0.019140227 36:-0.071680415 37:-0.10085885 38:-0.044267153 39:0.096566086 40:0.0048606352 41:0.089824849 42:-0.063765222 43:0.078722339 44:0.04695164 45:-0.081322665 46:0.11526172 47:-0.045396959 48:0.032905979 49:0.12849824 50:0.077274798 
148.3129 1:0.16087731 2:0.091207989 3:0.019779583 4:-0.033488832 5:-0.066878554 6:0.0061730126 7:0.032137889 8:0.071788087 9:0.0051643256 10:0.043231161 11:-0.013117726 12:-0.0073971163 13:0.05584045 14:-0.022737651 15:-0.088327991 16:0.028619117 17:0.010014146 18:0.015445008 19:0.016418119 20:-0.052448161 21:-0.026308802 22:0.058866437 23:0.032143631 24:0.031740178 25:0.060177208 26:0.013587193 27:0.044801295 28:-0.089476837 29:-0.044146249 30:0.012835162 31:0.025187395 32:0.037347807 33:0.068209003 34:0.0080387642 35:-0.03968235 36:0.00711627 37:0.043731787 38:0.053994359 39:0.057422875 40:-0.0083127225 41:0.012351464 42:-0.090909899 43:-0.013508171 44:-0.048221204 45:-0.015245654 46:-0.072629281 47:-0.0005563977 48:-0.087795357 49:-0.0011571043 50:0.049035568 
53.98787139896913 1:0.16874569 2:0.052398416 3:-0.022378052 4:-0.1201698 5:-0.057402298 6:-0.097241951 7:-0.051543737 8:0.074663694 9:-0.070416695 10:0.0080345174 11:-0.051297993 12:0.12293371 13:-0.00056351508 14:0.049932337 15:0.10984011 16:0.015287997 17:0.013647327 18:-0.032229251 19:-0.018769364 20:0.038369886 21:-0.10049447 22:0.040517335 23:0.044277475 24:-0.0097266167 25:-0.063059062 26:0.0060226096 27:-0.043852721 28:-0.029024659 29:-0.053911573 30:0.013991274 31:-0.070867732 32:-0.0088448975 33:0.076214055 34:0.090602995 35:0.13670997 36:0.05018629 37:0.079063403 38:-0.15815823 39:0.010095636 40:0.013999324 41:0.0082483349 42:0.096162227 43:0.041568782 44:-0.13966695 45:0.0016088316 46:-0.073482905 47:-0.072781276 48:0.1604596 49:0.19786333 50:-0.019344048 
-148.3129 1:0.13100929 2:-0.074754466 3:-0.08376447 4:0.079211233 5:-0.055594352 6:0.071938554 7:0.027450333 8:0.0068736614 9:0.16433464 10:-0.0059529209 11:0.053559788 12:-0.022101703 13:-0.044966664 14:-0.038772844 15:-0.011360765 16:-0.11462296 17:-0.032856574 18:-0.014113213 19:0.045342965 20:-0.025823564 21:0.058874088 22:0.054508675 23:0.029437817 24:0.024398408 25:0.028394978 26:0.11646583 27:-0.071096011 28:-0.056270324 29:-0.066420576 30:0.010105715 31:-0.059134068 32:0.042792957 33:0.059394033 34:0.023541003 35:0.021178084 36:0.035359135 37:-0.16927492 38:0.17611736 39:0.087763667 40:-0.038697593 41:-0.081337796 42:-0.038486886 43:0.097129569 44:0.063970061 45:-0.062908078 46:0.085099608 47:-0.0021261783 48:0.042274408 49:-0.049274935 50:-0.044650783 
74.73062329615408 1:-0.19568262 2:-0.10215609 3:-0.044319671 4:0.12923982 5:0.090281709 6:0.042389718 7:-0.14796744 8:0.01276309 9:-0.069315475 10:0.0053428195 11:-0.10590044 12:0.075212394 13:0.096547354 14:0.14136491 15:-0.03779283 16:0.067963474 17:0.066841232 18:0.027248386 19:0.096171294 20:0.0017684947 21:-0.15757977 22:-0.087532522 23:-0.017215488 24:-0.038347054 25:0.048564197 26:0.031639852 27:0.043958267 28:0.24862277 29:-0.1198693 30:-0.059128415 31:-0.14627572 32:-0.01693446 33:-0.043805029 34:0.15793287 35:0.027598607 36:-0.067823226 37:-0.072566795 38:-0.054570047 39:-0.015626723 40:0.078369262 41:-0.01111894 42:0.0067904082 43:0.046868651 44:0.0011864756 45:0.12149879 46:0.1405212 47:0.12713521 48:0.051529634 49:-0.0034691446 50:-0.090854922 
-110.8495140866803 1:-0.35478998 2:-0.038576688 3:-0.16293253 4:0.034394601 5:0.10631069 6:0.17965717 7:0.28318578 8:-0.077023631 9:0.17907051 10:0.13510124 11:-0.059180852 12:0.081450997 13:-0.027737352 14:-0.0056840649 15:-0.013974325 16:0.03392213 17:0.083165212 18:0.065669209 19:-0.09240243 20:-0.13463317 21:-0.11272904 22:0.088863626 23:0.074418552 24:0.037196103 25:-0.090307329 26:0.066260415 27:0.021966662 28:-0.12395648 29:0.057198797 30:-0.13014806 31:0.067410593 32:0.040504555 33:-0.031169055 34:0.10606229 35:-0.043922035 36:0.12356094 37:0.028443025 38:-0.011137873 39:0.034717204 40:0.090104667 41:-0.023685587 42:-0.040476872 43:0.1282013 44:-0.03133513 45:-0.13748108 46:-0.062606511 47:-0.021674367 48:-0.0081728609 49:-0.076007718 50:0.048682707 
-148.3129 1:-0.24432526 2:0.07380912 3:-0.016804005 4:0.039998016 5:0.090344414 6:-0.048919755 7:-0.016215329 8:0.005090154 9:-0.062354932 10:0.054053035 11:-0.029433925 12:0.029632031 13:0.017366674 14:0.030297864 15:-0.23464065 16:0.020830867 17:0.061737774 18:0.25029735 19:0.19533923 20:-0.15344255 21:0.0099295492 22:0.033079044 23:0.0096602859 24:-0.10968926 25:0.051978115 26:-0.045514998 27:-0.051248444 28:-0.11085532 29:0.099284101 30:-0.041363713 31:-0.027625367 32:0.11161091 33:0.070849361 34:-0.16394648 35:0.080599791 36:-0.24104746 37:-0.089140798 38:-0.043911361 39:-0.018044669 40:0.024375177 41:-0.050460484 42:0.10721507 43:-0.064752461 44:-0.048409192 45:0.079605313 46:-0.058147813 47:-0.07968497 48:0.086832293 49:0.061668707 50:-0.057081998 
-148.3129 1:-0.17240231 2:0.057201546 3:-0.02086034 4:0.06230573 5:0.098288148 6:-0.068896561 7:0.20145934 8:-0.14805556 9:0.16828595 10:-0.074201569 11:0.11792091 12:0.0037330022 13:-0.037996082 14:-0.0041932283 15:-0.027763544 16:0.07164442 17:0.047267274 18:0.18323246 19:-0.051418722 20:0.16510493 21:-0.13878477 22:-0.10282264 23:-0.013308068 24:-0.11560998 25:0.24802455 26:0.033134178 27:-0.0085672448 28:0.15598386 29:-0.10749495 30:0.11205454 31:-0.0077870346 32:-0.11021391 33:-0.047584937 34:-0.046186952 35:-0.08422666 36:-0.007360908 37:-0.078512368 38:0.071201726 39:-0.031064895 40:-0.15085744 41:-0.017074875 42:0.052464924 43:0.13270238 44:-0.066647342 45:-0.02149743 46:0.016794981 47:0.084965097 48:0.091040982 49:-0.12482423 50:-0.029252345 
89.17545456407181 1:-0.24742068 2:-0.10323268 3:0.066163473 4:-0.096397102 5:0.0123916 6:-0.15716076 7:-0.1015633 8:-0.035759339 9:-0.0563511 10:0.13453672 11:0.067959946 12:0.13633972 13:-0.057756687 14:0.084655312 15:0.0030674324 16:-0.012886742 17:0.087951974 18:0.066869396 19:-0.066613619 20:0.11379952 21:0.083049857 22:0.066822682 23:-0.021281237 24:0.1204119 25:-0.069209065 26:-0.19596384 27:-0.035691475 28:-0.026623732 29:0.12250958 30:0.040076432 31:-0.012329193 32:-0.021532444 33:-0.0061663775 34:0.069675535 35:-0.007962618 36:0.12945112 37:0.066975806 38:0.13773654 39:-0.098106985 40:-0.024360683 41:0.057664572 42:0.064632082 43:-0.050674267 44:-0.054700662 45:-0.21008284 46:0.039057915 47:-0.10845344 48:0.1466182 49:0.0058786703 50:0.12232789 
-12.12882406613041 1:-0.22402888 2:0.054042247 3:-0.071342183 4:0.058837833 5:-0.05031566 6:0.16518835 7:0.051687771 8:-0.017961928 9:0.033493262 10:-0.065199642 11:-0.15198044 12:-0.03725571 13:0.081154916 14:-0.030173883 15:-0.11433993 16:0.015482583 17:-0.084880987 18:0.06485888 19:-0.07855114 20:0.0041865903 21:0.010801359 22:-0.073026668 23:0.058965147 24:-0.1547427 25:-0.072145431 26:-0.012636633 27:0.027714246 28:-0.082777785 29:0.060756884 30:0.09430246 31:-0.019480574 32:0.11675025 33:0.00060743102 34:0.0088664373 35:-0.054413355 36:0.082798307 37:0.14007181 38:-0.092870213 39:0.10520934 40:-0.01259298 41:-0.09245164 42:-0.10707892 43:-0.20652753 44:-0.10632152 45:0.045093816 46:-0.060706789 47:-0.012072044 48:0.064109634 49:-0.044574411 50:-0.0068081604 
-148.3129 1:0.14128751 2:-0.029575847 3:0.038014194 4:-0.061867982 5:0.016501748 6:-0.016801645 7:0.053139431 8:0.023070908 9:0.042442107 10:-0.048676186 11:0.10869313 12:0.019175881 13:0.051508918 14:-0.034466996 15:0.035646066 16:0.022195448 17:-0.018616386 18:0.021189891 19:0.041360764 20:0.044314989 21:0.011420655 22:-0.03575803 23:0.031770241 24:-0.12020577 25:0.0075894208 26:-0.021957918 27:-0.013269203 28:-0.035096417 29:-0.036271947 30:-0.001835815 31:-0.020236702 32:0.075468641 33:0.042589682 34:0.0027906307 35:0.0044683603 36:-0.041965437 37:-0.012735638 38:-0.036488235 39:0.054265591 40:-0.028167914 41:-0.065650137 42:-0.0094787266 43:-0.024982865 44:-0.015587716 45:0.01465563 46:-0.0057173796 47:-0.058212986 48:0.0409007 49:-0.028486611 50:0.016291594 
-148.3129 1:0.024075384 2:0.066654727 3:0.0028198029 4:-0.086887038 5:0.058442315 6:0.00035537708 7:0.051294237 8:-0.0085597965 9:0.021097736 10:0.032161995 11:0.052110024 12:-0.1649741 13:0.15290268 14:0.02323005 15:-0.040914633 16:-0.10410971 17:-0.013448853 18:0.063767393 19:-0.018412086 20:-0.071754805 21:0.04778516 22:-0.037178897 23:0.077511475 24:0.0035119065 25:0.11615532 26:-0.02337422 27:0.025724986 28:0.032526856 29:0.067125824 30:0.007200893 31:-0.067146047 32:0.092160328 33:0.026226561 34:0.031511466 35:-0.046745561 36:-0.00088162119 37:-0.033981223 38:0.11450563 39:-0.04673659 40:0.0033597329 41:0.052774597 42:0.055508271 43:-0.011309276 44:0.078232782 45:0.092273313 46:-0.034612226 47:-0.13906907 48:-0.04306256 49:-0.018427028 50:-0.029337158 
148.3129 1:-0.049753576 2:-0.042071234 3:0.052284807 4:0.0067915483 5:0.017532755 6:-0.014658052 7:0.021347047 8:-0.0055576482 9:0.052480584 10:0.034399528 11:0.030339719 12:0.026532689 13:-0.021095198 14:0.0078950274 15:0.078727038 16:-0.021792086 17:-0.058485384 18:-0.060989134 19:0.0055478443 20:-0.018526903 21:0.034351043 22:0.055223671 23:-0.010267058 24:-0.0061642123 25:0.05577496 26:0.078344132 27:-0.028765023 28:-0.0056091251 29:0.033629088 30:-0.059781951 31:-0.004014644 32:0.0073636717 33:-0.088241415 34:-0.070188529 35:-0.00077978637 36:-0.01862345 37:-0.017761542 38:-0.0057479363 39:0.097784487 40:-0.081276272 41:0.0066929028 42:0.013168698 43:0.036465728 44:-0.039849116 45:0.050972876 46:0.049463447 47:-0.070161634 48:-0.010572799 49:0.07305464 50:-0.065684274 
148.3129 1:0.079012963 2:0.11600666 3:-0.17638666 4:0.065113573 5:-0.072240653 6:0.049179459 7:-0.010127701 8:0.12265339 9:0.045062001 10:-0.010344552 11:-0.037377617 12:-0.1441074 13:0.1251454 14:0.0010274867 15:-0.026360117 16:-0.021126896 17:-0.030235194 18:0.0011881048 19:0.049538228 20:0.10145258 21:-0.058160769 22:0.034571635 23:0.011409814 24:0.043221818 25:-0.047567429 26:0.025884091 27:-0.026201281 28:0.02884438 29:0.079367842 30:0.033439796 31:-0.10396248 32:0.088665662 33:-0.15413774 34:-0.039957114 35:0.10117475 36:0.017553807 37:-0.065754807 38:0.033859585 39:0.055236254 40:-0.078995542 41:0.058234354 42:0.16227594 43:-0.0030076765 44:0.017701195 45:0.012301327 46:-0.030340856 47:0.096388811 48:-0.0022598647 49:-0.011379746 50:0.0070796157 
75.31213432089747 1:0.23239886 2:-0.2309162 3:-0.082305477 4:0.077502486 5:-0.014333656 6:-0.016768229 7:0.010622089 8:-0.018943593 9:0.035479872 10:0.14208028 11:-0.088923977 12:-0.021703799 13:-0.049896388 14:0.07362218 15:-0.00050777552 16:-0.042732546 17:-0.098762749 18:-0.084210362 19:0.040783992 20:0.0060771956 21:0.043398291 22:0.042219386 23:-0.11365068 24:0.034789899 25:0.072891352 26:-0.030359421 27:0.016462781 28:-0.054096818 29:-0.094839708 30:0.07728062 31:0.049112887 32:-0.078146121 33:-0.04237922 34:-0.036111406 35:-0.010053637 36:0.02112442 37:-0.059791268 38:0.11176115 39:-0.024504033 40:-0.015272139 41:-0.014566212 42:-0.0092578668 43:-0.082037015 44:-0.011127759 45:-0.047977746 46:0.091849176 47:-0.060704186 48:-0.081504727 49:-0.035641893 50:0.13441151 
-148.3129 1:-0.13933747 2:0.089735638 3:0.10588506 4:0.066940113 5:0.086167506 6:0.11877493 7:0.01351477 8:-0.043437365 9:0.11221675 10:0.010312311 11:0.072379197 12:-0.023757589 13:0.137415 14:0.11081553 15:0.10196207 16:-0.033503488 17:0.063278098 18:-0.022419258 19:0.025550168 20:0.022771872 21:0.010094975 22:0.012354181 23:-0.018162239 24:0.074295577 25:0.091800934 26:0.047810946 27:0.014255282 28:0.06153102 29:-0.00060780423 30:-0.016371222 31:0.036719832 32:-0.071324172 33:-0.033444138 34:0.053271676 35:0.014792518 36:0.0067003287 37:-0.043501646 38:0.1157953 39:-0.0088031191 40:0.086154176 41:0.13299334 42:-0.037973614 43:-0.0056284702 44:-0.011484649 45:0.022201158 46:0.043803849 47:0.045520347 48:-0.023460749 49:0.028420549 50:0.076568466 
138.3531169410629 1:-0.16451917 2:0.030883829 3:0.0375131 4:0.029057474 5:-0.019715886 6:-0.19042902 7:-0.00040103253 8:0.022255389 9:0.12076129 10:-0.10268235 11:-0.035568555 12:0.00019280968 13:0.0025196364 14:0.054741369 15:0.024323432 16:0.094250301 17:0.051878663 18:0.15342685 19:-0.0086521621 20:-0.11840718 21:0.10360727 22:-0.056265342 23:0.089826363 24:-0.059199013 25:0.0093840649 26:-0.094284742 27:0.0086631907 28:0.12501463 29:-0.06867921 30:0.058921507 31:-0.00011068099 32:0.024290789 33:0.00070883951 34:0.00015647494 35:0.010273326 36:0.11002021 37:0.087165119 38:-0.096519434 39:-0.0044478672 40:0.035912916 41:0.042750979 42:-0.13841206 43:-0.11728413 44:0.085230587 45:0.022768045 46:0.0045500478 47:-0.06872111 48:-0.058424141 49:0.040811545 50:-0.15788242 
64.21670878088537 1:0.17145516 2:0.036492172 3:0.014964486 4:0.057863003 5:-0.023800342 6:-0.076203925 7:-0.019698247 8:0.01948147 9:0.054560086 10:-0.08695476 11:-0.0037497445 12:0.056483632 13:0.087920061 14:0.0032766003 15:0.019399871 16:0.010490878 17:0.020396643 18:0.059767037 19:-0.035690269 20:0.061733526 21:-0.017594356 22:0.0087200977 23:-0.035918434 24:0.17031314 25:0.00044784233 26:-0.091977034 27:-0.011110463 28:-0.014713223 29:-0.0099170506 30:0.072537673 31:-0.062260023 32:-0.15325383 33:0.19387775 34:-0.04598346 35:-0.040616872 36:-0.086051315 37:0.035292044 38:-0.037716763 39:0.025261011 40:-0.05306637 41:0.1479182 42:0.052401065 43:-0.08032367 44:0.0024822845 45:0.060978806 46:-0.055730566 47:0.025880675 48:0.0640497 49:0.021191467 50:0.0094621098 
148.3129 1:0.13374692 2:0.18937452 3:-0.015711518 4:-0.0041222628 5:-0.071860834 6:0.030146279 7:-0.045682797 8:-0.00089325214 9:-0.088635864 10:0.036914417 11:0.057267878 12:-0.027368753 13:0.015141402 14:0.027712561 15:0.041152948 16:-0.075636334 17:-0.15199334 18:0.026308651 19:0.0012145557 20:0.0057977821 21:0.065679121 22:0.026333739 23:0.015729119 24:0.079954868 25:0.10462384 26:-0.026478621 27:0.044384748 28:0.058012144 29:0.0092421706 30:0.050137026 31:0.055048444 32:0.1128359 33:-0.044510708 34:0.033630882 35:0.02861111 36:-0.056174166 37:-0.047007238 38:0.083149328 39:-0.068485547 40:0.0032664519 41:0.042065328 42:0.023198803 43:-0.029216621 44:-0.036248681 45:0.0016869028 46:0.076931848 47:0.051429968 48:-0.058136534 49:0.074510722 50:0.0017720443 
-148.3129 1:0.070661678 2:0.08508715 3:0.047438992 4:0.0053026433 5:0.036646084 6:0.0017979231 7:0.0021539861 8:0.06469012 9:0.13086685 10:0.052853002 11:0.0078813095 12:-0.050669537 13:-0.043150959 14:0.066221926 15:0.050114044 16:0.078527126 17:-0.0021740589 18:0.058797795 19:-0.02000531 20:0.020122456 21:-0.000789863 22:0.014361276 23:-0.0067942156 24:0.057494874 25:0.055682682 26:-0.049542568 27:0.055004871 28:0.14295384 29:-0.043531366 30:0.043344119 31:0.037962277 32:-0.020862191 33:-0.05115069 34:-0.093077607 35:-0.046392995 36:0.054071285 37:-0.045128827 38:0.0041704676 39:0.042618644 40:-0.051985501 41:-0.065321212 42:-0.030128782 43:0.016899596 44:-0.036736219 45:-0.056690862 46:-0.0023529038 47:-0.011028004 48:0.026503727 49:0.052182998 50:0.030538091 
-148.3129 1:0.24051227 2:-0.18985169 3:0.058839221 4:-0.042075921 5:0.07117931 6:0.069185045 7:0.081179984 8:-0.0039027309 9:0.0033521436 10:0.057046778 11:0.010065924 12:0.044060275 13:-0.02182972 14:0.058413998 15:0.062656504 16:0.061816162 17:0.038941296 18:-0.066126027 19:-0.019723857 20:0.078780311 21:0.054827417 22:-0.031663863 23:-0.10800838 24:0.0096243855 25:0.11130151 26:-0.13896156 27:-0.045807416 28:-0.07694799 29:-0.11291546 30:-0.088982985 31:-0.013812861 32:-0.030900988 33:0.030617076 34:-0.078650008 35:-0.0090478947 36:0.00047046739 37:-0.13715463 38:0.047027245 39:-0.021682672 40:0.051316085 41:-0.1014838 42:-0.090026169 43:-0.059101168 44:0.14280371 45:-0.038880108 46:-0.036055292 47:-0.069201388 48:0.1010583 49:0.0071078636 50:-0.090141105 
-148.3129 1:0.037514136 2:0.066276325 3:0.011304726 4:0.13880556 5:0.0064339079 6:-0.093380553 7:-0.0018417028 8:-0.028113385 9:0.15892219 10:-0.014582141 11:-0.013280134 12:0.093398262 13:-0.1314274 14:-0.018413873 15:0.085953278 16:-0.035048179 17:-0.08646154 18:0.06402867 19:-0.044339752 20:0.05727984 21:-0.030425013 22:-0.056544938 23:0.050071575 24:0.04812311 25:0.055216831 26:-0.006029971 27:-0.0081016852 28:-0.064066722 29:-0.0075223607 30:-0.016402647 31:-0.10669663 32:-0.054961048 33:0.024476581 34:-0.0090988853 35:0.19638261 36:0.044182286 37:-0.034912542 38:0.098081087 39:0.0082884808 40:-0.079637974 41:0.044259906 42:0.034243655 43:-0.076945327 44:0.055087768 45:0.024822327 46:-0.11932098 47:-0.08327014 48:0.10566308 49:-0.096358131 50:-0.023429365 
148.3129 1:-0.051819705 2:0.075782064 3:-0.029017983 4:-0.093275165 5:-0.055309293 6:-0.015573704 7:0.064734368 8:0.069226609 9:-0.030022915 10:0.0068840253 11:0.041117431 12:0.10353546 13:-0.12133884 14:0.1056857 15:-0.0073411654 16:-0.14136959 17:-0.072940215 18:-0.042995014 19:-0.062813368 20:-0.0025448954 21:-0.14473543 22:-0.046316516 23:-0.08941073 24:0.071808738 25:-0.044330071 26:0.083778459 27:-0.027368143 28:0.14551405 29:0.02679983 30:-0.13306118 31:0.13749241 32:-0.061957851 33:0.16561195 34:-0.080090427 35:-0.10638004 36:-0.12127321 37:0.0011933083 38:-0.036658058 39:-0.044098708 40:0.11924529 41:-0.11914645 42:-0.090189707 43:-0.038345498 44:0.02753042 45:0.10816306 46:-0.12905595 47:0.0055264173 48:-0.0095793605 49:0.029986408 50:0.085543287 
-129.4239077233924 1:0.16191876 2:0.13401453 3:0.082240072 4:0.065101597 5:0.060359963 6:0.044357246 7:-0.027498504 8:-0.075987724 9:0.069321014 10:-0.0097340503 11:0.022825555 12:0.026935082 13:0.014540781 14:-0.015538604 15:-0.00063160594 16:-0.044647367 17:0.016864505 18:-0.017411531 19:-0.025775812 20:-0.16539033 21:-0.068881522 22:0.035221159 23:-0.089653805 24:0.043217448 25:0.057573789 26:0.038105752 27:0.11725598 28:-0.0096571612 29:-0.023952211 30:-0.055545973 31:0.048587883 32:-0.022804039 33:-0.088787134 34:0.025406426 35:-0.0087921775 36:-0.097904825 37:0.065304053 38:-0.024086814 39:-0.027654398 40:0.013937516 41:0.12116426 42:-0.035430363 43:0.009371225 44:-0.019129681 45:-0.019810468 46:-0.15985518 47:-0.026402408 48:-0.034824923 49:0.0208558 50:0.017142353 
148.3129 1:0.011763799 2:0.038594032 3:-0.10940095 4:0.090134094 5:-0.089516539 6:-0.011211152 7:-0.045003867 8:0.090428858 9:-0.043157717 10:0.025499298 11:0.15050787 12:-0.12222085 13:0.0088836502 14:0.066536876 15:-0.060063444 16:-0.14449934 17:-0.061479123 18:0.14364701 19:-0.21826131 20:0.059680211 21:-0.038691399 22:0.12485965 23:0.11323294 24:-0.027644962 25:-0.012742954 26:0.044173526 27:0.11057473 28:0.095550786 29:-0.013394188 30:-0.022395736 31:0.11776946 32:-0.020283263 33:0.0084271206 34:0.019983009 35:-0.10185686 36:-0.09181434 37:-0.066618974 38:-0.079063824 39:0.032088412 40:0.074350403 41:-0.035202593 42:-0.076728171 43:-0.0055475925 44:-0.048454839 45:0.13381866 46:-0.21605951 47:-0.013817502 48:0.055712571 49:-0.028280591 50:0.045848808 
148.3129 1:-0.11945192 2:-0.08115212 3:0.017644161 4:0.063675362 5:-0.020709379 6:0.17689003 7:-0.068981998 8:-0.12378622 9:0.074118365 10:-0.027516199 11:0.082066328 12:0.052247653 13:-0.043162929 14:0.026090617 15:0.034969643 16:0.01568932 17:0.096787833 18:-0.12937301 19:0.048687579 20:-0.039912696 21:0.0042284015 22:-0.016366906 23:0.087490346 24:0.13140092 25:-0.13740643 26:-0.12211479 27:-0.058445947 28:-0.047404701 29:-0.040706566 30:0.031277309 31:-0.0082192564 32:-0.058334034 33:-0.092239294 34:-0.038636572 35:-0.046749873 36:0.0070718926 37:-0.0036144956 38:-0.0016354747 39:-0.056562034 40:0.031678607 41:0.011632965 42:0.040286876 43:-0.1243502 44:-0.03251032 45:0.017635894 46:-0.062692739 47:0.0074645435 48:-0.045522242 49:-0.049629135 50:-0.031890549 
-148.3129 1:-0.017866779 2:0.068143322 3:0.018353335 4:-0.017598345 5:-0.088367317 6:-0.025563547 7:0.011212538 8:0.074589844 9:-0.011946487 10:-0.047504917 11:0.027957288 12:-0.01860696 13:-0.03616402 14:0.014631179 15:-0.034957108 16:0.095034923 17:-0.074230626 18:-0.014732752 19:0.010442275 20:-0.0082227092 21:0.021068271 22:0.035155479 23:0.061366899 24:-0.017099909 25:0.0049638739 26:0.0088139959 27:0.045556696 28:0.082829992 29:0.026164323 30:0.076781225 31:-0.0063021721 32:-0.11335392 33:0.022861221 34:0.043949561 35:0.035585052 36:0.076942933 37:-0.0038062955 38:0.015412879 39:0.064467811 40:0.092946956 41:-0.044359972 42:-0.058909617 43:-0.056208397 44:0.028218369 45:0.074470555 46:-0.06616823 47:0.0028953579 48:0.057911265 49:-0.071236778 50:-0.060709373 
146.8567804881653 1:0.18914431 2:0.10384995 3:0.066567259 4:0.086819392 5:-0.0019874641 6:0.01782793 7:-0.032436646 8:-0.021906659 9:-0.0045371254 10:0.03864886 11:0.035897104 12:-0.075650413 13:-0.025297308 14:0.05237015 15:-0.10755031 16:0.022253764 17:-0.0098658904 18:-0.027152656 19:0.051831858 20:0.0034612286 21:0.046088418 22:0.067446572 23:0.018802758 24:0.093101223 25:-0.085254449 26:0.084038535 27:-0.020319373 28:-0.028407014 29:-0.0082020182 30:0.040275092 31:0.068206418 32:0.014890533 33:-0.12763748 34:0.080277688 35:0.046545988 36:-0.042898941 37:0.084584111 38:-0.1009585 39:0.011883979 40:-0.022343853 41:-0.00029638991 42:0.008464908 43:-0.053636678 44:-0.17015791 45:0.052276095 46:0.062593756 47:0.062572643 48:0.10709822 49:-0.051309231 50:-0.071944967 
-88.40224131667416 1:-0.26595298 2:-0.10391354 3:0.0058185613 4:-0.071870288 5:0.10322043 6:0.049779826 7:0.051323227 8:-0.089991427 9:-0.051718866 10:0.066624281 11:-0.16613057 12:-0.1500673 13:-0.05001753 14:-0.098131076 15:-0.086632745 16:0.016082926 17:-0.029824718 18:0.015515989 19:0.045571558 20:-0.14600385 21:0.10959829 22:-0.11113999 23:-0.044207272 24:-0.058022236 25:0.081313056 26:0.14126511 27:-0.088410956 28:-0.036528917 29:0.22776293 30:-0.071712799 31:0.081618504 32:-0.00070544329 33:0.16766697 34:0.083105816 35:0.16945501 36:0.031089013 37:0.15853824 38:0.12747255 39:-0.0028076037 40:0.00093177126 41:0.026750143 42:-0.1987638 43:-0.010221792 44:-0.1061603 45:0.12560307 46:-0.088752336 47:-0.0098073496 48:0.15906969 49:-0.058271406 50:-0.06641944 
148.3129 1:0.18057227 2:0.019792335 3:0.080322733 4:0.011917443 5:-0.067265643 6:0.018686688 7:-0.059748885 8:-0.026635997 9:-0.023299625 10:-0.033919662 11:-0.015858581 12:-0.031150499 13:0.077191999 14:0.022398744 15:-0.023667396 16:-0.032572448 17:-0.0057806334 18:0.032738126 19:-0.01968933 20:0.034198517 21:-0.041539904 22:-0.028940011 23:0.031252401 24:-0.010682248 25:0.04881673 26:0.052813465 27:-0.027455209 28:-0.052306262 29:0.010421659 30:0.011439816 31:0.030108001 32:0.032029042 33:0.042930411 34:0.069546233 35:0.004581989 36:-0.047210039 37:-0.03044032 38:-0.022972262 39:-0.0050154069 40:-0.038192331 41:-0.0021574915 42:0.069269584 43:0.049539199 44:0.025726614 45:0.019241315 46:0.09841587 47:-0.089966621 48:0.0024723066 49:0.05859681 50:-0.041313091 
148.3129 1:-0.12350115 2:0.010675273 3:-0.12023 4:-0.036777263 5:-0.057158408 6:0.035014683 7:-0.12619876 8:0.074499325 9:-0.095274377 10:-0.12866547 11:-0.055690277 12:-0.018446309 13:-0.071309625 14:0.043736185 15:-0.00050088576 16:-0.078416553 17:0.023758321 18:-0.032623383 19:-0.043522058 20:0.060622275 21:-0.055006516 22:-0.013861051 23:0.026730416 24:-0.031329158 25:-0.00048997398 26:-0.14518951 27:0.015893888 28:-0.076314769 29:-0.12083797 30:-0.047312078 31:0.045062262 32:0.015578262 33:0.10455928 34:0.00057854127 35:-0.016515013 36:-0.12330941 37:0.063731033 38:-0.031479475 39:0.056328286 40:-0.071772082 41:-0.1439712 42:-0.084184986 43:-0.017610232 44:0.17942083 45:-0.050310952 46:0.15355685 47:0.0067452495 48:0.044145303 49:-0.03314159 50:-0.1006086 
148.3129 1:0.082631292 2:0.10099421 3:-0.1035453 4:0.017639865 5:0.057947953 6:0.0033211815 7:0.12534298 8:0.038861078 9:0.029381775 10:-0.00081183851 11:0.043740344 12:-0.040599371 13:0.065632702 14:0.031052813 15:-0.044542464 16:0.090566378 17:0.019522972 18:-0.065543442 19:0.13538883 20:-0.022934267 21:0.098316092 22:-0.091444226 23:-0.037312127 24:0.051210462 25:-0.033955058 26:-0.030160673 27:0.013442224 28:-0.0076320429 29:0.030289218 30:0.042909406 31:0.14106392 32:0.050573428 33:0.046666817 34:-0.018111445 35:-0.02674682 36:0.021048653 37:0.026153376 38:0.028692006 39:-0.044742361 40:-0.088621195 41:0.019149401 42:-0.15146509 43:-0.013330692 44:-0.0049826089 45:-0.096034454 46:0.034824817 47:0.030414419 48:0.049106726 49:-0.10987197 50:-0.025465854 
-148.3129 1:-0.20831577 2:0.098123601 3:0.0073453 4:-0.10563949 5:-0.24399002 6:-0.14341648 7:-0.03944471 8:0.00053726031 9:0.030717151 10:-0.020525368 11:-0.016515656 12:0.061409371 13:0.019209374 14:-0.029059618 15:-0.056674216 16:0.0511722 17:-0.029631406 18:-0.014181062 19:-0.034392067 20:0.049391908 21:-0.043505614 22:-0.039766071 23:0.051954196 24:0.10454132 25:-0.042010526 26:0.01900331 27:0.0052969015 28:-0.0013175813 29:0.032123893 30:0.097873436 31:-0.056068674 32:0.021187043 33:-0.18287523 34:0.029146389 35:0.05203135 36:-0.089161262 37:0.031265911 38:-0.042635139 39:-0.094487833 40:-0.14251128 41:-0.077512954 42:0.066529224 43:-0.04421412 44:0.0050936589 45:0.10351482 46:0.17076606 47:0.030472933 48:0.069837434 49:-0.061554483 50:-0.060764176 
148.3129 1:0.18766812 2:0.12614058 3:0.16658296 4:0.030350058 5:0.054415867 6:-0.013103907 7:0.015293489 8:0.018141229 9:-0.0020259971 10:-0.004292277 11:-0.13864972 12:0.032503459 13:-0.0032312763 14:-0.0028584338 15:0.037348291 16:0.042793537 17:-0.092009721 18:0.0081576683 19:0.020658942 20:-0.026934569 21:-0.098417818 22:0.065286998 23:0.025275123 24:0.048052195 25:0.12197331 26:-0.089232229 27:0.051724135 28:-0.046182377 29:-0.010094689 30:-0.072121173 31:0.013383453 32:0.043704974 33:-0.059765046 34:0.059921165 35:0.1620913 36:0.038440363 37:-0.040491738 38:-0.090155608 39:-0.021456161 40:-0.12736179 41:-0.017479577 42:-0.10456947 43:0.076354226 44:-0.00025758637 45:0.091895234 46:0.003941292 47:0.022414053 48:-0.089461844 49:0.021539988 50:-0.052208173 
-148.3129 1:-0.014847707 2:0.034855572 3:-0.13845586 4:-0.015803775 5:0.042011313 6:-0.090820324 7:-0.032336764 8:0.015378915 9:-0.1281298 10:-0.046479681 11:0.047899288 12:-0.001504633 13:-0.046209341 14:-0.00034782701 15:0.13798475 16:-0.025388219 17:-0.068977671 18:0.00037225072 19:0.052704186 20:0.0083854915 21:0.10115678 22:0.030293513 23:0.046228986 24:0.14699032 25:-0.060922772 26:0.039240247 27:-0.080992928 28:0.026577147 29:0.073817237 30:0.040722313 31:-0.053598257 32:-0.060123712 33:0.063039641 34:0.016368455 35:-0.078335704 36:0.0983896 37:0.086614789 38:0.033217288 39:0.03021353 40:-0.088028938 41:0.067476924 42:-0.013055257 43:0.036483844 44:-0.059260075 45:0.055204713 46:0.050007302 47:-0.00077626068 48:-0.0955864 49:0.0093892584 50:-0.0039283458 
-41.72115394233041 1:0.17352682 2:0.15344945 3:0.11532362 4:0.067491121 5:0.14078913 6:0.15260254 7:-0.14336743 8:0.002142843 9:0.046258082 10:-0.02195952 11:0.17672621 12:0.015372464 13:-0.17071767 14:-0.011936857 15:-0.047799231 16:-0.082544474 17:-0.051168892 18:0.039097713 19:-0.099806365 20:-0.091315427 21:-0.12135304 22:0.087728759 23:0.085764126 24:0.015989413 25:-0.027999777 26:0.08071267 27:0.042749671 28:-0.0038316756 29:-0.15253328 30:-0.016297922 31:0.10236724 32:0.11793651 33:-0.12650653 34:0.072877745 35:0.060724719 36:-0.090595339 37:0.069917199 38:-0.064671739 39:0.10575221 40:-0.017236147 41:0.14815592 42:0.079003403 43:-0.030542052 44:0.19889553 45:-0.09420437 46:0.031129729 47:0.056487968 48:0.084876035 49:-0.11428375 50:0.049150888 
-148.3129 1:-0.064510784 2:0.052942549 3:-0.092642294 4:0.0609699 5:-0.066940695 6:-0.059362103 7:-0.016451924 8:0.044537339 9:-0.013809626 10:-0.085476939 11:0.0097942392 12:-0.057912077 13:0.010062036 14:-0.07278284 15:0.0071272319 16:0.038600901 17:-0.008607044 18:0.025042274 19:-0.050651282 20:0.066313287 21:0.034137006 22:0.077860386 23:-0.040295247 24:0.10660645 25:-0.014054655 26:-0.037104711 27:-0.00017391769 28:-0.077263451 29:0.07983971 30:0.046704942 31:0.079292161 32:-0.024923795 33:-0.0075027618 34:-0.057929213 35:0.048484979 36:0.07679199 37:-0.031566026 38:-0.018435068 39:-0.0059355239 40:-0.0060473969 41:0.039577495 42:-0.069576198 43:-0.049090039 44:-0.076835782 45:0.04317134 46:0.053226263 47:0.050651133 48:-0.0020188621 49:-0.067756558 50:-0.025669786 
-148.3129 1:0.15832785 2:-0.24513748 3:-0.060878711 4:0.085750657 5:-0.037057457 6:-0.14810717 7:0.066539897 8:0.083279407 9:-0.042771517 10:0.080677641 11:-0.059955471 12:-0.029878654 13:-0.042034969 14:0.054215356 15:0.050797357 16:0.043935038 17:0.045780925 18:-0.089577628 19:0.086382871 20:0.075960403 21:-0.025282368 22:-0.041196202 23:-0.13258629 24:-0.0834754 25:0.046299683 26:-0.048056307 27:0.10731586 28:-0.10109524 29:0.11882318 30:-0.093216681 31:0.065465741 32:0.084932357 33:-0.09116889 34:-0.057723935 35:-0.097362244 36:0.082719179 37:-0.18887043 38:-0.078601574 39:0.0050857454 40:-0.10852849 41:0.1194256 42:-0.067198756 43:-0.031346897 44:-0.0050640336 45:0.074721675 46:-0.12777392 47:0.023296594 48:0.00045200078 49:0.12406618 50:-0.018271709 
-148.3129 1:0.11589213 2:0.090498391 3:-0.00055638744 4:0.029577118 5:0.01962142 6:0.026119912 7:0.036619184 8:0.00035506153 9:0.0026807062 10:0.0095730532 11:0.0029673283 12:0.013458347 13:-0.00080331267 14:0.040553162 15:-0.097766342 16:0.10691925 17:-0.092531452 18:0.053298652 19:0.062776536 20:0.051918949 21:0.10806105 22:-0.0063542525 23:-0.056873726 24:0.043779633 25:0.01378626 26:-0.006495649 27:-0.029846741 28:-0.065826852 29:-0.048498652 30:-0.0025585505 31:0.026422762 32:0.017346568 33:0.04523665 34:0.076774559 35:0.090983382 36:0.066391757 37:-0.022932149 38:-0.030686895 39:0.0524358 40:0.025686105 41:0.037770605 42:0.11834237 43:-0.078055422 44:-0.015567332 45:-0.033866576 46:0.0085814441 47:-0.012622355 48:-0.052516016 49:0.085702196 50:-0.0055842065 
71.83122746481699 1:0.030466024 2:0.22244834 3:-0.09568215 4:-0.072686264 5:-0.032495655 6:-0.047737205 7:-0.091297746 8:0.014904679 9:-0.02749202 10:0.033365265 11:0.04295091 12:0.042568383 13:0.040952662 14:0.016137349 15:0.069700706 16:0.038870337 17:0.12781743 18:0.085214592 19:0.1718183 20:0.12570387 21:0.012594922 22:-0.033857026 23:-0.0062315704 24:0.0085572512 25:-0.1015118 26:-0.15089044 27:0.038686144 28:-0.027791699 29:-0.03082766 30:0.016716689 31:-0.017040258 32:-0.21926279 33:-0.0085163409 34:0.026722655 35:0.064551641 36:0.066166904 37:-0.16734635 38:-0.010433619 39:-0.041764681 40:-0.042388982 41:0.10388859 42:0.014723701 43:0.13911866 44:-0.070562973 45:0.064643144 46:0.07516971 47:0.044163743 48:0.023098218 49:-0.14907583 50:-0.043550742 
148.3129 1:-0.085199705 2:-0.052787863 3:0.11496143 4:-0.13370734 5:-0.21630477 6:0.010693517 7:0.054447885 8:0.019233745 9:-0.051485515 10:0.21247569 11:-0.051491025 12:-0.069466287 13:-0.040889334 14:-0.027616978 15:-0.061386179 16:0.009602217 17:-0.054743033 18:-0.11207614 19:0.053026149 20:-0.0037352951 21:-0.05412544 22:0.10456311 23:-0.014146446 24:-0.063100899 25:-0.012867763 26:0.11253332 27:0.0063763817 28:0.053559552 29:-0.1121587 30:-0.051341817 31:0.010340778 32:-0.031016194 33:0.039530127 34:-0.052858145 35:0.042766221 36:0.076436518 37:-0.089962582 38:-0.057597354 39:0.060671295 40:-0.032379293 41:0.032526234 42:0.071820549 43:-0.076687292 44:0.0076475453 45:-0.079971803 46:-0.029797239 47:0.14920519 48:-0.062832796 49:0.032402398 50:-0.0048160308 
148.3129 1:-0.057181003 2:0.032217472 3:-0.017783113 4:-0.042143045 5:-0.0030951995 6:-0.13550917 7:0.091269258 8:-0.037680677 9:-0.035985473 10:-0.046557042 11:-0.12111556 12:0.064423448 13:-0.030489097 14:0.056863297 15:-0.00055186041 16:0.13778804 17:0.11737217 18:0.10755552 19:-0.03909431 20:0.030697712 21:0.091368446 22:-0.082111762 23:-0.024053495 24:0.032999787 25:-0.0015991032 26:-0.039178548 27:0.029405487 28:-0.1636832 29:0.025551257 30:0.0008061161 31:-0.082577148 32:-0.062236318 33:-0.027373761 34:-0.059113408 35:0.033801987 36:-0.011545877 37:-0.070549927 38:0.041014054 39:-0.071252182 40:-0.0010850777 41:0.027957787 42:-0.10043366 43:-0.12268124 44:-0.091751929 45:0.070770961 46:-0.039841195 47:-0.094825561 48:0.063622908 49:-0.0156319 50:0.086180485 
-119.128706052213 1:-0.24621617 2:-0.050040063 3:0.070077527 4:-0.033782162 5:-0.020481387 6:-0.062824627 7:0.23582006 8:-0.074674228 9:-0.13941655 10:-0.056864279 11:0.15719411 12:-0.089610484 13:-0.077836976 14:-0.038032615 15:0.0075017509 16:-0.060048 17:-0.093091114 18:-0.039698833 19:0.066984823 20:-0.17863759 21:-0.073422293 22:-0.046179404 23:-0.0081204186 24:-0.033456928 25:0.0044453701 26:-0.17677997 27:-0.001778928 28:-0.078748931 29:-0.11855311 30:-0.013794189 31:-0.0085384594 32:-0.13722435 33:-0.023701602 34:0.052236303 35:-0.084407182 36:0.069300284 37:-0.026208099 38:0.038789772 39:-0.0058642227 40:0.031513016 41:-0.007681531 42:-0.03738234 43:-0.10283254 44:0.053588207 45:-0.01968977 46:-0.054210657 47:0.084121495 48:-0.12529413 49:-0.038378615 50:0.050698546 
-148.3129 1:0.083100982 2:0.06025617 3:-0.034888677 4:-0.15080302 5:-0.070495787 6:0.045744128 7:-0.035868186 8:-0.070682483 9:-0.039695819 10:0.032090992 11:-0.042891269 12:-0.045173643 13:-0.020768062 14:0.013178925 15:-0.069006631 16:-0.062251214 17:0.01549249 18:-0.0045179637 19:-0.092422754 20:-0.017807513 21:0.062178855 22:-0.0651754 23:-0.029731721 24:-0.074962086 25:-0.13335879 26:0.096995285 27:-0.03030818 28:-0.0084621737 29:-0.067254201 30:0.10210805 31:0.070038028 32:-0.031538116 33:-0.02283674 34:-0.025489776 35:-0.023043983 36:-0.14416629 37:-0.060565564 38:-0.072106143 39:-0.0063685598 40:-0.10619107 41:0.019567648 42:-0.082939864 43:0.053052321 44:-0.013515391 45:0.022873863 46:0.048389861 47:0.1326734 48:-0.0071182866 49:-0.019021904 50:0.089843657 
148.3129 1:0.22260434 2:-0.019809419 3:0.065342146 4:-0.042903097 5:-0.041197286 6:-0.025718935 7:0.027218168 8:0.027869672 9:0.060061605 10:-0.036991301 11:0.01056552 12:-0.011961518 13:-0.049906722 14:-0.0060896196 15:0.11927274 16:0.025823549 17:0.012907041 18:0.011158926 19:0.011499228 20:0.0014631549 21:-0.03200343 22:-0.0079595146 23:-0.067217052 24:-0.066099352 25:-0.035799342 26:0.06475223 27:-0.068374649 28:-0.051910794 29:0.039132483 30:-0.040936255 31:-0.029076985 32:-0.0026252276 33:0.10439177 34:-0.0072373292 35:0.058733008 36:0.014779355 37:0.045640683 38:-0.071374645 39:-0.033122383 40:-0.029461858 41:-0.016084402 42:0.067880914 43:0.026465263 44:0.032492077 45:-0.0060606132 46:0.020129108 47:0.015575671 48:0.057037075 49:-0.086645598 50:0.035668241 
148.3129 1:0.033196869 2:0.11294616 3:0.035871935 4:-0.0098388645 5:0.048453083 6:0.042151793 7:0.057724185 8:-0.015267724 9:-0.13075197 10:0.0026102103 11:-0.054985988 12:-0.10965958 13:-0.11848368 14:0.011472656 15:0.0054203011 16:0.0069358233 17:0.068524342 18:0.0058929468 19:-0.025978506 20:-0.075521405 21:-0.056194006 22:0.03821044 23:-0.067672652 24:-0.04332551 25:0.054320269 26:-0.022764615 27:0.039790772 28:-0.083118091 29:0.0015199032 30:-0.13814274 31:-0.10261139 32:-0.010110744 33:0.06598118 34:0.007028911 35:0.058900663 36:-0.022248499 37:-0.039663608 38:0.13825113 39:0.030854346 40:0.0033120817 41:-0.057889886 42:-0.024185765 43:-0.0052687965 44:0.0053834769 45:-0.053966943 46:0.060362497 47:-0.081178734 48:-0.0462702 49:0.028353392 50:0.008092397 
148.3129 1:0.24651649 2:-0.033971857 3:0.056769507 4:0.071231055 5:0.0051096477 6:0.031487698 7:0.018194575 8:0.013962167 9:-0.065963631 10:0.045483638 11:-0.092978996 12:-0.032698489 13:-0.012284945 14:-0.017349148 15:0.020262165 16:-0.032393568 17:0.081518746 18:0.065293493 19:-0.033578884 20:0.063069886 21:0.052232804 22:-0.0058945977 23:0.059359909 24:-0.033387484 25:0.03554543 26:-0.080639004 27:0.0084312234 28:-0.038697818 29:0.12515144 30:-0.061171739 31:0.046337808 32:-0.090332387 33:-0.058427291 34:0.0052460324 35:-0.033843557 36:-0.012166189 37:0.08755943 38:0.01856251 39:0.083320768 40:0.0088370886 41:-0.042348412 42:0.040859478 43:-0.010089641 44:-0.087674743 45:0.071404912 46:7.7664997e-005 47:0.037942962 48:0.050926362 49:0.00066143602 50:0.058520506 
-148.3129 1:-0.077180037 2:0.07812032 3:-0.15402782 4:0.13948838 5:0.0012830925 6:-0.026539196 7:-0.036401402 8:-0.1246582 9:0.07562669 10:0.073824912 11:0.068852021 12:0.037224173 13:0.050417943 14:-0.13671461 15:-0.018953757 16:-0.10251526 17:-0.03358443 18:-0.032516997 19:-0.080706449 20:-0.056491656 21:0.067347102 22:0.039942541 23:0.0049404381 24:-0.11461159 25:-0.090707708 26:-0.044121403 27:-0.034587639 28:-0.054109038 29:-0.10425136 30:-0.052171588 31:-0.0085991715 32:0.04799761 33:0.01723441 34:-0.10860358 35:0.053953593 36:0.023836233 37:0.098402552 38:-0.0035011072 39:0.097037957 40:-0.064450958 41:0.14554903 42:-0.043815693 43:0.030340963 44:-0.068018954 45:-0.082857597 46:-0.13984891 47:-0.041988645 48:-0.0049477957 49:-0.047227515 50:0.036731832 
-148.3129 1:0.0197733 2:0.14915264 3:-0.23636413 4:0.042783858 5:0.0039928794 6:0.093924718 7:-0.080162227 8:0.11125359 9:-0.020170432 10:0.064889869 11:0.019238378 12:-0.040200245 13:0.024552989 14:0.079562619 15:-0.050355284 16:0.070895066 17:-0.011213308 18:0.014557405 19:0.0089200259 20:0.083559002 21:0.087791835 22:0.15846108 23:-0.17949263 24:0.034355622 25:0.041868224 26:0.10064951 27:0.0028163514 28:0.093613024 29:-0.0086255989 30:0.1171081 31:0.059396859 32:0.056651999 33:-0.044650756 34:0.046672663 35:-0.024259142 36:0.030864201 37:0.13844337 38:-0.050876723 39:-0.082546309 40:-0.044525617 41:-0.013904019 42:0.1431902 43:0.1026955 44:0.12379948 45:0.0014121468 46:0.032833081 47:-0.062020174 48:-0.008917075 49:0.016716991 50:-0.025468687 
-148.3129 1:-0.14980825 2:-0.037459691 3:-0.12871023 4:0.022735764 5:0.034673331 6:-0.1584998 7:-0.013415289 8:-0.1214024 9:-0.014557011 10:0.0034012426 11:0.051010979 12:0.047256959 13:-0.060042137 14:0.15483159 15:0.17985838 16:-0.16148074 17:-0.066295326 18:-0.068098499 19:0.055338131 20:-0.0016064505 21:-0.064801129 22:-0.11017401 23:-0.03761953 24:-0.0066011348 25:0.092693653 26:0.12577847 27:0.07475828 28:-0.069947534 29:-0.0078052734 30:-0.18688287 31:-0.074846109 32:0.00037210544 33:-0.072648959 34:-0.0049367257 35:0.13973309 36:-0.0037862434 37:0.11948921 38:-0.062358527 39:0.071949347 40:-0.045150591 41:0.071732382 42:0.077537512 43:-0.0252623 44:-0.00040462354 45:0.07440644 46:-0.034606001 47:-0.0037178274 48:-0.10167006 49:-0.13285578 50:-0.10613466 
-148.3129 1:0.1008583 2:0.24522541 3:0.029420887 4:-0.046480155 5:-0.03680485 6:0.12154392 7:0.047490101 8:-0.055029603 9:-0.091111935 10:0.15131936 11:-0.083703206 12:-0.14731489 13:0.043206765 14:-0.01552213 15:-0.0074317645 16:-0.01260751 17:0.20398257 18:-0.01373028 19:-0.061093032 20:-0.013984362 21:-0.017370324 22:0.016258784 23:-0.013481469 24:-0.059931138 25:-0.029504711 26:-0.086647719 27:-0.049204861 28:-0.007973433 29:0.11143939 30:-0.12205782 31:0.1338288 32:-0.12462042 33:-0.04968938 34:0.097450657 35:-0.031519949 36:0.054230241 37:-0.0087253259 38:-0.084558199 39:0.034891716 40:-0.099566892 41:0.019011933 42:-0.090728021 43:-0.020802889 44:-0.04995902 45:0.069607588 46:0.040115277 47:-0.005863607 48:0.088135313 49:-0.0072656851 50:-0.050143594 
-148.3129 1:0.19442522 2:0.020874767 3:-0.055116588 4:0.024166436 5:-0.043599579 6:-0.051389722 7:0.015847023 8:0.060436923 9:-0.00030556343 10:0.089760233 11:0.0073538735 12:0.011164202 13:0.019520948 14:-0.089997841 15:-0.011392159 16:0.044329386 17:0.065344338 18:-0.014060504 19:0.0054222016 20:-0.12047937 21:0.044378628 22:-0.068921261 23:-0.013952331 24:0.014614276 25:-0.055313107 26:-0.01386888 27:-0.10483952 28:-0.026033527 29:-0.049858296 30:0.042549992 31:-0.0036494895 32:0.043588652 33:-0.0046278824 34:0.073308718 35:0.031941599 36:-0.07321128 37:0.0046735235 38:-0.06081586 39:-0.022594727 40:0.033015338 41:0.055266799 42:0.025309301 43:-0.0078129993 44:-0.050953442 45:0.066991294 46:0.013395091 47:-0.14798505 48:0.011970707 49:0.029290836 50:0.065391277 
9.369035577208155 1:-0.26775589 2:0.0089810767 3:-0.11305328 4:-0.055133133 5:-0.17027224 6:-0.047934159 7:0.038541868 8:-0.042830868 9:-0.025884098 10:-0.10923652 11:-0.13519391 12:0.060542235 13:-0.028289227 14:0.050970672 15:-0.067983343 16:-0.093676636 17:0.021590104 18:0.091512812 19:0.029786586 20:0.035361716 21:0.066382129 22:0.018189168 23:0.074270336 24:-0.048742365 25:-0.080182116 26:-0.093457918 27:-0.010737369 28:0.11548192 29:-0.010229343 30:-0.076521038 31:0.14855051 32:-0.0391373 33:0.0030627037 34:-0.033482009 35:0.0065351618 36:0.059837985 37:0.094404637 38:0.0056164287 39:-0.13292699 40:-0.06281138 41:-0.089034369 42:-0.0092534368 43:-0.0074914131 44:0.018997394 45:0.016083652 46:-0.06811718 47:0.038336948 48:-0.13492075 49:0.067311033 50:-0.042903985 
148.3129 1:0.11383424 2:0.16035774 3:-0.043445923 4:-0.088624079 5:-0.01910955 6:-0.065879543 7:0.00080756957 8:-0.046386055 9:-0.10075747 10:0.026315121 11:-0.015913081 12:0.10430634 13:-0.027477626 14:-0.0047098859 15:0.048408524 16:-0.01372602 17:0.033702134 18:0.038616153 19:0.0099861496 20:0.015879038 21:0.023643718 22:0.0057656137 23:0.056292362 24:-0.0057800766 25:-0.053912401 26:-0.060904378 27:0.052001784 28:0.019210542 29:0.1271755 30:0.026751717 31:-0.082311921 32:-0.0083697946 33:0.048811915 34:-0.04306278 35:-0.04841639 36:0.10328731 37:-0.0039555287 38:0.063887658 39:-0.081197612 40:-0.0030868558 41:-0.0044466901 42:0.043367516 43:0.025748428 44:-0.051242817 45:0.031164014 46:0.053610059 47:-0.0680252 48:0.028140801 49:-0.055914402 50:0.025710315 
-148.3129 1:0.098087367 2:0.13796885 3:-0.086327933 4:0.017872039 5:-0.050858852 6:0.080463247 7:-0.025174848 8:-0.015517277 9:0.011039127 10:0.039304843 11:0.076974188 12:-0.041679634 13:0.093666363 14:-0.0042732745 15:-0.21241614 16:-0.11153282 17:-0.018968255 18:-0.22847328 19:-0.099190076 20:-0.14407386 21:0.12950454 22:0.068487687 23:-0.058452111 24:-0.072569398 25:0.06188949 26:-0.061884393 27:0.053532195 28:0.12883684 29:-0.045152358 30:0.12363176 31:-0.08978305 32:0.065340089 33:-0.075921983 34:0.17163686 35:-0.25139172 36:0.0086961588 37:-0.032230791 38:0.05294425 39:0.026630999 40:0.0074688489 41:0.076101012 42:-0.0027736183 43:0.08325046 44:0.074503462 45:-0.052258301 46:-0.085127553 47:-0.062187934 48:-0.17013232 49:0.043078876 50:-0.0091906513 
-74.79878991853128 1:0.24120023 2:-0.18398296 3:0.034998695 4:0.13299229 5:-0.0050321782 6:0.045936395 7:0.047629792 8:0.018296011 9:0.06173404 10:0.03298112 11:-0.039313425 12:0.00098197741 13:-0.016930117 14:0.037795523 15:0.0047538822 16:-0.049019688 17:-0.084324534 18:-0.09114546 19:0.032518376 20:-0.088619232 21:0.01783078 22:0.0249185 23:-0.041791598 24:0.033142913 25:-0.0031348308 26:-0.088614192 27:-0.022601708 28:-0.032641632 29:0.029190642 30:0.083204209 31:0.03217038 32:-0.073016877 33:-0.024914636 34:0.064194915 35:0.0094232185 36:-0.03667885 37:-0.059243964 38:-0.033679851 39:0.022459861 40:0.00076074891 41:0.025497594 42:0.033187263 43:-0.032699097 44:-0.036693637 45:-0.021563671 46:0.0020911609 47:-0.081675451 48:-0.044239341 49:0.044256815 50:0.020250081 
-148.3129 1:-0.13126158 2:0.078741881 3:-0.025760436 4:-0.13094197 5:0.0070050947 6:0.049980337 7:0.055600712 8:0.023676165 9:-0.10946775 10:0.1305644 11:0.047695481 12:-0.054421045 13:-0.047319642 14:-0.056864046 15:0.007464293 16:0.020732001 17:0.095694959 18:-0.089287832 19:0.0020381125 20:0.037592981 21:-0.040872781 22:0.097844377 23:-0.036913543 24:0.022264787 25:0.038096678 26:-0.086688267 27:0.14274979 28:-0.047808366 29:0.069858412 30:-0.042977348 31:-0.073178615 32:0.082822012 33:0.022655323 34:0.067762088 35:-0.053485283 36:-0.0083269981 37:0.0095670892 38:0.084501971 39:-0.047921101 40:-0.033170309 41:-0.061268614 42:0.020967894 43:-0.073769875 44:0.093221758 45:-0.034446762 46:0.0048793679 47:-0.050241764 48:0.014631832 49:0.13270212 50:0.018228298 
148.3129 1:0.17579725 2:-0.059433581 3:0.0030293191 4:0.027984583 5:-0.030426943 6:0.0030032067 7:-0.018610352 8:0.043651964 9:0.058577998 10:0.0068484925 11:0.0041757906 12:-0.024288779 13:-0.065444424 14:-0.050719193 15:0.11772905 16:0.045422752 17:0.022010747 18:-0.017198595 19:0.025950802 20:-0.030646462 21:0.11110027 22:0.064266255 23:-0.019730034 24:-0.076577274 25:0.0091226163 26:0.01697289 27:0.11399288 28:-0.10544023 29:0.039984475 30:-0.003646411 31:0.024556659 32:-0.0026816635 33:-0.016807097 34:0.020207916 35:0.043747395 36:-0.052862208 37:0.054301775 38:-0.081578109 39:-0.045834936 40:0.05098148 41:-0.050643997 42:0.051884393 43:-0.11692912 44:-0.029628778 45:0.042235917 46:-0.097876644 47:-0.14089999 48:0.017480029 49:0.038091373 50:-0.09857102 
148.3129 1:-0.16279193 2:-0.10525214 3:0.12087279 4:-0.066365077 5:0.011279756 6:0.016277683 7:-0.1257149 8:0.0079483946 9:0.017466207 10:0.054266998 11:0.12611462 12:0.020498044 13:0.12542662 14:0.018786193 15:0.090533615 16:0.12097441 17:0.13184618 18:-0.093281611 19:-0.0043262697 20:0.019309121 21:-0.047612958 22:-0.021704198 23:-0.0010185269 24:0.00032081289 25:-0.0025108633 26:-0.18843018 27:0.099950842 28:-0.099179637 29:0.10604903 30:0.048751772 31:0.10046682 32:-0.075297884 33:-0.0066898098 34:0.17655957 35:-0.0063210277 36:-0.027792034 37:-0.13475 38:-0.090574579 39:0.023715036 40:0.012103358 41:0.031105231 42:0.092716029 43:-0.10539281 44:-0.098928417 45:0.070750169 46:0.042763196 47:0.13417183 48:0.038517591 49:-0.054550308 50:0.096816695 
-148.3129 1:-0.029582303 2:0.015532981 3:-0.072444638 4:-0.035896855 5:0.077028965 6:0.0083713739 7:-0.041844948 8:0.0097297693 9:-0.13795024 10:0.019058665 11:0.00015529623 12:0.043589946 13:-0.082874504 14:-0.069331794 15:0.016410959 16:-0.029985031 17:0.085045547 18:-0.026748046 19:-0.056460638 20:-0.026357687 21:0.13468011 22:-0.094702257 23:0.11361367 24:0.024651389 25:-0.074136577 26:0.09856207 27:0.07432992 28:-0.057505264 29:0.13667668 30:-0.00078995552 31:-0.0031288728 32:0.0014875 33:-0.037075633 34:-0.024964284 35:0.022271301 36:-0.063857128 37:-0.051832321 38:0.02263805 39:-0.084927548 40:0.0098234904 41:-0.091859433 42:-0.097987317 43:-0.20947538 44:-0.065600002 45:0.029560237 46:-0.10986251 47:-0.025298431 48:0.099166843 49:0.11246227 50:-0.063979457 
-75.29214250200754 1:0.0045893754 2:0.19050543 3:0.020376267 4:-0.045945929 5:-0.18805704 6:-0.057354274 7:0.087075637 8:-0.027321157 9:0.090104557 10:-0.036379573 11:0.14678997 12:-0.22563157 13:-0.02065589 14:0.0011613776 15:-0.078255957 16:-0.19090446 17:0.14460222 18:0.15972594 19:-0.30291394 20:0.086514688 21:0.051333087 22:-0.088546761 23:0.021300552 24:-0.15541402 25:0.073111498 26:-0.18996854 27:0.018096523 28:0.15463658 29:0.042440611 30:0.072132422 31:0.05822846 32:0.16291848 33:0.069453888 34:-0.052478214 35:0.03257528 36:-0.041456919 37:0.01001386 38:0.068022212 39:-0.028007839 40:-0.034904821 41:0.085628542 42:0.029490548 43:-0.088476373 44:-0.042541344 45:0.020487085 46:0.038448706 47:0.093506735 48:-0.21693501 49:0.04444084 50:-0.086353785 
7.973236501732846 1:0.12852499 2:-0.090612027 3:0.028319771 4:0.056448667 5:-0.043130299 6:-0.077906841 7:0.069371674 8:-0.055797112 9:0.065444058 10:-0.030077705 11:0.14262364 12:0.043683611 13:-0.093841483 14:-0.091229333 15:-0.022439194 16:-0.027563483 17:-0.042500749 18:-0.060899205 19:0.13029924 20:-0.01147985 21:-0.00037653553 22:-0.1048676 23:0.039966234 24:-0.1942125 25:-0.043355972 26:0.0812073 27:-0.059355705 28:0.046663473 29:-0.0083596631 30:0.020883451 31:0.026870799 32:0.0011709372 33:-0.038409354 34:0.089414184 35:0.07845816 36:0.0030863077 37:0.10643119 38:0.027449145 39:0.028889427 40:0.16529742 41:0.014596659 42:-0.15138432 43:0.16842738 44:0.15364377 45:0.019172062 46:-0.046011087 47:-0.084431036 48:-0.0071475407 49:0.015529135 50:0.045297172 
148.3129 1:-0.26288759 2:-0.10387037 3:0.08506006 4:-0.0706891 5:-0.053379803 6:-0.18109937 7:-0.12514868 8:0.048154999 9:0.17280413 10:-0.033602537 11:-0.037134783 12:0.065682619 13:-0.042453753 14:-0.043013618 15:0.191426 16:-0.019757209 17:-0.073098342 18:-0.022688532 19:0.028947163 20:0.054721579 21:-0.014062624 22:0.080812457 23:0.04498869 24:0.032280467 25:-0.070061723 26:-0.0011126331 27:0.020081098 28:0.074832553 29:-0.10032025 30:-0.14527229 31:-0.090652415 32:0.027674323 33:-0.07359429 34:-0.13829022 35:0.023271782 36:-0.05851486 37:-0.089831327 38:0.1068727 39:0.10268544 40:-0.020632364 41:-0.0046419556 42:-0.041206255 43:-0.14286598 44:0.060954034 45:0.014359929 46:0.14377509 47:-0.074027607 48:0.03677468 49:0.017400017 50:-0.0088389917 
148.3129 1:0.34741782 2:-0.39285277 3:-0.063209962 4:-0.1247784 5:-0.043340689 6:0.1182239 7:-0.02823331 8:-0.10320294 9:0.053578041 10:-0.059922819 11:0.048649598 12:-0.0066697294 13:-0.045129553 14:0.037869781 15:-0.0046148076 16:-0.0080234064 17:0.0054485626 18:0.04994713 19:0.032108728 20:-0.022222631 21:-0.095161005 22:0.0032669313 23:0.041054691 24:-0.010327992 25:0.087024372 26:0.10394152 27:-0.066216439 28:0.0047667914 29:-0.081779253 30:0.083554291 31:0.0054349473 32:0.067035948 33:-0.016528632 34:-0.051049323 35:0.013961178 36:-0.029045105 37:0.067426902 38:-0.07229864 39:0.053507001 40:0.036288992 41:0.059647987 42:-0.013230752 43:0.035189609 44:0.0023224355 45:-0.025618654 46:-0.032614415 47:-0.1420918 48:0.007681301 49:0.12581027 50:0.037541732 
-139.4300433702002 1:-0.38968473 2:-0.021836093 3:-0.021593665 4:0.01130948 5:0.05782897 6:0.07568355 7:0.20494013 8:-0.031705071 9:0.034065655 10:0.043480581 11:-0.045332002 12:0.09337295 13:-0.01741851 14:-0.084613611 15:0.10204917 16:0.071482161 17:-0.059566766 18:0.12673079 19:-0.22049912 20:-0.032890982 21:-0.064654718 22:0.09199956 23:0.092608416 24:-0.0073596973 25:0.044689802 26:-0.0047584955 27:0.15110408 28:-0.056092701 29:-0.0018516943 30:-0.14438434 31:0.0083551101 32:-0.065717149 33:-0.086291833 34:0.065929202 35:0.034932389 36:-0.059898271 37:-0.0048212077 38:-0.089290605 39:-0.035030916 40:0.0081255706 41:0.16011685 42:0.09121087 43:0.034223257 44:0.079464507 45:0.02917534 46:0.011725331 47:0.017509144 48:0.030741992 49:-0.22500152 50:0.096096815 
148.3129 1:0.022574702 2:-0.1401227 3:0.036951092 4:0.074821229 5:0.027071093 6:0.03549088 7:0.042375741 8:-0.0040913055 9:0.099351486 10:-0.033401336 11:-0.010188978 12:0.039563811 13:-0.12774835 14:-0.10110478 15:0.058604953 16:-0.059953645 17:0.028972035 18:-0.0077261213 19:-0.068885508 20:0.0027396047 21:0.067735649 22:0.045270867 23:0.069388306 24:-0.0020363332 25:0.023591982 26:0.0027739253 27:0.022411474 28:0.090272629 29:0.0098280657 30:-0.12308814 31:0.015047208 32:-0.068686935 33:-0.00084515611 34:0.044809932 35:-0.07783145 36:-0.062234738 37:-0.018146782 38:-0.045231171 39:-0.13010203 40:-0.084175322 41:-0.048098111 42:0.059669698 43:-0.028239528 44:-0.01983777 45:0.085006331 46:0.048164995 47:-0.018211638 48:-0.04174306 49:-0.052413211 50:-0.012319271 
-84.35578611026637 1:-0.1568341 2:0.045813191 3:-0.03237968 4:0.036025365 5:-0.19914469 6:-0.028733963 7:-0.062852388 8:-0.03020154 9:0.11751825 10:-0.12713123 11:-0.04718288 12:0.11680569 13:0.064547161 14:0.045766154 15:-0.050414734 16:0.031260032 17:0.055132291 18:0.0039737563 19:0.022527226 20:-0.04932073 21:-0.053846636 22:0.064718919 23:0.0751998 24:-0.00238238 25:-0.064214186 26:0.02143368 27:0.012419807 28:-0.080320589 29:-0.03211175 30:-0.093055153 31:-0.053967627 32:0.0082462795 33:-0.10584331 34:0.018631822 35:-0.0060105274 36:-0.066873945 37:0.027123317 38:0.011151042 39:0.0403295 40:-0.11640433 41:0.094629933 42:-0.1317983 43:-0.031732064 44:-0.069713493 45:-0.099831684 46:0.0012897264 47:-0.0054393122 48:0.040922628 49:0.046854411 50:-0.10190576 
-148.3129 1:-0.051072731 2:0.071853248 3:-0.067130235 4:0.15261684 5:0.043336546 6:-0.036795388 7:-0.029685885 8:-0.024619726 9:0.09417473 10:0.081334307 11:-0.033684517 12:-0.0034637786 13:0.077370953 14:-0.025066394 15:-0.041500255 16:-0.01075373 17:-0.038017812 18:0.032219132 19:0.027612355 20:0.018064944 21:0.0075996214 22:-0.016116936 23:0.011591518 24:-0.087776866 25:-0.005184956 26:-0.051360174 27:-0.082330924 28:-0.079719108 29:-0.043191488 30:0.047377605 31:0.05364777 32:0.0048703299 33:0.043845653 34:-0.0050923974 35:0.08101138 36:-0.040951051 37:-0.028006557 38:-0.01127227 39:0.010823342 40:0.063940904 41:-0.054627189 42:-0.089144115 43:0.03539706 44:0.06414041 45:0.049251713 46:-0.087074612 47:0.037339416 48:-0.069749763 49:0.041983383 50:-0.098530859 
148.3129 1:-0.045188955 2:0.092440903 3:-0.073505505 4:-0.0056584948 5:-0.031128645 6:-0.17450714 7:-0.15180426 8:0.0087098046 9:-0.0981125 10:-0.012501592 11:0.15989278 12:0.035021059 13:-0.15513069 14:-0.16500003 15:0.032248899 16:-0.10040564 17:-0.021210236 18:0.077883712 19:-0.038902854 20:0.010698595 21:0.035904843 22:0.18524658 23:0.028087978 24:-0.062845405 25:-0.016558585 26:-0.10953825 27:0.045096344 28:0.10035836 29:-0.041875055 30:-0.22138295 31:0.0072723398 32:0.087149398 33:-0.10825675 34:-0.091763881 35:0.013053573 36:-0.047907296 37:0.064541149 38:0.026399682 39:0.030569553 40:-0.065196773 41:0.087611317 42:-0.041918815 43:-0.1725277 44:0.034884384 45:-0.027724148 46:-0.12997959 47:-0.044860513 48:0.12533511 49:-0.061454034 50:0.075784643 
148.3129 1:-0.07949111 2:0.012322968 3:-0.046203221 4:0.021464004 5:0.0051968237 6:0.032389224 7:-0.13566375 8:0.0013729474 9:-0.054420826 10:0.010717677 11:0.097137467 12:0.014384115 13:0.075126356 14:-0.051744144 15:-0.20653633 16:-0.06504675 17:-0.049041512 18:0.15078596 19:-0.081297018 20:-0.16080545 21:-0.09149496 22:0.21705628 23:-0.074170312 24:0.028168616 25:-0.020309215 26:0.029109788 27:-0.022845773 28:-0.0082162284 29:-0.032911619 30:-0.22499113 31:0.036409527 32:0.015140441 33:-0.063503691 34:-0.046826767 35:-0.043273875 36:-0.11925019 37:-0.055074471 38:0.02122526 39:-0.012863607 40:0.070562543 41:0.10747695 42:0.010334836 43:-0.013560858 44:0.0623472 45:-0.14483006 46:0.065610761 47:-0.062230339 48:0.24720618 49:-0.028372051 50:0.043925759 
148.3129 1:0.097176691 2:0.076745752 3:-0.029992566 4:-0.028039091 5:0.056997106 6:0.0052185614 7:0.051868292 8:-0.033231391 9:0.0061681484 10:-0.024931589 11:-0.047367742 12:-0.038407763 13:-0.038409212 14:-0.089553082 15:0.097931868 16:-0.058576357 17:0.023317772 18:-0.031017399 19:0.039035168 20:-0.032905268 21:0.012225165 22:-0.1147742 23:-0.04500529 24:0.0092095418 25:0.078255112 26:0.030956325 27:0.048691455 28:-0.038894394 29:0.05022929 30:-0.087680535 31:-0.027129429 32:0.048819552 33:-0.090252418 34:-0.048032228 35:0.14940476 36:0.057444098 37:0.013103057 38:0.12768064 39:-0.057731528 40:-0.095936001 41:0.081969897 42:0.094407 43:0.045881883 44:0.058177784 45:0.048472391 46:-0.050110305 47:-0.051505155 48:-0.04374215 49:0.048961968 50:-0.053870177 
148.3129 1:0.30046153 2:-0.2675215 3:-0.030532529 4:-0.02704615 5:-0.024361507 6:-0.047026187 7:-0.0010520528 8:0.04124526 9:0.010117954 10:-0.021663009 11:-0.069609958 12:-0.00098399179 13:-0.028710872 14:0.023055072 15:-0.053388915 16:0.03072053 17:0.033049481 18:0.026785382 19:-0.042157588 20:0.013536684 21:0.068579925 22:-0.054044975 23:0.079515558 24:-0.006362627 25:-0.091955835 26:-0.0055857288 27:-0.10097948 28:0.062582186 29:-0.021826023 30:-0.070902691 31:-0.065793369 32:0.0049887585 33:-0.025990934 34:0.054794221 35:0.00902047 36:-0.02292393 37:0.011987862 38:-0.0041923869 39:0.021941878 40:0.030519843 41:0.04219236 42:0.061525349 43:-0.032869901 44:-0.043057484 45:0.020248235 46:0.01132577 47:0.063857323 48:-0.067524614 49:0.057118879 50:0.067705997 
-148.3129 1:-0.10788058 2:0.0052655427 3:-0.17133488 4:0.046367786 5:-0.086231875 6:-0.058917058 7:0.020152771 8:0.084001902 9:-0.029899205 10:0.11452704 11:0.12054764 12:0.069676886 13:0.028735167 14:-0.15752523 15:-0.072835381 16:0.095384908 17:0.023229971 18:-0.10280363 19:-0.13645183 20:-0.011045361 21:-0.066714498 22:0.15765707 23:0.026739781 24:0.018452512 25:0.031214008 26:-0.095534166 27:0.065850708 28:0.074442247 29:0.0044718444 30:-0.0074907962 31:-0.016895171 32:-0.016799949 33:-0.079981436 34:-0.13924691 35:0.21895773 36:-0.11304356 37:0.015355075 38:0.017429568 39:-0.05839108 40:0.031483536 41:0.017088565 42:-0.047606258 43:-0.1331158 44:-0.051507913 45:0.080407644 46:0.048470915 47:-0.020253299 48:-0.016409871 49:0.018319229 50:0.06034236 
-141.4386320253107 1:-0.016398847 2:0.11406477 3:-0.088817133 4:-0.0251438 5:-0.0028330336 6:-0.070189723 7:0.013767266 8:-0.055387451 9:0.032224469 10:0.13230358 11:0.0021392792 12:-0.003961031 13:0.093059552 14:-0.04108854 15:-0.028285284 16:0.027654494 17:0.070007957 18:-0.066582848 19:-0.034836637 20:-0.069789297 21:-0.019639897 22:0.01642627 23:-0.018525299 24:-0.075090802 25:0.047141013 26:0.053662979 27:-0.075263669 28:-0.13098102 29:-0.012045697 30:0.077657804 31:-0.069818287 32:0.10609672 33:-0.00079176159 34:-0.12556669 35:-0.027433503 36:-0.073344324 37:-0.0047441595 38:0.08509358 39:0.056417379 40:0.061370576 41:-0.072753583 42:-0.04284197 43:-0.000496125 44:0.14252004 45:0.041839077 46:0.002539429 47:-0.0067757888 48:-0.066664675 49:0.13768566 50:0.00062054097 
-88.42390323649416 1:-0.074862817 2:0.093764348 3:-0.062262775 4:-0.089824592 5:-0.042458926 6:0.0007803597 7:0.0065495285 8:0.14396344 9:0.085540386 10:-0.058336901 11:-0.037581894 12:-0.053861428 13:-0.12415226 14:-0.18877876 15:0.13285321 16:0.036916517 17:0.092310624 18:0.026534101 19:0.075035617 20:-0.10804473 21:-0.17578221 22:0.020175215 23:-0.094551882 24:0.030984174 25:-0.089588803 26:0.1486408 27:-0.050816479 28:-0.13744463 29:-0.078916688 30:-0.016708475 31:-0.1001139 32:-0.043780104 33:-0.0024771653 34:0.12882531 35:-0.077870221 36:-0.057549375 37:0.11911141 38:-0.13489462 39:0.0047170638 40:-0.029972036 41:-0.01527182 42:-0.12542589 43:-0.10144125 44:-0.028184424 45:0.054386184 46:0.010414529 47:0.027499219 48:-0.1150119 49:-0.056990862 50:0.0081476814 
-148.3129 1:0.10342356 2:0.071554378 3:-0.011713918 4:0.11270679 5:0.019798578 6:-0.0013908605 7:0.027871276 8:-0.0018449534 9:0.035091465 10:-0.015989202 11:-0.080787545 12:0.024023168 13:-0.064912101 14:-0.012384562 15:-0.0044267893 16:-0.03042484 17:0.019863784 18:0.042542903 19:0.036166962 20:-0.094190745 21:-0.0094410857 22:0.050709758 23:-0.011559214 24:0.012918307 25:0.0060106754 26:0.018728014 27:-0.0089280303 28:0.012194597 29:-0.038191919 30:0.031028509 31:-0.02669033 32:-0.032393967 33:-0.016813917 34:0.004871421 35:0.088142331 36:-0.06255768 37:-0.059547198 38:-0.070949133 39:0.0038654434 40:0.0041637933 41:0.015932396 42:0.037287774 43:-0.029810003 44:-0.0033336371 45:-0.025656471 46:0.034246804 47:0.04130307 48:-0.2048794 49:0.098475471 50:0.12068636 
-148.3129 1:-0.24713747 2:-0.049795614 3:-8.309154e-005 4:0.028306025 5:0.14206325 6:0.15337431 7:-0.0075526073 8:0.077538351 9:0.021567684 10:-0.027502864 11:-0.011904118 12:0.10269413 13:0.048139156 14:0.12387542 15:-0.024005964 16:0.050167649 17:0.11693871 18:0.014318735 19:-0.069461418 20:-0.050872906 21:-0.049493521 22:0.070584937 23:0.077631018 24:0.0089095664 25:0.022716009 26:0.0010740735 27:0.016701618 28:-0.0096300539 29:-0.11822934 30:-0.098444805 31:0.072579186 32:0.059125163 33:-0.14627682 34:0.10297417 35:-0.033837406 36:0.084325248 37:-0.032117842 38:0.082374464 39:0.082633579 40:-0.062950417 41:-0.10519494 42:0.029625652 43:0.019320066 44:-0.037439194 45:0.11276654 46:0.0032325271 47:0.056691665 48:0.039362654 49:0.014825884 50:0.025966545 
148.3129 1:0.22142301 2:0.073922341 3:0.234447 4:0.0011583956 5:-0.08993805 6:0.069114734 7:-0.015536263 8:0.035983784 9:0.016522077 10:-0.065562145 11:-0.011584165 12:0.12153798 13:0.052365831 14:-0.066209436 15:-0.059609531 16:-0.17370387 17:0.089163495 18:-0.040627712 19:0.0079229083 20:0.052070349 21:-0.20979751 22:0.078016312 23:0.051786393 24:-0.1601212 25:0.024110611 26:-0.068166895 27:-0.046148373 28:-0.096634112 29:0.021526744 30:0.029136114 31:0.11306254 32:-0.0435329 33:0.099067407 34:-0.041581585 35:0.13021739 36:0.0052629557 37:-0.091520659 38:0.12494446 39:0.14394476 40:-0.09258117 41:0.19349655 42:-0.074383274 43:-0.13275619 44:0.01052795 45:-0.067678485 46:0.007596256 47:0.020144747 48:-0.028389347 49:-0.080320868 50:-0.18132291 
148.3129 1:-0.011365187 2:0.13888144 3:0.086117617 4:0.094469644 5:0.099565616 6:0.011987127 7:0.18039276 8:-0.13039863 9:0.10099532 10:0.11072326 11:0.098357694 12:-0.054931488 13:-0.010545387 14:0.052330594 15:-0.035331085 16:-0.004077403 17:0.01382438 18:0.0097282367 19:-0.02563135 20:-0.027489517 21:0.038981377 22:0.11551608 23:-0.015878295 24:-0.0097111988 25:0.094971923 26:0.012686625 27:-0.10763175 28:0.044686406 29:-0.022357454 30:-0.11390153 31:0.0019409661 32:-0.079959151 33:0.079019891 34:-0.19968181 35:-0.10128377 36:-0.023333967 37:-0.013437328 38:0.21771633 39:0.11474966 40:-0.06052696 41:0.035308261 42:-0.039099312 43:0.015394805 44:-0.091910438 45:0.0030384937 46:0.16175693 47:-0.033819795 48:0.085282295 49:-0.0472506 50:0.16741903 
60.49704396560893 1:-0.118282 2:-0.16814986 3:0.0053714765 4:0.00029018322 5:-0.21958095 6:0.28924465 7:-0.11292539 8:0.18856934 9:0.15898014 10:0.32843517 11:-0.16494856 12:-0.073717592 13:-0.23275783 14:0.13247667 15:0.094512963 16:0.096974313 17:0.17484671 18:0.10512844 19:0.0037196039 20:-0.0076927956 21:-0.1964157 22:-0.00042746433 23:-0.030098922 24:-0.018952191 25:0.17229987 26:0.13228386 27:0.023801215 28:-0.054176119 29:0.12689386 30:0.027312786 31:-0.16564754 32:-0.082807165 33:-0.11380598 34:-0.018378416 35:0.082553322 36:0.13670576 37:0.062037701 38:0.021047001 39:-0.080615136 40:-0.025819125 41:0.1222252 42:-0.13617932 43:0.022850341 44:0.15356949 45:-0.017343905 46:-0.12704724 47:0.021308585 48:0.11360538 49:-0.002416178 50:0.082793334 
148.3129 1:-0.14586749 2:0.0072437169 3:-0.0069911151 4:-0.092456588 5:-0.015282084 6:0.055614855 7:0.20999138 8:0.084793537 9:0.0080575292 10:0.019279297 11:0.15012469 12:-0.07084859 13:-0.20227613 14:0.064719333 15:-0.0074119004 16:-0.12176471 17:-0.1392111 18:-0.067586422 19:0.10358436 20:0.11830906 21:0.0099472735 22:-0.05322648 23:0.04315722 24:-0.024846551 25:0.072173581 26:-0.041510391 27:-0.019114691 28:-0.062708133 29:-0.029950386 30:0.098788809 31:0.0049991034 32:-0.14177741 33:0.0064696002 34:-0.035134502 35:0.042356919 36:0.021419177 37:0.097891877 38:-0.1096893 39:-0.075562796 40:-0.029682663 41:-0.090969008 42:-0.033498489 43:0.01565065 44:0.02384369 45:0.038220333 46:-0.025756415 47:0.067666337 48:-0.11588345 49:0.071289288 50:0.10429002 
148.3129 1:0.094521698 2:0.14552351 3:-0.0068723111 4:-0.0081385842 5:0.0079679461 6:0.033562046 7:0.033473047 8:-0.00057246595 9:-0.021670286 10:-0.044827372 11:-0.054124619 12:0.043470045 13:0.025063358 14:0.0072491848 15:0.059454719 16:0.015258558 17:0.01595524 18:0.046923564 19:0.035996973 20:-0.0388265 21:0.048152148 22:0.019374362 23:0.015678361 24:-0.0086920775 25:-0.0067237102 26:-0.036948321 27:0.10077014 28:-0.12023902 29:-0.053692718 30:0.003474549 31:-0.0229637 32:-0.059965906 33:0.022954662 34:-0.24518338 35:-0.05287233 36:-0.068179911 37:-0.042790185 38:-0.14543201 39:-0.1453236 40:0.11146531 41:0.034078642 42:-0.0036385906 43:-0.0055235071 44:-0.038759892 45:-0.098872667 46:0.018137738 47:-0.046822636 48:0.1612749 49:0.030921427 50:-0.054555455 
-148.3129 1:0.059810947 2:0.032146778 3:0.012186082 4:0.022856943 5:-0.11103925 6:0.11179365 7:-0.005992208 8:0.10262493 9:0.062783217 10:-0.05835234 11:-0.028201382 12:-0.008871695 13:0.0091461332 14:0.046939408 15:0.052873452 16:-0.090138546 17:0.014208853 18:-0.16570258 19:0.091450289 20:0.10400941 21:-0.036979172 22:-0.098906629 23:0.081362219 24:0.13070404 25:-0.089132677 26:-0.078412377 27:0.063930146 28:0.07586581 29:-0.086159367 30:-0.11519945 31:-0.066999428 32:-0.031364075 33:0.099685543 34:0.10028936 35:-0.028698195 36:0.014293517 37:0.029228479 38:-0.15548692 39:0.0044619306 40:-0.090731569 41:-0.14839644 42:-0.077246676 43:0.039826678 44:-0.071846998 45:-0.10057189 46:0.0074698468 47:0.067722708 48:0.12259992 49:-0.017552619 50:-0.02096134 
148.3129 1:-0.0095582644 2:-0.052350652 3:-0.017849393 4:0.075878529 5:-0.048135103 6:0.0037952234 7:-0.10320577 8:0.084213885 9:-0.060464157 10:-0.066785745 11:-0.028039917 12:-0.023057174 13:0.023311449 14:0.12901148 15:0.03455428 16:0.007937445 17:0.1218223 18:-0.083186591 19:-0.0544479 20:0.036991192 21:0.038915625 22:-0.095567893 23:-0.049417491 24:-0.073720578 25:0.10486718 26:0.10172637 27:-0.015789885 28:-0.083121105 29:-0.037433273 30:-0.073483332 31:-0.2164786 32:0.076799317 33:-0.033564115 34:0.10896958 35:-0.062278668 36:0.029219655 37:-0.040189604 38:0.12628523 39:-0.0068034899 40:-0.012460715 41:0.035786778 42:-0.14769223 43:0.017321688 44:-0.030945191 45:0.011965161 46:0.024189085 47:-0.12663582 48:-0.11479092 49:-0.19418337 50:-0.026005862 
-148.3129 1:-0.10967731 2:0.087539041 3:-0.11751261 4:0.10340206 5:0.046706947 6:0.024828412 7:0.067565567 8:-0.08454396 9:0.069669258 10:0.026746046 11:0.031193981 12:-0.11114484 13:-0.059377986 14:-0.041307861 15:0.013134404 16:-0.040400405 17:-0.002162328 18:0.049457297 19:-0.052514195 20:-0.0030720387 21:-0.070112798 22:0.01534743 23:0.019513865 24:-0.015240536 25:0.012190547 26:-0.0030941899 27:-0.049959706 28:0.020577625 29:0.060306147 30:0.095428061 31:0.029928234 32:0.0035603689 33:-0.057137259 34:-0.17776538 35:-0.054018339 36:0.13979215 37:-0.037235838 38:0.037910916 39:0.037716072 40:0.031484331 41:-0.07379159 42:-0.058727115 43:0.040632203 44:0.063042131 45:0.10129096 46:-0.042481389 47:-0.067570687 48:0.076950163 49:0.093239109 50:0.021705193 
-57.3802919828694 1:0.17434514 2:0.10470521 3:-0.014149894 4:0.04996849 5:0.043101043 6:-0.02737499 7:-0.093479237 8:0.024121719 9:-0.0090164864 10:-0.025518511 11:-0.027254806 12:-0.095734258 13:0.046683239 14:0.087684456 15:0.018491429 16:-0.015885175 17:-0.11171911 18:-0.061737501 19:-0.036959415 20:0.025094881 21:0.07670823 22:-0.052580714 23:-0.050060992 24:0.0020219949 25:0.066326559 26:0.08649592 27:0.098661776 28:0.10512642 29:-0.056857664 30:-0.093610847 31:0.08478479 32:-0.11484239 33:-0.0021484703 34:-0.017286436 35:-0.034751494 36:0.037162078 37:-0.03143976 38:0.13995291 39:-0.0085359314 40:-0.028270884 41:0.00032268823 42:0.14360333 43:0.012538778 44:0.083125313 45:-0.024269689 46:-0.042155337 47:0.017861272 48:-0.041440007 49:-0.086724833 50:-0.056795563 
-148.3129 1:0.13855214 2:-0.034193632 3:0.002892869 4:-0.091142235 5:-0.021604473 6:-0.049876098 7:0.086407369 8:0.067736635 9:-0.075274948 10:-0.0046041694 11:-0.020509282 12:0.051450956 13:-0.050922898 14:0.015297928 15:0.032655736 16:-0.0077691891 17:0.0042963294 18:-0.030678675 19:-0.034996508 20:-0.013385827 21:-0.011019996 22:-0.073853291 23:0.12293231 24:-0.12581587 25:-0.087415705 26:0.021145171 27:-0.02380189 28:0.084585875 29:-0.046238369 30:-0.10045907 31:0.062268504 32:0.031706426 33:-0.075830488 34:-0.066014651 35:0.032834928 36:0.0635123 37:0.029199911 38:-0.045006899 39:-0.033585806 40:0.042937705 41:0.021464335 42:0.027107441 43:0.0059848765 44:-0.066625266 45:0.039778925 46:0.0029331853 47:0.025715757 48:0.065797186 49:0.049523535 50:-0.035514195 
148.3129 1:0.33094453 2:-0.2762509 3:-0.02299291 4:0.099119718 5:0.023858091 6:-0.02015566 7:0.027608363 8:0.040924768 9:-0.013223364 10:-0.0031194442 11:-0.026719307 12:0.00098963553 13:0.0070723236 14:0.043846949 15:-0.073266543 16:0.00023272737 17:0.064505117 18:-0.015881905 19:-0.034269442 20:-0.06699428 21:0.049507431 22:0.045580216 23:0.056803463 24:0.039036158 25:-0.079614135 26:0.11866385 27:0.084208713 28:-0.013766861 29:0.15179014 30:0.051102431 31:-0.0022242388 32:-0.026930291 33:-0.041618984 34:0.016553462 35:0.048012175 36:-0.035990081 37:0.023477912 38:-0.038647626 39:0.0083815447 40:0.0018126972 41:-0.010969295 42:-0.023871249 43:-0.025998072 44:0.011545845 45:0.015070014 46:-0.045731636 47:0.14333476 48:-0.0044564273 49:-0.095344721 50:0.052399708 
-148.3129 1:0.040593383 2:-0.021013858 3:0.03709276 4:-0.10204628 5:0.053700608 6:0.010185456 7:-0.0070523146 8:-0.025788601 9:0.0065886749 10:0.016998708 11:-0.057036805 12:-0.041987902 13:-0.032845817 14:-0.015369168 15:0.096138221 16:-0.022149749 17:0.030926694 18:0.041005438 19:-0.00052084932 20:-0.018059916 21:-0.077929015 22:0.031008116 23:-0.013771617 24:0.063084798 25:-0.011794647 26:0.037564708 27:-0.035149545 28:-0.041587684 29:0.017333824 30:0.0025504636 31:-0.0022181317 32:-0.027711108 33:0.0366303 34:0.02768129 35:-0.03203406 36:0.03234891 37:0.13638665 38:0.095489322 39:0.0015100424 40:-0.084636811 41:0.089993106 42:-0.045749691 43:0.034860051 44:-0.097905227 45:0.013615963 46:-0.066413757 47:0.045408363 48:0.054691547 49:0.069826285 50:0.13904885 
148.3129 1:0.18237525 2:0.071332832 3:0.040903079 4:-0.10004831 5:-0.0016056986 6:-0.0029916767 7:-0.0040113523 8:0.012225951 9:0.012826867 10:0.038077728 11:0.071415851 12:0.022666889 13:0.1860355 14:0.11405517 15:0.053037562 16:-0.0141169 17:0.045260066 18:-0.018761112 19:-0.0022687282 20:0.06228484 21:-0.028379103 22:-0.021631117 23:-0.035663646 24:-0.16629527 25:-0.10792891 26:-0.074868353 27:-0.033006029 28:-0.20362066 29:0.057928033 30:-0.10604443 31:-0.090696343 32:0.073103493 33:-0.060585706 34:0.0057476952 35:-0.11124796 36:0.059988692 37:-0.12799126 38:0.041714813 39:0.0079029364 40:0.036352638 41:-0.041702785 42:0.0058859815 43:0.064248877 44:-0.080290292 45:-0.056898558 46:0.0006386536 47:0.04241568 48:-0.015389723 49:0.09133567 50:-0.079102967 
-9.05516544231158 1:-0.042241737 2:0.099683314 3:0.009568883 4:0.12796229 5:-0.031913299 6:0.1591254 7:0.019998149 8:0.089126991 9:0.032698082 10:-0.019612126 11:-0.010092076 12:-0.090633132 13:0.022764262 14:-0.11138216 15:-0.0056921746 16:0.13091203 17:-0.054299759 18:-0.032859125 19:-0.024886389 20:0.026469613 21:0.10013197 22:-0.11669225 23:0.17589445 24:0.060998921 25:0.081809808 26:0.066427034 27:-0.044766117 28:-0.021422346 29:0.037332412 30:0.02536984 31:0.077180876 32:0.067936343 33:0.032400846 34:-0.013847176 35:-0.03871884 36:0.043625794 37:-0.1209875 38:-0.042659184 39:0.08325402 40:-0.028403784 41:-0.01830147 42:-0.085125774 43:0.020149739 44:-0.074212354 45:0.089622483 46:0.20719194 47:-0.013597131 48:-0.027438859 49:-0.25416781 50:0.039177875 
148.3129 1:-0.038650656 2:-0.039140075 3:-0.057601208 4:-0.16968015 5:0.032559541 6:-0.1197719 7:-0.039914763 8:-0.045520849 9:-0.051209065 10:0.026085074 11:-0.086554392 12:0.055104493 13:0.0022818378 14:0.013404748 15:0.024434746 16:-0.04480706 17:0.0081971009 18:-0.055232938 19:0.0016465537 20:0.0047998285 21:-0.16121364 22:-0.00087054646 23:0.066206745 24:-0.037926646 25:0.12275854 26:-0.032642938 27:-0.015795849 28:-0.067887043 29:0.060431965 30:-0.075860242 31:-0.087078457 32:-0.098783561 33:-0.075135053 34:-0.067402519 35:-0.081390561 36:-0.092294294 37:-0.046058805 38:-0.018526601 39:0.067228217 40:0.11446101 41:0.016904964 42:-0.084891186 43:0.0853724 44:0.13017026 45:-0.079814344 46:-0.084136731 47:0.072178234 48:-0.0081209045 49:0.064586603 50:-0.0085818689 
-148.3129 1:0.13350751 2:0.10666001 3:0.035045706 4:0.010727074 5:-0.011717047 6:0.087346718 7:-0.020797953 8:-0.056261027 9:-0.012177986 10:-0.043810368 11:0.046828559 12:-0.021067834 13:-0.082271301 14:0.017391094 15:0.059045397 16:-0.0082691663 17:0.0093909882 18:0.012249303 19:-0.0058665899 20:-0.024677947 21:0.0094277765 22:0.098892837 23:-0.053869352 24:-0.028903965 25:-0.13123255 26:-0.067648687 27:0.0072528525 28:0.074783332 29:0.11715783 30:0.047564343 31:-0.055423934 32:-0.16986938 33:0.0070444488 34:-0.019866929 35:0.032161404 36:0.093535523 37:-0.08391777 38:-0.13800028 39:-0.064023165 40:0.044681504 41:-0.029051217 42:0.030984252 43:-0.087727333 44:0.072814688 45:0.04785604 46:-0.024877445 47:0.11487958 48:-0.0069235794 49:0.023150152 50:-0.017129775 
-148.3129 1:0.10100619 2:-0.15265029 3:0.013937787 4:0.069853146 5:0.026355865 6:0.015860818 7:0.062326643 8:0.0030250449 9:0.0070739953 10:0.037215338 11:-0.062734818 12:-0.062917566 13:-0.027378543 14:-0.021806865 15:-0.0097897686 16:0.053406318 17:-0.040936566 18:0.036243124 19:0.07085328 20:0.093256571 21:-0.025604085 22:0.033465598 23:0.082984503 24:-0.059792233 25:0.10699601 26:-0.03482268 27:-0.020028713 28:0.05946702 29:-0.025557162 30:-0.043950582 31:0.07525106 32:0.044484429 33:0.042977511 34:0.021706314 35:-0.0076033912 36:-0.075917604 37:-0.072488632 38:-0.070923058 39:0.017828852 40:0.012721673 41:-0.040920952 42:-0.037449282 43:-0.026663548 44:-0.010505671 45:0.0371654 46:-0.066835713 47:0.04134422 48:0.0041519303 49:0.03486228 50:0.059292554 
-148.3129 1:0.077374244 2:0.030574252 3:0.071308329 4:0.016915404 5:-0.0014538117 6:-0.012096796 7:-0.085959496 8:-0.019368728 9:0.0055198258 10:0.006002999 11:-0.068677275 12:0.0024198992 13:-0.067314818 14:0.077860392 15:0.02452478 16:-0.11735911 17:-0.038702401 18:0.07869658 19:0.088471614 20:-0.045489689 21:-0.092045705 22:0.05924566 23:-0.11410463 24:-0.049480701 25:-0.031440009 26:-0.020545514 27:-0.065833393 28:-0.054020575 29:0.0099917259 30:0.12593718 31:-0.0079813181 32:0.070771541 33:-0.021397745 34:0.068483441 35:0.07018345 36:-0.1279362 37:0.038965983 38:0.059951677 39:-0.032717881 40:-0.081677508 41:-0.016549139 42:-0.01301416 43:0.012008738 44:0.034995745 45:-0.036272685 46:0.068706098 47:-0.0098405943 48:-0.024208361 49:0.15781275 50:-0.050087824 
148.3129 1:0.064079664 2:0.077911372 3:0.033157265 4:-0.08398961 5:-0.0062274527 6:-0.11543098 7:-0.10428529 8:-0.022709771 9:-0.09781496 10:0.076853884 11:0.0069981046 12:-0.019334319 13:-0.066519824 14:-0.072427192 15:0.097437668 16:-0.10582283 17:-0.0030927598 18:-0.049096269 19:-0.0041360528 20:-0.024870295 21:0.057472301 22:0.0023140311 23:0.07408343 24:0.014874858 25:-0.022950086 26:-0.055401696 27:0.04130634 28:-0.007683937 29:0.14078011 30:-0.024294154 31:-0.014897426 32:0.029457562 33:0.088835349 34:-0.086208873 35:0.029290374 36:0.060543012 37:0.025629375 38:0.14159707 39:0.015075885 40:-0.038819851 41:0.045696628 42:0.061058022 43:0.17174017 44:-0.10173953 45:0.061189855 46:0.0032237434 47:-0.069456161 48:0.032608788 49:-0.033670136 50:0.062515573 
