svm_type c_svc
kernel_type rbf
gamma 8.0536e-005
nr_class 63
total_sv 652
rho -0.331417 -0.0374367 -0.316704 0.454806 -0.281862 -0.0424277 -0.0474892 0.183845 -0.220751 -0.11499 0.192977 -0.123509 -0.220882 0.00386753 0.0417654 -0.174221 -0.167747 -0.626424 -0.173376 -0.176296 -0.48704 0.0836497 -0.136817 0.118543 -0.163214 -0.497288 -0.209132 -0.226951 0.105754 0.0546902 -0.063363 -0.0844499 0.0379978 0.0711198 -0.0814766 -0.128218 -0.112042 -0.0208363 -0.025107 -0.336792 -0.0208599 -0.123347 0.0563565 0.0398695 -0.081676 -0.0537122 -0.0468185 -0.0824875 -0.112379 0.262341 -0.11655 -0.333293 -0.0784959 0.0679445 -0.134661 -0.202685 0.0342578 -0.350923 -0.445286 -0.277493 -0.105202 -0.0507179 0.27803 -0.121749 1.04361 0.315822 0.524091 0.410553 0.423651 0.062487 -0.10142 0.356692 -0.0444715 0.381875 0.0648212 0.241393 0.558365 0.35596 0.359823 0.274485 0.417297 0.093702 0.37628 0.0311022 0.396785 -0.0637846 -0.175017 -0.0279458 -0.181996 0.032865 0.0634432 -0.0750081 -0.0934981 0.0644228 0.518933 0.0215691 0.102972 -0.0833512 -0.002372 -0.0203882 -0.0443067 0.114501 -0.0994776 0.111012 0.099383 -0.105679 -0.0487727 -0.0408154 -0.0194002 -0.018387 0.818936 0.370231 0.142179 0.0956252 -0.0634056 0.393737 0.259516 0.249816 -0.105537 -0.411992 -0.177538 -0.0896493 -0.0302247 -0.389176 0.742234 -0.321601 -0.0995383 0.0129807 0.100182 -0.118355 -0.211548 0.110228 -0.0057481 0.299895 -0.0344465 -0.168563 0.0486414 -0.0756976 -0.152572 -0.461153 -0.040295 -0.536235 0.314441 -0.114546 0.00623002 -0.219294 -0.391077 -0.275075 -0.285938 0.00442872 -0.0454492 -0.102401 -0.112999 -0.00762084 0.228065 -0.145381 -0.069191 -0.123368 -0.0218564 -0.0237409 -0.468193 0.104305 -0.252618 0.0634067 -0.0183864 -0.15307 -0.040604 -0.0342856 -0.314937 -0.127763 0.372813 -0.0495223 0.161073 -0.0644854 0.122259 0.128079 -0.820857 0.073361 -0.412969 -0.600297 -0.214301 -0.127364 -0.0963803 1.13462 0.0980319 0.285387 -0.0236392 0.300925 -0.192469 0.00532128 0.061288 -0.113657 0.0196057 -0.114956 0.0137349 0.233813 -0.238848 -0.251682 -0.0522089 0.0668883 -0.124794 0.143795 -0.10278 -0.119216 -0.124881 -0.279384 0.0252745 -0.189549 0.132984 -0.0524054 -0.078325 -0.0647818 0.0954532 0.385549 -0.0356163 0.012422 -0.0925751 -0.0149492 -0.0251985 -0.29984 0.0841723 -0.277869 0.0269833 0.201191 -0.0991345 -0.0531807 -0.0428526 -0.197896 -0.0883487 0.548347 0.0323465 0.0922114 -0.0642852 -0.0452548 0.139506 -0.483063 0.192373 0.0984446 -0.450841 -0.231361 -0.124302 -0.0718374 -0.932227 0.0523345 -0.0947273 -0.449175 -0.550586 -0.188309 0.240967 -0.190197 -0.732541 -0.581465 -0.603758 -0.303925 -0.893342 -0.845596 -0.221001 -0.426843 -1.00984 -0.221555 -0.117104 -0.0512297 -0.316794 -0.85445 -0.627692 -0.32678 -0.338184 -0.0755651 -0.138531 -0.188795 -0.0899626 0.637757 -0.183589 -0.0288585 -0.149287 -0.0159865 -0.0277378 -0.290908 -0.00842644 -0.354686 0.0841936 0.00612572 -0.153992 -0.0831302 -0.0111008 -0.657796 -0.157954 -0.55443 -0.886013 -0.724349 -0.131144 -0.26948 -0.527083 -0.867119 -0.0565747 -0.403311 -0.835585 -0.330308 -0.129087 -0.100122 0.760539 0.180158 -0.0466003 -0.152534 -0.19256 0.0544207 -0.119145 -0.122477 -0.24647 0.0772345 0.0776039 -0.255437 -0.578043 -0.0308167 0.142071 -0.650673 0.0154325 -0.123653 0.152802 -0.234955 -0.563904 -0.0114967 -0.179354 -0.202943 0.00890289 -0.0793645 -0.109512 0.0178393 0.469008 -0.0878279 -0.169124 -0.114153 -0.0256686 -0.0291639 -0.264184 0.147087 -0.254862 0.0446965 0.0360501 -0.00511758 -0.067859 -0.03474 -0.330067 -0.103741 0.274131 -0.264335 0.0262802 -0.194828 -0.0269455 -0.095145 -0.521551 -0.0425324 -0.446371 -0.686512 -0.153155 -0.147925 -0.0908992 0.114799 0.28483 0.0146431 -0.222329 0.189753 -0.122349 -0.242144 -0.29465 0.0528117 -0.206656 -0.209688 -0.149458 -0.162462 0.130021 -0.527935 -0.0292559 -0.307011 0.398181 -0.219898 -0.32029 -0.0206547 -0.214755 0.0787152 -0.0152637 -0.0827611 -0.119209 -0.0409409 0.368917 -0.0343905 -0.107201 -0.106335 -0.0151125 -0.0138925 0.0184864 0.0218148 -0.22954 -0.0324448 -0.0236187 -0.12963 -0.0529022 -0.0252345 -0.172902 -0.0170182 -0.0436611 -0.34361 -0.536738 -0.0522283 -0.20313 0.116842 -0.505454 -0.304711 -0.161486 -0.331277 -0.270251 -0.0840916 -0.127136 0.137855 -0.253464 -0.0369506 -0.0127897 -0.0980344 -0.132735 -0.0498047 -0.160673 0.279339 -0.34713 -0.168952 -0.0793244 0.0369854 -0.427013 0.104365 -0.236574 0.225975 -0.357501 -0.297968 -0.239137 -0.211961 0.0868363 -0.0244606 -0.0604129 -0.151787 -0.0172192 0.487111 -0.158472 -0.116796 -0.0762098 -0.0270228 -0.0260816 -0.288643 -0.0718184 -0.22352 0.0903138 0.046647 -0.0602816 -0.0440528 -0.0462376 -0.156726 -0.134965 -0.146701 0.083998 -0.075494 0.0796294 -0.108939 -0.0344103 -0.345463 0.0778996 -0.134773 -0.345133 -0.200328 -0.105059 -0.0798107 -0.394694 -0.106462 0.171474 -0.0728346 -0.294489 -0.145068 -0.340071 -0.144778 -0.336611 -0.334252 -0.449624 -0.366282 -0.409876 0.00785912 -0.190925 -0.109618 -0.126564 -0.563497 -0.388007 -0.293443 -0.0512239 0.0794904 -0.109665 -0.149149 -0.0609753 -0.012943 -0.104427 -0.181957 -0.147817 -0.0228249 -0.0254198 -0.166863 0.117686 -0.224193 -0.00254743 -0.018117 -0.116726 -0.0613869 -0.0493223 -0.392008 -0.0899912 -0.165557 -0.4518 -0.3647 -0.114949 -0.266997 -0.322426 -0.613273 -0.242227 -0.291427 -0.584751 -0.353136 -0.0902983 -0.0570218 0.044726 0.169506 -0.0867232 0.0593413 0.11241 0.0707854 0.154845 -0.0618911 0.186331 -0.256478 0.0490213 0.0918938 0.39586 -0.0561219 0.174198 0.117444 -0.273895 0.141416 -0.206625 -0.116623 0.100537 0 -0.0411293 -0.0536296 0.559553 0.043384 0.0662405 -0.0738173 -0.0249175 -0.0340561 0.139037 0.111413 -0.247988 0.0452216 -0.0133563 -0.082084 -0.0393936 -0.036558 -0.0953109 0.114244 0.223353 -0.135563 -0.0978516 0.0996147 -0.073216 0.0108174 -0.119815 0.0741727 -0.00162991 -0.0841445 -0.250917 -0.0975516 -0.0564398 0.0900539 -0.0244604 0.00451423 0.0152009 0.0854042 -0.0599734 0.110525 -0.0594431 0.17546 0.192513 -0.0544202 0.246478 0.0360921 0.128074 0.00228163 0.00814516 -0.0158827 -0.161727 0.0872977 0.0392811 -0.052234 -0.0586674 0.0167611 0.394719 -0.0175756 -0.0829285 -0.0523157 -0.00453068 -0.0183547 -0.0680068 0.0973817 -0.134255 0.0671875 0.0570634 -0.0550773 -0.0590008 -0.036109 -0.0684838 0.0298986 0.102028 0.0968188 0.0678437 -0.129952 -0.197974 0.0929137 0.162035 0.0980593 -0.0136377 -0.0259112 -0.228589 -0.0866377 -0.0415875 -0.262209 -0.2019 -0.238187 -0.218107 -0.200979 -0.112336 -0.206565 -0.165781 -0.183099 -0.0805632 -0.226811 -0.294847 -0.0148232 -0.0536093 -0.277264 -0.0456687 -0.217852 0.0133081 -0.129369 -0.0453013 -0.0992387 -0.0163192 -0.156161 -0.010283 -0.122144 0 -0.0122378 -0.0330941 -0.134328 -0.0956013 -0.305132 0.183047 0.0117505 -0.0532117 -0.0596514 -0.028218 -0.235688 -0.0363244 -0.173509 -0.270526 -0.161982 -0.0827032 -0.290296 -0.135878 -0.241253 -0.188831 -0.381184 -0.343835 -0.347192 -0.0885779 -0.0785263 0.0651886 0.055264 0.0496915 0.10317 0.0132428 0.0404115 0.0766001 0.0671585 0.053894 0.0286952 0.0383346 0.133067 0.0114736 0.0436506 0.0595884 -0.0758734 0.0966909 0.042491 -0.0306977 -0.0347237 0.00284859 0.16984 0.0241637 0.00941307 -0.0483871 -0.00577096 -0.00154121 0.024125 0.130428 -0.0767213 0.131344 0.0601555 -0.0300152 -0.00738635 -0.00119671 -0.0387061 0.0997379 0.132136 -0.031997 0.0547504 0.0382188 -0.0540614 0.0250549 -0.0163594 0.104962 0.116698 -0.0349727 -0.105613 -0.0239362 -0.0323881 -0.247516 -0.326115 -0.132802 0.0877639 -0.0734913 0.269994 0.359909 0.0128794 0.239577 -0.0357637 0.299225 -0.171384 -0.0316935 -0.0276732 -0.219414 0.0797152 0.0245201 -0.0729218 -0.0439249 0.0920812 0.373052 0.00100041 0.0025923 -0.073136 -0.000654927 -0.00242536 -0.193879 0.0434847 -0.0695487 0.0715698 0.0613411 -0.0954709 -0.0422478 -0.0288681 -0.182294 -0.0117718 0.594782 0.269174 0.218467 0.0514049 -0.342725 -0.00739261 0.227262 0.179906 -0.229396 -0.198925 -0.178926 -0.0207046 -0.036113 0.244791 0.264042 0.281763 0.0903567 0.403349 0.261677 0.270233 0.0671973 0.0331576 0.0954135 0.0230871 -0.013367 0.0623288 -0.111416 0.144383 0.0449529 -0.0261155 -0.0569697 -0.0280707 0.370271 -0.0231937 -0.0889831 -0.0751474 -0.0189313 -0.0339008 -0.194844 0.0385166 -0.165435 -0.000223202 0.0797918 -0.115731 -0.0464501 -0.0313289 -0.0317438 -0.0107306 0.58453 0.336804 0.102281 0.00529758 -0.03472 0.298511 0.0837848 0.122917 -0.10294 -0.055423 -0.135159 -0.0992949 -0.0339686 0.144765 -0.190992 -0.296262 -0.184775 0.111259 -0.361223 0.0885498 0.00372312 0.31817 -0.139524 -0.226959 -0.119063 -0.192344 0.129707 0.0431287 -0.0452602 -0.0519393 0.00783754 0.544112 -0.0629773 -0.0842225 -0.0694579 -0.016845 -0.00542391 -0.277514 0.0559334 -0.125317 0.0416651 0.110489 -0.0570668 -0.0539685 -0.0338117 -0.235938 0.0346613 0.734871 -0.0652329 0.00197564 0.0331874 0.157213 -0.114475 -0.0466759 0.118237 -0.123944 -0.278649 -0.106487 -0.0932707 -0.0618907 -0.534311 -0.45661 -0.0547858 -0.172551 -0.361227 0.132808 -0.00706331 0.410161 -0.288217 -0.343978 -0.392831 -0.199589 0.0595955 -0.0593565 -0.0880652 -0.0887045 -0.0313643 0.332183 -0.0650501 -0.111075 -0.114434 -0.024373 -0.0253275 -0.266603 -0.0639469 -0.196715 0.153171 0.00937518 -0.114243 -0.054794 -0.0471628 -0.0251107 -0.126628 0.310178 -0.0239988 -0.108798 0.0108378 -0.00715232 0.0585585 -0.0880006 -0.1154 -0.254977 -0.340014 -0.307458 -0.096895 -0.0816805 -0.156772 0.216696 0.258275 -0.0423255 0.199623 -0.1368 0.308503 -0.0360183 -0.155564 -0.256268 -0.171309 0.0382791 -0.0375453 -0.0791421 -0.102276 -0.0100606 0.3917 -0.0170004 -0.086169 -0.109817 -0.000598132 -0.0306591 -0.155062 0.0725194 -0.203489 0.187623 0.0183997 -0.0303099 -0.0500802 -0.0166717 -0.232441 0.00302306 0.459914 0.273561 0.0121233 -0.00897874 -0.147531 -0.10526 -0.6891 0.00709949 -0.132045 -0.506043 -0.111253 -0.0967592 -0.0961795 0.0560436 0.240111 -0.16058 0.202931 -0.156391 0.345296 -0.0628735 0.0671827 -0.251513 -0.182627 -0.014553 0.0492072 -0.0648596 -0.064215 0.0779339 0.559829 -0.0201023 -0.0551826 -0.0754673 -0.00343267 -0.0201127 0.0293543 0.0647149 -0.277264 0.0695157 0.0237184 -0.075022 -0.0286278 -0.0234792 -0.190038 -0.0368028 0.511375 -0.003015 -0.0490094 -0.00183991 -0.0125878 0.151243 0.151576 -0.0781968 0.0681878 -0.588258 -0.216525 -0.0830339 -0.0665014 0.512154 -0.262701 0.224153 -0.08197 0.235235 0.114333 -0.0842544 -0.0728757 -0.208681 0.0915973 0.0300383 -0.0541364 -0.0565039 -0.11953 0.463069 -0.00193511 -0.056542 -0.0724395 -0.0241854 -0.0341544 0.102761 0.0515417 -0.256246 -0.0106507 -0.0575773 -0.0443633 -0.0780549 -0.0159463 -0.256443 -0.0687063 0.116495 -0.193053 0.0317582 -0.0587407 0.036181 -0.23869 -0.343269 0.26277 -0.304346 -0.421184 -0.32059 -0.134345 0 -0.175019 -0.00378806 0.00649737 0.155104 -0.148549 -0.444028 -0.361539 -0.3026 0.0159056 -0.0534975 -0.0402896 -0.122541 -0.0604366 0.388486 -0.0649315 -0.140501 -0.143681 -0.0133351 -0.0178743 -0.112504 -0.0378117 -0.190654 0.0461675 0.033515 -0.0847408 -0.0651452 -0.0219143 -0.311298 -0.0721112 -0.0222277 -0.210009 -0.370915 -0.154245 0.0839033 -0.388501 -0.0501554 0.0377453 -0.0345838 -0.34974 -0.359674 -0.119899 -0.0954261 0.279144 0.145537 0.366072 -0.0872656 0.0487637 -0.225136 -0.151379 0.0480125 0.0445 -0.0576043 -0.075413 0.00748242 0.39614 0.0454888 -0.0462168 -0.0820929 -0.0203389 -0.0215246 -0.0249346 0.190894 -0.218796 0.114639 0.0364075 -0.0666417 -0.0340944 -0.028404 -0.24338 0.0202704 0.635043 -0.0844742 0.176062 0.0377834 -0.0280265 0.0829108 0.357968 0.287705 -0.073025 -0.439603 -0.198908 -0.116518 -0.0588392 0.054679 0.0902972 -0.164536 -0.321825 -0.0892661 -0.208011 -0.0495035 -0.010125 -0.0836953 -0.0704249 0.0125774 0.0286513 -0.113903 -0.105746 -0.0797258 -0.00583089 -0.0239189 -0.034256 0.190008 -0.142384 0.0792425 0.0689575 -0.0413963 -0.0729661 -0.0379043 -0.248678 -0.00759274 -0.0620399 0.0479507 0.065006 0.00449816 -0.196712 -0.220519 -0.186943 -0.269603 -0.155845 -0.27057 -0.330719 -0.0868043 -0.0757742 0.0485312 -0.0668861 -0.224744 0.243269 -0.199685 0.112143 0.0243225 -0.0357096 -0.0818148 0.0560855 0.087913 -0.0144583 -0.0340348 -0.0774457 -0.0232019 -0.0294899 0.121291 0.0356166 -0.0741022 0.348273 0.0122232 -0.108644 -0.050844 -0.0100292 -0.169501 0.0541795 -0.0736193 -0.00815859 0.138195 0.0121008 -0.0728009 0.0966566 -0.0351715 0.0837655 0.0991286 -0.0463118 -0.0791798 -0.0543057 -0.0768014 -0.212024 -0.474856 -0.230659 -0.188089 -0.139423 0.0281834 -0.0954421 -0.113115 -0.037709 0.0364781 -0.25094 -0.0711092 -0.0960916 -0.025163 -0.0338556 -0.150184 0.0433068 -0.32238 0.104583 -0.0763091 -0.020527 -0.0277764 0 -0.343705 -0.0136821 -0.0828794 -0.310419 -0.311873 -0.149699 -0.308146 -0.278059 -0.308636 -0.0207906 -0.204801 -0.38385 -0.307602 -0.159792 -0.0910433 0.0873127 -0.0815193 -0.19468 -0.131184 0.0104339 -0.0896394 -0.100221 0.000652774 0.059228 -0.172642 0.00798332 -0.0892999 -0.0193844 -0.0300604 0.0459914 0.0853413 -0.0306338 0.0958351 0.0375947 -0.0740356 -0.0287939 -0.023311 -0.0221724 -0.0382669 0.194838 0.0995343 0.157808 0.00688488 0.0218934 -0.0845833 0.0578999 0.0776964 -0.0570392 -0.00906888 -0.17515 0.000533988 -0.046837 0.106676 -0.154102 0.0914272 0.00231375 -0.033198 -0.0580635 0.0341279 0.579427 -0.0310653 -0.0406242 -0.0782044 -0.0110485 -0.00729176 0.182893 0.0924885 -0.123468 0.137657 0.0284803 -0.0285015 -0.0445462 -0.0458959 -0.102927 -0.00682789 0.524267 0.181178 0.0947822 -0.0720706 0.199269 0.0159507 0.0454076 0.424537 0.241221 -0.516665 -0.224222 -0.12017 -0.111305 -0.126331 -0.0113317 0.176108 -0.0635826 -0.0224605 0.0202561 0.264832 0.0398475 -0.0918925 0 -0.00394666 -0.0121942 0.171679 0.116787 -0.229814 0.0679476 0.0187094 -0.0755021 -0.0505397 -0.0476792 -0.138059 -0.168682 0.184368 0.158798 0.0078924 -0.0136121 -0.058079 -0.0305885 0.0763048 -0.00416558 -0.0407513 -0.265731 -0.228867 -0.121751 -0.0615191 0.156972 0.118455 0 0 0.0423753 0.284037 0.0971611 0.0658275 0 0 0 0.174087 0.204351 0.0571934 0.214779 0.150293 0.0399951 0 0 0.0951886 0.131871 0.263692 0.167097 0.251081 0.0749755 0.14096 0.167901 0.165666 0.172132 0.130378 0.0968448 0.168495 0.0472486 0 -0.00234549 -0.0650176 -0.048433 -0.0227178 0.174721 -0.00125142 -0.0555292 -0.093483 0 -0.0211519 -0.0391105 0.0856515 -0.0511159 -0.0199669 0.0354496 -0.0528495 -0.0449276 -0.0109375 -0.0645513 0.00128672 -0.0532686 -0.0462538 -0.0635613 0.0272514 -0.247396 -0.1227 0.015758 0.0181206 0.0692748 -0.126262 -0.208556 -0.0929957 0 -0.0433972 0 -0.15094 0.129585 -0.030601 -0.0860157 0 -0.0174344 -0.00986718 -0.010071 0.0614482 -0.111227 -0.049889 -0.0582761 -0.033475 -0.0409433 -0.0130593 -0.0648512 -0.0379269 -0.0544761 -0.0544413 -0.0488631 -0.00379301 -0.026394 -0.0420706 -0.0500819 0.0402978 -0.087038 -0.100061 -0.161474 -0.0236497 -0.0552792 0 0.0473868 0.101127 0.0279862 0.0360634 0 0 0 0.0712446 0.090977 0.0172195 0.0723046 0.0533691 0 0 0 0.0524129 0 0.0776501 0.0651227 0.0919489 0.0740624 0.0438963 0.0837027 0.0903668 0.0798995 0.0712367 0.043783 0 0 0 0.0105628 0.085098 0.0486236 0.0500663 0 0 0 0.0997271 0.0427439 0 0.093457 0.0818852 0 0 0 0.0166184 0 0.0536556 0.0571704 0.11133 0.0619272 0.0680699 0.0405671 0.158728 0.10661 0.0838136 0.0525075 0 0 0 0.0673087 -0.0195279 -0.0340157 -0.0525123 -0.0181331 -0.0137256 0.0777601 0.0699014 -0.0617538 0.0214844 0.0664063 -0.0902097 -0.026988 -0.0293037 -0.0473939 -0.0507121 -0.00761275 -0.0592474 -0.0193963 -0.00560739 -0.053951 -0.0747476 -0.120058 0.0955298 0.00932956 -0.108338 -0.0783054 -0.0333453 -0.0848372 -0.304822 -0.0952884 -0.171334 -0.0140532 -0.025585 -0.0980042 -0.14248 -0.263549 -0.00953438 -0.042513 -0.144794 -0.0669164 -0.032234 -0.301221 -0.28774 -0.179556 -0.602697 -0.717428 -0.113525 -0.355787 -0.797139 -0.50874 -0.146656 -0.24024 -0.615694 -0.351034 -0.159483 -0.113366 0.0195924 -0.0502454 0 -0.0149324 0.0781757 0.105673 -0.0209733 0.0361928 0.0230303 0.0383185 -0.0295664 -0.0184138 0.0683018 0.111915 0.134796 0.10717 0.128342 0.10098 0.00143599 0.0455372 0.00202647 0.0941273 0.00156063 -0.0981825 -0.127813 -0.0640298 -0.0453163 -0.0698096 0 -0.0103945 0.0522581 0.176755 -0.0528008 0.103441 0.0384322 -0.0485573 -0.0268233 -0.0265341 -0.00142666 0.0541252 0.0214398 0.0454074 0.0539777 0.00323384 -0.0163872 0.0729497 0.0448942 0.0965689 0.0553059 -0.125209 -0.116233 0.0154189 -0.0619255 0 0 0.113659 0.134398 0.0922565 0.104167 0.0797683 0.0231507 0 0 0.0236724 0.105631 0.104749 0.0830627 0.0797449 0.113662 0.02996 0.118505 0.080431 0.110087 0.0827331 0.0376811 0 0 0 0 0.0239 0.0172361 0.0246871 0.0167379 0.0131768 0 0 0 0.016814 0.0139551 0.013825 0.0127011 0.0129077 0.00790862 0.0183041 0.0160875 0.0159189 0.0134521 0.0109709 0.0115492 0 0 0 0.013143 0.0363993 0.0212611 0.0326278 0.0320184 0.0138536 0 0 0.028075 0.027237 0.0215671 0.0183731 0 0.0165588 0.0205655 0.0331093 0.0446993 0.0229605 0.0359418 0.0153961 0.0298403 0.0269147 0 0.0103275 -0.12973 0.0629483 -0.0547166 -0.0668977 -0.0250122 -0.0379024 0.0268743 0.112845 0.103275 0.0328284 -0.00903159 0.0141592 0.225079 0.0959529 -0.0880295 0.15406 0.0505453 -0.0608118 -0.180018 -0.0492817 -0.0630946 -0.093799 -0.0540116 -0.0523272 0.104772 -0.0463269 -0.0301109 -0.140215 -0.109051 -0.0596589 -0.00980514 -0.0396524 -0.102946 -0.0255812 -0.111127 0.00637958 -0.0418484 -0.121841 -0.165295 -0.199912 -0.0915562 -0.0813266 0.0991581 0.0777342 -0.0991941 -0.0241569 -0.0437033 0.0967794 0.131819 0.0309721 0.0823316 0.118453 0.00281566 0.0972028 0.237015 0.0517218 0.292128 0.220849 0.0156907 0.0174662 -0.111053 -0.0947008 0.0182146 -0.0999027 0 -0.0377359 -0.0782312 -0.00194224 -0.0996393 -0.10214 -0.101425 -0.0513819 -0.107755 -0.0135242 -0.0751189 -0.0321192 -0.0614134 -0.121571 -0.145926 -0.0372602 -0.0790533 -0.091226 -0.0278761 -0.0294452 -0.135405 -0.0237735 0.0195946 -0.0325915 -0.060619 -0.0572621 -0.118124 0.0459372 0.029298 0.14887 0.0528947 -0.247087 -0.0568481 -0.122489 -0.0484246 0 0 0.0938693 0.0775763 0.0751195 0.071549 0.089642 0.0843816 0.0451327 0.0402162 0.0758183 -0.0659294 0.0906446 -0.0340174 0.10487 0.00261762 -0.000173817 0 0.0578625 0.0382441 0.047747 0.0339448 0.0462705 0.0238116 0.0361265 0.0254197 0.0149165 0.0373053 0.0742489 0.030987 0 0 0 0.0239394 0.0317234 0.0026041 0.030053 0.0512114 0.0153791 0.0300031 0.0341309 0.0359668 0.0302371 0.0435333 0 0.0389018 0.00234471 0 -0.0120933 0.895573 0.294122 0.307959 0.0798463 -0.176733 0.0240275 0.251862 0.198684 0.0464962 0.033127 -0.0728781 -0.0898695 -0.0562386 0.0686574 0.069438 -0.00915739 -0.061245 0.0131279 0.0673201 0.00190168 0.164056 -0.187989 -0.0977447 0.104933 -0.0784708 -0.0619195 -0.679863 -0.299818 0.0940129 -0.502825 -0.254953 0.106523 0.0751067 -0.264355 -0.615429 -0.231073 -0.116688 -0.0846527 -0.0762408 0.000812479 -0.144758 0.252772 0.0351233 0.0562519 0.0664765 -0.405288 -0.100944 -0.107885 -0.0606164 -0.0874746 -0.0627011 0.0598073 -0.167158 0.0603093 -0.0179589 -0.458792 -0.251141 -0.12031 -0.0704637 -0.0797588 0.026548 -0.0660899 -0.0339539 0.0212175 -0.10141 -0.157845 -0.0698229 -0.0751847 0.125619 0.0926 0.102474 -0.0596744 0.0711252 -0.10816 -0.0578827 -0.0331573 -0.570317 0.197762 -0.172117 -0.188741 -0.203804 -0.0668583 -0.0956163 0.00510194 0.0429909 -0.335782 -0.269416 -0.0663346 -0.0567384 -0.201098 -0.282067 -0.205699 -0.141096 -0.0855871 -0.0311069 -0.135483 -0.0835384 -0.0923582 -0.109853 -0.0403817 -0.0334303 -0.0860877 0 0
label 5 8 10 14 16 18 19 22 28 29 33 40 43 2 3 4 7 12 15 20 21 23 26 31 36 38 25 35 47 49 51 58 60 61 30 37 48 53 62 63 24 45 52 42 46 55 67 69 1 39 6 13 17 41 0 9 11 27 34 32 44 50 54
nr_sv 27 17 21 19 30 41 18 13 10 6 6 8 2 17 21 20 22 21 20 17 13 17 9 5 8 4 12 9 1 3 3 1 1 3 15 3 3 1 1 1 8 4 3 4 3 2 1 1 15 5 20 19 21 4 19 12 19 8 7 2 3 2 1
SV
28002.42375601927 5883.084388450805 5441.679625050136 0 12800.45921360226 6787.266762609334 0 3132.539745060317 656.3228976193248 0 0 0 17605.34928826185 3192.075533611636 0 21943.31188894845 5680.556205150087 0 0 0 0 0 0 0 0 0 0 0 0 0 0 0 0 0 0 3866.643464752756 2951.287461337228 0 0 13316.83767289759 0 0 0 0 0 1998.46758522022 0 6100.858803093876 0 32768 10377.30968794539 19315.66285000902 8350.765647144981 7800.297358974368 20935.57105329541 32768 0 0 419.7297576292237 0 0 0 1:0.10241252 2:-0.065901556 3:0.022170163 4:0.034521632 5:-0.01128368 6:0.0068418561 7:-0.038318047 8:-0.014753309 9:0.04096022 10:-0.019885697 11:0.045294811 12:0.026383549 13:-0.029043388 14:-0.040939234 15:-0.074180232 16:-0.04128277 17:-0.015621703 18:-0.052797312 19:-0.01858299 20:0.026632977 21:0.0085716096 22:-0.08207224 23:-0.018502204 24:0.0039519737 25:-0.094683852 26:0.0044203109 27:-0.065184465 28:-0.071304795 29:-0.07130895 30:0.068216931 31:-0.023243095 32:-0.10468178 33:0.0023318031 34:-0.02367665 35:0.061198994 36:-0.081868925 37:-0.023137809 38:0.16565707 39:-0.034231061 40:-0.017261113 41:-0.027429455 42:0.036871855 43:-0.0047929469 44:0.028361201 45:0.009703699 46:0.1352311 47:0.13439353 48:-0.012611839 49:0.033343094 50:0.015012626 
0 15169.69756124278 6753.760608345165 0 10275.56232045301 0 0 0 0 0 6790.976391358699 0 0 0 32768 0 9940.608814216681 0 0 0 0 0 0 13652.99660869753 0 0 0 0 0 3179.134427039828 0 0 0 0 6360.275649367175 0 0 635.1330345902251 0 0 0 0 0 0 0 0 0 0 600.6106115581706 7507.667912452107 0 0 0 0 0 0 0 0 7812.117543798779 0 0 0 1:0.097706968 2:0.016170913 3:0.055940274 4:0.068235497 5:-0.043502209 6:-0.020239702 7:-0.0062910542 8:-0.03476444 9:0.018238022 10:-0.0076237503 11:0.12131058 12:0.027470406 13:-0.03247726 14:-0.045023575 15:-0.046269517 16:-0.046659517 17:-0.022037304 18:-0.0091749241 19:0.039526378 20:-0.08786282 21:0.056262396 22:-0.075468122 23:-0.044199454 24:-0.023482141 25:-0.044073067 26:-0.033364988 27:-0.0070504265 28:0.059856805 29:-0.10360923 30:0.026844938 31:-0.092349648 32:0.14059259 33:-0.041092194 34:0.051981305 35:0.0073859725 36:-0.051799279 37:-0.0531783 38:-0.016857566 39:-0.059901845 40:0.056969653 41:-0.023751925 42:0.0013485298 43:-0.007205848 44:0.0026422756 45:0.012486803 46:0.069426582 47:0.019963131 48:0.011704045 49:0.044175913 50:-0.047115925 
6100.397367854578 436.2947541984864 26611.12103758473 30824.96808196168 19396.49780637086 12455.82261032761 32768 7979.696787556054 13065.8762680852 9481.363147409602 1264.718916786159 2855.505807043913 1044.912040559211 0 22352.10345881464 0 26819.51461685466 10008.26737144695 2947.059779003137 22714.96131844892 24117.32423867746 32433.43600396818 0 3567.613703470347 7266.276551281831 29279.01554780682 11237.80168120223 160.7882062936789 0 0 0 0 0 18015.24509644657 4219.094915768495 3241.002377830476 0 709.5878594834549 0 10850.80790077984 7949.958643426305 1549.344006206481 0 0 0 0 235.2201223667119 0 11496.60676127655 32768 32768 21966.60061610023 0 955.2541609015262 8574.353116079465 3363.823127299936 25474.91645509762 1785.153457770494 12308.72644098578 2150.792028068763 3163.169084347927 0 1:0.034932996 2:0.024982943 3:0.011963289 4:-0.015606051 5:-0.011117647 6:-0.042575069 7:-0.0095866377 8:0.082068447 9:-0.026041301 10:-0.035319501 11:0.034590009 12:0.077216154 13:0.015391816 14:0.033358339 15:-0.14184334 16:0.0028753182 17:-0.045730731 18:0.035600371 19:0.018594398 20:0.035240494 21:-0.065179405 22:-0.075054447 23:-0.032876217 24:0.04726193 25:-0.037390653 26:-0.094987602 27:0.11626121 28:0.076458487 29:-0.091862241 30:-0.052042034 31:0.026974907 32:0.010996551 33:0.0016235454 34:-0.10538782 35:0.054237772 36:0.0017861441 37:0.12254841 38:0.0050896445 39:-0.062522817 40:-0.010869251 41:-0.066337298 42:0.005108217 43:0.082997912 44:0.023829144 45:-0.14527272 46:0.035207486 47:0.12491845 48:0.0039571988 49:-0.098313491 50:-0.074213311 
0 445.7429732128949 0 0 0 0 0 0 0 0 0 0 0 0 0 0 0 0 0 0 0 0 0 0 0 0 0 0 0 0 0 0 0 0 0 0 0 0 0 0 4837.036435085175 0 0 0 0 0 0 0 0 0 0 0 0 0 0 0 0 0 0 0 0 75.46574129131174 1:0.075438382 2:-0.087350235 3:0.099690975 4:0.029214548 5:-0.028948941 6:-0.090898281 7:-0.12879183 8:-0.018808401 9:-0.031326135 10:0.045392923 11:0.040052155 12:0.038636049 13:-0.099416097 14:0.068257781 15:-0.1759785 16:-0.13340278 17:-0.020029781 18:0.084749522 19:0.025218248 20:0.0087212174 21:0.046770494 22:0.076622385 23:-0.024940433 24:0.055055299 25:0.013124747 26:-0.11769269 27:-0.14501571 28:-0.062232732 29:0.0079867204 30:-0.088107291 31:0.066251261 32:-0.064480695 33:0.02477259 34:0.051978598 35:0.064815196 36:-0.038266017 37:0.12582488 38:0.053009531 39:-0.12565587 40:0.029927472 41:0.080551505 42:0.03814351 43:0.0042424239 44:0.036317308 45:0.11102725 46:0.042772011 47:-0.0044493961 48:0.12082078 49:0.033807955 50:-0.019221426 
32768 32768 0 10219.28423649244 0 3023.674280877885 23387.546685892 5093.200421206294 18306.22378873851 0 0 0 32768 23289.08811912845 32768 0 7948.544790415259 18252.78208767725 17940.37548735941 0 27666.41068477972 2381.647175612192 0 2938.357019728109 0 10615.48075478288 0 7186.258414238056 0 3830.730112523709 0 0 0 14667.95320081261 9827.861336229642 0 1421.568402408797 0 437.0297384636122 12910.37924645637 0 0 0 0 0 0 0 19964.17355820981 2584.559187707008 32768 25920.07270841807 5303.458226554782 0 18223.12452142192 10917.22681015014 29700.05178283359 0 0 0 0 0 0 1:0.14534003 2:0.019123931 3:0.019168114 4:0.069543917 5:-0.0083436386 6:-0.020854357 7:-0.012818685 8:0.0035662828 9:0.0063439028 10:-0.0097143708 11:0.035828297 12:0.04409207 13:-0.08404505 14:-0.093926374 15:-0.031135844 16:-0.078008764 17:0.050268231 18:0.022304583 19:0.023305817 20:-0.062631287 21:0.0067158966 22:-0.025522269 23:-0.0067718315 24:-0.045995806 25:-0.018563365 26:-0.023529073 27:-0.044097193 28:-0.031439765 29:-0.069938488 30:0.0085441429 31:-0.0081689769 32:0.019758975 33:-0.081581766 34:0.059099261 35:0.041069906 36:-0.048027985 37:0.074376983 38:0.022115141 39:0.044169498 40:-0.065445919 41:0.11582794 42:0.10230525 43:-0.075578415 44:0.082099592 45:0.097750594 46:0.07004287 47:-0.061530888 48:0.057891905 49:0.020609913 50:-0.032457828 
0 0 0 0 0 0 0 0 0 0 0 1358.580866132685 0 0 3857.857986958253 32768 17299.38172177166 0 12420.42280774177 0 16736.54541900427 7148.992564439966 4125.241429502908 5406.011084218014 20590.97200735777 13731.83527120684 7217.159964224305 0 0 0 0 0 0 0 0 3091.596244971805 0 0 0 0 0 0 0 0 0 0 0 0 0 1621.144909281997 0 7068.038948394389 0 0 0 0 3445.112985241584 0 2030.047759505786 0 0 0 1:0.098719809 2:-0.019130776 3:0.0089584724 4:0.049764213 5:-0.039927751 6:-0.036841254 7:0.061096882 8:0.011577148 9:-0.030268916 10:-0.0084235693 11:0.0096795725 12:0.075961012 13:-0.029104964 14:-0.027935641 15:0.001574107 16:-0.18493331 17:-0.057716032 18:0.028282576 19:0.11065496 20:-0.034821884 21:0.072512138 22:-0.03421929 23:-0.053807861 24:0.038727575 25:-0.035385656 26:-0.022796826 27:-0.019793755 28:-0.049837985 29:-0.069065339 30:0.021523315 31:0.0332816 32:0.035227707 33:0.039841339 34:-0.13866882 35:0.094944899 36:-0.030581881 37:-0.034232718 38:-0.11660076 39:0.073720379 40:-0.13631449 41:-0.085604243 42:0.0020579603 43:0.055342535 44:-0.016883607 45:0.023061214 46:-0.022533461 47:0.034685404 48:0.14663227 49:0.07071603 50:0.034499748 
0 0 6919.30088875059 0 0 0 0 0 0 0 0 0 0 0 0 0 0 0 0 0 0 755.9251137573735 157.3594731880997 0 0 0 0 0 0 0 0 0 0 0 0 0 0 0 0 0 0 0 0 0 0 0 751.9926034871804 0 0 0 0 0 0 0 0 0 0 0 0 0 0 0 1:0.13821813 2:-0.052098634 3:0.076634654 4:0.09053677 5:-0.040157476 6:0.050315865 7:-0.06434665 8:0.07633229 9:-0.030292648 10:0.0022342555 11:0.15906045 12:-0.028476507 13:0.0065670649 14:0.044436556 15:0.031681776 16:-0.051785165 17:-0.044770846 18:-0.014511432 19:0.014163818 20:0.0090355321 21:0.029239783 22:0.036189425 23:-0.10501993 24:0.068644368 25:-0.0020149194 26:-0.1096549 27:-0.0061144337 28:0.017775493 29:-0.18392485 30:-0.020129294 31:0.070057735 32:0.10651145 33:0.033489277 34:-0.0041844393 35:0.056077602 36:-0.052896061 37:-0.043255981 38:-0.17644936 39:-0.2200648 40:0.042438259 41:-0.10430007 42:0.13101425 43:0.044155754 44:0.16539968 45:0.0099701614 46:0.026194103 47:-0.076981869 48:0.070346282 49:0.17500579 50:-0.022240674 
618.7371967303884 0 0 0 0 0 0 0 0 0 0 0 2781.707877494538 18086.92951816365 0 0 0 0 0 0 0 0 0 0 0 0 0 0 0 0 0 0 1780.128546328836 0 0 0 0 0 0 0 0 0 0 0 0 0 0 0 0 19104.95269163893 0 0 0 0 0 27514.37122461862 0 0 0 0 0 0 1:0.14855112 2:-0.016131946 3:0.038848425 4:0.042223088 5:-0.047433313 6:-0.05666899 7:-0.027549063 8:-0.012984512 9:-0.020391138 10:0.085221729 11:0.10809726 12:0.1106171 13:0.026377448 14:0.08844628 15:-0.054046856 16:-0.050977655 17:-0.011875928 18:0.025861026 19:-0.025262996 20:-0.039467762 21:0.049662819 22:0.0595707 23:-0.015084907 24:-0.036370417 25:-0.055176543 26:-0.081463057 27:-0.036818078 28:-0.0583864 29:-0.15618683 30:0.029322059 31:0.060760726 32:0.076032094 33:0.01881476 34:-0.14258734 35:0.018536664 36:0.008345235 37:0.13341965 38:0.042535047 39:-0.027218301 40:0.11745161 41:-0.069489431 42:-0.051794698 43:0.0030903903 44:-0.0079292435 45:0.037964822 46:0.0094250041 47:0.02482472 48:-0.050554012 49:-0.0487666 50:-0.039687816 
32768 32768 29743.65588691048 32768 32768 19251.58072607718 10304.80934752914 31791.955536294 12440.43028660144 19990.26960616895 12775.39226234827 1256.905859185647 7640.319024101969 32768 32768 32768 32768 32768 32768 32768 32768 0 0 5242.823630089 3042.593296994126 32768 32768 1387.315585206334 15142.40590050954 2359.17488268397 1187.415793371608 0 0 13036.3080194083 0 0 3260.524346118476 0 0 1107.381625635032 8867.790730758377 18673.4377161073 0 296.7377508802544 2594.216310424606 0 480.8833755470762 31638.89304107346 9318.418781845056 32768 32768 32768 666.7872796373453 0 32768 32768 31042.77543214521 16945.41994890228 21435.26353253422 8912.488708229532 0 3289.761683961002 1:0.084021624 2:-0.06474512 3:-0.014518035 4:-0.042660465 5:-0.065382754 6:-0.04382127 7:-0.077824572 8:-0.038053353 9:0.10857808 10:0.0036372659 11:-0.0025042858 12:0.032009884 13:-0.0083352103 14:0.040772199 15:-0.0034919276 16:-0.046033151 17:0.019011743 18:0.018272897 19:-0.025694708 20:-0.036187236 21:0.036865686 22:0.051302306 23:0.012695791 24:0.037994533 25:-0.095201865 26:-0.050912705 27:-0.036092852 28:0.051989405 29:0.032856308 30:0.0088695858 31:-0.01175242 32:-0.0018621045 33:0.078189886 34:-0.020870412 35:0.0096613791 36:-0.031898045 37:-0.058558199 38:-0.015904228 39:-0.007220237 40:-0.0084068519 41:-0.025570052 42:0.043130034 43:-0.0053910682 44:-0.046985487 45:0.01405845 46:0.0066130796 47:-0.015449393 48:-0.066046608 49:-5.7184406e-005 50:0.058364039 
32768 0 16945.68249051393 0 0 0 0 0 0 0 0 0 32768 32768 32768 0 0 0 0 0 0 0 0 0 0 0 0 0 0 0 0 0 0 0 0 0 0 0 0 0 0 0 0 0 0 0 0 23997.98727721161 0 14515.44389288999 730.2769551226842 0 0 0 0 0 0 0 0 0 0 0 1:0.15502103 2:-0.049635177 3:0.068209079 4:-0.031615245 5:-0.090906605 6:-0.056688127 7:-0.0088636216 8:-0.0058897888 9:-0.024548309 10:-0.0044063461 11:0.037894008 12:-0.023361809 13:-0.060190541 14:-0.057814198 15:-0.010542854 16:-0.071252033 17:0.0096102342 18:0.089318869 19:-0.02131393 20:0.031263255 21:-0.022288426 22:-0.00085993757 23:0.02449195 24:0.046258821 25:-0.07454572 26:-0.0224967 27:-0.02218836 28:-0.013807674 29:-0.059519887 30:-0.032973996 31:0.037382975 32:-0.00051041244 33:-0.025416761 34:0.010448056 35:0.011420044 36:0.0021509769 37:0.054235225 38:-0.023621471 39:-0.0028983386 40:-0.039319553 41:-0.059944996 42:0.045696957 43:-0.012839488 44:0.12701264 45:-0.012634764 46:-0.0072945249 47:0.0097141758 48:0.13235864 49:-0.026993283 50:-0.041012008 
11965.09676267347 0 0 0 0 0 0 0 0 0 0 0 0 0 24221.32015254834 25051.9284119495 0 20290.22642262319 0 0 2968.712400745281 0 2117.857416658229 0 0 0 0 0 0 0 0 0 0 1168.153704616622 0 0 0 0 0 0 0 0 0 0 0 0 0 0 0 0 0 0 0 0 20498.56114465397 0 0 0 0 0 0 0 1:0.093417751 2:-0.050617223 3:0.053696559 4:0.026040657 5:-0.046959437 6:-0.062009584 7:-0.10838403 8:-0.019621639 9:0.063994074 10:-0.027300297 11:0.043457503 12:0.012199794 13:-0.056068835 14:-0.0036381631 15:-0.04497569 16:-0.07407536 17:-0.044735086 18:-0.0089683761 19:-0.0056399691 20:-0.052230412 21:0.062969115 22:-0.085052087 23:-0.1266342 24:0.022852711 25:-0.032966318 26:-0.090709977 27:-0.00096673705 28:-0.050189512 29:-0.031049484 30:0.036266399 31:-0.055959072 32:0.11302402 33:0.074160555 34:0.071149286 35:0.061402844 36:-0.034332922 37:-0.0019145502 38:-0.054536513 39:-0.019323846 40:-0.012295084 41:-0.15367255 42:0.042472559 43:0.09711105 44:-0.012956537 45:0.056051701 46:-0.17764968 47:0.073672578 48:0.1065241 49:0.043848503 50:0.0081111256 
14755.3685951885 21797.42513409324 0 20537.12800256873 0 7608.178837284918 0 2158.119378996173 0 0 0 0 16280.29506713857 0 8779.297932406034 0 0 10874.42959802942 0 4204.628527616615 0 0 0 5021.571611892163 0 1881.861030298452 0 0 0 0 0 0 0 0 0 0 0 0 0 0 0 0 0 0 0 0 0 0 0 12059.83944484556 0 13514.89733873382 4165.442652694094 0 12065.21038376626 0 0 0 5759.148609509194 0 1307.342055045151 0 1:0.10803415 2:-0.071760899 3:0.025644338 4:0.059478342 5:0.03226471 6:0.0015265995 7:0.041068213 8:0.0041412012 9:-0.042538145 10:0.11045757 11:0.1034956 12:0.078160576 13:-0.069441707 14:0.090487432 15:0.057287564 16:-0.016709637 17:-0.066616626 18:0.0651496 19:-0.073605464 20:-0.03910995 21:-0.093355767 22:-0.088385034 23:-0.0028539945 24:0.073178281 25:0.024083084 26:-0.045885533 27:0.040613181 28:-0.041429459 29:-0.053229492 30:0.0096196348 31:0.13032936 32:-0.019737053 33:-0.11994493 34:-0.044158957 35:0.036452773 36:-0.025901783 37:0.058307845 38:-0.020216979 39:-0.040551747 40:0.047874612 41:-0.025173361 42:0.010571383 43:0.15214569 44:0.030400393 45:0.10367405 46:0.031985299 47:0.026220434 48:-0.11291884 49:-0.018472401 50:0.0054495537 
32768 32768 32768 32768 32768 32768 13286.22236424543 25043.08259821263 25906.76361799858 9894.562440008718 3453.569609754224 0 32768 6088.632556440528 17166.46014602805 32768 31336.88906648237 13890.43865717316 32768 13601.07777388922 5661.52893691583 9863.581957817176 14815.83052502609 0 4277.695712289872 32768 30145.7961219204 0 19238.09455218448 0 5904.259264282358 7092.778407957254 5534.145020894015 32768 88.88879532997513 0 0 0 0 10054.97542453744 0 0 0 109.5383995882808 0 0 0 0 3538.597443733863 28164.27137297879 32768 9184.440242254615 1525.886622956932 0 21169.81838442477 18184.02312108289 20902.19909234945 6284.535156626507 12226.2768608147 6976.437914053349 3385.423965863223 0 1:0.064489551 2:-0.026741489 3:0.0098112478 4:0.04427922 5:-0.010754175 6:-0.014104001 7:0.0051057087 8:-0.024054951 9:-0.0039161552 10:0.063099155 11:0.087299959 12:-0.083237649 13:0.012845296 14:0.076417451 15:-0.065780005 16:-0.018431709 17:0.042529913 18:0.062616701 19:-0.035936343 20:0.042026521 21:0.067983751 22:-0.067434582 23:0.02097533 24:-0.014320775 25:-0.11656858 26:0.0038592943 27:0.045535565 28:0.0036649474 29:0.0010662587 30:-0.012857869 31:-0.017196565 32:-0.053887291 33:-0.070214488 34:0.016955253 35:-0.044602069 36:0.0074798797 37:-0.025710987 38:0.016010059 39:-0.048649566 40:0.00097729749 41:0.062651445 42:-0.065830499 43:-0.029350766 44:0.028065531 45:0.019135414 46:0.12049489 47:0.0522726 48:-0.017084785 49:0.0421211 50:0.0021164656 
32768 32768 27363.65334868681 32768 32768 17540.11926152405 16320.05804516519 650.9178600065469 0 0 0 0 32768 32768 32768 32768 32768 32768 25892.24753957635 32768 32768 0 0 11011.78952321319 10758.72595087834 2429.968052897116 0 0 0 0 0 0 0 5895.345085527932 0 0 0 0 308.3197316713254 8316.899698866324 4337.025480323302 1159.30466414988 0 4861.396525309907 0 0 1101.620338292477 1159.466502772547 0 32768 0 32768 1439.870879961723 2626.534411837504 32768 32768 0 8387.085077571401 0 0 0 0 1:0.11168902 2:-0.044099856 3:0.055027878 4:0.089867694 5:-0.031583234 6:-0.010801242 7:-0.0037740082 8:0.032467526 9:0.0079415209 10:-0.0058869758 11:0.0217351 12:0.072387892 13:0.0089980642 14:0.070229341 15:-0.0081880802 16:-0.042507157 17:-0.042675926 18:-0.0065801288 19:0.0069081989 20:0.04507017 21:0.07975841 22:-0.056051383 23:-0.056201326 24:-0.03056735 25:0.044066476 26:0.048731328 27:0.012944617 28:-0.034954089 29:0.07345987 30:0.0094707895 31:-0.038931604 32:-0.059575717 33:0.052130747 34:0.0096108435 35:0.048226112 36:0.027387269 37:-0.06770772 38:-0.071300957 39:0.0016958571 40:-0.067668596 41:2.1262937e-005 42:-0.080333054 43:-0.010398203 44:0.053319719 45:0.0276182 46:-0.069206504 47:0.029409402 48:0.029700414 49:0.0045225096 50:-0.023003305 
0 0 0 0 0 0 0 0 0 0 0 6316.501335293604 0 0 0 0 0 0 0 0 0 334.5639960318233 0 0 0 1510.710648923316 0 0 0 0 0 521.8528962268953 0 0 0 0 0 0 0 0 0 0 0 0 0 0 0 0 0 0 0 0 4319.731019929459 3282.289420105919 0 0 0 0 0 1850.394358795885 0 0 1:0.1424817 2:-0.02092685 3:-0.073946171 4:-0.0079547127 5:-0.0099490596 6:-0.034465933 7:-0.071622825 8:0.049567247 9:-0.022862686 10:0.032074099 11:0.14171744 12:-0.047380084 13:0.021404028 14:-0.063934778 15:0.02185146 16:-0.04486605 17:-0.041014187 18:0.048377722 19:0.032432283 20:0.10976899 21:0.0086078439 22:-0.1066928 23:-0.0031915324 24:0.080866594 25:-0.078054432 26:-0.05444322 27:-0.040821615 28:-0.14378781 29:-0.053133951 30:-0.080639585 31:0.04755547 32:-0.032437822 33:0.014250141 34:0.040244801 35:0.12749677 36:0.031157201 37:0.11071987 38:-0.097034985 39:-0.082598609 40:0.013600227 41:-0.073776017 42:0.016342423 43:0.024070184 44:-0.00056778936 45:0.10876872 46:0.015417307 47:-0.064234002 48:0.061322644 49:0.11888061 50:-0.068479639 
32768 32768 3133.607428520018 20500.95513767636 10059.71998577902 32768 18658.30661757957 935.0036799703833 0 0 0 4432.979306085766 5401.480128478884 32768 32768 32768 32768 0 29934.82684218622 3310.601479731425 0 21691.54351094805 0 0 0 19417.32903381948 0 0 0 2847.471951806117 0 0 0 0 0 0 0 0 0 0 0 0 0 0 0 0 0 10502.37839002962 0 6548.478740176794 3383.369074305741 3657.997451535564 2595.672092207044 21461.84084501828 0 13895.5980939034 0 0 0 0 0 2604.125701936809 1:0.1290208 2:-0.016037826 3:-0.011625254 4:0.030346744 5:0.0073850785 6:-0.003511168 7:-0.077191134 8:-0.040521421 9:0.01481548 10:-0.019537913 11:0.031839873 12:-0.013901341 13:0.0026509428 14:-0.038254553 15:-0.044586979 16:-0.029859576 17:-0.042298644 18:0.036715839 19:-0.061283851 20:-0.027781702 21:0.025341046 22:-0.0081470325 23:0.072180684 24:0.01840615 25:-0.0079443921 26:-0.078829162 27:0.0066062059 28:-0.034793286 29:-0.022638765 30:0.008863301 31:0.046296741 32:-0.027083825 33:-0.033404289 34:-0.009599369 35:-0.07057147 36:-0.059243339 37:0.008250166 38:-0.084495163 39:-0.059639304 40:0.002170928 41:0.016735874 42:0.038696571 43:0.043419342 44:0.027822113 45:-0.018276776 46:-0.033960229 47:-0.052955859 48:0.00020059398 49:-0.020198382 50:-0.0073863962 
22891.64225210509 32768 32768 23094.36483270039 32768 25718.28939725737 3557.325442925691 13621.63917889315 5037.262446094358 10237.11328229353 13483.43833929883 9125.239651960968 32768 24684.13656834278 25987.23761707195 32768 28526.6745642572 29185.65514074044 12429.35729666183 32768 32768 27779.57239456911 17628.57220245677 11876.39031485959 1059.023403498692 3057.852716235298 28731.95657322622 6578.314184080201 13450.4211809902 0 0 0 7533.893864807325 17983.08164233256 7355.291359370374 11784.84380669755 0 0 0 29513.42543900257 0 0 6052.510277007526 10345.60742020359 0 0 0 15878.32831452085 10206.08558800352 32768 32768 32768 0 0 22270.13293124946 15035.26828735126 10193.16850718917 16260.47742285687 0 2549.764191870089 0 3101.15432146315 1:0.07305387 2:-0.042674619 3:-0.021750263 4:0.061830513 5:-0.026355985 6:-0.055413549 7:0.019596913 8:0.036103856 9:-0.046420015 10:0.0026243744 11:0.050623961 12:0.036211183 13:-0.075033269 14:-0.0086010012 15:0.034501802 16:-0.044347994 17:-0.030448053 18:0.048903143 19:-0.075630128 20:-0.022604035 21:0.10772296 22:0.099978812 23:-0.028019336 24:0.068209585 25:0.02104386 26:0.063347453 27:0.024406518 28:-0.038454287 29:0.003094148 30:0.0085421697 31:0.021062316 32:0.066199745 33:-0.006811329 34:0.052040921 35:-0.043579483 36:0.015292434 37:-0.034853528 38:0.053370198 39:0.048430267 40:0.17067518 41:-0.018667218 42:0.10083909 43:0.021125762 44:-0.039592087 45:-0.091249232 46:0.016227687 47:-0.024038586 48:0.012008444 49:-0.0034540805 50:-0.025926474 
0 0 0 0 0 1465.953334496705 0 0 13001.42873481931 0 1074.140055633088 0 11846.24687409108 0 0 9661.542056128181 106.8157421325938 0 0 0 0 0 0 0 0 0 0 0 0 0 0 0 0 0 8805.521260418922 3884.546764141388 0 328.4963419994568 0 0 0 6627.998478541754 0 0 0 980.6176197911881 0 0 1795.61494143534 0 0 0 0 9784.232509631856 0 0 0 19135.11730087751 0 6972.687063994502 0 287.4085751012095 1:0.11248603 2:0.040076972 3:-0.010211547 4:0.020518967 5:0.0021721454 6:-0.031857701 7:-0.037199192 8:-0.062629344 9:-0.059252295 10:0.047192595 11:0.14475854 12:0.036159949 13:0.041351155 14:-0.051566667 15:-0.090958081 16:-0.074043675 17:-0.059451023 18:0.010951244 19:0.044166687 20:-0.086680816 21:0.075270886 22:-0.065522791 23:-0.023441918 24:-0.01486826 25:-0.053841802 26:0.050361852 27:0.0073847186 28:-0.059603851 29:-0.071945079 30:-0.014904252 31:-0.061312273 32:0.06073416 33:0.014424091 34:-0.076269803 35:0.11068173 36:0.031274821 37:0.0068189265 38:-0.096029366 39:-0.069025615 40:0.051052948 41:0.032492421 42:0.077396449 43:0.034449029 44:0.059466539 45:-0.10190056 46:-0.069595112 47:-0.064375485 48:0.029850867 49:-0.034857695 50:0.034405649 
32768 32768 24011.53603548918 12871.11723053468 9211.545972474942 3219.326676314488 0 0 0 0 9045.057811643086 0 32768 32768 32768 32768 18051.40938548663 9723.027131205075 17552.93890287685 0 2388.559735973543 0 4349.306799499115 11416.52292983202 0 0 0 0 0 0 0 0 0 3851.525410704495 0 0 2338.218650005413 0 0 0 0 4272.893177887281 861.3479484784619 6881.253598425573 2706.135647917171 0 489.0256670634759 32768 0 32768 31764.46337794047 0 0 32768 9494.71877947437 32125.18387000019 0 4440.294561200633 3544.689495222314 0 0 0 1:0.18626175 2:0.012973125 3:-0.024725739 4:-0.0063986164 5:-0.019435474 6:0.00073985239 7:-2.9438835e-005 8:-0.03738543 9:-0.02103102 10:-0.014155474 11:-0.0042040228 12:0.024466271 13:-0.0096985901 14:-0.020905454 15:0.022122378 16:-0.072165492 17:-0.048006834 18:0.00062796993 19:-0.0049625195 20:-0.067870761 21:-0.055158833 22:0.011093385 23:-0.010728188 24:0.047178384 25:0.03474504 26:-0.046783265 27:0.065928278 28:0.07702449 29:0.044960437 30:-0.041993162 31:0.067649008 32:-0.068818231 33:-0.009581916 34:0.057019598 35:0.028664384 36:0.044103863 37:0.015866437 38:-0.047719672 39:0.0028381414 40:0.016917369 41:-0.029121351 42:-0.039893196 43:0.0508522 44:0.037299244 45:0.062846162 46:0.038160083 47:0.0024735448 48:0.0078348502 49:-0.013920263 50:0.034549332 
0 0 0 10145.00884950728 12867.12615225934 0 10671.92146798977 0 0 14452.16888178481 0 0 0 0 0 0 8264.963767661882 0 8810.113320391911 5422.500310625013 0 0 6666.554804203398 0 0 2501.324649728775 9747.610625307834 707.5250502202229 1774.235342593454 0 0 0 0 0 0 0 3475.820485635474 731.89670568145 529.9066231100263 0 0 0 0 1056.200250637972 918.4919579576269 0 1423.859848906397 0 0 0 0 14865.53850813529 3375.455863795386 0 0 0 0 11137.69270048294 0 0 0 79.41363919748973 1:0.0064550548 2:0.016566498 3:0.050347929 4:0.065136724 5:-0.063979944 6:0.028540261 7:0.0061909133 8:-0.050661579 9:-0.011298857 10:0.091408537 11:0.056439123 12:0.05119686 13:-0.13209175 14:0.04507506 15:-0.081348359 16:-0.088071432 17:-0.045064084 18:0.039483279 19:-0.052230432 20:-0.060017648 21:0.084924826 22:-0.08610832 23:0.025430037 24:-0.038666088 25:-0.084212059 26:-0.058657717 27:-0.024467692 28:-0.01198675 29:-0.053352711 30:-0.070531117 31:0.014418229 32:0.059521375 33:-0.07228897 34:-0.05505219 35:0.031317405 36:-0.035479089 37:0.027695043 38:-0.046009193 39:0.044765424 40:-0.019085181 41:-0.071979676 42:0.094744314 43:0.19415915 44:0.095654543 45:0.0020494951 46:0.15248873 47:-0.044097486 48:0.12096798 49:0.1226149 50:0.056578649 
0 0 0 0 0 0 0 0 0 0 0 0 17738.35096658325 32768 8707.829777287556 5667.190505467664 0 0 0 0 0 0 0 0 0 0 0 0 0 0 0 0 0 0 0 0 0 0 0 0 0 0 0 0 0 0 0 32768 0 3346.611063610244 0 0 0 32768 0 0 0 0 0 0 0 0 1:0.2455944 2:0.019099632 3:-0.063476222 4:0.040181096 5:-0.01865361 6:0.0014844195 7:-0.055583244 8:-0.042508601 9:0.027227895 10:-0.010576554 11:0.014950716 12:0.079503874 13:0.013517605 14:0.02493468 15:-0.046568218 16:-0.019351447 17:0.0283381 18:0.006299518 19:0.015557968 20:0.01170144 21:0.054649957 22:-0.007522464 23:-0.031364969 24:0.059848669 25:-0.069550107 26:-0.019924023 27:-0.025294451 28:-0.05681932 29:-0.10347247 30:0.058526825 31:0.051920526 32:0.0046390733 33:0.017974669 34:-0.0082253204 35:0.011003047 36:-0.022913039 37:-0.095514249 38:-0.017962796 39:-0.0042819353 40:0.087544529 41:-0.054662061 42:-0.0089197403 43:0.041875592 44:-0.080358688 45:0.035101804 46:0.062939168 47:0.021382174 48:-0.03709761 49:-0.016877529 50:0.014841492 
0 0 0 0 0 0 0 0 0 0 0 0 0 0 0 0 0 0 0 0 0 0 0 0 0 0 0 5330.30635256651 0 0 0 0 0 0 0 0 0 0 0 0 0 0 0 0 2132.014187104081 0 0 10977.22690538735 613.5807336280188 0 0 0 0 32555.70837380078 0 0 0 0 0 0 0 0 1:0.17112068 2:0.014840142 3:-0.070498213 4:0.0011785177 5:-0.00116022 6:-0.026257586 7:-0.023441481 8:-0.044624896 9:-0.019863047 10:0.043737367 11:0.068125866 12:0.026188649 13:-0.048838294 14:0.087973588 15:-0.036376987 16:-0.020132546 17:0.0080201522 18:0.016024231 19:-0.030580299 20:0.053902204 21:0.03264536 22:-0.020648806 23:-0.10138446 24:0.043198592 25:-0.069119653 26:-0.062353065 27:-0.00043184751 28:0.043893533 29:-0.13578013 30:-0.027501792 31:0.0087546189 32:0.10225733 33:-0.065458888 34:-0.01343234 35:0.031711355 36:-0.057598654 37:0.0027591962 38:-0.055341424 39:-0.074940679 40:-0.019604996 41:-0.062339831 42:0.052993391 43:0.018092698 44:-0.084903915 45:0.086126018 46:-0.064170212 47:0.13059751 48:0.013993993 49:0.099268991 50:-0.040012458 
0 0 0 0 0 0 0 0 0 0 0 1303.514823721508 3924.68171312132 0 0 0 0 0 0 0 0 0 0 0 0 0 0 0 0 0 0 0 0 0 0 0 0 0 0 0 0 0 0 0 0 0 0 0 0 0 0 0 0 1424.860942890198 0 0 0 0 0 0 0 0 1:0.17566345 2:-0.066260472 3:0.056906173 4:0.045304139 5:-0.023443282 6:-0.025771408 7:-0.045995424 8:0.027684761 9:-0.017777584 10:0.039908884 11:0.083178983 12:0.031403911 13:0.0066418915 14:0.051156246 15:-0.043181257 16:0.044487225 17:0.017787777 18:0.080412657 19:-0.0065589206 20:0.030328948 21:0.002391158 22:-0.10806301 23:-0.0602728 24:0.050764848 25:-0.10056516 26:0.059527138 27:0.015805973 28:-0.010399992 29:-0.0072042817 30:-0.045901926 31:0.08795288 32:-0.022459141 33:-0.05254706 34:0.038776989 35:-0.0022034073 36:0.0025651699 37:0.041331043 38:-0.022215405 39:-0.07467704 40:-0.00016614394 41:0.071765849 42:0.036006646 43:0.14242315 44:0.097300717 45:0.073687102 46:0.12268819 47:0.041424663 48:-0.067165753 49:0.05972354 50:0.15315134 
0 0 0 0 0 0 0 18424.40001542565 0 0 4306.403136538714 1369.348787497225 0 0 0 0 0 6646.829606486609 0 0 1526.06989456039 0 1041.122712488048 8063.949363340624 0 11383.50098026322 21502.99687977412 5195.919127197091 0 11444.1676936825 0 1886.371154552115 13051.02413196556 0 0 0 0 0 0 0 0 2366.621862134919 13855.38814903956 10456.18432702982 2832.154996527805 1470.853298535164 0 0 0 12100.61947568994 0 0 4173.461882225533 0 0 0 5322.255044737746 0 0 0 0 0 1:0.042383383 2:0.017555367 3:-0.029231114 4:0.046607592 5:-0.061295449 6:-0.077520498 7:-0.025852968 8:-0.040482954 9:-0.087895527 10:0.034622885 11:0.12437244 12:0.038386687 13:-0.060246453 14:0.031350075 15:-0.058763792 16:-0.064977047 17:0.053706948 18:-0.048181764 19:-0.014539699 20:0.06622982 21:0.086443246 22:-0.033641744 23:0.02587134 24:-0.03050883 25:-0.002300524 26:-0.047253903 27:-0.06907476 28:0.0023655734 29:-0.073926886 30:-0.067296031 31:0.075191101 32:0.025845594 33:-0.016752647 34:0.11249021 35:0.077401319 36:0.023142716 37:-0.017472919 38:-0.060789645 39:-0.085195575 40:-0.04602205 41:0.004858525 42:0.038075709 43:0.052288923 44:0.01604119 45:0.010445765 46:0.02056488 47:0.045252723 48:0.068631432 49:-0.059423122 50:-0.073930511 
1325.301241837078 11923.24561158973 4725.790868624422 5246.476599036449 12188.96726600037 18809.62220559345 0 0 0 0 13110.4501174589 0 0 0 0 18956.99056944071 0 16852.34230345426 25694.00412079532 26748.63713407671 19017.57008003854 0 8136.263391310436 3168.424645766679 6201.88185804392 12378.66598390092 8232.00405849149 687.7902794713178 932.5700822744567 0 3580.984463024848 4553.703011637736 0 2948.313028423334 0 2292.976827155513 0 0 2489.530161815422 3585.115030299201 3351.837059836029 1896.834542368986 0 0 1399.345859609558 2463.293032119359 0 0 0 20965.72205141603 14751.18432499966 6530.760611017749 8178.85026570536 0 6168.092417767234 32768 0 1517.130564949593 0 4973.54883826801 1543.000427205585 0 1:0.036073595 2:0.016356485 3:0.0071933652 4:0.11359996 5:-0.023361557 6:-0.018587215 7:-0.075346661 8:0.011052929 9:-0.06869381 10:-0.053105559 11:0.14127591 12:0.022414593 13:0.062181979 14:0.010031043 15:-0.012644819 16:-0.0078286767 17:-0.01302077 18:-0.03955628 19:-0.027720769 20:0.14005882 21:-0.0080785451 22:-0.090145653 23:-0.042775612 24:-0.023761391 25:-0.056786212 26:0.019851618 27:0.048645832 28:0.026852424 29:-0.027813868 30:0.010953212 31:0.090584098 32:0.081090521 33:0.003061647 34:-0.023718711 35:0.03165223 36:0.03643834 37:0.056667217 38:0.01007486 39:-0.086675559 40:0.087511674 41:-0.05827036 42:0.0037753549 43:0.087639 44:-0.011779466 45:0.034176148 46:-0.043130297 47:0.00024197126 48:0.16473119 49:-0.012338777 50:-0.10027291 
6775.584318989934 32768 0 0 0 0 0 0 0 0 0 0 23923.4320731122 13223.02557740991 0 28585.3201390738 2284.477350403383 0 0 0 0 0 0 0 0 0 0 0 0 0 0 0 0 0 0 0 0 0 0 0 0 0 0 0 0 0 0 0 0 19290.77872067213 21768.39501126753 0 0 0 0 0 0 0 0 0 0 0 1:0.1895931 2:-0.082941056 3:0.066230554 4:0.025669797 5:-0.030644243 6:-0.007708543 7:-0.039222448 8:0.043789778 9:-0.063660869 10:0.03512682 11:0.073496763 12:-0.0011692713 13:-0.040689821 14:-0.017534843 15:-0.022994655 16:0.052261627 17:-0.020170867 18:0.077887965 19:0.010588979 20:0.028559081 21:0.081848824 22:-0.037512162 23:0.026423892 24:-0.094168409 25:-0.048188843 26:-0.056714264 27:0.00048145363 28:-0.0010105443 29:-0.14333419 30:-0.059945161 31:0.024102288 32:0.029646139 33:0.0089504939 34:0.025482257 35:-0.051460681 36:0.037990551 37:0.02653512 38:-0.066768633 39:-0.073736995 40:-0.046041781 41:0.029912316 42:0.039177682 43:0.027449231 44:-0.072558293 45:-0.020574543 46:-0.042338892 47:0.020853718 48:0.07820759 49:0.017329154 50:0.025128135 
0 32768 13324.14605221743 0 10133.39051007325 0 0 0 0 0 0 0 31362.96518743588 27489.84629509678 32768 0 0 11978.54991435288 11214.94622435748 0 0 24471.81704585914 0 0 0 0 0 0 1003.748186509537 0 0 0 6975.773861423226 0 0 0 0 24.5053790710537 0 0 8185.218506585052 0 14331.19889151201 3768.334524599234 0 0 0 19253.33924517936 0 8229.050873542166 0 0 0 14247.86283918813 32451.77599555129 0 0 0 0 0 4288.506951754948 0 1:0.12097729 2:0.044691785 3:0.0056432396 4:0.021719503 5:-0.015493005 6:0.010531418 7:0.014394147 8:-0.031111396 9:-0.07608518 10:0.0017682369 11:-0.025982861 12:0.083323311 13:-0.047717834 14:0.054321813 15:-0.0095406555 16:-0.042183446 17:-0.027625906 18:-0.0096040409 19:-0.027893033 20:0.0093501241 21:0.05263934 22:-0.0036412228 23:0.060201901 24:0.049772932 25:-0.10945416 26:0.020805598 27:-0.0072633354 28:-0.044087407 29:0.013694407 30:-0.036075336 31:-0.0057192592 32:0.085618665 33:-0.024136536 34:-0.079752261 35:0.017378893 36:0.044187945 37:0.032350339 38:-0.055720944 39:-0.11305791 40:0.01529347 41:0.05486084 42:0.016999197 43:0.026270473 44:-0.011680852 45:-0.034604004 46:0.063556132 47:-0.033728712 48:0.080270296 49:0.032005253 50:-0.01715056 
-28458.86222932729 17861.73792848535 7897.373124228217 0 0 0 0 5958.978935444269 0 6104.023387461003 0 1378.232865725877 12262.62128229167 0 0 0 0 0 0 0 0 0 0 1613.607562979584 0 0 0 0 6071.521927297836 0 0 0 5182.522857517252 9689.189205021727 0 0 5323.531937716944 0 2667.556219351074 1528.112555796836 0 0 4028.334196642966 2578.223461272291 0 0 2265.759806190056 0 0 32768 10902.69974108749 20889.20431070721 0 0 26900.6198384134 3387.168143727549 0 0 0 0 5841.543716724359 0 1:0.033220165 2:0.0154979 3:0.063390266 4:0.10759057 5:-0.044812346 6:0.047969789 7:0.030715449 8:0.03183562 9:-0.041656274 10:-0.01220683 11:-0.012446401 12:0.0917104 13:-0.028718775 14:0.042413587 15:-0.042378066 16:0.062521506 17:-0.011116028 18:0.041445155 19:-0.074413743 20:-0.056381209 21:-0.040267462 22:0.035338201 23:-0.009333091 24:0.026074332 25:-0.038314683 26:-0.044595145 27:-0.09210307 28:-0.0085542864 29:-0.059665466 30:0.050094574 31:0.047448226 32:-0.051435469 33:-0.062464271 34:0.067972664 35:0.057153856 36:-0.11494557 37:-0.047770973 38:0.12229121 39:-0.050960713 40:-0.092382709 41:0.024281305 42:0.10208247 43:-0.060647684 44:0.011135935 45:0.00060211854 46:0.047977327 47:0.046477182 48:-0.061386285 49:0.077504056 50:0.020619683 
-32768 32768 32768 32768 32768 32768 32768 32768 32768 0 24950.26085943684 0 32768 32768 32768 32768 32768 32768 32768 32768 32768 32768 2600.707708993833 32480.74372992328 0 0 32768 0 2486.572050295518 0 0 0 11585.97449986751 15255.50849086502 14169.36852558424 21601.82081313472 745.0408219676651 0 0 26023.93564204512 0 0 12319.69973874933 23895.56963237912 0 522.1597377620175 84.32631716115986 10098.71645615414 3128.895802844787 13547.60795140731 32768 32768 0 0 27126.05643267946 32768 31815.59293467543 14288.08951002558 4166.43190747088 8380.495672005653 0 4946.888768977385 1:0.028225564 2:-0.021708199 3:0.018827353 4:0.0081698596 5:-0.040491607 6:0.010114203 7:0.02081664 8:-0.018134385 9:-0.032345051 10:-0.0090757755 11:-0.011203475 12:-0.01196711 13:0.050838021 14:-0.024691556 15:0.0056125452 16:-0.064381983 17:-0.029036276 18:0.043634719 19:-0.0013451148 20:-0.0090381293 21:-0.017081817 22:0.073084327 23:0.011804124 24:0.023882727 25:0.0045824718 26:-0.011977193 27:0.012535502 28:0.00063693908 29:-0.015541664 30:0.024375975 31:-0.0091530782 32:-0.08169199 33:0.043455867 34:-0.0028218792 35:-0.01421406 36:-0.06957581 37:-0.037883748 38:-0.017001088 39:-0.00064067472 40:0.039178027 41:0.073105639 42:0.019372265 43:-0.020725616 44:0.022493096 45:0.05802046 46:-0.045584215 47:-0.025530177 48:-0.02886814 49:-0.016599087 50:0.018825019 
-10349.28633028669 0 32768 20675.05814039488 32768 32768 26022.94666420269 5942.661102755372 199.901301589687 0 3195.707489600019 0 0 0 32768 32768 32768 0 17600.33034591199 0 847.798037593181 0 10183.98159714528 0 6736.305968569028 13932.93975898962 0 0 6173.572951016474 0 0 0 0 21291.46572220008 0 0 0 0 0 3183.618465886169 7320.249383996184 7656.511950727087 297.0149479769564 0 0 0 0 0 5827.692529345562 32768 32768 15640.44736764516 0 0 0 27474.56693790315 5908.210715289592 0 20685.39740762524 0 2882.702752232614 5383.511045997611 1:0.020912618 2:-0.032644041 3:0.0066991838 4:0.024482544 5:-0.055494801 6:-0.02790315 7:0.0083078445 8:-0.062843718 9:0.016373127 10:-0.010216689 11:-0.05811302 12:0.009687649 13:0.078307126 14:0.025693836 15:-0.047283296 16:-0.023423165 17:-0.04611377 18:0.066537706 19:0.024862385 20:-0.021757688 21:-0.12128863 22:0.054439095 23:0.066595763 24:0.0081378561 25:-0.047113266 26:-0.054973437 27:-0.011681685 28:0.04938356 29:6.9889103e-005 30:0.10824064 31:-0.01614272 32:-0.10806209 33:0.010979842 34:0.042529689 35:-0.050893372 36:-0.01980122 37:-0.072527418 38:-0.0090399676 39:-0.064736815 40:-0.030833663 41:-0.0057573327 42:-0.028313529 43:0.027499376 44:-0.051875269 45:-0.1173879 46:0.013186282 47:0.042078057 48:0.0039867396 49:0.017150617 50:0.0074983666 
0 0 0 0 0 0 0 0 0 0 0 0 0 0 0 0 0 0 0 0 0 0 0 0 0 0 0 0 0 0 0 0 0 0 0 0 0 0 0 0 0 0 0 0 2918.062240984636 0 0 0 0 0 0 0 0 0 0 0 0 0 0 0 0 0 1:0.061347552 2:-0.033521539 3:0.10325059 4:0.062705439 5:-0.070300243 6:0.02216002 7:-0.013263844 8:-0.10830263 9:0.053200528 10:0.015469788 11:-0.023677964 12:0.13984611 13:-0.0038490923 14:0.0044848582 15:-0.099347612 16:0.01110108 17:0.029197989 18:0.075259522 19:0.11643376 20:-0.037534667 21:-0.16568057 22:0.027851017 23:0.043495503 24:0.080461927 25:-0.040681459 26:-0.080796478 27:-0.12233286 28:0.080547883 29:-0.020468566 30:-0.035154874 31:0.039712302 32:-0.074755074 33:0.025590095 34:0.11047852 35:-0.026922056 36:-0.081908403 37:-0.044637173 38:0.044001725 39:-0.032669462 40:-0.13799777 41:0.037470443 42:0.13244957 43:0.076195241 44:-0.0081642177 45:0.0093929033 46:-0.10072228 47:-0.0015101921 48:-0.087263756 49:-0.065082803 50:0.0059400052 
-13445.62179527052 29799.79879299531 32430.10960292128 32768 27212.53451992348 9539.184398733596 150.5687306310741 23195.718383961 20081.26510786532 1918.278559640218 0 0 24260.4695485727 0 19898.44364524978 32768 0 31458.62020086345 18467.81811287514 5102.795131329047 8251.136697492726 0 16343.15990403328 4250.767293432587 0 0 0 3325.004827877038 3476.379022973598 0 0 0 0 11353.93773643921 0 0 0 0 0 733.5986111124694 13975.87561804003 2287.920182486391 0 0 0 0 0 0 0 32768 32768 0 0 0 0 32768 4367.973838484718 5501.519999235132 0 922.7113769830896 0 0 1:0.022278375 2:-0.074683434 3:0.036538893 4:0.02888731 5:0.013223116 6:-0.043599298 7:-0.0018264471 8:0.0013653083 9:0.048572505 10:-0.0058215679 11:0.022241726 12:0.018553575 13:-0.0038694639 14:0.029704474 15:-0.066800197 16:0.032932146 17:0.056537269 18:0.05894423 19:0.014341309 20:-0.086087296 21:0.0081940768 22:0.023622369 23:-0.035606853 24:0.041845955 25:-0.046698806 26:-0.019176079 27:-0.082306659 28:0.03642704 29:-0.0078668819 30:0.046256369 31:-0.017251675 32:-0.027769045 33:-0.012017627 34:0.13346725 35:-0.04723908 36:0.020876816 37:0.066239086 38:-0.035230055 39:0.02682027 40:0.0092076114 41:0.072997751 42:-0.083185274 43:-0.017806962 44:-0.036260005 45:0.023718294 46:-0.11497855 47:-0.0715806 48:0.0034415051 49:0.029050175 50:0.017580914 
-32768 32768 32768 32768 32768 32768 19542.49657922715 13102.53487984454 7984.847451810174 17010.90239235603 13410.53726712094 1243.018232802103 32768 32768 32768 32768 32768 32768 32768 12028.23003328458 32768 0 1065.714491705295 25050.92830718698 12633.90622931092 32768 27866.18953798288 2143.181671089747 0 0 2628.570248679111 3073.710199650643 10857.01305455661 2766.036861014367 2513.855766234204 0 1046.897236090532 0 0 32768 11782.2600098347 7724.762042410059 4172.11771239685 0 7426.772501368541 0 718.7667671285151 32768 1283.904239781147 32768 32768 32768 4271.279801404884 30098.35214793613 32768 32768 24446.65502839387 19325.32504478241 7251.57891012576 0 4921.443057909245 0 1:0.064025062 2:0.010306786 3:0.0058518844 4:-0.00844799 5:-0.038608835 6:0.013002829 7:-0.022232805 8:0.00841414 9:0.016593652 10:0.0076192416 11:-0.028349265 12:0.00078561872 13:-0.026262271 14:-0.0010567948 15:0.036002817 16:0.011314553 17:0.0090817197 18:-0.015342058 19:0.014476552 20:0.06953271 21:-0.074963093 22:0.013424348 23:-0.042469517 24:-0.063812702 25:-0.066130363 26:0.01503483 27:0.017655171 28:0.0065281422 29:0.053613592 30:-0.034236759 31:-0.016307043 32:0.030686423 33:0.053162563 34:0.031997233 35:-0.032980605 36:0.0062780805 37:0.078614005 38:0.026374637 39:0.011486838 40:-0.090020244 41:-0.033570118 42:-0.034187209 43:-0.057694646 44:0.056498668 45:0.027713253 46:0.015057647 47:0.05375945 48:-0.049157279 49:-0.13627341 50:0.019532843 
0 0 16625.36132974228 0 2702.334799311368 15600.56091489194 0 0 0 15772.98961748709 12854.00239022529 10033.97001879933 0 9740.039670768232 0 0 6467.574038760855 0 12034.65578109219 18329.51511337478 0 4232.539615424756 2520.224206179576 0 682.6195288008457 3351.076217865611 0 0 5410.423384080104 0 1290.871794439878 0 0 0 0 0 3045.095467130097 0 0 0 0 0 1845.179772070139 396.4270596800583 296.6360970914653 0 0 0 0 0 29049.84884204989 4231.083915168307 6184.381376642226 0 0 5920.572503381908 14684.3636815283 0 0 1960.774842363836 0 0 1:0.0053055422 2:-0.01837857 3:-0.011040439 4:0.04771606 5:0.00076152035 6:0.0042104678 7:-0.14376934 8:0.025382328 9:0.0010883791 10:0.016257054 11:0.0031353991 12:-0.077316321 13:-0.015276217 14:0.036513526 15:0.055180497 16:0.053600909 17:-0.10065695 18:0.080505316 19:-0.0053978648 20:-0.0041065077 21:-0.10647705 22:0.030156588 23:0.068155966 24:0.050114664 25:-0.10230262 26:0.020252904 27:-0.074894118 28:0.10820509 29:-0.025589825 30:0.02258669 31:0.13958425 32:-0.028126901 33:0.068327743 34:-0.0070713211 35:-0.03629908 36:-0.092443292 37:-0.01979194 38:-0.032305763 39:0.063514615 40:0.021428519 41:-0.011500514 42:0.061888815 43:-0.047280502 44:0.0047137354 45:0.053729103 46:-0.020953281 47:0.070492473 48:-0.079037018 49:0.091767168 50:-0.013131656 
-12630.0017497475 0 502.8935532156062 97.05074532185422 0 0 1305.187144658014 0 0 0 0 0 0 6788.299657439365 30741.67618968881 938.8596097745735 0 0 0 0 0 0 0 0 0 0 0 0 0 1609.689869417527 0 1333.190264332714 114.9835469513418 0 0 0 0 0 0 0 0 0 0 0 0 644.4969705254102 864.9161920948424 3702.820823184305 0 0 0 0 0 0 0 5491.555630276338 0 0 0 2733.352358896344 0 0 1:0.093325095 2:0.0063841666 3:0.058715507 4:-0.017529439 5:-0.089736724 6:0.062927399 7:0.053549486 8:-0.0022811307 9:0.039831944 10:0.026057981 11:0.090575298 12:-0.011278507 13:0.011260819 14:-0.098954578 15:-0.036072951 16:0.0022565207 17:0.10552251 18:0.02737828 19:0.057674726 20:-0.12684437 21:-0.040786431 22:-0.037018442 23:0.13190251 24:0.05658105 25:-0.084159188 26:-0.080211702 27:-0.10968358 28:-0.023048595 29:0.089834122 30:0.11189223 31:-0.023596762 32:-0.096968497 33:0.041965044 34:-0.0073168852 35:-0.023654344 36:-0.024667603 37:0.041369608 38:0.10355617 39:-0.11095386 40:-0.055015006 41:-0.025174443 42:0.0027325539 43:0.034927549 44:0.09451468 45:0.14487942 46:-0.061014439 47:-0.065727487 48:0.073659476 49:-0.078718649 50:-0.1548722 
-32768 13818.11015293687 2589.67707337422 0 4100.957874619434 9430.28816823743 0 0 0 6301.67735758264 0 0 10878.59469935434 32768 32768 32768 32768 24255.35627611207 0 15111.6382741038 29664.27188661502 0 0 0 0 22010.35986988102 6074.047331721981 0 0 0 0 0 1267.672557699787 0 0 0 0 0 0 0 1161.826494134642 0 0 0 0 0 0 32768 0 32768 0 14121.67736920388 740.3209905275757 15286.53952326473 32768 0 0 5731.68990667955 0 0 0 0 1:0.089492281 2:-0.031146475 3:0.020602387 4:0.048083005 5:-0.0089614433 6:0.011861728 7:-0.035039993 8:-0.0091848506 9:0.040040854 10:-0.023093943 11:-0.0062205648 12:0.028778934 13:-0.0054280114 14:0.049543136 15:-0.04669616 16:-0.026495245 17:-0.016630318 18:0.032678625 19:-0.063325868 20:0.013557887 21:-0.006968848 22:-0.016738287 23:0.0019598785 24:0.022617324 25:-0.011294511 26:-0.057705097 27:-0.15282959 28:0.013977027 29:0.033102611 30:0.052146269 31:-0.08743142 32:-0.063197587 33:0.04563566 34:0.030249693 35:-0.025732065 36:-0.046095363 37:-0.10891638 38:-0.09169278 39:0.0044767231 40:0.038439382 41:-0.086819807 42:-0.022163534 43:0.040224879 44:0.048422171 45:-0.011220891 46:-0.096667738 47:0.006558449 48:0.010844396 49:0.031190414 50:-0.073592476 
-32768 32768 0 23879.13550649631 0 0 0 0 0 0 0 0 32768 32768 0 32081.55446319886 32768 0 4812.627864778554 0 0 15244.34035283521 0 0 0 0 0 0 0 7628.26907429582 0 0 0 0 0 0 0 0 0 0 1666.794891453638 0 0 0 0 3034.84089464044 0 18581.96925552615 0 32768 24942.11155012297 0 0 9733.784927449931 0 32768 0 0 0 0 0 0 1:0.066307414 2:-0.031546217 3:0.079927526 4:0.010145037 5:-0.066630238 6:0.0075728196 7:-0.056461635 8:-0.023517586 9:-0.044239759 10:-0.040835341 11:0.043102608 12:-0.016923491 13:0.0075138242 14:-0.031538734 15:-0.0088385427 16:0.044438218 17:0.00173913 18:0.075458281 19:-0.027963345 20:0.0009214156 21:-0.0019410562 22:0.063432229 23:0.047092533 24:0.027211813 25:-0.0018556624 26:-0.082029798 27:-0.031974695 28:0.0097928007 29:-0.043548299 30:0.0018756629 31:0.11246441 32:-0.0079073497 33:-0.0082294029 34:-0.032526352 35:-0.035004755 36:-0.052688969 37:0.004216068 38:0.045971238 39:-0.019704869 40:-0.014079129 41:0.077896879 42:-0.012510323 43:0.013687355 44:0.07031781 45:0.011096821 46:-0.038541732 47:-0.056836462 48:-0.070831615 49:0.032000204 50:0.049173525 
-13973.04807428545 32768 0 5148.170233845534 8028.599574526705 6052.9486117426 11259.52994326294 0 1314.924305737105 0 0 0 15625.56427658151 9969.190678767953 32768 9675.146893733179 18243.39207732273 29464.15799213134 6337.559809650325 0 0 4264.42839631724 0 0 0 0 6729.059749729181 6666.717459904347 5140.119615452612 3311.182562883508 2747.54255502474 7024.084237365146 0 0 7188.170175660169 0 0 0 0 11151.12293320116 0 0 8156.047900484502 0 0 0 77.23134102373142 20414.33321356327 0 13609.13720536809 32768 5773.831785298459 1131.519614455521 14402.77588240286 0 8611.303573420824 0 3277.913789235804 0 0 0 0 1:0.075511227 2:0.0036579523 3:0.061277725 4:-0.0094291723 5:-0.062813114 6:0.058568049 7:-0.026817786 8:0.017214719 9:-0.0134731 10:-0.011365482 11:0.017880492 12:-0.0069713822 13:-0.063270465 14:0.072154075 15:0.065841337 16:0.016750718 17:0.083724402 18:0.081855514 19:0.042520636 20:-0.028840874 21:-0.050512089 22:0.0097427691 23:0.12501452 24:-0.053776411 25:-0.016130778 26:-0.016534528 27:-0.07593942 28:-0.033056201 29:-0.087186151 30:-0.019719553 31:-0.028576227 32:0.043491571 33:-0.01792353 34:0.13498409 35:0.0091463861 36:-0.10933842 37:-0.016584362 38:0.041856959 39:-0.0056573004 40:0.0334578 41:0.086176131 42:-0.00065008875 43:0.059640656 44:-0.031019533 45:-0.054029512 46:-0.00036126272 47:-0.049779924 48:0.0034293516 49:0.047641895 50:-0.085984956 
-32768 32768 4513.379313388718 26749.67959964068 21357.48214117974 28263.00737281361 0 23244.50442563058 0 0 0 0 32768 32768 32768 32588.11077761765 873.0084816110033 31758.98327391322 32768 1709.31827449016 8418.419566717397 13479.77103819195 0 0 0 32768 0 0 0 0 0 0 2659.539182154137 19622.6343431514 0 0 0 0 0 0 0 0 2463.942700024591 0 0 0 0 32768 0 32768 32768 11446.58921466813 10514.83867689789 26197.16422878375 32768 32768 3510.175568017659 0 0 0 0 0 1:0.08350572 2:-0.052208268 3:0.013748017 4:-0.025737435 5:0.021870761 6:-0.015650174 7:0.0058160214 8:0.0028130173 9:-0.0073621027 10:0.086136003 11:-0.046638044 12:-0.032343768 13:0.041875851 14:-0.022403716 15:0.02763374 16:0.0040202873 17:0.011322174 18:-0.0037786202 19:-0.081669756 20:-0.0075479819 21:-0.060558997 22:0.027482038 23:-0.015590164 24:0.011999332 25:-0.067447486 26:-0.026814187 27:-0.071408636 28:-0.001849675 29:-0.03020458 30:-0.0084868463 31:0.043200115 32:-0.042223728 33:-0.0079079823 34:-0.0095065255 35:-0.0066103748 36:-0.0056565558 37:0.0028641793 38:0.046070721 39:0.036869133 40:0.0059288186 41:0.0062196353 42:0.040647117 43:-0.015739838 44:0.043132986 45:0.073620528 46:-0.039793863 47:0.01717201 48:-0.0516868 49:-0.062698358 50:-0.039687627 
-2384.146526776878 14222.57202761546 11344.44344042434 8683.537542830651 0 0 0 7450.437455130234 3852.808315365785 5965.969728052934 0 0 0 0 0 0 0 0 0 0 0 1590.380081824601 2745.065111719163 997.9230425066081 0 0 6115.065678384337 0 2873.542409698353 0 110.229136073297 0 1083.218589838775 0 0 0 0 0 1107.967348168881 0 0 694.4813285144319 0 9144.030214300441 2618.380152916122 1055.42627385579 588.0087594312051 0 571.7727401657737 2005.577537412983 0 0 0 3027.294281206946 8189.284784479575 0 0 0 2444.121756114722 0 0 0 1:0.058517322 2:0.034270356 3:0.031512753 4:0.037345583 5:-0.032479493 6:0.1041946 7:-0.014587985 8:-0.065644528 9:-0.0049159324 10:0.077557304 11:0.1079841 12:-0.022635061 13:-0.0021141965 14:0.11190057 15:-0.096914817 16:-0.0029617091 17:0.012106813 18:0.088308134 19:-0.071864087 20:0.024560572 21:-0.19589042 22:-0.057362059 23:0.0021322224 24:0.11118256 25:-0.0027253738 26:0.046324106 27:-0.086414893 28:0.11730112 29:0.023886883 30:-0.066096371 31:-0.076927785 32:0.036082113 33:-0.048804945 34:0.05612684 35:-0.054755296 36:-0.16851605 37:-0.11181229 38:0.0025818555 39:-0.16964324 40:-0.035652271 41:-0.0077783147 42:-0.025754744 43:0.047210285 44:0.029958827 45:-0.084613102 46:0.0016242606 47:-0.04618342 48:0.01758098 49:-0.0056235094 50:-0.12652462 
-32768 32768 27602.22476409021 32768 32768 24328.69712815202 32768 1981.479164392903 14903.24851298939 0 9894.400875232846 6451.559789991778 9606.141981962099 0 32768 32768 32768 32768 32768 32768 32768 574.4445365038665 8283.557099577813 8370.66298633457 5256.596901253343 12122.56688370418 0 0 0 10975.19451354911 0 0 0 5117.665894776274 503.3701011274396 0 2051.810498756433 2358.33792521788 0 760.738601734804 0 12502.38853222171 0 3851.816607045819 0 0 0 0 0 24189.07590985087 11742.67377309999 32768 18243.56212569801 0 32768 32768 0 0 9505.112653306676 1254.054237124909 0 370.7800487731748 1:-0.0055562857 2:-0.00029723276 3:0.1001238 4:0.031608691 5:0.035443362 6:-0.047296356 7:-0.090238934 8:0.02705678 9:-0.023045405 10:-0.048887598 11:0.0076212577 12:-0.054103862 13:-0.01370615 14:0.013913014 15:-0.015957226 16:-0.060314005 17:0.021769757 18:0.02402165 19:-0.071651472 20:-0.081658537 21:-0.10022703 22:-0.0034483797 23:0.0303316 24:-0.08280768 25:0.055724397 26:0.0091683943 27:-0.047061611 28:-0.0041542048 29:-0.0060333188 30:0.014346694 31:-0.017036478 32:0.052682482 33:-0.0087329663 34:0.058578637 35:0.053316201 36:-0.050051984 37:0.0078504294 38:-0.025978138 39:-0.045243981 40:0.00053403289 41:0.0032888989 42:0.029897016 43:0.038541422 44:0.052969041 45:0.09242101 46:-0.063970294 47:-0.0099213294 48:0.031047784 49:0.0039103444 50:-0.005588982 
0 0 7111.096942856359 2940.299920360714 23926.33488520567 1663.780556746335 0 5481.425214330223 0 0 0 0 0 0 0 0 32768 8857.069941187297 0 238.1337172468352 5752.989235520245 0 0 0 0 0 0 0 2149.76897874908 0 0 0 0 0 0 0 0 155.7425190300634 0 662.7815031058002 0 126.3548319535375 0 0 0 0 0 0 0 10487.80235893094 0 0 106.8716956821231 0 57.72378258821959 32768 0 1447.312824154991 0 0 0 0 1:0.024584487 2:-0.022511929 3:0.093586898 4:0.034594096 5:0.030031669 6:0.0079744302 7:-0.067938522 8:-0.10051486 9:0.10524876 10:-0.0097502731 11:-0.01871459 12:0.0174862 13:0.099453143 14:-0.018934366 15:0.034892043 16:-0.011482712 17:0.085990403 18:0.023942624 19:0.043040697 20:0.019001449 21:-0.075909771 22:0.031395537 23:0.044118531 24:-0.02083319 25:-0.024471783 26:-0.050569555 27:-0.064841173 28:0.037605249 29:0.0088642699 30:-0.02373625 31:-0.020429276 32:-0.033913619 33:0.096195436 34:0.0032691506 35:0.073562562 36:-0.068173982 37:-0.04741633 38:0.0036029749 39:-0.056792469 40:-0.012899784 41:-0.017271698 42:0.094715546 43:0.016371349 44:0.08097132 45:-0.018068239 46:-0.078013495 47:-0.047685757 48:-0.16253074 49:-0.029789888 50:-0.01523199 
-11193.58478570399 32768 32768 32768 32768 32768 16737.77726086949 11074.37877191671 1961.488123116759 11124.081716492 1217.778884734779 12225.98159749233 0 0 0 12329.25989312632 32768 32768 32768 19470.98965844525 32768 23433.15514753132 13918.94369558711 12061.35521676327 10786.18475421284 31233.43903362479 31908.289336097 4419.288765436772 0 1086.303400163714 0 405.1536708810014 0 31363.21499246339 885.9692173148337 0 244.6913432246178 0 0 2045.018691480924 0 0 0 0 0 1404.34310966987 0 0 15622.98556906356 15801.54186117655 32768 19023.08149697822 0 0 29499.68806243786 32768 23870.94480057555 13392.56163451241 14641.27314170779 7552.459791695791 0 0 1:-0.044056923 2:-0.08212255 3:0.039594416 4:-0.0021620037 5:0.001057278 6:0.010847842 7:-0.10052092 8:0.056214308 9:-0.02188161 10:-0.011583445 11:0.090175244 12:-0.023855593 13:-0.010264984 14:-0.013151453 15:-0.034792795 16:0.10611195 17:0.007471452 18:0.056063238 19:0.054041474 20:-0.0014062986 21:-0.037448677 22:0.024614919 23:-0.024100037 24:-0.044211181 25:-0.044335179 26:0.0087261857 27:-0.0011910902 28:0.020001887 29:-0.045717165 30:-0.053191268 31:0.09026343 32:0.081790952 33:-0.0071994449 34:0.057641067 35:-0.085198171 36:-0.077303378 37:0.044305394 38:0.0068818089 39:-0.064369498 40:-0.12373477 41:0.00077498858 42:-0.049127868 43:0.01082715 44:-0.0039421522 45:0.085264815 46:-0.036198608 47:-0.10090164 48:-0.0014409228 49:0.049348582 50:0.1162421 
-32768 32768 25686.8350497226 29560.88787169801 32768 0 4553.928765462328 3040.968436304831 6568.009482257869 179.6289945394582 9448.552358161831 0 32768 32768 32768 32768 32768 32768 13389.89045921454 32768 32768 12787.60856275019 7183.079659802447 0 15646.30615216604 31750.90199513677 27325.51199851295 10996.81688488325 12268.59061701893 0 3736.4577911555 1543.069076702118 0 32768 10611.95829026908 5692.622436066238 0 0 0 9198.80593430664 0 8622.707362783054 0 0 0 0 0 23061.96834790003 18549.5774515721 32768 32768 26314.78184430574 1913.424344170656 12619.14284962429 14451.4729663617 32768 0 21122.11301715246 6842.084223648935 12513.56891943295 440.6274488515809 0 1:0.052432712 2:-0.008864652 3:0.015214128 4:0.021375545 5:-0.063309562 6:-0.060538248 7:0.056627039 8:-0.0023130178 9:0.036816511 10:-0.00057384392 11:0.066951763 12:0.013469814 13:0.052052795 14:-0.025729912 15:0.0038218836 16:0.0053574276 17:0.010116126 18:0.022122786 19:-0.069815804 20:-0.032133638 21:-0.047327465 22:0.0042221102 23:0.010649931 24:-0.012728076 25:-0.041174458 26:-0.05182828 27:-0.0061747889 28:0.061304079 29:-0.032116458 30:0.063747412 31:-0.066597468 32:-0.037590016 33:-0.027970677 34:0.012040469 35:0.054714659 36:0.065834611 37:-0.038172845 38:0.037055732 39:0.077907945 40:-0.052670649 41:-0.002657786 42:-0.002729934 43:-0.020092984 44:-0.020996712 45:-0.058274654 46:-0.1133676 47:-0.0073065114 48:0.016230361 49:0.06324454 50:-0.010511475 
-32768 -32768 32768 32768 32768 32768 26856.38350463292 32768 9967.440209418433 7387.004670121727 3837.894246362377 12164.32138006821 32768 3217.592652800999 10930.70878063418 32768 32768 32768 32768 32768 32768 21979.0273291916 7046.045704778088 16099.67958773168 7266.937514226972 28370.31737568189 31273.61107627357 0 8607.292350880683 2555.530966926086 0 1752.499268803498 8083.767476331408 27515.58804213001 0 12275.03948224699 3946.964332743595 0 0 14451.693725399 0 8018.374606257707 0 0 0 0 0 27013.45170896021 0 32768 32768 32768 2637.900820294161 0 21179.43163244168 32768 32768 19973.12842260864 0 15174.94338594918 0 0 1:0.0083646954 2:-0.049420754 3:0.038645907 4:0.020633105 5:0.063048444 6:0.040068772 7:-0.017723626 8:0.043564904 9:0.037738592 10:-0.020548617 11:0.024815702 12:-0.0036825658 13:0.013297505 14:-0.044033221 15:0.023521595 16:-0.00091735104 17:0.033813139 18:0.012708037 19:-0.049649421 20:-0.033969014 21:0.033487562 22:0.092609959 23:-0.026767413 24:0.06817711 25:0.027839452 26:0.011763348 27:-0.082092364 28:0.0097216121 29:-0.038590766 30:0.014420193 31:0.08822721 32:-0.038600223 33:0.041066972 34:0.043913876 35:-0.0078815838 36:0.010020746 37:-0.011109239 38:0.03780516 39:0.055287217 40:-0.010327694 41:0.056128218 42:0.014405262 43:0.029765549 44:0.044708445 45:0.087545645 46:0.018657947 47:-0.040749263 48:-0.0060068484 49:0.0035642777 50:0.033893265 
0 -13523.78553803551 0 26433.19793090348 0 0 0 1535.566064164669 0 0 0 0 0 20631.28845724805 6277.997670627199 19410.76277996736 32768 0 0 0 0 0 0 0 0 0 19197.59882672331 0 1678.490233983041 0 4222.297648729806 3685.418721454436 0 0 0 0 0 579.1656527913843 0 0 1449.057056405974 0 1162.258952337201 907.5481790245809 0 0 0 0 0 0 0 0 0 0 0 0 0 1485.542748622932 1642.642471274639 0 1834.501132310607 0 1:0.012177411 2:0.057589304 3:0.14059487 4:0.056983644 5:-0.10783187 6:-0.044811668 7:-0.034531864 8:-0.016331371 9:0.010534058 10:-0.0051218174 11:-0.017378855 12:0.024006444 13:0.00058415793 14:0.075174991 15:0.026096034 16:-0.0054541136 17:0.048129522 18:0.056078926 19:0.042715158 20:0.069887813 21:0.091406811 22:-0.000830828 23:0.10711607 24:-0.05658551 25:0.03383173 26:0.052603897 27:-0.012399129 28:0.058859034 29:0.014203755 30:-0.11109035 31:-0.096805831 32:-0.057715095 33:0.030327568 34:-0.01609308 35:-0.017766557 36:-0.026966396 37:-0.033072955 38:-0.041591682 39:-0.054194653 40:0.038489028 41:0.082213285 42:-0.14979625 43:-0.062076154 44:0.015772066 45:-0.043942639 46:0.071339919 47:-0.087437661 48:-0.024735332 49:-0.074204177 50:0.1095078 
0 0 0 0 4041.725437755363 32768 3818.121904586251 0 0 0 8370.771647516434 0 0 0 0 0 1288.485578015997 0 463.7019874640185 13066.84130676965 32768 0 4646.868538544424 0 15702.25174941798 0 14141.56158162778 3097.46925212375 0 0 3004.880627304813 2294.338846934747 0 0 0 5118.216286672202 0 0 0 17247.31244441482 0 1573.174639146901 0 0 0 0 0 0 1342.156579348458 0 0 0 0 0 9835.999121648061 0 19676.7229212392 14011.78400423372 0 4061.472732427636 0 0 1:-0.024978982 2:-0.046612339 3:0.006510278 4:0.062909874 5:-0.033462001 6:-0.054379732 7:-0.099646099 8:0.076026732 9:0.094866576 10:0.0082503898 11:0.022460353 12:-0.074171923 13:-0.031891631 14:-0.040927031 15:0.053303818 16:-0.046163276 17:-0.0091926773 18:-0.034356569 19:0.05599218 20:0.052982389 21:0.028774314 22:0.013085086 23:-0.11648601 24:-0.10144422 25:0.067519099 26:0.043084306 27:0.11324821 28:0.023662888 29:0.055225481 30:-0.10561396 31:0.06191599 32:0.024717694 33:-0.051047601 34:0.073450675 35:-0.046682588 36:-0.069949883 37:-0.026205416 38:0.0048327938 39:0.039722768 40:0.060932311 41:0.05468055 42:-0.041407064 43:0.064352442 44:0.15189027 45:-0.13926447 46:0.073622569 47:0.051523899 48:0.045850743 49:-0.095616659 50:-0.0062462359 
-16262.93575263435 -24557.65537591944 0 0 0 0 0 0 0 0 0 0 0 0 0 3362.214682484409 1567.158461383503 0 0 0 0 0 0 0 0 0 0 0 0 0 0 0 0 0 0 0 0 229.1515881326405 0 0 0 0 0 0 706.5518702233653 0 0 0 0 0 2202.513126106619 0 0 0 0 0 0 0 0 0 0 0 1:0.060748243 2:-0.0018074246 3:0.13755566 4:-0.0058426071 5:-0.035377048 6:-0.035670288 7:-0.12608267 8:-0.036633839 9:0.022779821 10:0.046437376 11:0.095257907 12:0.016929772 13:-0.0085348329 14:-0.02231095 15:0.12650031 16:-0.052280209 17:0.053811658 18:0.079564719 19:0.024280852 20:-0.034798193 21:0.0020338511 22:0.086717226 23:-0.110876 24:-0.081528368 25:0.02419956 26:-0.027210232 27:0.058925934 28:-0.034988876 29:-0.084915373 30:0.018677342 31:0.0031291577 32:-0.0039568817 33:-0.14826401 34:0.033449989 35:-0.03825773 36:-0.043529907 37:0.032841737 38:0.029756419 39:-0.1292961 40:-0.14231489 41:0.11911454 42:0.010173626 43:0.033074427 44:0.008946211 45:-0.015496379 46:0.014549776 47:-0.023268933 48:0.0074308691 49:0.012313828 50:0.02902336 
0 -2589.262464692196 28314.65890712491 0 0 0 0 11555.3207606993 8678.52820498011 5872.377897099401 0 0 0 0 0 0 11428.07577164607 3250.187147761916 0 2622.446216465227 18407.10572413636 0 0 17332.87002143071 0 0 0 0 0 0 1685.515634032268 0 107.3424481334464 14263.77238736357 634.4051487630391 0 5443.625590854611 0 0 18400.26923532174 6008.893052136998 4161.058165857068 0 2951.707511041207 3442.300195663986 0 537.4721858576527 0 0 10183.30054820356 12165.2877705502 323.0042709896876 5806.314770370928 0 32768 22292.0596366902 85.39279008545535 0 4843.490005236275 0 6101.63469350455 0 1:-0.0066762472 2:-0.012815208 3:0.011615558 4:0.032820883 5:-0.05321222 6:0.020551908 7:-0.012487866 8:-0.00054834716 9:0.0027114349 10:-0.073717471 11:-0.1025981 12:0.072350254 13:-0.053729251 14:0.0052046241 15:0.054356101 16:0.07517279 17:0.022432735 18:-0.062180587 19:-0.1112193 20:0.077763858 21:-0.11367343 22:-0.0517016 23:-0.16178723 24:-0.013322909 25:0.053613756 26:0.027939914 27:0.030723347 28:0.068352153 29:0.088326867 30:-0.068966122 31:-0.10650368 32:-0.052599815 33:-0.027507633 34:0.01782298 35:-0.018165117 36:-0.036141102 37:0.027362 38:0.1264536 39:-0.10438756 40:0.01932067 41:0.024093653 42:0.069681946 43:-0.092991088 44:-0.012647351 45:0.054697559 46:0.080494919 47:0.093306962 48:0.027920839 49:-0.041486968 50:0.1281625 
-32768 -32768 20211.30695860378 32768 32768 32768 0 94.51079872960834 0 0 12735.05738510596 0 30175.30998254132 32768 32768 32768 14437.08490983851 32768 32768 9194.746527111225 11778.32211836027 21410.13087922067 9077.677655327239 0 0 29496.67191960079 7900.545601175839 0 0 0 0 0 3122.381746532517 26191.74335465607 0 0 0 0 0 0 9302.068836171793 6103.163874764295 0 2147.136774621211 0 0 0 4413.37589728784 0 32768 32768 31583.10431251147 0 16354.58286745816 32768 32768 0 5699.511069302945 4047.959446891557 0 0 0 1:0.070589767 2:0.0032886718 3:0.06416568 4:-0.012385633 5:0.039610966 6:0.017626909 7:-0.0040836504 8:0.035187889 9:-0.012680212 10:-0.015722861 11:-0.0062668088 12:-0.021107353 13:0.017417768 14:0.075321229 15:-0.025361499 16:-0.007620625 17:-0.04484654 18:0.001672466 19:-0.074211598 20:-0.035316728 21:0.0062882448 22:0.042081127 23:0.01554444 24:-0.039739122 25:-0.039673948 26:-0.053523 27:-0.018158467 28:0.040800422 29:0.045216226 30:-0.043441865 31:0.070580743 32:-0.0012866301 33:-0.010728884 34:0.037601043 35:-0.04400869 36:0.012210842 37:0.0050956291 38:0.014950383 39:-0.036921475 40:0.034380392 41:0.048089312 42:-0.060094264 43:0.017788907 44:0.055164548 45:0.067760607 46:-0.079898331 47:-0.058680067 48:0.047708223 49:-0.0065553836 50:0.02825886 
0 0 32768 27454.95989268286 32768 11635.936082412 15017.73871808386 6793.823458609739 11304.9739834558 907.6939370414409 0 0 2239.212509096312 2932.792743496183 0 29935.69493637153 0 17810.61381871641 6023.233347435017 14341.06295733688 32768 0 3892.44302218146 5453.211484181867 0 6325.961397816481 8131.317072838237 0 15573.36774355862 5715.652018704728 0 516.4724798665872 550.4417856719088 7811.333850614885 0 2438.031398995836 0 0 1300.227063589555 4200.284356758625 0 2247.275111463122 0 5436.676901308751 0 0 0 0 967.9952433660184 8710.462827177513 21309.8186333936 14567.50051084566 0 0 0 23928.83564450971 0 13283.93989142025 0 2175.98734868571 0 236.5646288185823 1:-0.0057239957 2:-0.010442586 3:0.055221325 4:0.087409404 5:0.012196429 6:-0.0013951443 7:0.040557877 8:-0.016636745 9:0.061958876 10:-0.011105563 11:0.055633023 12:0.029479622 13:0.0025397498 14:0.086971761 15:-0.10465701 16:0.010159105 17:-0.015485075 18:-0.052852682 19:-0.037319231 20:-0.041996677 21:0.087888898 22:-0.021224965 23:-0.017839638 24:-0.077581282 25:0.027989931 26:0.13220613 27:-0.011292639 28:0.035947247 29:0.073399401 30:-0.018810769 31:0.065340094 32:-0.0018868142 33:-0.05315695 34:-0.013229945 35:-0.1126778 36:0.022835977 37:-0.023487249 38:0.036682796 39:0.091276254 40:0.096876725 41:0.029477593 42:-0.054772738 43:-0.16149698 44:-0.0095276844 45:-0.10010011 46:0.027978267 47:-0.022398738 48:0.11794715 49:-0.041404028 50:0.09785646 
-28387.78055074473 0 0 32768 32768 0 0 4088.339639431783 19772.60053447879 24034.31444074992 15935.77585641749 0 6506.486820753638 0 14062.11208317156 3666.821985030903 32768 32768 32768 5425.4960981146 32768 8656.759712477257 4096.834110473133 0 0 5723.844929201513 32768 0 18799.96978616196 4793.785484491888 0 4456.60634703359 3505.291865990928 32768 15106.609271328 5148.158679760315 743.6561094306686 0 0 25667.35112074039 3101.067096679466 10496.13297614334 2604.20388474772 0 357.4477353783278 0 1849.41028430744 0 2913.538272135213 15899.56796031445 6794.565128537006 32768 8044.748402142553 0 9981.165516035951 9254.337644229689 0 9163.00262448821 0 3406.196132480653 0 0 1:-0.057671588 2:-0.03020152 3:0.013682855 4:0.0059692773 5:-0.070268708 6:-0.036264264 7:-0.019361779 8:0.031773923 9:0.050579333 10:0.051734273 11:0.068597511 12:0.0069919816 13:-0.12092976 14:0.040590038 15:0.077760597 16:-0.040339451 17:0.021123266 18:-0.0047042735 19:-0.06752472 20:0.011297655 21:0.0083996657 22:0.017699651 23:-0.014164959 24:-0.03741229 25:-8.2311387e-005 26:-0.0011883433 27:0.014688039 28:-0.050967608 29:0.06207494 30:-0.0022375203 31:-0.17732533 32:0.025337915 33:0.033944107 34:-0.045410151 35:-0.055882476 36:0.096199797 37:-0.03908573 38:0.061287671 39:-0.057532424 40:-0.0093796786 41:0.040095748 42:0.046681429 43:0.036686804 44:0.00062767004 45:-0.066779178 46:0.13724654 47:-0.046286842 48:0.060945749 49:0.048133691 50:0.010990605 
-32768 -32768 32768 10345.15244801383 27265.14243289399 12299.40152606498 0 7624.371776672032 0 6873.784510112622 4783.772001056585 0 32768 32768 32768 26590.75033827229 32768 29816.9492497436 7274.28917972382 0 0 24375.11433070835 1415.031378719264 13589.18622500939 0 0 0 0 5215.00224534123 0 0 0 8698.615610820312 0 0 0 0 0 0 0 0 0 8085.333463657533 13042.08425267899 0 0 0 32768 4880.07420433201 32768 32768 0 0 32768 32768 32768 14791.82522150903 2648.253883120925 150.9386130087284 0 0 800.2782705097364 1:0.10439664 2:0.0015431796 3:0.040763081 4:0.024046301 5:0.0073545133 6:0.033094138 7:-0.0067725797 8:-0.040195911 9:-0.040891764 10:0.040398209 11:-0.02726087 12:0.017403332 13:0.034094869 14:-0.027153275 15:0.034138218 16:0.030446646 17:-0.045313305 18:0.043001004 19:-0.030783252 20:-0.047373631 21:0.034992414 22:0.050549978 23:-0.041445635 24:-0.023175198 25:0.035147765 26:0.046720306 27:-0.016968143 28:0.054764596 29:-0.073159422 30:-0.10165219 31:0.013855218 32:0.050547875 33:0.013896298 34:-0.024006765 35:-0.000844106 36:0.022940608 37:-0.010088082 38:0.0046880267 39:-0.036304377 40:0.034709184 41:0.023891449 42:-0.014869393 43:-0.046962042 44:0.019249266 45:0.023411359 46:0.061072509 47:0.026189455 48:-0.076880426 49:0.029587423 50:-0.034736195 
-2175.261826439256 0 7840.744336366164 0 0 6218.529257552307 0 0 0 0 4657.419412359852 0 0 0 4633.37020136538 0 0 0 0 0 0 4033.097065129761 0 0 0 0 0 0 0 0 0 0 0 0 0 0 0 0 220.4786702846525 0 0 0 0 0 1211.705864419546 563.2433717790203 0 0 1673.586247285666 24389.31308392109 0 0 0 0 0 0 0 0 0 0 0 2709.036174244157 1:0.081682339 2:-0.049091302 3:0.0086067207 4:0.15533084 5:-0.0014555033 6:-0.00076136577 7:-0.15275049 8:-0.032961725 9:0.020122962 10:0.075699472 11:0.013532957 12:-0.027951984 13:0.055037105 14:0.028876201 15:0.01306383 16:0.04074661 17:-0.096221728 18:-0.019177189 19:-0.029769416 20:-0.039344449 21:0.014171503 22:0.084475593 23:-0.069049941 24:0.044736427 25:0.03913591 26:0.09234891 27:0.057750486 28:0.038440911 29:-0.070924339 30:-0.14989932 31:0.0036644625 32:-0.17747805 33:-0.1133965 34:-0.026707378 35:-0.046115123 36:0.027572703 37:-0.056889246 38:0.035023985 39:0.0061654203 40:0.07255112 41:0.041156826 42:0.0027467185 43:-0.11447545 44:0.075917679 45:-0.072265843 46:0.059559927 47:-0.092831838 48:0.041615346 49:-0.082189216 50:-0.11401393 
-32768 -32768 25489.68105315873 23766.97378403976 0 0 0 0 0 0 6405.885968530512 0 32768 32768 32768 32768 19056.31168996048 28003.73527020665 30216.70939630023 0 22797.99627296685 2055.777939809818 0 0 0 0 0 0 0 0 0 0 0 0 0 2428.617821329726 0 0 0 2885.544920178573 0 0 0 0 0 0 0 32768 0 32768 32768 32768 0 16679.99138247346 0 32768 0 0 5621.308358333203 0 0 0 1:0.10365069 2:-0.0090333713 3:0.036344715 4:-0.0010786207 5:-0.0072648493 6:-0.011226939 7:-0.008708247 8:0.0032628382 9:-0.018350509 10:0.0045151784 11:-0.030475095 12:-0.012751822 13:-0.02434747 14:-0.064897002 15:0.052838003 16:-0.069935344 17:-0.053781129 18:0.028292482 19:-0.030766926 20:0.00078224334 21:-0.019299711 22:0.027009369 23:-0.016099381 24:0.034588402 25:0.049832652 26:-0.035183565 27:0.030632416 28:0.030344397 29:0.059220528 30:0.01752656 31:-0.014473489 32:0.001254529 33:-0.0058953005 34:-0.0092144546 35:-0.035310678 36:0.015235101 37:0.025086183 38:0.11545894 39:0.0015245487 40:0.018314518 41:-0.023827483 42:-0.021113354 43:-0.006035545 44:0.040099622 45:0.025623989 46:0.003861159 47:-0.023893775 48:0.10652762 49:-0.03715911 50:0.072531238 
0 -32768 10216.14998604742 32768 32768 32768 32768 32768 0 0 9847.816035314401 15004.57740410395 0 0 17694.02698772696 18912.96362617832 13299.51520379561 32768 32768 32768 32768 0 12791.84549033594 17172.64287232371 3035.34946248454 32768 5618.883496671879 10105.12857578799 1664.862321609156 575.2958364252087 0 0 0 5536.114494175643 0 0 0 0 0 4240.859211695789 0 0 5560.146838424348 1979.502242057078 1067.754247082985 0 414.4010594292154 0 4686.368241134652 32768 31561.49083676659 32768 12090.70882815972 0 32768 32768 0 5627.083878617666 22757.47278486778 385.2942365984404 0 0 1:-0.054276618 2:-0.003786709 3:0.073801361 4:-0.017588168 5:-0.039881434 6:-0.023664355 7:-0.069618566 8:0.05972499 9:0.044994023 10:0.02487271 11:0.025703312 12:0.048841781 13:-0.060598998 14:-0.010421106 15:0.051802882 16:0.0028896231 17:-0.016053365 18:-0.012578199 19:-0.0080266695 20:0.026933106 21:-0.022691559 22:-0.0133055 23:-0.042253637 24:-0.11687443 25:0.041802609 26:0.050987669 27:-0.026450309 28:-0.033325493 29:0.017598597 30:-0.0079175284 31:-0.044467664 32:-0.0021748001 33:-0.14295577 34:0.046011408 35:-0.0039232178 36:-0.035493777 37:-0.033584766 38:0.074823394 39:-0.074800146 40:-0.0060138526 41:-0.11008648 42:-0.015111745 43:0.085609823 44:-0.053213295 45:0.029850334 46:0.0043670125 47:-0.033612986 48:0.015990184 49:-0.026941791 50:-0.027736389 
-32768 -8303.751486254663 29009.54078534682 32768 32768 7096.830673642804 0 964.954271774601 15177.98974554819 0 0 213.513769086065 0 8141.03846369239 17630.54950263187 18448.46960680637 32768 32768 32768 32768 7904.122494971944 21150.38608610702 0 0 0 13206.37732698763 0 0 1364.626288246654 0 0 0 0 0 0 0 0 0 0 0 17486.28939626084 0 0 380.5868494924702 0 0 0 0 75.69937709935759 32768 14745.26202823297 657.8996104407917 0 0 13700.6028539914 7490.596896505185 8807.248602367479 0 3285.361044050722 0 0 0 1:0.019615484 2:-0.030778331 3:0.089727643 4:0.037859253 5:0.015036453 6:0.0070257547 7:-0.056966978 8:0.098046788 9:0.058795945 10:0.040915934 11:-0.042385599 12:0.057135265 13:-0.023641224 14:0.013128232 15:0.0033108244 16:-0.0015733983 17:0.0015341327 18:0.060958485 19:-0.016407711 20:0.054539359 21:0.039239649 22:-0.0039725158 23:0.015363872 24:0.050469152 25:0.020418006 26:0.046255896 27:0.028914511 28:0.032916459 29:0.028625203 30:-0.062440173 31:0.034380114 32:0.013487782 33:-0.032233711 34:-0.047239684 35:-0.045977536 36:0.014908281 37:-0.093194909 38:-0.13398135 39:-0.026784819 40:0.037862598 41:0.055947523 42:-0.064867877 43:-0.01920503 44:-0.05528719 45:-0.0023521283 46:0.038089946 47:0.0048984289 48:-0.04127696 49:0.031822645 50:-0.058003208 
-32768 0 19377.00993438329 1194.529156459479 25790.74644299758 1397.763371559617 0 0 0 0 0 0 30019.65320931125 32768 32768 32768 0 0 0 0 0 0 0 0 0 0 0 0 0 0 0 0 1952.237549966744 0 0 0 0 0 0 0 1835.127165175899 0 945.7759372382561 0 2018.714905135891 2224.611901080395 0 25085.24590334855 0 19046.45080679512 5134.670334490866 0 0 32099.02145057525 9788.310740878056 0 0 0 3249.553076865912 1823.809009507556 0 0 1:0.10362791 2:-0.0025886742 3:0.024189978 4:-0.052693209 5:-0.030182338 6:0.0083945017 7:-0.052335557 8:-0.033470044 9:0.042830288 10:0.026427161 11:0.01819817 12:0.05389913 13:-0.026739294 14:0.068717315 15:0.01153705 16:0.05679643 17:0.054839875 18:-0.020988342 19:0.061414501 20:0.023868114 21:0.043703184 22:-0.0058418861 23:0.05847755 24:-0.0013300534 25:0.052569787 26:0.019498688 27:0.024824084 28:0.019633982 29:0.085745866 30:-0.043818778 31:-0.025112657 32:-0.052960375 33:-0.091294301 34:0.011270344 35:-0.056033441 36:0.031180496 37:-0.022197871 38:-5.0942866e-005 39:-0.13952055 40:0.053562114 41:0.028865179 42:-0.041345443 43:0.0035900001 44:-0.069321044 45:0.0036053913 46:0.072904365 47:0.058530396 48:0.014489447 49:0.027624949 50:0.0052454546 
-32768 0 0 0 0 4769.381279599215 0 0 0 0 0 0 32768 0 19079.86732093337 24992.22883448887 0 0 0 0 0 0 0 0 304.8612261967404 0 0 0 0 0 0 0 0 0 0 0 0 0 0 0 0 0 0 0 0 0 0 0 0 28228.71714520786 0 4429.179252806532 0 7522.049334650749 0 0 0 0 0 0 0 0 1:0.12244586 2:-0.029783892 3:0.037056705 4:0.010352755 5:-0.038087351 6:-0.028557901 7:-0.034376624 8:0.053438772 9:0.052767565 10:0.046331247 11:0.059620556 12:-0.0035218699 13:-0.082868393 14:0.093582687 15:-0.0002076898 16:0.079398183 17:0.0055923079 18:-0.050519512 19:0.018304514 20:-0.091123335 21:0.046114531 22:0.0039132808 23:0.032960908 24:0.0045015797 25:0.047705032 26:0.026886579 27:0.045322271 28:-0.051887502 29:-0.094678579 30:0.046128761 31:0.046207067 32:0.086478969 33:-0.16575943 34:0.052802879 35:-0.042263416 36:0.062666047 37:-0.013021725 38:0.056091231 39:-0.1137387 40:-0.023354034 41:-0.0070188308 42:-0.051839463 43:0.028934331 44:-0.014206667 45:-0.015118423 46:0.08587123 47:-0.06258742 48:0.023827474 49:0.0055367217 50:0.054556044 
-32768 -32768 32768 32768 32768 32768 32768 16993.12786187202 32768 11781.71403912595 0 3886.801084620881 32768 32768 32768 32768 32768 32768 32768 32768 20959.1981035551 32768 18653.2157378976 12626.94493890991 13310.35641969248 32768 31663.97671622361 3285.424107962749 0 0 1921.514488918273 0 0 23772.77549486704 10306.35761527565 0 0 0 2372.515755888022 18045.7101414544 0 0 12762.86950145883 265.2038805159403 673.3046032382223 0 0 32768 7937.234048271134 27418.12569580744 32768 32768 5736.104741893672 27854.24255393085 32768 32768 23181.66789451893 7364.771695773105 1918.27913027742 969.1865683144767 0 0 1:0.044233007 2:-0.00085052092 3:-0.013019995 4:0.068957677 5:0.074588543 6:0.023279601 7:-0.016514813 8:0.071065149 9:7.0569315e-005 10:0.023004217 11:-0.0041343885 12:-0.02451636 13:-0.068833838 14:0.0013580242 15:0.049535776 16:-0.0096186007 17:0.015648205 18:0.032077734 19:0.05560461 20:0.028868377 21:-0.021973911 22:-0.066268085 23:-0.0010607215 24:0.080814994 25:-0.022144226 26:0.056001292 27:-0.016868367 28:-0.017655954 29:-0.020986799 30:-0.017120948 31:-0.0034068974 32:0.043636028 33:-0.08791815 34:-0.056217306 35:0.0082300067 36:-0.05046007 37:0.020353804 38:-0.010947544 39:0.010497307 40:0.0080682556 41:0.081056252 42:0.05845243 43:0.04557715 44:-0.0044771763 45:-0.063879241 46:-0.096686799 47:-0.023758077 48:0.060904641 49:-0.0038301012 50:0.036771391 
-21918.71652678505 -32768 0 0 0 0 4699.605014109325 0 0 0 0 0 32768 12290.5162544357 32768 797.0760362433809 0 0 0 0 2913.224070067434 0 0 0 0 0 0 0 0 6031.526562749445 0 0 0 0 0 0 0 0 0 0 0 4781.59046324435 0 0 0 0 1845.656471178304 3849.093482578215 0 0 0 0 6245.790282888875 0 0 21539.68081404896 0 4855.596710309122 0 0 0 0 1:0.077139626 2:-0.039869086 3:0.036870589 4:0.064118104 5:-0.041037348 6:0.035063541 7:0.019128429 8:0.065418361 9:0.079314702 10:0.019155779 11:0.044519907 12:0.085656944 13:-0.089330505 14:-0.082278702 15:0.015980734 16:0.010809985 17:-0.040283988 18:0.0098521185 19:-0.078179549 20:0.029928729 21:-0.082175932 22:-0.023950314 23:0.025343752 24:-0.038417621 25:0.032045783 26:0.0071818593 27:-0.031975838 28:0.0021683846 29:0.036157643 30:-0.044015161 31:0.047234528 32:-0.0099853164 33:-0.0021979538 34:0.023001157 35:0.0053277009 36:-0.041791695 37:-0.057400643 38:0.0059779308 39:-0.041172267 40:-0.040014591 41:0.11633397 42:-0.089101399 43:-0.047827202 44:0.10069125 45:-0.068615437 46:-0.10483447 47:-0.1022477 48:0.076499284 49:0.027816733 50:-0.045638696 
0 -9905.202955655668 32768 6392.306726712705 32768 15862.64282595562 27255.71255249903 15857.72976554931 0 3608.287883606978 3341.61144406694 0 0 3590.306113540816 7608.510182556332 4797.482739958194 32768 18287.03170748358 23099.92263219396 7367.777479013753 27142.23383705719 0 4903.740488614483 8747.16805216061 15571.52600789626 15893.16059609095 5349.347875416812 0 0 3389.244715532409 0 0 2099.034200884018 0 0 0 1823.661010626405 0 0 3099.641371114903 0 0 1348.94589178479 9262.384264056427 0 0 0 17717.64667132382 0 13105.16894681218 0 7226.367324363063 4712.041673541894 0 0 25403.00388465564 2599.334561741883 0 18018.99506919377 0 0 6863.333137185613 1:0.0066504683 2:-0.028757523 3:0.0050558677 4:-0.0058031567 5:0.008180004 6:0.065681009 7:-0.013700646 8:-0.0077021549 9:0.0055070425 10:-0.024427687 11:-0.044185656 12:-0.079286884 13:-0.011621924 14:-0.036617765 15:0.05665305 16:-0.052009297 17:0.12442416 18:0.11832364 19:0.0560821 20:0.016688755 21:0.0076220666 22:0.061967432 23:0.057521567 24:-0.09584002 25:0.15210672 26:-0.028259959 27:-0.021711774 28:0.094336027 29:-0.0041002193 30:0.032856955 31:-0.040440702 32:0.0077054747 33:0.027376708 34:-0.04844041 35:-0.08682934 36:0.058868694 37:-0.11974341 38:-0.023531448 39:-0.13783443 40:-0.013711804 41:-0.10366185 42:-0.012142684 43:0.042853398 44:0.057966917 45:0.065359476 46:0.12312382 47:0.016149685 48:-0.023518821 49:0.027882579 50:0.12864311 
0 0 0 0 0 6523.45703762018 0 0 0 7205.228299288176 0 0 0 0 0 0 0 0 29987.89583297338 0 0 0 0 0 0 0 0 0 0 0 0 0 2027.335035803486 0 0 0 0 1878.209343636298 0 0 0 0 1107.613739735051 556.541624838583 4166.990004377623 0 0 0 2646.067868845022 0 0 6265.218451734432 0 0 0 17606.80833118378 1321.912537281051 0 0 1102.443373603978 0 0 1:-0.043888414 2:0.099246119 3:0.1395498 4:0.036754963 5:0.088121396 6:0.0045512988 7:-0.10565236 8:-0.08651612 9:0.089503241 10:0.19185397 11:-0.010696747 12:-0.056680435 13:-0.005653423 14:0.091820818 15:0.03573771 16:0.13838809 17:-0.00038347479 18:0.038088943 19:0.068575454 20:-0.0033560826 21:0.021176342 22:0.037229082 23:-0.10734203 24:0.11904629 25:0.15194688 26:0.11189886 27:0.011251275 28:-0.044051106 29:0.18105377 30:-0.11164182 31:0.065481047 32:0.09705939 33:-0.018232815 34:-0.031488375 35:-0.14286608 36:0.087112001 37:-0.07667258 38:-0.040460417 39:0.05266974 40:-0.030501328 41:0.16298289 42:-0.066687482 43:-0.0018325558 44:-0.047711853 45:0.0033428278 46:0.07086582 47:-0.022314103 48:0.091829456 49:0.037120415 50:0.0038336589 
-49.36506188585791 -32768 10442.38782583233 32768 3690.149861599712 490.08695657163 13527.4701044375 0 0 0 0 0 25326.9503964962 6924.044418628338 2269.602759819436 0 32768 0 16011.02743575049 11713.92074634388 0 0 0 0 0 0 0 0 0 0 0 202.8849028305933 0 0 3286.914143783828 0 0 0 0 0 0 0 0 2405.565291560989 0 0 0 0 12262.56198188844 32768 24014.86742892115 6934.874154580908 0 0 6108.746959033052 0 0 0 0 0 358.2137566316954 0 1:0.077249812 2:-0.06219336 3:0.087363235 4:-0.0068578342 5:-0.028984238 6:0.0026540537 7:0.035911285 8:-0.0065760651 9:-0.011118404 10:-0.025550172 11:0.030777414 12:0.0094845744 13:-0.0086670363 14:0.030811857 15:-0.01052343 16:0.02303316 17:0.009795681 18:0.05825875 19:-0.028915534 20:0.00090544577 21:-0.024037526 22:0.16891215 23:-0.021049647 24:-0.088085359 25:0.12088029 26:0.025875884 27:0.10757189 28:0.055752791 29:0.033105372 30:-0.055796789 31:-0.012343438 32:-0.013229994 33:-0.073059046 34:0.05176709 35:-0.083721102 36:-0.011452385 37:0.0059410056 38:0.027930282 39:0.030544976 40:-0.068241134 41:0.044095819 42:0.026573166 43:0.064905053 44:0.0013120244 45:0.026945205 46:0.031929799 47:-0.027565408 48:-0.064713599 49:0.014355132 50:-0.0076525671 
-19629.43070429869 -16822.56108147551 0 0 19273.4942873372 4547.532959340841 0 14712.7817751138 6629.900208902091 3993.920501181019 441.5491010832645 0 13968.56863565077 7579.410471014373 32768 5282.332958004618 24387.30903696735 16784.7619308514 32768 3153.572010333461 0 0 0 0 1582.926291478793 17268.91137233705 0 16279.97806412551 0 349.4505567325249 0 0 0 0 10180.81447726558 0 1295.835819222098 0 0 1085.250817632361 0 0 0 0 0 4360.059979289733 0 8215.134354212623 4591.998598566536 18744.89333241789 20734.94890025392 0 0 0 22633.93756757537 29627.2086226932 3558.054425643039 0 0 6846.977633206431 7008.858056990072 0 1:0.072824942 2:0.049266533 3:0.059480436 4:-0.00010085849 5:0.016060154 6:-0.070908613 7:0.04900067 8:-0.010095198 9:0.088202853 10:-0.050104729 11:0.064846468 12:-0.031050261 13:-0.00040711294 14:0.0011721634 15:0.0357877 16:0.14973156 17:-0.028142106 18:-0.06336006 19:0.043484737 20:0.01875729 21:0.10150077 22:0.0076813729 23:-0.050762421 24:-0.14453557 25:-0.054002278 26:-0.082573526 27:-0.0074494783 28:0.091426594 29:-0.065562955 30:-0.067423382 31:-0.080132192 32:-0.092210417 33:-0.12941633 34:-0.026727026 35:0.0067437409 36:-0.060506058 37:-0.03820964 38:-0.0063859492 39:0.038405564 40:-0.02109275 41:0.049294204 42:-0.029040926 43:-0.096639437 44:0.023887005 45:0.052758193 46:0.026932793 47:-0.0074793826 48:0.067012584 49:-0.05764792 50:-0.0087648542 
