svm_type epsilon_svr
kernel_type rbf
gamma 0.81225
nr_class 2
total_sv 4741
rho -40.8867
SV
-12.55422631986086 1:-0.25068659 2:-0.20104112 3:-0.13449328 4:-0.071817392 5:-0.064205545 6:-0.0064149149 7:-0.02839146 8:0.0067613157 9:0.087552811 10:0.020755475 11:-0.042444094 12:-0.0044482428 13:0.028434992 14:0.01492188 15:0.032523244 16:-0.0074449625 17:-0.070734702 18:-0.12612535 19:-0.050537784 20:0.034266674 21:-0.0025904735 22:0.022360471 23:0.047160789 24:-0.018665779 25:-0.022648065 26:-0.051980397 27:-0.089852319 28:-0.018934885 29:0.14664416 30:0.024624741 31:0.020220376 32:0.021234224 33:-0.071590502 34:0.10706868 35:0.0028729669 36:0.037996258 37:-0.15016005 38:0.069634745 39:-0.045186577 40:-0.0060318054 41:-0.034763147 42:-0.057722459 43:-0.020012524 44:-0.080465559 45:0.068401808 46:0.069376755 47:-0.08198637 48:0.0200558 49:-0.084154521 50:0.018144427 
-137.187 1:0.015660352 2:0.12652326 3:-0.023326822 4:-0.0079294635 5:0.038238477 6:0.030817858 7:0.021176412 8:-0.12337694 9:0.10359825 10:0.042523688 11:0.098269178 12:0.019966015 13:-0.01117108 14:-0.027558063 15:0.067320909 16:0.0090619433 17:0.073111675 18:-0.00065213845 19:-0.14272499 20:0.11354102 21:-0.03550581 22:0.036118916 23:0.020963594 24:0.080731679 25:0.087632275 26:-0.014324712 27:-0.034485047 28:0.014386651 29:-0.038765917 30:0.15469904 31:0.041790215 32:-0.029137467 33:-0.045778499 34:0.18403733 35:-0.0076891086 36:0.073422837 37:-0.058210799 38:0.010730613 39:-0.12127798 40:-0.024196192 41:-0.0012628335 42:-0.007504113 43:-0.050938986 44:0.0060865968 45:0.018984236 46:-0.061408074 47:-0.033428463 48:0.028100925 49:0.0138796 50:-0.068474606 
-137.187 1:0.029669814 2:0.15111228 3:0.07644678 4:-0.0090992038 5:-0.081014786 6:-0.10140862 7:-0.00560182 8:0.12511745 9:0.02211073 10:0.00089917187 11:-0.091839186 12:0.026519888 13:0.043898951 14:0.062109298 15:-0.069713112 16:0.051271426 17:-0.089385491 18:0.061970496 19:0.0017558269 20:0.037228528 21:0.045376787 22:-0.063722258 23:-0.039539495 24:-0.0066349695 25:-0.012660348 26:-0.0025536885 27:0.0027930958 28:-0.11759118 29:0.080556432 30:0.0026863884 31:-0.11092307 32:0.03919841 33:-0.120738 34:-0.10048364 35:0.10865132 36:-0.00023862863 37:0.020108746 38:0.095644751 39:-0.015494647 40:-0.02677358 41:0.0055581765 42:0.12579143 43:0.063913106 44:0.0094697182 45:0.046982035 46:0.031646393 47:0.1498097 48:-0.047339047 49:0.01325454 50:-0.007277673 
137.187 1:0.23895074 2:-0.055078833 3:-0.091446513 4:0.0015043504 5:-0.021232177 6:0.0088396482 7:-0.011980528 8:0.14880685 9:-0.022039094 10:-0.033600161 11:0.09676282 12:0.011785441 13:-0.038550884 14:0.0010592321 15:-0.094668172 16:0.019604577 17:0.040643138 18:0.043980662 19:0.030222227 20:0.028607661 21:-0.083068217 22:0.078353087 23:-0.048443904 24:0.049029419 25:0.17616289 26:-0.082483169 27:0.098664013 28:0.1941988 29:-0.0016350603 30:0.057786208 31:-0.023481965 32:0.039781065 33:-0.069896181 34:0.036525668 35:0.051106629 36:-0.15516261 37:-0.0155546 38:-0.043813205 39:-0.09878618 40:0.08180125 41:-0.005085468 42:0.033201231 43:0.14869941 44:0.077516134 45:-0.02611128 46:-0.14185214 47:0.12708215 48:0.014220267 49:-0.11692683 50:-0.048538809 
-137.187 1:-0.13389019 2:-0.18322779 3:0.030528264 4:0.089491296 5:0.027921579 6:-0.022759007 7:0.017044926 8:-0.027586141 9:0.027744926 10:-0.014447107 11:-0.0049018669 12:0.0058290455 13:-0.026963483 14:-0.03776718 15:0.025093717 16:0.007185672 17:0.020395559 18:-0.051478806 19:0.015146788 20:0.023102292 21:-0.041108935 22:-0.0068324384 23:0.038948056 24:0.02604048 25:-0.030315129 26:-0.10438655 27:-0.046777818 28:-0.018281793 29:0.028128108 30:0.020992637 31:-0.012825518 32:0.025192115 33:-0.037237355 34:0.098608255 35:-0.039349189 36:-0.001704987 37:-0.0013986115 38:-0.035943165 39:0.020844682 40:-0.012383842 41:0.043632463 42:-0.018638147 43:-0.030445084 44:-0.018399735 45:0.021346026 46:-0.031007222 47:0.0062675387 48:0.048638759 49:0.018767532 50:-0.073959988 
137.187 1:-0.0097204745 2:0.037389712 3:0.039026285 4:0.060701064 5:0.0073731021 6:0.005078782 7:-0.0017279954 8:-0.034547792 9:-0.026368827 10:0.034669831 11:-0.072161321 12:-0.068336349 13:0.059549825 14:0.055241143 15:0.04202214 16:0.080417373 17:0.0042510367 18:0.088339891 19:0.019519101 20:-0.023390032 21:0.061941295 22:-0.012667965 23:-0.094007114 24:-0.0083394948 25:0.064303133 26:-0.0023279808 27:-0.011743015 28:-0.028741334 29:0.044949315 30:0.034974681 31:-0.041109272 32:0.014677685 33:0.0083474497 34:0.008669698 35:0.024041387 36:-0.071051867 37:-0.012930513 38:0.028324609 39:0.019146276 40:-0.0055229849 41:0.014188739 42:0.047031752 43:0.0067190364 44:-0.030265402 45:-0.0072694279 46:-0.065594941 47:0.021907608 48:-0.064332289 49:-0.025386183 50:-0.0046376673 
-118.7209053765406 1:0.32034786 2:-0.076932755 3:-0.093009209 4:0.036297469 5:-0.0099701319 6:-0.070528227 7:-0.086166128 8:-0.07650512 9:0.033320574 10:-0.015183561 11:-0.071887787 12:-0.18972757 13:-0.0027279768 14:-0.064659571 15:-0.067730586 16:-0.015723181 17:-0.061251275 18:-0.1077853 19:0.093211319 20:0.20007087 21:0.042296948 22:-0.045444999 23:0.060740726 24:-0.00189498 25:0.001461394 26:0.0004066898 27:0.0021425381 28:0.042233198 29:0.065326385 30:-0.081725397 31:-0.090422202 32:-0.045619187 33:0.02630219 34:-0.12762081 35:-0.075945055 36:-0.066780083 37:0.069412269 38:0.084256919 39:0.043798673 40:0.040708407 41:0.02617327 42:0.078875352 43:0.030966926 44:0.090352272 45:0.004946762 46:-0.14815139 47:0.070462609 48:0.026634557 49:-0.090461629 50:-0.031051505 
137.187 1:0.073251468 2:0.18780195 3:0.076992165 4:0.012131049 5:0.012716657 6:0.077688098 7:0.041887259 8:0.084896637 9:-0.055385856 10:-0.023723738 11:0.06020397 12:-0.055749396 13:-0.099771502 14:0.018467989 15:0.038433043 16:0.054990634 17:-0.032036101 18:-0.079955878 19:-0.028526887 20:-0.034154651 21:-0.074395432 22:0.046474844 23:0.10640717 24:0.072923233 25:-0.024837992 26:-0.10001585 27:0.015413322 28:-0.044283319 29:-0.057768581 30:0.022601681 31:0.0078362451 32:-0.0032912825 33:0.051285976 34:-0.069825148 35:0.040624969 36:-0.017993196 37:0.02791363 38:0.071379291 39:-0.053219255 40:-0.038009556 41:0.20235723 42:0.021717707 43:0.037814668 44:-0.082110837 45:-0.092667608 46:0.16046917 47:0.0011597158 48:0.018383389 49:-0.012959424 50:0.013404966 
-137.187 1:-0.096097146 2:0.10380108 3:-0.072003624 4:0.16958208 5:0.017549435 6:0.035193313 7:-0.066083821 8:0.069702387 9:0.018464766 10:0.096703831 11:0.0055994191 12:0.019976699 13:-0.1096101 14:-0.14320875 15:0.041920493 16:-0.071720459 17:-0.0013994606 18:0.04051437 19:-0.0079213263 20:0.037044689 21:0.054776932 22:-0.10896747 23:-0.066679402 24:-0.028060213 25:0.028067031 26:0.046128081 27:0.071706878 28:-2.1627426e-005 29:0.04793995 30:-0.12379989 31:0.047797504 32:0.037069001 33:-0.028027614 34:0.10877127 35:-0.018233242 36:-0.0073663451 37:0.031357597 38:0.012153002 39:-0.019799983 40:0.0062946519 41:-0.04072983 42:-0.0011813295 43:-0.05919532 44:-0.027461187 45:-0.061165294 46:-0.048619967 47:0.06439737 48:-0.012305029 49:0.066415522 50:0.086641041 
137.187 1:-0.18214955 2:-0.12600102 3:-0.095439211 4:0.0088944101 5:0.067659659 6:-0.026283043 7:-0.097001795 8:0.051136697 9:-0.017411307 10:0.13945847 11:-0.010699356 12:0.11106769 13:-0.0084584598 14:-0.073365291 15:-0.088563935 16:0.083399032 17:0.030979837 18:0.0038928292 19:-0.0094076507 20:0.02766618 21:0.077293768 22:0.026260675 23:0.02728201 24:-0.097804131 25:0.071196492 26:0.00077922669 27:-0.039709492 28:-0.027319848 29:0.090543426 30:0.072046576 31:-0.046131423 32:-0.1090378 33:0.095421346 34:-0.0083737181 35:0.042509866 36:0.10726133 37:0.068147855 38:0.099245164 39:0.023569438 40:0.034376163 41:0.046721931 42:0.12097133 43:0.080704237 44:-0.016235602 45:-0.030194237 46:0.0245745 47:-0.00065478856 48:-0.00099483504 49:-0.040326195 50:-0.06357659 
137.187 1:-0.1878489 2:0.07490171 3:-0.0046871304 4:0.081088192 5:0.03491601 6:-0.025094196 7:0.010270532 8:-0.0076693125 9:-0.044243253 10:-0.020785443 11:0.023874361 12:-0.01624023 13:0.023372949 14:0.036918821 15:0.16765645 16:-0.0017099686 17:-0.033562503 18:0.011223922 19:-0.037209695 20:-0.012422548 21:-0.055626246 22:0.030961185 23:0.082495062 24:0.027223052 25:0.0056776873 26:-0.015656538 27:0.078165022 28:-0.029765057 29:-0.01763991 30:0.088159439 31:-0.080705096 32:0.067842516 33:0.025823306 34:0.049515794 35:0.058045531 36:0.054227037 37:-0.1296132 38:-0.092344187 39:-0.011610496 40:0.087538971 41:-0.049241497 42:0.018342564 43:-0.010548891 44:0.032563 45:-0.03727124 46:-0.059454915 47:0.0085273182 48:0.10214591 49:0.0043891356 50:0.011627489 
114.6829917369124 1:-0.18661842 2:0.15604383 3:-0.12049963 4:0.10875527 5:0.0044016116 6:-0.018288788 7:0.12043931 8:0.022952508 9:0.0814917 10:-0.040602965 11:0.019188142 12:0.026177176 13:0.041098327 14:-0.0044925212 15:0.0016485782 16:0.027351804 17:-0.021990511 18:0.022911717 19:0.01237687 20:0.033278311 21:-0.090301861 22:0.044058964 23:0.0077015026 24:0.031530475 25:0.11734249 26:0.016956214 27:-0.022259917 28:-0.02167008 29:-0.011610545 30:-0.039201852 31:-0.0097660871 32:0.11917165 33:0.030776133 34:-0.028702929 35:0.056332209 36:-0.082131331 37:0.017656513 38:-0.0047909553 39:-0.022080811 40:0.0093879214 41:0.04467011 42:0.0042542776 43:0.014023532 44:-0.036543126 45:-0.044892736 46:0.082016336 47:-0.023168043 48:0.02956585 49:-0.11023983 50:-0.076712039 
137.187 1:-0.16286954 2:0.12667782 3:0.034692385 4:0.01403135 5:-0.13090062 6:-0.041638322 7:0.03035418 8:0.02801263 9:0.01368411 10:-0.056953511 11:-0.024639947 12:-0.088674934 13:0.12500238 14:-0.011370726 15:-0.044251227 16:0.011575898 17:0.10510507 18:0.048968091 19:-0.029641865 20:-0.13351913 21:0.01442176 22:0.038729603 23:-0.0020666572 24:-0.13542332 25:-0.023487259 26:-0.057656041 27:-0.046846635 28:-0.021474612 29:-0.062431491 30:0.034205976 31:0.025986046 32:0.063009144 33:-0.033637482 34:-0.026974237 35:-0.095925481 36:0.010955243 37:-0.019472519 38:-0.0068158416 39:0.033143153 40:0.042181224 41:-0.054148001 42:0.087818259 43:-0.058703285 44:-0.10153326 45:0.00068701734 46:-0.042623904 47:-0.0099956102 48:0.078897028 49:-0.029263733 50:-0.08642468 
137.187 1:0.037213448 2:-0.0031616216 3:0.050859709 4:-0.082819546 5:0.060068329 6:-0.10750975 7:-0.0029022884 8:0.027999163 9:-0.016417271 10:0.090973489 11:0.19181562 12:-0.022206471 13:-0.090287707 14:-0.042242785 15:-0.06237157 16:-0.037250603 17:0.20201712 18:-0.071079001 19:0.02047028 20:0.071476847 21:0.0091462983 22:-0.1429039 23:-0.11187199 24:-0.0071274788 25:-0.039834873 26:0.092246579 27:0.025811924 28:-0.023646295 29:0.10215251 30:0.082464324 31:-0.13569561 32:-0.036820867 33:-0.080393631 34:-0.0053328566 35:-0.011988626 36:-0.048011251 37:-0.08600285 38:0.033235079 39:0.043607342 40:-0.084218097 41:0.056365006 42:-0.017162827 43:-0.0059229484 44:-0.066223911 45:-0.0034003193 46:-0.074994347 47:0.078459421 48:0.042783552 49:0.10210591 50:-0.023377812 
137.187 1:-0.027515298 2:-0.12855889 3:0.024906315 4:-0.17042136 5:0.01983558 6:-0.068592895 7:0.011287347 8:-0.0042710779 9:-0.010166851 10:0.038665954 11:0.016694409 12:0.074606945 13:0.046674842 14:0.060106781 15:0.13359487 16:0.070809256 17:-0.036786879 18:-0.068152935 19:-0.068895963 20:-0.027050053 21:0.051393622 22:0.12165488 23:0.058665953 24:-0.0023295161 25:-0.0093444962 26:-0.042144733 27:-0.000268485 28:0.086602519 29:-0.075738541 30:-0.12087586 31:0.010063979 32:-0.00044454667 33:-0.10635702 34:0.028744628 35:0.065982145 36:0.012613381 37:-0.013442206 38:0.051429609 39:0.011137609 40:0.11147363 41:0.029723942 42:-0.030675395 43:0.03866129 44:0.0094771896 45:-0.07228931 46:0.08970721 47:-0.052717738 48:0.047968356 49:0.034656384 50:-0.0056766096 
-137.187 1:-0.042580385 2:0.043051831 3:-0.030209399 4:0.084560552 5:-0.036859074 6:0.051326589 7:-0.018845334 8:-0.059641538 9:-0.0015650051 10:-0.015104016 11:-0.15595922 12:0.030497561 13:0.062680827 14:0.0087198809 15:0.03202501 16:0.077750866 17:0.034847431 18:-0.069133467 19:0.054795231 20:-0.019000559 21:0.04356595 22:-0.043928363 23:-0.090497135 24:0.067868177 25:0.021941116 26:-0.074059608 27:0.019743229 28:-0.041759377 29:-0.030944372 30:0.013036887 31:-0.10948843 32:0.027439452 33:0.034733825 34:-0.020629331 35:-0.073061801 36:-0.12441844 37:-0.09940053 38:-0.027741884 39:0.112701 40:-0.092674467 41:-0.0540068 42:-0.009641413 43:0.011505357 44:0.00615456 45:-0.027399887 46:-0.029883502 47:0.10766645 48:0.041689952 49:0.018541832 50:0.0045577859 
52.73870940732909 1:0.31104824 2:0.024163772 3:-0.015165424 4:-0.094789777 5:0.057741266 6:0.083450544 7:0.029589536 8:0.047113833 9:-0.11819979 10:-0.20948432 11:-0.029239583 12:0.048071865 13:0.087387983 14:0.079476792 15:-0.099708299 16:0.0039904548 17:-0.042872941 18:-0.076833206 19:0.067769073 20:-0.0052831712 21:-0.01050704 22:-0.028668379 23:-0.014838318 24:0.00047709839 25:-0.0534812 26:-0.072210763 27:0.069753372 28:0.082741516 29:-0.088271247 30:0.013334474 31:0.02543169 32:0.05660246 33:-0.01874826 34:0.029436248 35:0.016458139 36:0.042899817 37:0.0498821 38:-0.028147408 39:-0.10114714 40:0.10724672 41:-0.060308127 42:0.036749387 43:-0.073097252 44:-0.0034612733 45:0.027252559 46:0.10656353 47:-0.049555961 48:-0.012711467 49:0.16815214 50:-0.0097476835 
-35.73308012781647 1:0.050816127 2:0.11573831 3:0.0089080995 4:-0.054558971 5:0.048626623 6:-0.028649826 7:-0.012047853 8:-0.029454178 9:-0.063964164 10:0.0226155 11:-0.072457647 12:0.020366584 13:-0.075750296 14:-0.047442521 15:0.055217747 16:-0.042277877 17:0.037494429 18:0.020066873 19:0.084271953 20:0.023878121 21:-0.10303733 22:0.050780499 23:0.022326345 24:0.0050750682 25:0.036702717 26:0.053271817 27:0.012041522 28:-0.02118603 29:-0.10684595 30:-0.027821794 31:0.0097456343 32:-0.032863466 33:0.017410341 34:-0.006089037 35:0.084480842 36:0.099648342 37:0.032948822 38:-0.072402261 39:-0.043252075 40:0.064299157 41:-0.12581115 42:-0.05312197 43:-0.076978146 44:-0.016670798 45:-0.046161447 46:0.16433976 47:-0.071090275 48:0.040285733 49:0.092127983 50:-0.10685172 
-105.7854184820611 1:0.24071558 2:-0.0265665 3:0.028349598 4:-0.021575515 5:0.12454298 6:-0.10765795 7:-0.10108362 8:-0.10098634 9:-0.0027899824 10:0.015087134 11:0.010726209 12:-0.10438051 13:0.11149399 14:0.011189733 15:0.032358518 16:-0.025131433 17:-0.029245087 18:-0.06625921 19:0.022204336 20:0.10340763 21:-0.11929427 22:0.23886897 23:0.10142798 24:-0.075448413 25:-0.13082149 26:-0.05534223 27:0.22733323 28:0.049610381 29:-0.046090133 30:-0.10515047 31:0.11153603 32:-0.096635575 33:-0.10014512 34:0.10390794 35:-0.088502918 36:0.050752482 37:-0.081217532 38:0.044484675 39:-0.019904385 40:0.11120355 41:0.097068454 42:0.032137062 43:0.052947223 44:-0.078196094 45:0.063940551 46:0.11286931 47:0.072106373 48:0.08060713 49:-0.17737938 50:-0.086017641 
137.187 1:0.036860001 2:0.045429605 3:0.080999518 4:-0.10252077 5:0.0099220484 6:0.11019695 7:-0.11606021 8:0.016913543 9:-0.00066120523 10:0.017739984 11:-0.071903987 12:0.0081793716 13:0.01229516 14:0.071555275 15:-0.02713762 16:-0.0925624 17:-0.013194036 18:0.0063824784 19:-0.024310712 20:0.019798691 21:0.063618217 22:-0.068543179 23:-0.033795205 24:0.019931607 25:-0.005322852 26:0.0099917439 27:0.012292937 28:0.0122206 29:-0.044873248 30:0.03392317 31:0.014237077 32:-0.006052371 33:0.016642555 34:0.020556605 35:0.014345166 36:0.00184956 37:-0.0028709431 38:-0.033953456 39:0.070041338 40:-0.0012791975 41:-0.043239764 42:0.06866725 43:-0.030376683 44:0.024109047 45:0.071108124 46:-0.049629318 47:0.035580579 48:0.033217577 49:-0.0016565846 50:-0.0031599944 
137.187 1:0.12598637 2:-0.081273497 3:0.0091999102 4:-0.087634264 5:0.075826345 6:-0.041105818 7:0.07329728 8:-0.088197165 9:-0.025089077 10:-0.00094672995 11:-0.075200348 12:0.025528829 13:-0.073976015 14:0.018991836 15:-0.00095214319 16:-0.028920874 17:-0.029225421 18:-0.00067831874 19:-0.17713055 20:0.069693841 21:-0.11837676 22:0.021678622 23:-0.017804404 24:0.17484671 25:0.0093049316 26:-0.084859986 27:-0.01008502 28:-0.018363229 29:-0.032376368 30:-0.0048605559 31:0.045130861 32:0.023783939 33:0.0083068161 34:0.071953572 35:0.039380323 36:0.086424811 37:-0.079063138 38:0.083558906 39:-0.022711195 40:0.12454055 41:-0.011265958 42:0.032176639 43:-0.11195097 44:-0.013446721 45:0.044985552 46:0.16268616 47:-0.033902198 48:0.046470337 49:0.0036639648 50:-0.054984456 
-137.187 1:0.12847605 2:-0.080036576 3:-0.047415687 4:-0.004300924 5:-0.012025315 6:0.10986022 7:0.027556199 8:0.013221085 9:0.00093488144 10:-0.010997417 11:-0.0014128183 12:0.017399389 13:-0.052896491 14:-0.11238131 15:0.073599164 16:0.039355051 17:-0.034774278 18:-0.0053992625 19:0.016020303 20:-0.041205824 21:0.043501634 22:-0.06766589 23:-0.090475162 24:-0.050452555 25:0.011403584 26:-0.12807269 27:-0.011538366 28:0.052142564 29:0.048762326 30:0.0099493969 31:-0.046832206 32:0.038474217 33:-0.12280776 34:-0.019981439 35:0.0061343023 36:-0.032625815 37:0.17048395 38:0.027473644 39:-0.0071747904 40:0.054507384 41:0.034121718 42:-0.058922867 43:0.022417945 44:-0.050967166 45:0.1262333 46:-0.06835395 47:0.068347342 48:0.046457699 49:-0.077843853 50:-0.017187045 
-84.58038328345225 1:-0.16188774 2:-0.27873993 3:0.062369495 4:-0.13337819 5:0.007498769 6:-0.15245698 7:0.035374235 8:-0.047974893 9:-0.029312348 10:-0.012031305 11:0.038763403 12:-0.0092388356 13:0.11908748 14:-0.045013436 15:-0.077656923 16:0.14367123 17:0.16136029 18:-0.094767078 19:0.097693302 20:0.012773823 21:-0.02537782 22:0.08778312 23:0.060248883 24:0.0068285606 25:0.003521901 26:0.022261603 27:-0.011656623 28:0.062403433 29:-0.003655648 30:-0.066156026 31:0.080611495 32:0.06278851 33:0.0065439762 34:0.0031907851 35:-0.0022634831 36:0.012001638 37:0.1067302 38:0.070362354 39:0.021655931 40:0.011470623 41:-0.24868087 42:0.057725313 43:-0.031338412 44:0.10119638 45:0.11675163 46:0.016094117 47:0.13998825 48:-0.043881002 49:0.051675456 50:0.20420282 
22.48282429044827 1:-0.19196173 2:-0.3289667 3:0.079966474 4:-0.038273095 5:-0.023318601 6:-0.011667754 7:0.072429626 8:-0.10495845 9:0.02242308 10:-0.015474202 11:-0.0660403 12:-0.015271793 13:-0.00010067477 14:-0.075342941 15:-0.087635202 16:-0.1017017 17:0.034394144 18:-0.056795511 19:0.01135833 20:0.047729875 21:-0.023025676 22:-0.098833501 23:0.086652802 24:-0.10951332 25:-0.074206247 26:-0.04754687 27:-0.019451525 28:-0.13597449 29:-0.020461661 30:0.093686415 31:0.182358 32:0.036225208 33:-0.019343127 34:-0.027759491 35:-0.093560802 36:0.07044681 37:0.021433166 38:-0.076684066 39:0.062976936 40:-0.0028432481 41:-0.1316913 42:0.014755997 43:0.076140539 44:0.0078915528 45:-0.027129197 46:0.096567053 47:-0.066539789 48:0.0045167789 49:-0.14820261 50:0.087734747 
104.0839502441583 1:0.2389946 2:-0.058238183 3:0.011569027 4:0.014828823 5:0.064198172 6:-0.015810343 7:0.074576777 8:0.055677449 9:-0.16777084 10:0.1299131 11:0.026929576 12:0.084120464 13:0.058723146 14:0.06050256 15:-0.11345087 16:-0.031144035 17:0.15357155 18:-0.11524863 19:0.061751162 20:-0.00039342566 21:0.0040768065 22:0.052213119 23:-0.04886905 24:-0.067234351 25:-0.14489705 26:-0.064226764 27:0.060402003 28:-0.0074491954 29:0.0066011828 30:0.026269094 31:-0.020501726 32:0.14893116 33:-0.073854711 34:0.091693794 35:-0.010983767 36:0.099474419 37:0.056667572 38:-0.090247878 39:-0.0024505181 40:-0.081595934 41:0.10602446 42:0.09134112 43:0.11447721 44:0.09581744 45:0.096601611 46:0.084098178 47:0.026658444 48:0.14636717 49:0.11371011 50:-0.085674634 
9.879439083804918 1:0.16488726 2:-0.10272639 3:-0.08451858 4:0.34223114 5:-0.0073243514 6:0.32145672 7:0.052210136 8:0.1802232 9:-0.069132173 10:-0.080319858 11:0.24882782 12:-0.014986071 13:0.0020036895 14:-0.10167881 15:0.0063133279 16:0.13293346 17:-0.15679362 18:0.054490508 19:0.14193527 20:-0.029063226 21:-0.14673546 22:-0.060793923 23:0.04518423 24:-0.084506561 25:0.19453921 26:0.080612876 27:-0.21525329 28:-0.17435627 29:-0.0028587152 30:-0.013242722 31:0.12995692 32:-0.052376981 33:-0.0036034636 34:0.016226604 35:0.060922456 36:-0.062008886 37:-0.011267806 38:0.049576113 39:0.013985199 40:-0.079461743 41:-0.028560267 42:-0.047221857 43:0.011055906 44:-0.13964603 45:0.063215424 46:-0.044772114 47:-0.034618903 48:0.051450399 49:0.081632556 50:0.021949151 
137.187 1:-0.028749037 2:-0.085601605 3:0.061276128 4:-0.06424651 5:0.078422596 6:-0.0044512487 7:0.023787148 8:0.0046576655 9:-0.092226336 10:0.042084614 11:-0.046740802 12:0.039634472 13:0.082471008 14:0.045285892 15:0.056465903 16:0.012161143 17:-0.091295511 18:-0.027693507 19:-0.10225343 20:0.029648509 21:0.023721319 22:0.01777962 23:0.10982458 24:-0.028720756 25:0.0057796722 26:-0.10610029 27:0.024202713 28:0.060708528 29:-0.031516865 30:-0.084757373 31:0.022836023 32:-0.022510166 33:-0.088824651 34:0.0021200332 35:0.042559292 36:-0.046495061 37:0.0051588607 38:0.092003988 39:0.027345408 40:0.047298846 41:0.033285245 42:-0.013267792 43:0.021383415 44:0.031619977 45:-0.092745357 46:0.003498864 47:-0.05594689 48:0.0088267556 49:0.06352091 50:-0.061018794 
137.187 1:-0.0031117782 2:0.029906051 3:-0.049295128 4:0.068283043 5:-0.0026797015 6:-0.046303977 7:-0.022363065 8:-0.023887505 9:-0.031564121 10:0.066735887 11:0.024391872 12:0.037191472 13:-0.020391011 14:-0.024488278 15:-0.00016481422 16:-0.091467974 17:0.06695081 18:0.055211883 19:0.10073154 20:0.037581036 21:-0.0022401072 22:0.046235286 23:-0.0099646084 24:-0.036025202 25:-0.015481751 26:-0.014960996 27:-0.10385758 28:0.049567404 29:0.028845566 30:0.014078855 31:0.045633064 32:0.085510708 33:0.018186923 34:-0.074474281 35:0.061720889 36:-0.03819818 37:0.062583245 38:-0.020283633 39:-0.028385835 40:-0.031166506 41:0.092157094 42:-0.0492321 43:-0.054079296 44:0.025554856 45:0.070445008 46:0.029881079 47:-0.093802669 48:0.11560151 49:-0.010342362 50:0.029935392 
-137.187 1:-0.14453528 2:0.20175237 3:-0.034379412 4:0.066969603 5:0.0055869103 6:-0.034700889 7:0.13908829 8:0.012282543 9:0.05960504 10:0.017328854 11:0.023835721 12:0.051436093 13:-0.03758616 14:-0.017506553 15:-0.002471089 16:0.075477345 17:0.010137035 18:-0.024792273 19:0.066029841 20:-0.0029966029 21:-0.06365144 22:0.112992 23:0.00029048793 24:-0.015822252 25:0.11238708 26:0.0053580937 27:0.075206612 28:0.014773093 29:0.060703532 30:-0.0018726581 31:0.02622034 32:0.059029576 33:0.079697953 34:0.03635214 35:0.047913451 36:-0.071849247 37:0.064647143 38:-0.041196026 39:0.0011943019 40:0.041858502 41:0.031133713 42:-0.039354682 43:-0.023431377 44:-0.01757736 45:-0.022986791 46:0.054507704 47:0.015804791 48:-0.021601467 49:-0.071671111 50:-0.065967494 
-137.187 1:-0.18264379 2:-0.11027837 3:-0.033169861 4:-0.017826951 5:0.0087084359 6:0.00089064573 7:0.0055884873 8:-0.053269563 9:-0.067207097 10:0.02871949 11:0.028147858 12:0.0064825298 13:-0.023415701 14:0.020426721 15:0.07454993 16:-0.0015800884 17:-0.090709497 18:-0.046680303 19:-0.024821813 20:0.064410285 21:0.051836696 22:0.062039527 23:0.11522693 24:0.094888837 25:0.074967487 26:-0.0091699297 27:-0.075046291 28:0.0017096594 29:0.020049985 30:-0.091217017 31:0.10660701 32:0.0029605836 33:-0.092174074 34:0.053485009 35:0.010947803 36:0.10052887 37:0.023562481 38:0.094417504 39:0.037787892 40:-0.089300773 41:0.097845586 42:0.036022243 43:0.043082706 44:0.049483455 45:0.060475392 46:-0.0017769433 47:-0.10535049 48:0.053538638 49:0.055528727 50:0.028426691 
-137.187 1:-0.024399459 2:0.14279311 3:-0.017059844 4:0.049447191 5:-0.0735882 6:0.039267103 7:-0.030569162 8:-0.051955898 9:-0.072637445 10:-0.060823203 11:0.029174131 12:0.01194892 13:-0.064664065 14:0.011682466 15:0.019999392 16:-0.036543342 17:-0.065877746 18:-0.0069051211 19:-0.042364759 20:-0.0052433173 21:0.0070622883 22:-0.029109516 23:-0.073408658 24:-0.10895685 25:0.057642501 26:0.043374289 27:-0.0097958785 28:-0.045907443 29:0.060656799 30:-0.075533527 31:0.10367643 32:0.011810006 33:-0.11062671 34:-0.051861263 35:-0.07849442 36:-0.037097149 37:0.13038362 38:0.038804947 39:-0.11025307 40:-0.023689067 41:-0.036779324 42:0.058019136 43:0.099223261 44:0.19680385 45:0.019688705 46:-0.02997578 47:-0.0066214913 48:-0.057389744 49:-0.020521869 50:-0.01249623 
137.187 1:-0.19234879 2:0.047920785 3:-0.091728014 4:0.03304506 5:0.037057606 6:0.055291927 7:-0.13537429 8:-0.015174696 9:0.022646389 10:-0.0062889467 11:-0.055201333 12:-0.038415196 13:0.028767157 14:0.097494862 15:-0.011079959 16:-0.068673029 17:-0.011551462 18:-0.044939192 19:0.0098024082 20:0.066948698 21:-0.12031039 22:-0.067333353 23:0.045888369 24:0.016708588 25:-0.0053715623 26:-0.055458057 27:-0.040543667 28:0.048521534 29:0.029768876 30:-0.016248874 31:0.0038053999 32:-0.03036613 33:-0.006794561 34:0.060524699 35:-0.099427278 36:0.0903079 37:-0.06369373 38:-0.062434715 39:-0.025523712 40:0.069828469 41:-0.023457106 42:0.013752533 43:-0.067814108 44:0.1079326 45:-0.01573865 46:-0.016677806 47:-0.096571406 48:-0.041565865 49:0.026524096 50:0.015543745 
137.187 1:-0.31053709 2:-0.19391037 3:-0.1278742 4:-0.018345596 5:-0.023865282 6:0.013183943 7:-0.0098856795 8:0.02118608 9:-0.071677197 10:-0.028663847 11:-0.041973065 12:-0.072612887 13:0.082768596 14:-0.087501037 15:-0.044570093 16:0.020798076 17:-0.027907749 18:-0.064405622 19:0.11917569 20:-0.10312729 21:0.0059960009 22:-0.011047835 23:-0.12243934 24:0.047631762 25:-0.030986574 26:0.075985154 27:-0.064949329 28:0.051045153 29:0.04031619 30:-0.042484945 31:-0.013835701 32:-0.072090997 33:0.0088010129 34:0.090367489 35:-0.0070655447 36:-0.043881916 37:0.048892071 38:0.020248479 39:0.07936008 40:-0.059328008 41:0.073627396 42:0.010853847 43:-0.013979271 44:-0.017508007 45:-0.082750524 46:0.028462514 47:-0.060259354 48:0.014966476 49:-0.014459917 50:0.057284286 
-61.53681058029724 1:0.055658419 2:-0.004770709 3:0.13566654 4:-0.15206976 5:0.08898033 6:0.0056001647 7:-0.024152967 8:0.18245327 9:-0.02164409 10:0.06984121 11:-0.11139298 12:0.029896903 13:-0.059670151 14:0.071595952 15:0.076741249 16:-0.11664267 17:0.019206852 18:-0.051401377 19:-0.090768644 20:0.00023264461 21:-0.089240258 22:0.067869848 23:0.076589886 24:0.10019829 25:-0.018551598 26:-0.046043649 27:-0.026710328 28:-0.12423617 29:0.069678506 30:-0.085426825 31:0.1079336 32:-0.067771969 33:-0.094196429 34:-0.098436279 35:0.017932434 36:-0.089366279 37:-0.038351174 38:-0.0066517473 39:-0.0022273055 40:0.014029624 41:-0.06239695 42:-0.04361757 43:-0.1543885 44:0.072826662 45:-0.02596498 46:0.010957925 47:-0.047048809 48:0.097270743 49:-0.00063626861 50:-0.10234598 
137.187 1:0.19093799 2:-0.058748233 3:-0.1088549 4:0.15566384 5:0.03898748 6:-0.02277467 7:-0.068821761 8:0.097086101 9:-0.033097136 10:-0.14381486 11:0.027043444 12:-0.090408382 13:0.011897713 14:-0.00071863129 15:0.17832604 16:-0.10763954 17:-0.10256583 18:-0.011443347 19:-0.00026365164 20:-0.14290353 21:0.062402289 22:-0.094800999 23:0.075474017 24:0.11760985 25:0.10663422 26:0.0096856053 27:0.025181478 28:0.14001898 29:0.05456837 30:-0.016515196 31:-0.11481416 32:-0.047686332 33:-0.0070397495 34:0.042308027 35:-0.02566008 36:-0.022954644 37:0.0080102698 38:0.066092519 39:-0.018852292 40:0.16209028 41:-0.012149751 42:-0.024260851 43:-0.087568899 44:-0.066051834 45:0.14885927 46:-0.0015629127 47:0.060865731 48:-0.028156072 49:0.015892476 50:-0.1338908 
-137.187 1:-0.094533047 2:-0.0043463152 3:-0.099074246 4:-0.063792371 5:-0.019017581 6:-0.0081357338 7:0.06135379 8:-0.044791962 9:-0.070072022 10:0.0024397802 11:-0.056860086 12:0.0051901003 13:-0.033590622 14:0.040127189 15:-0.079032848 16:-0.041107331 17:-0.14863232 18:0.04929118 19:-0.088701382 20:-0.023803798 21:-0.0512396 22:0.02547687 23:-0.043590005 24:0.042397985 25:-0.036595385 26:0.013547765 27:-0.0041649409 28:0.05245981 29:-0.0029174101 30:-0.041345341 31:-0.08904062 32:-0.014347304 33:-0.065145321 34:-0.017319413 35:0.064150557 36:-0.042906913 37:0.038995648 38:-0.059078067 39:0.037676796 40:-0.10010847 41:0.0030066002 42:0.023984865 43:-0.072262498 44:0.10559906 45:0.045329056 46:0.058449563 47:-0.06781117 48:0.0062499478 49:0.041956532 50:-0.059873086 
95.481145353797 1:-0.21770084 2:-0.25926929 3:-0.027509152 4:0.10205706 5:-0.055160374 6:-0.087114083 7:0.0032410262 8:0.010078723 9:0.067861854 10:0.00022735553 11:-0.020813729 12:0.029627207 13:0.12030627 14:-0.00024771211 15:0.0078809704 16:-0.080994337 17:-0.094787094 18:0.061797396 19:0.085432086 20:-0.080697775 21:-0.019272585 22:0.012934341 23:-0.0069417468 24:0.1056093 25:-0.043922752 26:-0.051410511 27:-0.011024352 28:0.11504322 29:0.052053603 30:-0.078694569 31:-0.079716865 32:-0.068630479 33:0.062238991 34:-0.030291308 35:0.034936726 36:-0.069087016 37:0.016957054 38:-0.085897469 39:0.077108436 40:-0.00019293527 41:0.076483551 42:0.041400048 43:0.010630599 44:-0.01250118 45:0.13816173 46:-0.13373794 47:0.017014017 48:-0.087501576 49:-0.017968289 50:-0.064051559 
137.187 1:-0.18840256 2:0.17758938 3:-0.009206856 4:0.029788491 5:0.063920828 6:0.0024558205 7:-0.055423286 8:-0.0035449541 9:0.06582408 10:-0.10172901 11:-0.015395557 12:0.049688168 13:-0.047273904 14:0.009244135 15:0.040447424 16:-0.046257214 17:0.0098189777 18:0.021259627 19:-0.049168186 20:-0.018103483 21:0.18342597 22:0.053735182 23:-0.012294101 24:0.0082631693 25:0.025760456 26:-0.052783664 27:0.04193744 28:-0.019858974 29:-0.027020056 30:-0.073450512 31:0.054862141 32:0.011231009 33:-0.02742267 34:0.036655534 35:-0.1081157 36:-0.064159941 37:0.0097460274 38:0.025395085 39:0.10990089 40:0.015737829 41:-0.086786078 42:0.0027862548 43:0.046059795 44:0.03080921 45:0.034789488 46:0.0029118974 47:0.058740287 48:0.083697139 49:0.044845949 50:0.012666396 
52.21120370101107 1:0.15584785 2:0.11166309 3:0.054978219 4:0.025299862 5:0.042026025 6:0.066599822 7:0.055967793 8:0.10910192 9:-0.16309629 10:0.13226498 11:-0.066142798 12:-0.01367847 13:0.11549081 14:-0.024062337 15:-0.064277712 16:-0.044115306 17:-0.0067364563 18:-0.073671249 19:-0.064654176 20:0.073097993 21:0.1093862 22:-0.086397752 23:-0.00087178198 24:-0.059126725 25:-0.070079041 26:-0.14104676 27:0.050941863 28:0.048307152 29:0.066876201 30:0.093593474 31:-0.069466281 32:0.046985269 33:-0.059863442 34:0.034674972 35:0.053801502 36:0.091085298 37:-0.028287947 38:0.053094333 39:-0.048806483 40:0.0058409796 41:-0.090979318 42:-0.054983637 43:0.07985473 44:-0.097374356 45:0.16277398 46:0.035960225 47:-0.044717678 48:0.078480542 49:0.03644944 50:0.035008865 
-137.187 1:0.16838166 2:-0.01825416 3:0.10267677 4:-0.091158281 5:0.0067680898 6:-0.00225965 7:-0.094108456 8:0.066937229 9:0.037440455 10:-0.058933238 11:-0.014267931 12:0.051670675 13:-0.059524357 14:-0.0044517017 15:-0.0093327582 16:-0.040190211 17:0.077051636 18:-0.0076284863 19:-0.0033800719 20:0.10063795 21:0.11057485 22:0.081176464 23:-0.03769138 24:-0.073852762 25:-0.0092543321 26:-0.15541873 27:0.05691941 28:-0.064750605 29:0.0056352931 30:-0.074316153 31:0.020861776 32:-0.023152995 33:-0.053773138 34:0.07096235 35:-0.095033448 36:-0.18797285 37:-0.048185422 38:-0.045258498 39:0.028009509 40:0.11477406 41:-0.035825012 42:0.062694204 43:0.0028109875 44:-0.13866403 45:0.14183272 46:0.090101708 47:-0.011804882 48:0.0085630113 49:-0.0035726788 50:-0.071189712 
137.187 1:0.18086556 2:-0.092527688 3:-0.045643625 4:-0.045708762 5:0.014489747 6:-0.0090321989 7:0.03500858 8:-0.011442991 9:-0.12305995 10:-0.026015563 11:0.012085978 12:-0.023222512 13:-0.095945902 14:0.014891069 15:0.064789906 16:0.10052894 17:-0.032049049 18:-0.0017237305 19:0.065753647 20:-0.023378694 21:0.091788891 22:-0.01919676 23:-0.066864369 24:-0.037731262 25:-0.049594012 26:0.058129873 27:0.010865453 28:0.063592931 29:0.057738331 30:-0.002810522 31:-0.064155309 32:0.013381825 33:-0.036052075 34:0.07363149 35:-0.026804385 36:0.008138338 37:-0.045530521 38:0.037367536 39:-0.065295873 40:-0.040251867 41:-0.010019094 42:-0.1130904 43:0.034227359 44:0.042066875 45:0.042508074 46:-0.00077254033 47:-0.099822239 48:0.0024626168 49:0.020933531 50:-0.010161353 
137.187 1:0.0198018 2:0.14926684 3:-0.036866957 4:-0.041335893 5:-0.08793716 6:-0.012834032 7:-0.087291447 8:-0.042596145 9:-0.0088317903 10:-0.064487494 11:0.00077364922 12:0.12777094 13:-0.02076672 14:0.054282129 15:-0.0028644846 16:0.060591999 17:-0.01049173 18:0.0074014983 19:0.070084732 20:0.05037502 21:0.025302028 22:0.067475836 23:0.013265018 24:0.0053590744 25:-0.044103723 26:0.052921349 27:0.038348129 28:0.034154654 29:0.025641426 30:0.052169899 31:0.0014692001 32:-0.032211746 33:0.016363788 34:0.029141847 35:-0.058278431 36:-0.054507407 37:-0.0061757499 38:-0.016730974 39:-0.02019862 40:0.027915822 41:-0.02614122 42:0.039856954 43:0.010331215 44:0.04130503 45:0.0044938129 46:0.063188318 47:-0.012572349 48:0.031572317 49:-0.034214223 50:-0.014596702 
-102.9952320420272 1:-0.054207116 2:0.10904196 3:0.11087342 4:-0.05719833 5:0.11032783 6:-0.057115577 7:-0.0049970511 8:0.0075040676 9:-0.076263481 10:0.0641395 11:0.028618276 12:0.043803144 13:-0.11167837 14:0.025986016 15:-0.033668132 16:0.060877632 17:0.0092953574 18:0.0090570698 19:-0.062834586 20:0.020416714 21:-0.050631597 22:0.034642932 23:0.087288337 24:0.086990022 25:-0.08054464 26:0.01212753 27:-0.025656059 28:0.099642872 29:-0.036992904 30:-0.027013216 31:-0.13825315 32:-0.035818414 33:-0.10441443 34:0.12931159 35:-0.0046656364 36:-0.021047397 37:0.0053189368 38:-0.08306416 39:-0.044583507 40:0.038086471 41:-0.0058871291 42:0.032394729 43:0.0054557416 44:0.099547055 45:-0.025684682 46:0.038995816 47:-0.05007671 48:0.086537234 49:0.15118515 50:-0.069818977 
137.187 1:0.14640302 2:0.042363504 3:-0.011538907 4:-0.025435923 5:0.057781212 6:0.053160768 7:0.01655551 8:0.044173604 9:-0.00033894292 10:0.050219274 11:0.010892344 12:0.047199891 13:-0.062843941 14:0.025614703 15:0.098309418 16:0.071854081 17:-0.01289041 18:0.065603 19:0.026484004 20:-0.028701502 21:-0.083499068 22:-0.0033855256 23:-0.10694273 24:-0.022496492 25:-0.024505361 26:-0.027704705 27:-0.03505933 28:0.033808289 29:-0.052909602 30:0.071538006 31:-0.017639194 32:-0.052826891 33:0.092283126 34:-0.022909004 35:0.085485875 36:-0.09368094 37:-0.072272606 38:0.035819333 39:-0.04678671 40:0.046414144 41:0.031445027 42:-0.071855189 43:0.011479277 44:0.10215895 45:0.026369077 46:0.023002003 47:0.021281297 48:0.084761071 49:0.0090966069 50:0.051024673 
81.72907241613227 1:0.28119029 2:-0.002770989 3:0.0041486325 4:-0.17928024 5:0.18242016 6:-0.106285 7:-0.088962226 8:-0.033549863 9:0.091518038 10:0.045145225 11:0.093822312 12:-0.13553181 13:0.059260672 14:0.022424815 15:-0.030255312 16:-0.029114591 17:-0.052469789 18:-0.0061508081 19:0.15953225 20:0.14719616 21:0.080719797 22:-0.02822244 23:-0.040558545 24:-0.075780809 25:0.10919674 26:0.064028794 27:-0.058543359 28:0.043053619 29:0.077038523 30:-0.083178025 31:-0.079958107 32:-0.056482835 33:0.099656597 34:0.049369256 35:-0.039820156 36:0.071549217 37:0.086458533 38:0.25546306 39:-0.028992286 40:0.10516755 41:-0.050735403 42:-0.19103933 43:-0.21079737 44:0.13559436 45:-0.021884116 46:-0.11712898 47:-0.073211061 48:0.16469835 49:-0.041121781 50:-0.075096946 
137.187 1:0.16152681 2:-0.10279665 3:0.032822655 4:0.066962278 5:-0.022794393 6:0.037186332 7:-0.12552741 8:0.14590639 9:-0.0015693175 10:-0.056835084 11:0.0096133894 12:-0.031232849 13:-0.043222098 14:0.016229055 15:-0.021525982 16:0.10265606 17:0.094180833 18:0.07055764 19:-0.048406914 20:0.1538135 21:0.021669628 22:-0.035092439 23:0.019886729 24:0.051465357 25:0.060148896 26:0.022213588 27:-0.0083753746 28:-0.0020960769 29:0.10535831 30:-0.032302674 31:0.026334119 32:0.031765256 33:-0.041051155 34:0.032651161 35:0.058762636 36:-0.040432688 37:0.15505218 38:-0.049137463 39:-0.04111452 40:-0.022451335 41:-0.038564695 42:0.26574066 43:0.002818167 44:-0.010515702 45:-0.0036505944 46:0.062234682 47:-0.086994465 48:-0.010422214 49:-0.021280859 50:0.050609217 
137.187 1:0.087580932 2:0.072663895 3:0.054498301 4:0.050566528 5:0.010893644 6:0.094857384 7:-0.032570436 8:0.067988221 9:0.090022556 10:0.01490222 11:-0.034854758 12:-0.0029487304 13:0.0040080345 14:-0.0019712117 15:0.067759816 16:0.0094553233 17:0.022062461 18:0.13430504 19:0.066971361 20:0.00012951898 21:0.0115429 22:0.0024452067 23:0.01262728 24:-0.093133905 25:0.0092020556 26:0.0018055522 27:-0.020125429 28:-0.035759444 29:0.095789958 30:0.012592374 31:-0.038605317 32:-0.0040726566 33:0.0027346063 34:-0.036609073 35:0.051061204 36:0.016142459 37:-0.02289082 38:-0.03407438 39:-0.013452982 40:-0.063676431 41:0.10152276 42:0.022364287 43:0.018245747 44:-0.06180722 45:-0.014822072 46:-0.010432258 47:0.048943145 48:0.028741196 49:-0.018070494 50:-0.028500601 
-137.187 1:-0.012879272 2:0.077657128 3:0.090229793 4:-0.014350654 5:-0.008865685 6:-0.081263339 7:0.10453061 8:-0.00077102499 9:-0.022263946 10:-0.075275567 11:0.014206602 12:-0.07543984 13:0.0098915562 14:-0.030305389 15:-0.12518192 16:0.01337967 17:0.052466503 18:0.045752668 19:-0.063105951 20:0.039020549 21:-0.03529973 22:-0.031947581 23:-0.04033388 24:0.097365517 25:-0.00035260546 26:0.087237793 27:0.018618808 28:-0.022446414 29:0.084902863 30:0.046143597 31:-0.085126154 32:0.072170226 33:0.030682428 34:-0.065141108 35:-0.0053748587 36:-0.054500802 37:-0.020743732 38:-0.041733746 39:0.058802776 40:-0.018952434 41:-0.051867126 42:-0.050074845 43:0.00092555756 44:0.027081121 45:-0.053492931 46:-0.072211741 47:-0.038935538 48:-0.036166256 49:-0.081767056 50:-0.058135825 
22.29838818436259 1:-0.2034834 2:-0.16409644 3:-0.04539981 4:-0.06522628 5:-0.079195461 6:-0.053717211 7:-0.0011051324 8:0.039586976 9:-0.0078525287 10:0.096978598 11:-0.067496375 12:0.051683131 13:-0.035291358 14:-0.0063938862 15:-0.068047352 16:0.01744035 17:-0.0037696682 18:0.047526606 19:0.021347572 20:-0.014769789 21:-0.071976145 22:-0.081359704 23:0.03534725 24:-0.013538664 25:0.019977949 26:0.075415385 27:-0.041805748 28:0.055663696 29:-0.073347094 30:-0.011632724 31:-0.0079857384 32:0.11801249 33:0.019238053 34:-0.016741573 35:-0.056720357 36:0.01434776 37:0.066887995 38:0.096342209 39:0.018533062 40:0.050026087 41:-0.071360012 42:0.015836326 43:-0.002953637 44:0.0030864122 45:-0.0016791504 46:-0.030864374 47:-0.0044588837 48:-0.0015897832 49:-0.0097687461 50:-0.082510761 
137.187 1:0.10564353 2:0.10501277 3:0.020735859 4:0.077050248 5:-0.096705428 6:0.014478602 7:-0.021882573 8:0.012999693 9:-0.034108123 10:-0.075464068 11:0.075919372 12:0.0022138662 13:0.0080034972 14:-0.08656698 15:-0.029101078 16:0.079143351 17:0.010060819 18:-0.00110712 19:-0.062015839 20:0.083422342 21:0.038377767 22:-0.068321095 23:-0.016923042 24:-0.071282633 25:-0.015189258 26:-0.0036296936 27:0.040139196 28:0.031179879 29:-0.052775183 30:-0.0040890011 31:0.046850294 32:-0.02588603 33:0.026000963 34:-0.12137082 35:-0.040205971 36:0.0094728024 37:-0.060526335 38:-0.16060305 39:0.0066331381 40:-0.029391938 41:0.035466285 42:0.0056517245 43:0.0046917335 44:-0.11420367 45:-0.0078417426 46:0.022661382 47:-0.083991454 48:0.012533876 49:-0.020210317 50:0.014479781 
-13.79609103923118 1:-0.069588826 2:0.017104313 3:0.065776368 4:0.014342693 5:-0.031972388 6:-0.035587028 7:0.12472639 8:0.026837663 9:0.066240434 10:-0.038201474 11:-0.016741957 12:0.00078446722 13:-0.010244111 14:0.047627017 15:-0.0068052063 16:0.066943479 17:-0.021846711 18:-0.0342105 19:-0.026888526 20:0.079915489 21:-0.053162965 22:-0.072060955 23:-0.031848823 24:0.0042554468 25:0.011854633 26:-0.086521325 27:-0.044674322 28:-0.038537483 29:0.063411654 30:0.014633749 31:-0.028546558 32:0.078777773 33:0.019954373 34:-0.037844777 35:0.014884615 36:-0.016009389 37:-0.0056132184 38:-0.0063021502 39:-0.042934075 40:0.027507459 41:0.1313685 42:-0.024891819 43:0.0074641535 44:0.0023566615 45:0.040562051 46:-0.053176674 47:0.029932216 48:-0.034340485 49:-0.052609916 50:0.08208476 
137.187 1:-0.11974 2:0.12877059 3:-0.077462351 4:0.076806725 5:0.043111169 6:-0.074049425 7:-0.059654457 8:-0.048107987 9:-0.060724583 10:-0.081757547 11:0.10531977 12:0.16255352 13:-0.034822762 14:0.08369908 15:0.034053182 16:-0.090935369 17:-0.045729611 18:-0.019296158 19:0.058884961 20:0.058514097 21:-0.095951805 22:-0.041939613 23:-0.14599403 24:0.013970216 25:-0.035332655 26:0.040651366 27:-0.083836373 28:-0.053920186 29:0.028731496 30:-0.076860055 31:0.024380773 32:-0.037253019 33:-0.028831649 34:0.033689227 35:-0.0061701657 36:-0.038989854 37:-0.0073402467 38:0.011134194 39:0.094149135 40:-0.11430003 41:-0.080609022 42:-0.06704095 43:0.0045193475 44:0.013048283 45:0.081555593 46:0.069581565 47:-0.050042189 48:0.056942764 49:-0.049707321 50:-0.025086033 
-95.68112413995922 1:-0.14953893 2:0.095272979 3:-0.0034016909 4:0.04200995 5:0.074213313 6:0.052428503 7:-0.032995663 8:0.026514267 9:-0.050436456 10:-0.037227121 11:0.0096896731 12:0.008989724 13:0.08767395 14:0.01046082 15:0.066785479 16:-0.086140539 17:-0.010920453 18:-0.087879765 19:-0.073410152 20:-0.02454841 21:0.0072394984 22:0.036430201 23:0.1147955 24:0.059628279 25:-0.12122798 26:-0.014855462 27:-0.09051591 28:0.0058341374 29:-0.012272108 30:-0.059403574 31:0.11861043 32:-0.02445386 33:0.045207932 34:-0.051795923 35:-0.075443128 36:0.072657774 37:0.0084864434 38:-0.019754363 39:-0.046617858 40:0.036561312 41:0.081090055 42:-0.078139547 43:-0.0029657794 44:0.011585919 45:-0.07042955 46:0.058185618 47:-0.027991767 48:-0.027161436 49:0.10577251 50:0.10973345 
-137.187 1:0.02053918 2:0.071012641 3:-0.0065661476 4:0.040149272 5:-0.074888683 6:-0.069891343 7:-0.011133818 8:-0.14567991 9:0.014181326 10:0.13615924 11:0.11457904 12:-0.013577002 13:0.02306192 14:-0.034352178 15:0.11575142 16:-0.01579231 17:0.0083200363 18:0.042004581 19:-0.037024425 20:0.015087295 21:-0.0046518092 22:0.11248065 23:0.023451358 24:0.021501068 25:0.10139572 26:-0.033131379 27:-0.020624945 28:0.031747663 29:0.04946678 30:0.083903053 31:0.016827503 32:-0.056430531 33:-0.066768987 34:0.10131482 35:-0.046971369 36:0.01433998 37:0.038680805 38:-0.094207614 39:0.016824403 40:-0.0059400799 41:-0.096801398 42:0.023951723 43:-0.035350337 44:-0.08036417 45:-0.14252607 46:-0.064418177 47:-0.0032387177 48:0.087473807 49:0.021746502 50:-0.030853159 
137.187 1:0.069689975 2:-0.026705986 3:0.0027153316 4:0.0038200802 5:0.049240137 6:0.11569717 7:0.051594543 8:-0.1125811 9:0.013425787 10:0.0099970233 11:-0.13382778 12:0.08030875 13:-0.029864482 14:0.024105423 15:0.060603365 16:-0.027263373 17:-0.017731892 18:0.099214023 19:0.059787442 20:0.007425124 21:0.092055133 22:0.048843859 23:-0.0034252294 24:0.021877454 25:-0.034842995 26:-0.021741588 27:-0.016896847 28:0.088786665 29:-0.091845019 30:-0.073771099 31:-0.039283478 32:0.054710724 33:-0.042525537 34:0.0080710165 35:-0.045570476 36:-0.035297147 37:-0.10513568 38:0.059325553 39:-0.083616493 40:-0.01892314 41:-0.067971989 42:-0.027035319 43:0.051544931 44:0.048147442 45:-0.048377669 46:-0.036368517 47:0.083335033 48:-0.049589759 49:0.042937438 50:0.087061858 
-92.1272929067147 1:-0.20752257 2:-0.13645376 3:-0.11109047 4:-0.047264628 5:-0.11862729 6:0.038496746 7:0.036951837 8:-0.1334995 9:0.05559769 10:-0.00033291212 11:-0.041492052 12:-0.064024729 13:-0.069406179 14:-0.015041512 15:0.047487054 16:-0.082018089 17:0.056249074 18:0.019686679 19:0.0046128773 20:-0.023652571 21:-0.075718447 22:0.12602558 23:-0.086636762 24:-0.048441451 25:-0.01788632 26:0.055063475 27:-0.050121966 28:-0.0066101594 29:-0.0041854832 30:0.1285267 31:-0.054619482 32:0.11671733 33:-0.11915622 34:0.089257804 35:-0.013283241 36:0.048867371 37:0.0033160459 38:-0.026002498 39:-0.059399417 40:-0.042840145 41:-0.013018396 42:0.068663116 43:-0.035126199 44:-0.079713242 45:-0.0064925607 46:0.0079797814 47:-0.065541018 48:0.074768055 49:-0.083058639 50:-0.0090797244 
137.187 1:-0.18747458 2:-0.065100404 3:-0.0483305 4:0.010421122 5:0.0016585548 6:0.014305804 7:0.039787404 8:-0.013178121 9:0.031699856 10:-0.12767429 11:-0.052976845 12:-0.021039761 13:-0.062524703 14:0.0095639727 15:0.15573157 16:-0.071941555 17:-0.030339422 18:0.065786559 19:-0.031318935 20:0.063736573 21:-0.046975793 22:-0.054377497 23:0.12782144 24:-0.029840702 25:0.014766403 26:-0.034336943 27:0.1241339 28:-0.0075749099 29:-0.050634215 30:-0.067553839 31:-0.0085818775 32:0.029088097 33:0.070690918 34:0.067449501 35:-0.0029619098 36:0.0099704888 37:0.037708138 38:-0.012034646 39:0.040135613 40:-0.027457481 41:-0.045855875 42:0.044943808 43:0.028475495 44:-0.0048641529 45:0.022094047 46:0.0099692382 47:0.015145574 48:0.010916712 49:0.11151743 50:0.016984506 
-137.187 1:-0.061274161 2:-0.059941427 3:0.039718916 4:-0.07847455 5:-0.032523534 6:0.041993914 7:-0.0025335024 8:0.010937961 9:0.10273387 10:-0.043640843 11:0.011434929 12:-0.057103556 13:-0.0028568062 14:0.040048828 15:0.073024208 16:-0.041361 17:-0.041237496 18:-0.089294418 19:0.050918152 20:0.018620696 21:0.07734531 22:0.033824367 23:-0.034704968 24:-0.0077470219 25:0.005563913 26:0.015673827 27:0.063548117 28:0.063578094 29:0.049528362 30:-0.063132654 31:-0.056243919 32:-0.10389065 33:0.012126344 34:-0.018476363 35:7.689701e-005 36:-0.0090837017 37:0.048713024 38:0.0081740144 39:-0.089286739 40:-0.014795325 41:0.026782779 42:-0.010594864 43:0.031928652 44:0.018322578 45:0.061626022 46:0.0017284614 47:0.034358514 48:-0.11284049 49:-0.022184512 50:0.10342999 
137.187 1:-0.17456985 2:0.10052249 3:-0.18927142 4:0.020259799 5:0.0019751711 6:-0.020200872 7:-0.0085552108 8:0.036584165 9:-0.029270608 10:0.039736414 11:-0.012241845 12:-0.006349178 13:0.022266651 14:-0.0544257 15:-0.041434903 16:-0.063954354 17:0.10707746 18:-0.0064224234 19:0.10160459 20:0.004604097 21:-0.046715483 22:-0.0025138561 23:0.068362994 24:-0.032152511 25:-0.040905985 26:-0.012242611 27:-0.084380261 28:0.048025257 29:0.053151336 30:0.028564443 31:0.009066574 32:0.0098699644 33:-0.039464169 34:-0.043247241 35:0.075664386 36:0.048209003 37:0.0059438823 38:0.064001279 39:0.018064003 40:0.079386195 41:0.13471263 42:0.01316472 43:0.044821323 44:-0.014840397 45:0.043179692 46:-0.0095076588 47:0.030191333 48:0.091461682 49:-0.041801646 50:0.0047621767 
-137.187 1:0.1370308 2:-0.016320724 3:0.031779496 4:-0.09433893 5:0.016979623 6:-0.056011315 7:0.01140383 8:0.032395663 9:-0.032289033 10:-0.036252752 11:-0.053960107 12:-0.097624635 13:-0.0058657818 14:-0.0074265877 15:0.035788651 16:0.057809689 17:-0.023607726 18:-0.015000788 19:-0.016981923 20:-0.075726945 21:0.012488968 22:0.037827075 23:0.027680523 24:0.0043086593 25:0.015010933 26:-0.079631332 27:0.10982999 28:0.0063970009 29:0.11126685 30:0.041997697 31:0.0031960225 32:-0.07397983 33:0.04359708 34:-0.1185397 35:-0.045333832 36:0.038345552 37:-0.0038651744 38:0.080351651 39:0.07023716 40:-0.097257753 41:0.10996587 42:0.020017257 43:-0.028994159 44:0.040342382 45:0.026823086 46:0.087337713 47:-0.048185994 48:0.029421301 49:0.04752081 50:0.010201377 
137.187 1:-0.082316636 2:0.089553897 3:0.10592775 4:-0.070223713 5:0.061015884 6:-0.024246175 7:0.084853736 8:0.023693955 9:-0.097515562 10:0.014076404 11:0.039108652 12:-0.043532668 13:-0.055983809 14:0.0095930245 15:0.035471068 16:0.0073449556 17:-0.010148708 18:-0.087750712 19:-0.014091791 20:-0.017000312 21:0.0046323512 22:0.10755347 23:-0.015652268 24:-0.036800897 25:0.018872326 26:0.049902923 27:0.0053600377 28:-0.013873928 29:-0.062895065 30:0.0068865504 31:-0.036649853 32:0.028503113 33:-0.012303997 34:-0.0089958954 35:0.016086868 36:0.01464916 37:-0.03255137 38:-0.14810845 39:-0.038750387 40:0.13221327 41:-0.0073383535 42:0.01980974 43:0.054438974 44:-0.032307177 45:0.075156741 46:0.020342111 47:0.078969174 48:-0.12705288 49:-0.074320468 50:0.039165258 
-43.88110228325218 1:0.29101658 2:-0.20464979 3:-0.063090971 4:0.058584786 5:0.094046876 6:-0.063985619 7:0.085783383 8:0.16128597 9:0.026450121 10:-0.10539515 11:0.048890094 12:-0.039120726 13:-0.11806481 14:-0.050667429 15:0.12499784 16:0.053034584 17:-0.14323967 18:-0.044362357 19:0.075898289 20:-0.18427217 21:0.072788314 22:0.02910611 23:-0.16780188 24:-0.06430535 25:-0.048186812 26:0.088209534 27:0.05736273 28:-0.13714651 29:-0.07330929 30:-0.062046226 31:-0.035825905 32:-0.12818808 33:0.014236783 34:0.17586981 35:0.030943778 36:-0.034863582 37:0.036287227 38:-0.10723653 39:-0.087613263 40:0.095222604 41:0.051240584 42:0.09954996 43:-0.0097270899 44:-0.069933174 45:-0.065732402 46:0.072722518 47:0.01029165 48:-0.09983793 49:0.042918244 50:0.11756948 
137.187 1:-0.14089321 2:0.048664609 3:0.10095258 4:0.027158646 5:0.030183049 6:-0.079984353 7:0.0072455343 8:0.060757246 9:-0.10036144 10:0.027643863 11:-0.065059721 12:-0.038549682 13:-0.033641851 14:0.049940094 15:0.12042779 16:0.059823418 17:-0.048292168 18:0.055317301 19:-0.0036845697 20:0.0024177291 21:0.042731964 22:0.015811661 23:0.0095846814 24:0.083891475 25:0.071936576 26:0.040878789 27:-0.06196392 28:0.061085954 29:0.0081968488 30:0.013391322 31:0.034539552 32:-0.029309686 33:-0.073752278 34:0.030409046 35:-0.070946907 36:-0.040261318 37:0.056337762 38:-0.068005543 39:0.04745043 40:0.067658506 41:-0.03875948 42:-0.053891549 43:-0.07338314 44:-0.0035368143 45:0.010636121 46:0.013519014 47:0.019612834 48:-0.0026990516 49:0.069993754 50:0.054259657 
-102.6061391671399 1:-0.16284462 2:0.093346644 3:0.077279207 4:0.097276348 5:0.10089084 6:-0.068085101 7:0.15667517 8:0.046971926 9:0.21639596 10:0.034732322 11:-0.094028177 12:0.0080925781 13:0.20150299 14:-0.088712932 15:0.067261946 16:0.0091195712 17:-0.16989881 18:0.041173396 19:0.30252458 20:0.1131902 21:0.10520424 22:-0.066219333 23:-0.016448796 24:0.071920698 25:-0.05062963 26:0.054278689 27:-0.0059738898 28:-0.21016762 29:0.12111764 30:0.037740833 31:-0.18811398 32:-0.10673248 33:0.065769523 34:-0.13598942 35:0.17459305 36:0.19863544 37:0.016313302 38:0.0053279984 39:-0.091736651 40:0.26962574 41:0.052728583 42:0.080550984 43:0.093192265 44:-0.093342631 45:-0.005016197 46:0.1248174 47:0.091073687 48:-0.21864453 49:0.030394598 50:-0.11963581 
137.187 1:0.019391447 2:0.058595066 3:0.052390012 4:0.011800625 5:0.065837716 6:-0.0016138849 7:7.4019146e-005 8:0.021441141 9:0.078343047 10:0.0093951164 11:-0.020048875 12:0.0747878 13:0.033250265 14:-0.005089349 15:0.038059473 16:0.015718911 17:-0.021118807 18:-0.027718155 19:-0.0012578293 20:0.0010649438 21:-0.047749218 22:0.012087138 23:-0.10121645 24:0.074042689 25:0.0063695051 26:0.057577429 27:0.11548024 28:-0.045395556 29:-0.073907751 30:0.013903159 31:0.053379677 32:0.03105945 33:-0.025459229 34:0.12863984 35:0.06598486 36:0.044826552 37:0.055254643 38:0.058225424 39:-0.019112316 40:0.011657662 41:-0.03832161 42:-0.0043863286 43:-0.0015512055 44:0.12207082 45:-0.0038167173 46:-0.015028264 47:-0.043497897 48:0.10704513 49:0.0347418 50:0.019022076 
-18.57408187679149 1:0.11809609 2:0.08737456 3:0.050778516 4:0.014703027 5:-0.021996284 6:-0.089397772 7:-0.0046243808 8:0.042489221 9:0.063868856 10:-0.033011962 11:-0.053422229 12:0.037430154 13:-0.0084260598 14:-0.065361874 15:0.056760964 16:0.052507659 17:-0.092330632 18:0.097027116 19:0.0041256562 20:0.098655129 21:0.069631133 22:0.071424353 23:0.11274089 24:-0.085747077 25:-0.022040505 26:0.016535836 27:0.072788663 28:0.029634322 29:-0.023207881 30:-0.024716512 31:0.0054438176 32:0.032425784 33:0.0061877471 34:-0.052212912 35:-0.040040897 36:-0.046058232 37:-0.12431258 38:-0.088012784 39:-0.040046938 40:-0.019667361 41:0.036271341 42:-0.12807099 43:0.059717779 44:-0.067653639 45:-0.064229351 46:-0.072628665 47:0.058862209 48:0.0053627269 49:0.024290889 50:-0.072633057 
-137.187 1:-0.059587975 2:0.10554498 3:0.021957719 4:0.060469208 5:0.12266051 6:-0.1088591 7:-0.060022843 8:-0.027300602 9:-0.021611238 10:-0.03481217 11:0.046672498 12:0.064999159 13:0.050381355 14:-0.011612151 15:0.080950642 16:0.080754641 17:-0.014354946 18:-0.11211919 19:0.16491474 20:-0.025684266 21:-0.017213117 22:0.043529171 23:0.00026033451 24:0.0089563525 25:0.0060541947 26:0.10333584 27:-0.019266861 28:-0.030830031 29:0.035559384 30:0.0028955376 31:-0.075223033 32:-0.048746017 33:-0.020233726 34:0.063895902 35:0.052465507 36:-0.029272865 37:0.051658526 38:0.011388275 39:-0.036742495 40:-0.042809304 41:-0.027382578 42:0.022548677 43:-0.058416039 44:0.10580537 45:-0.072146804 46:0.068881601 47:-0.06832582 48:0.047915 49:-0.048093139 50:-0.036719098 
112.1943531351966 1:0.0030894765 2:0.095430252 3:0.070600162 4:0.021648113 5:0.091105304 6:-0.14162264 7:0.076909353 8:-0.10857066 9:-0.023071959 10:0.02765393 11:-0.021277956 12:0.082161772 13:0.052007118 14:-0.057761461 15:-0.063332288 16:0.090870167 17:0.022363828 18:0.082308594 19:-0.063147606 20:0.023689231 21:-0.12425259 22:-0.024424096 23:-0.097262488 24:-0.089725875 25:0.11827498 26:0.015880347 27:0.023223323 28:-0.032990486 29:-0.036837066 30:-0.0033426592 31:0.011424725 32:0.048140802 33:-0.067555212 34:-0.14158156 35:0.17699479 36:-0.062488767 37:0.13852138 38:0.10970193 39:0.010119525 40:-0.064902585 41:0.021815418 42:0.051634228 43:-0.03730491 44:-0.023580091 45:-0.031156504 46:0.049105184 47:0.03303059 48:-0.14919863 49:0.014853196 50:-0.086372931 
-137.187 1:-0.0045751493 2:0.086722787 3:0.048162232 4:-0.081398916 5:-0.053073313 6:-0.039222372 7:0.0056607185 8:-0.042275814 9:-0.05221143 10:0.047582812 11:-0.077085997 12:0.12782028 13:0.072849647 14:0.050326447 15:0.0034929267 16:0.11693982 17:0.053582987 18:-0.063738497 19:0.025947261 20:0.047762557 21:0.022344941 22:0.0012507392 23:-0.019125708 24:0.037607239 25:-0.0067613276 26:-0.026146407 27:-0.032674425 28:-0.025652022 29:0.033652882 30:-0.019811324 31:-0.12216214 32:0.13720091 33:-0.041316146 34:-0.056756856 35:0.035576096 36:-0.10170014 37:-0.11194541 38:-0.022386514 39:0.079434487 40:0.0071328446 41:-0.07407909 42:-0.079872907 43:0.049312031 44:-0.01360201 45:-0.096517433 46:0.056235097 47:-0.0091494354 48:-0.0011647212 49:0.011956401 50:-0.047261899 
137.187 1:0.13407302 2:-0.08496169 3:-0.042511252 4:-0.010466075 5:-0.041521229 6:0.04230479 7:-0.04610213 8:-0.099518375 9:-0.014180643 10:-0.033086232 11:0.039373661 12:0.01612238 13:0.015088604 14:0.065295032 15:0.010197856 16:-0.074000406 17:-0.022297366 18:-0.053086377 19:-0.038679674 20:-0.062562824 21:0.070343536 22:-0.0087053566 23:-0.15564155 24:-0.091175465 25:-0.053306808 26:0.040226368 27:-0.053818333 28:0.033478466 29:0.014463387 30:-0.032153202 31:0.097274487 32:0.059673673 33:0.088507672 34:-0.023698005 35:-0.016606282 36:-0.017591759 37:-0.082947473 38:0.10830081 39:0.048949266 40:-0.1187246 41:0.048536327 42:-0.12458738 43:0.10397947 44:0.072270227 45:0.042280131 46:0.077657594 47:0.088741036 48:-0.010393164 49:0.10137134 50:-0.039141158 
-137.187 1:-0.062757997 2:0.056340966 3:0.054481651 4:0.037413995 5:0.050300098 6:-0.017563946 7:-0.05046032 8:-0.026851063 9:-0.01687628 10:-0.034681061 11:-0.11175375 12:-0.08754812 13:0.019892073 14:0.011120163 15:-0.00037528261 16:-0.03041937 17:0.011013024 18:0.045479755 19:-0.087642616 20:0.059167381 21:0.0062584938 22:0.023985041 23:0.0015853715 24:0.0055324192 25:-0.020332099 26:-0.033304209 27:0.036556777 28:-0.055870748 29:0.070908045 30:0.083851262 31:-0.021040409 32:-0.021081192 33:-0.06718722 34:-0.020852774 35:0.13685361 36:-0.0066126662 37:-0.0060928898 38:0.025811776 39:0.090478524 40:0.076901573 41:0.054265171 42:0.0017859009 43:0.058271448 44:0.054186562 45:0.074859527 46:-0.054706657 47:0.031416716 48:0.038639573 49:0.036019168 50:0.03431763 
-137.187 1:-0.17860218 2:-0.10237564 3:0.0028931936 4:-0.02071282 5:-0.0028471452 6:-0.0031599998 7:0.034833114 8:0.010493343 9:-0.054375176 10:-0.058298986 11:-0.016840053 12:-0.035631777 13:0.014786564 14:-0.025151277 15:0.026501903 16:-0.0040676009 17:0.0043404628 18:-0.064774446 19:0.047655861 20:0.010365308 21:-0.073503492 22:-0.070410593 23:-0.022085558 24:0.11826127 25:0.059552581 26:-0.019240186 27:0.089237037 28:-0.0090513036 29:-0.090517967 30:0.019358186 31:0.011814828 32:0.01263825 33:0.062162285 34:-0.0032215698 35:0.064402971 36:0.013265953 37:0.05544142 38:-0.026196489 39:-0.017737668 40:0.049759441 41:-0.0031361216 42:-0.055402521 43:-0.026548339 44:-0.087791756 45:-0.043708378 46:-0.059029458 47:0.031166859 48:-0.0106192 49:-0.036513185 50:-0.00673976 
-65.14740298209983 1:0.28320098 2:-0.037126601 3:0.07701221 4:0.081612541 5:-0.0036056085 6:0.039554191 7:-0.12847615 8:-0.17969466 9:-0.12438279 10:-0.042958198 11:-0.12397747 12:0.075298959 13:0.026124273 14:0.013055076 15:0.068755819 16:-0.016963037 17:-0.054227102 18:-0.023615744 19:-0.075023555 20:-0.0079781837 21:0.036704126 22:0.1679412 23:-0.012018446 24:-0.02527259 25:-0.084547542 26:-0.10102275 27:0.082570349 28:0.015668204 29:0.051773306 30:-0.089167881 31:0.13388617 32:0.0063360783 33:0.13146786 34:-0.15768503 35:0.058177984 36:0.025140086 37:-0.016324554 38:-0.030299379 39:0.0044271034 40:-0.047950098 41:0.21219063 42:-0.031999459 43:0.111831 44:-0.014926841 45:-0.079427275 46:-0.083115978 47:0.028748674 48:0.098252879 49:0.11057815 50:-0.021728194 
137.187 1:0.04305104 2:0.047599652 3:0.081980631 4:-0.064912943 5:-0.062332962 6:-0.042098964 7:-0.006649156 8:-0.029522637 9:0.027748266 10:0.049772107 11:-0.013210343 12:-0.037948827 13:-0.03266861 14:-0.026721755 15:-0.039283714 16:0.011728742 17:-0.048669053 18:0.011937671 19:0.024140188 20:-0.0068186611 21:-0.0042160797 22:0.019732711 23:-0.034308433 24:-0.019012944 25:0.033636067 26:0.014910752 27:-0.031256184 28:-0.053662111 29:-0.023337936 30:0.005753839 31:-0.039398741 32:0.090321851 33:-0.049679778 34:-0.0045184096 35:-0.0010607946 36:0.019899393 37:0.036598376 38:-0.041431689 39:-0.0039647753 40:-0.058164943 41:0.096314188 42:-0.022837868 43:-0.072337928 44:-0.00089421978 45:0.051430465 46:0.069714059 47:-0.042781402 48:0.039901361 49:-0.026606893 50:0.067117835 
-137.187 1:-0.25798938 2:-0.29495463 3:0.044500317 4:-0.1270016 5:-0.0031650673 6:-0.078513485 7:0.15760772 8:0.10674592 9:0.054627483 10:0.064677636 11:0.02879379 12:-0.063444116 13:0.057806256 14:-0.082063057 15:-0.13970087 16:-0.033417803 17:-0.03527254 18:0.033112564 19:0.013790097 20:0.023688345 21:0.067446581 22:0.1197795 23:-0.074696428 24:-0.11619878 25:0.055547184 26:-0.021478871 27:0.031731046 28:-0.0050318774 29:0.07233213 30:0.055520836 31:0.054687414 32:0.025839343 33:-0.018170218 34:-0.15942473 35:-0.036494434 36:0.044418173 37:0.078229109 38:0.081308512 39:-0.021984947 40:-0.13872847 41:0.032767947 42:-0.088276508 43:0.089794041 44:0.12338145 45:-0.14639235 46:0.023434917 47:-0.032676719 48:0.13318899 49:0.092960102 50:-0.061596885 
137.187 1:-0.27254689 2:-0.18836733 3:0.03351925 4:0.05095348 5:-0.033269316 6:-0.049082717 7:-0.015568514 8:0.021925117 9:-0.064665535 10:0.096183441 11:0.0029647349 12:0.025316896 13:-0.048469401 14:-0.0013538341 15:-0.032278648 16:0.023018345 17:0.042966732 18:-0.086169139 19:0.053709857 20:-0.074599382 21:0.0067292262 22:-0.00027551707 23:-0.024030557 24:0.0050319893 25:-0.039996403 26:0.02801913 27:-0.0013903709 28:0.0067236831 29:0.10966758 30:0.081045794 31:0.06516061 32:-0.017937994 33:0.11858562 34:-0.095367885 35:0.012674227 36:0.063193911 37:0.10501613 38:0.077213748 39:-0.023619351 40:-0.064351431 41:-0.033348329 42:-0.064624605 43:0.043255526 44:-0.042623283 45:-0.018931086 46:-0.0022454115 47:-0.025034282 48:0.054257247 49:0.0532409 50:0.12500469 
-74.19676759818755 1:0.38183809 2:-0.074900692 3:-0.087708982 4:-0.034914649 5:-0.054362847 6:0.14829934 7:-0.062870889 8:0.090006843 9:-0.21226633 10:0.11770066 11:0.041812532 12:0.032142818 13:-0.0030435201 14:-0.072593106 15:-0.11086955 16:0.11458368 17:-0.033485939 18:0.032405122 19:-0.035123985 20:0.13852966 21:0.025500252 22:0.15097914 23:-0.063567699 24:-0.098177622 25:-0.0058699382 26:-0.0067972321 27:-0.095084077 28:-0.046343458 29:0.10735899 30:-0.060378627 31:0.050585529 32:0.099855431 33:-0.079367167 34:0.007087552 35:0.10538013 36:-0.080769617 37:0.043273416 38:0.042273797 39:0.034836274 40:-0.013974149 41:-0.13225244 42:0.021292694 43:-0.13472217 44:0.14819588 45:-0.089677966 46:0.079744487 47:-0.052173854 48:-0.061071935 49:-0.028404259 50:-0.13760035 
9.916270868773141 1:-0.12637678 2:0.11675672 3:0.011972539 4:0.12409951 5:0.0028146565 6:0.044403599 7:0.045659929 8:-0.02925818 9:0.031345634 10:0.043442914 11:0.015341959 12:0.0061491356 13:-0.079946985 14:-0.052467426 15:0.11513392 16:-0.053331129 17:0.0050560216 18:0.024269103 19:0.0057046039 20:0.021183615 21:-0.081566242 22:0.1155127 23:0.060911761 24:0.035368072 25:0.050174363 26:-0.098289395 27:-0.066828971 28:0.012168254 29:-0.052460888 30:0.051617494 31:0.035729648 32:0.054678726 33:0.0087630458 34:-0.047795037 35:0.19238878 36:0.029892723 37:0.0026841204 38:-0.018785082 39:-0.025825619 40:0.084718976 41:-0.027970595 42:0.085445204 43:-0.12008268 44:-0.031339868 45:0.047375086 46:0.0078961219 47:-0.0011102464 48:0.13497432 49:-0.0098333815 50:-0.06859946 
-137.187 1:-0.11087409 2:-0.08373363 3:-0.017567583 4:0.017194029 5:-0.031309631 6:0.046496761 7:-0.085615279 8:-0.041371663 9:0.013652703 10:-0.10313768 11:-0.08207121 12:-0.047405768 13:-0.092341312 14:-0.018912995 15:-0.053192177 16:-0.026809116 17:-0.022376339 18:0.070463307 19:-0.034313173 20:-0.076001662 21:-0.01044703 22:-0.032421006 23:0.014332911 24:0.0089265463 25:-0.020310739 26:0.10500992 27:0.067172235 28:0.078931655 29:0.020502432 30:-0.021011866 31:0.077617758 32:-0.04382022 33:0.0099763865 34:-0.044120151 35:0.036988042 36:0.0075088165 37:0.018325341 38:-0.12499873 39:-0.08518573 40:0.0050541505 41:-0.044822624 42:0.070948735 43:-0.035410064 44:-0.036058649 45:-0.03163352 46:0.032347678 47:-0.057142005 48:0.077547598 49:0.055653562 50:-0.02425101 
-137.187 1:-0.13652761 2:-0.10653352 3:-0.1912402 4:-0.0056011252 5:-0.011764282 6:0.018655179 7:-0.03266982 8:0.06553551 9:-0.036383263 10:-0.054674981 11:0.10924932 12:-0.029164301 13:-0.037587224 14:-0.0086852623 15:0.025169429 16:0.076081847 17:-0.012613709 18:-0.073511474 19:-0.0016725012 20:-0.092045127 21:0.093014701 22:0.055877199 23:-0.030552079 24:-0.060923405 25:-0.071777564 26:0.053855235 27:-0.021158978 28:-0.070066049 29:0.013427863 30:-0.17784419 31:-0.051107197 32:-0.038314182 33:0.100715 34:0.014591069 35:-0.025659607 36:-0.002908988 37:-0.059428415 38:0.01345994 39:0.069375297 40:-0.0031969511 41:-0.010594878 42:-0.03293068 43:0.055509647 44:0.062096419 45:-0.07550331 46:0.029297391 47:0.046207141 48:0.088011596 49:0.015063089 50:0.048581083 
5.349358949548501 1:-0.14018365 2:0.040231313 3:-0.071420168 4:0.046858326 5:0.069329286 6:0.12153838 7:-0.06102285 8:-0.03953528 9:0.086318378 10:-0.0016210462 11:0.047289682 12:-0.040542752 13:0.17302906 14:0.031036228 15:0.052336093 16:0.034792212 17:0.024111547 18:0.02292655 19:0.058639886 20:0.010785248 21:-0.010265973 22:-0.0027169148 23:0.051805683 24:-0.03365176 25:-0.023547121 26:-0.043150849 27:0.033009526 28:0.00061699803 29:-0.029034198 30:0.074097083 31:0.043617772 32:-0.08189699 33:0.035096356 34:0.021767548 35:-0.051302722 36:-0.0309662 37:0.00022117633 38:-0.060204173 39:0.056783677 40:-0.029951784 41:-0.061175045 42:-0.052240908 43:0.036736161 44:-0.073602775 45:-0.098180538 46:-0.0069654396 47:0.044268516 48:0.049716383 49:0.032816855 50:0.027510683 
137.187 1:-0.069660758 2:0.18350611 3:-0.076655985 4:-0.022786155 5:-0.020542195 6:0.044562343 7:-0.01863132 8:-0.077140412 9:0.0037717304 10:-0.18521102 11:-0.037897392 12:-0.048364831 13:0.030421035 14:0.051463317 15:-0.079900556 16:-0.049425185 17:0.087398188 18:-0.07848145 19:-0.0030948793 20:-0.022952942 21:0.0666302 22:-0.079830911 23:-0.016041771 24:0.064178694 25:-0.012786408 26:-0.049712528 27:0.060083076 28:-0.0029527551 29:-0.022666936 30:0.0083786678 31:-0.041924526 32:0.029651201 33:-0.10577717 34:-0.048888937 35:-0.032731289 36:0.012590346 37:-0.077631379 38:0.042582799 39:-0.069571522 40:0.025066117 41:-0.036358346 42:-0.037257126 43:0.016187306 44:-0.04960176 45:0.053227587 46:0.00057762423 47:-0.063197322 48:-0.097592584 49:-0.14885835 50:-0.10179661 
137.187 1:-0.32105042 2:-0.32532299 3:-0.081757791 4:-0.13159644 5:-0.13205823 6:-0.0081097458 7:0.069263187 8:-0.12512044 9:-0.02472299 10:-0.076484395 11:0.10897135 12:-0.011022695 13:-0.014434273 14:0.0091622596 15:-0.014203736 16:0.027289701 17:0.008810237 18:-0.12397886 19:0.034038947 20:0.12023431 21:-0.0069394904 22:-0.02172798 23:0.057356894 24:-0.10833445 25:0.069811162 26:0.13904285 27:0.086726798 28:0.032707574 29:-0.012557465 30:-0.16346099 31:-0.073218503 32:0.15432524 33:-0.051518186 34:0.039889 35:0.037220463 36:-0.030223236 37:-0.073596902 38:0.057871794 39:0.04855118 40:0.044270856 41:0.059424304 42:-0.1037855 43:-0.012073607 44:0.10687578 45:-0.073259425 46:0.13457551 47:-0.01109622 48:-0.014517828 49:-0.013954311 50:0.019803255 
-96.79934949034121 1:-0.077685593 2:0.13480636 3:0.089446784 4:-0.069335894 5:-0.053835117 6:-0.17802163 7:0.04769246 8:0.088591101 9:0.13933982 10:-0.094526495 11:0.0040635229 12:-0.067378458 13:-0.12062667 14:0.035388256 15:0.081435304 16:0.028511246 17:-0.078861906 18:0.083399228 19:0.0062150667 20:0.021941786 21:0.1287702 22:0.014830143 23:0.0073481314 24:0.094729861 25:-0.11910392 26:-0.089255274 27:0.037371674 28:-0.11645991 29:0.046130165 30:0.072753623 31:-0.03270447 32:0.026885825 33:0.039049909 34:0.016109413 35:-0.021466775 36:0.11048654 37:-0.017141392 38:0.082047745 39:0.10911282 40:-0.069436252 41:-0.028900191 42:-0.073063809 43:0.041664373 44:0.042809436 45:0.048942865 46:0.032876769 47:0.036681211 48:0.040309996 49:0.070373565 50:-0.094573891 
137.187 1:0.1302769 2:0.04364858 3:-0.030605789 4:-0.011917604 5:0.048258773 6:-0.066821459 7:-0.039654928 8:-0.04101345 9:0.034391304 10:0.020312224 11:-0.083235355 12:-0.0050764831 13:0.071238404 14:0.036984297 15:-0.2637077 16:-0.023653314 17:0.046805233 18:-0.16625988 19:-0.098654326 20:0.07498603 21:-0.05328387 22:-0.036209955 23:0.032916617 24:0.033526806 25:0.033831867 26:-0.09734741 27:-0.046350953 28:0.10644761 29:-0.12093193 30:0.062762087 31:0.07742266 32:-0.057544186 33:-0.067390462 34:-0.045660726 35:0.024137758 36:-0.043385283 37:-0.12302367 38:0.049692921 39:0.1599589 40:-0.0035411198 41:0.0037888134 42:0.11548881 43:0.11389925 44:0.031054099 45:0.021722745 46:0.14480549 47:0.044038791 48:0.026925665 49:-0.00090306658 50:0.12585458 
137.187 1:0.22183478 2:-0.098609159 3:-0.030682099 4:0.052152032 5:0.017862272 6:0.09815373 7:-0.089105752 8:0.11828799 9:0.04802345 10:-0.14048504 11:0.0060401344 12:0.05974485 13:-0.11271511 14:-0.045606142 15:-0.10233628 16:0.13091723 17:0.077138974 18:-0.018209917 19:0.0074244378 20:0.06914949 21:0.019573309 22:0.15922768 23:0.044586419 24:-0.082451919 25:-0.031184457 26:-0.072925911 27:-0.082062292 28:-0.00018649913 29:0.12295178 30:-0.10708962 31:-0.0413008 32:0.084081322 33:0.0026545329 34:-0.1393183 35:0.10294909 36:-0.08444954 37:-0.037458251 38:-0.13994021 39:0.018246387 40:-0.063727572 41:-0.19090204 42:-0.10241983 43:-0.1315053 44:-0.062250718 45:0.013847457 46:-0.091751063 47:0.047669734 48:0.063753806 49:-0.079663318 50:-0.077386361 
8.663848297721543 1:-0.044310501 2:0.11871197 3:-0.10422955 4:0.11253317 5:0.34722573 6:-0.081173417 7:0.012890593 8:0.050908321 9:-0.1056838 10:0.1327104 11:-0.079021825 12:0.0083379729 13:0.22501533 14:0.15345276 15:0.075353826 16:0.18007758 17:0.014796703 18:0.0028567945 19:0.15008131 20:0.068018378 21:-0.015895846 22:0.24745017 23:0.1731538 24:-0.067712598 25:0.073016773 26:-0.11665349 27:0.082537726 28:0.18910948 29:-0.057985143 30:-0.1088932 31:-0.14470581 32:-0.048992413 33:-0.0051871582 34:-0.12761642 35:-0.047433985 36:-0.014042477 37:0.15113762 38:-0.08022924 39:0.038941698 40:0.15463798 41:-0.20012912 42:-0.020849594 43:0.028803507 44:-0.079083278 45:-0.21114309 46:-0.032129905 47:0.17961757 48:-0.090721893 49:0.040034376 50:0.077529266 
137.187 1:0.15198886 2:-0.065937701 3:0.028424883 4:0.0071592009 5:-0.032881208 6:-0.00015574309 7:0.065490403 8:0.048173541 9:0.0063989616 10:-0.001809866 11:0.039798224 12:-0.11926446 13:0.034183475 14:-0.012570992 15:-0.046592107 16:-0.057525222 17:-0.068454248 18:0.11964356 19:-0.079300979 20:-0.033984081 21:0.0043319233 22:-0.088357456 23:0.10329091 24:0.040659317 25:0.011932951 26:-0.028642314 27:0.12960385 28:-0.03037478 29:-0.049041918 30:0.10270438 31:0.072780542 32:-0.017534912 33:0.043682832 34:0.052841674 35:-0.041534745 36:-0.056467148 37:0.1994638 38:-0.010180417 39:0.080552702 40:0.047686378 41:-0.08581611 42:-0.066592957 43:0.012383978 44:0.029398616 45:0.0065038704 46:-0.1159948 47:-0.031418523 48:0.061276311 49:-0.010082803 50:-0.031595431 
137.187 1:-0.15298072 2:-0.049490416 3:-0.10045886 4:0.052350453 5:-0.035815933 6:0.039348766 7:-0.04313478 8:-0.10412103 9:-0.0035316032 10:-0.081915115 11:0.082435489 12:0.056815227 13:-0.054699501 14:-0.016309674 15:0.089426444 16:-0.03275206 17:0.051921555 18:0.18019327 19:0.13055393 20:0.057808203 21:0.082079649 22:-0.030329346 23:-0.065341947 24:-0.085044942 25:-0.0043490463 26:-0.093002504 27:0.033075877 28:-0.071825568 29:-0.087682206 30:-0.052253208 31:0.034185032 32:-0.024717149 33:-0.075048654 34:-0.056229826 35:0.035825948 36:0.011321448 37:0.09078548 38:0.075109086 39:-0.07144212 40:0.043420528 41:-0.016985187 42:0.010873634 43:0.097995986 44:-0.099792065 45:-0.032010683 46:0.021193737 47:-0.00020468606 48:0.018729113 49:0.12403525 50:-0.11545799 
137.187 1:-0.096967748 2:-0.024785158 3:0.057808779 4:-0.029063831 5:0.05519032 6:0.094206696 7:-0.0067917709 8:-0.15554431 9:0.017653762 10:0.0077102814 11:0.028021155 12:-0.010227999 13:0.077227223 14:0.063987725 15:0.0094945248 16:0.060184454 17:-0.028091098 18:-0.0084982296 19:0.14756356 20:-0.12973515 21:-0.082451253 22:0.079512473 23:0.13513035 24:0.063420631 25:0.048741959 26:-9.1176288e-005 27:-0.091787973 28:-0.017733643 29:-0.073108515 30:-0.060291215 31:0.029462942 32:-0.036634731 33:-0.013473864 34:0.086923724 35:0.023200394 36:0.087420021 37:-0.024440913 38:-0.047454914 39:-0.03301505 40:0.025083766 41:-0.12028769 42:0.0062889121 43:0.029794433 44:0.044939764 45:0.11324679 46:-0.12113224 47:0.15118755 48:-0.03878465 49:0.12413596 50:-0.051162795 
-82.68110362129828 1:0.14789252 2:0.099129149 3:0.069382416 4:-0.0012513548 5:-0.10386529 6:-0.0028984186 7:-0.11749131 8:0.056979766 9:-0.064463976 10:0.014612921 11:0.004094931 12:0.0093505411 13:0.028609273 14:0.0050952597 15:0.053093355 16:-0.086929262 17:0.010587826 18:0.056577125 19:0.0019405878 20:0.026153275 21:0.05037363 22:-0.010153731 23:-0.031474364 24:-0.042856018 25:0.019507581 26:-0.076464146 27:0.034534215 28:0.019405739 29:0.042084227 30:0.13454878 31:-0.10670919 32:0.11555695 33:0.0018222698 34:0.13478896 35:-0.036361931 36:0.068771836 37:-0.069705076 38:0.011365403 39:-0.021381165 40:0.033707203 41:-0.040734547 42:0.046730608 43:0.1468528 44:-0.036249115 45:-0.010322345 46:-0.097554325 47:-0.069946353 48:0.12472803 49:-0.0027555544 50:0.079877511 
-109.287718662044 1:0.11100248 2:0.0032192945 3:-0.008807092 4:-0.052479429 5:0.13754351 6:0.15180356 7:-0.062191853 8:-0.083707079 9:0.07019641 10:-0.072407546 11:0.055121579 12:-0.05196892 13:0.0282179 14:-0.1165593 15:0.050552261 16:0.0019835721 17:0.073625288 18:0.19565269 19:0.13116914 20:0.020530166 21:-0.028492906 22:-0.073279499 23:-0.019230774 24:-0.027342233 25:-0.11808816 26:0.020302516 27:0.028916039 28:0.1583716 29:-0.13488085 30:0.032836134 31:-0.079124684 32:-0.0018228267 33:0.041218758 34:0.011460018 35:-0.010619014 36:-0.098040124 37:0.041386811 38:-0.030116486 39:0.0059653205 40:-0.073937574 41:0.032749813 42:0.11508278 43:0.13129127 44:-0.074017586 45:0.10467107 46:0.01199249 47:-0.072703465 48:-0.0045516223 49:-0.032784538 50:0.11649073 
-137.187 1:0.25938561 2:0.057503528 3:0.15853107 4:-0.14154414 5:0.022551088 6:-0.072315612 7:0.063505351 8:0.10973477 9:-0.027925896 10:-0.1251244 11:-0.069904315 12:-0.023513206 13:0.0097991666 14:0.047135053 15:0.05374366 16:-0.054041616 17:0.13067353 18:-0.12106953 19:-0.1039132 20:0.014509111 21:-0.12428891 22:0.13321988 23:-0.0040687453 24:0.0087201098 25:-0.056999971 26:-0.080454153 27:-0.11967661 28:-0.12919208 29:0.10039683 30:-0.1087621 31:-0.11159224 32:-0.063836376 33:0.014406205 34:0.052384058 35:0.11272734 36:-0.058202352 37:0.041376433 38:-0.049012543 39:0.04795648 40:0.14557799 41:0.013739034 42:-0.07196491 43:0.15674681 44:-0.044568117 45:0.070867314 46:0.027350506 47:0.094105755 48:-0.020667352 49:0.030312183 50:-0.088352458 
66.76237604984651 1:0.035289659 2:0.1553358 3:-0.031059277 4:0.1072499 5:-0.11989294 6:-0.11861012 7:-0.10863195 8:0.050310401 9:0.11023094 10:0.060381579 11:0.010814445 12:-0.031023943 13:-0.032084034 14:-0.063973306 15:-0.0087234057 16:0.04472142 17:-0.13130555 18:0.041159632 19:-0.036238701 20:-0.064555062 21:0.06488225 22:-0.035735064 23:-0.077437703 24:0.074676854 25:-0.095773963 26:-0.014208191 27:-0.1010214 28:-0.047822963 29:0.021340322 30:0.03495546 31:-0.031653729 32:0.030991986 33:-0.033371302 34:-0.094365276 35:-0.0014532552 36:-0.0062716563 37:-0.029715158 38:0.041439476 39:0.01299572 40:-0.02023905 41:-0.02164024 42:0.10758691 43:0.081359879 44:0.089996645 45:-0.087231271 46:0.002877725 47:0.061217323 48:-0.064380809 49:0.18406388 50:0.0069536789 
16.20560610696598 1:-0.16145855 2:0.071700007 3:-0.00022368163 4:0.049407618 5:0.13513265 6:0.18055417 7:-0.042012061 8:0.12432201 9:0.075477942 10:-0.15178952 11:0.12978691 12:0.042875134 13:-0.12501539 14:0.044795014 15:0.045565305 16:-0.018026147 17:0.081984544 18:-0.16101509 19:0.11129828 20:0.1314129 21:0.020379327 22:0.014064585 23:0.086486168 24:0.1815947 25:-0.014565167 26:0.13433912 27:0.04971654 28:-0.2673736 29:-0.1412384 30:0.14832783 31:-0.07764808 32:0.04509576 33:-0.079532581 34:-0.1366278 35:0.091966483 36:0.13381873 37:0.025940434 38:-0.019738492 39:0.020393549 40:-0.094115228 41:-0.038641759 42:0.083883022 43:0.13516516 44:-0.17138636 45:-0.022963127 46:-0.19504507 47:0.11430815 48:-0.02079066 49:0.046435517 50:0.11548621 
137.187 1:-0.048123786 2:0.14197561 3:0.059047304 4:-0.073397132 5:-0.1219949 6:0.023287909 7:0.071565093 8:0.018231954 9:0.080117237 10:-0.03288614 11:-0.0046531316 12:-0.0049106718 13:-0.0481471 14:-0.046754379 15:-0.062117403 16:-0.075910266 17:-0.058708949 18:-0.015195675 19:0.036168561 20:0.019805529 21:0.04492303 22:-0.0024642881 23:-0.0081677016 24:-0.012574894 25:0.021098592 26:0.082586918 27:0.051770523 28:0.10155423 29:0.086087935 30:-0.02540264 31:0.037749666 32:-0.013889534 33:-0.010375917 34:0.090407707 35:0.059043782 36:0.075004355 37:0.022469101 38:0.11639037 39:0.0033926067 40:0.062584036 41:0.06201763 42:0.16050298 43:0.065294801 44:-0.03789102 45:-0.029903866 46:0.043439126 47:-0.0081207003 48:-0.037831685 49:-0.026168996 50:0.14132807 
137.187 1:-0.04376243 2:0.068642067 3:-0.040356014 4:0.03045651 5:-0.035703202 6:0.037270629 7:-0.029364197 8:-0.023110183 9:-0.033301411 10:-0.016042877 11:-0.040369609 12:0.029802273 13:-0.020527684 14:0.045096344 15:0.055550798 16:-0.0073510698 17:0.05382513 18:-0.030002494 19:0.014818415 20:0.016400509 21:0.018692401 22:0.0046525607 23:-0.013548846 24:0.073893666 25:0.006441955 26:0.029695348 27:-0.063702144 28:0.015629716 29:-0.055774737 30:0.010366835 31:-0.01840698 32:0.036509544 33:-0.052797018 34:0.02697183 35:-0.051680408 36:-0.0061546425 37:0.011226173 38:-0.02791808 39:-0.035942909 40:-0.039421997 41:0.028606538 42:0.039908385 43:-0.027574728 44:-0.030152371 45:0.024264216 46:-0.076598265 47:-0.053919532 48:0.022397397 49:0.12532813 50:0.045152695 
137.187 1:0.1679438 2:0.046946639 3:-0.03787737 4:-0.049494946 5:-0.0556244 6:0.059733451 7:-0.047743058 8:0.042711294 9:-0.062580333 10:-0.0027636447 11:0.13689257 12:0.008677864 13:-0.069386946 14:-0.025401992 15:0.0030324679 16:-0.0021281667 17:0.081051959 18:0.03087159 19:0.044734153 20:-0.046276692 21:-0.021098092 22:-0.02892475 23:-0.081763718 24:-0.12105187 25:-0.0063807855 26:0.049054225 27:-0.02101504 28:-0.034753673 29:-0.046445071 30:-0.022454655 31:-0.028009766 32:-0.13408638 33:0.0095636526 34:0.019531704 35:0.02974002 36:0.058608823 37:0.010699592 38:0.0029737856 39:-0.067271594 40:0.042751336 41:0.084362763 42:-0.089435388 43:-0.0021932842 44:0.010015422 45:0.042863392 46:0.040004635 47:-0.020834426 48:-0.0028305069 49:0.02720014 50:0.026901034 
137.187 1:-0.19212237 2:0.087807723 3:-0.070752487 4:0.023260396 5:0.082027112 6:0.067401042 7:-0.04085758 8:0.012620727 9:0.018963123 10:-0.018308638 11:0.070853374 12:-0.0127603 13:0.0146323 14:0.020357345 15:0.0520473 16:-0.049816727 17:-0.044653714 18:0.03832816 19:-0.038396344 20:-0.013134218 21:-0.075440534 22:0.04639352 23:0.077608834 24:-0.099144151 25:0.036489643 26:0.11337828 27:0.039682235 28:0.027013007 29:0.031446916 30:-0.052258592 31:0.056474312 32:0.0072442672 33:-0.084878202 34:0.0057681697 35:-0.12603831 36:0.073191045 37:0.023545789 38:0.014344904 39:-0.072996109 40:0.020572738 41:-0.030485718 42:0.04456615 43:0.037517931 44:-0.046654961 45:-0.11742199 46:0.019771013 47:-0.0074864555 48:-0.0289168 49:-0.015791759 50:0.093796149 
137.187 1:0.12161163 2:-0.097462394 3:0.029055758 4:0.038533188 5:0.11414415 6:-0.056002545 7:0.072101935 8:0.071081134 9:0.044842571 10:-0.082644965 11:0.097358913 12:0.051415901 13:-0.0069477061 14:0.028450257 15:-0.004667586 16:0.21221331 17:0.050901784 18:-0.0021293505 19:-0.069384866 20:0.0062117336 21:-0.039751705 22:0.060086225 23:-0.022988981 24:-0.0090278778 25:0.0075909266 26:0.0069894618 27:0.025345425 28:0.09166778 29:0.052657748 30:0.0091905088 31:-0.0088116237 32:-0.04249833 33:-0.13910509 34:-0.043401184 35:-0.06170112 36:-0.03120886 37:0.062862394 38:0.018817552 39:0.039634127 40:-0.081869585 41:0.034472318 42:0.12984813 43:0.06020713 44:-0.11762272 45:0.0032922963 46:0.07495867 47:0.077842601 48:0.015107545 49:-0.14709644 50:0.0042047564 
-137.187 1:0.32331786 2:-0.15590673 3:-0.014537592 4:-0.049948344 5:-0.026748931 6:0.11074196 7:-0.048809146 8:0.090672685 9:-0.066943506 10:0.12071591 11:0.021788847 12:0.074394419 13:0.030938616 14:0.0069883124 15:-0.048695935 16:0.0076880624 17:0.063640005 18:0.074241768 19:-0.041615269 20:-0.031175249 21:0.061867572 22:0.00068611517 23:0.023663755 24:-0.15614064 25:-0.011198315 26:0.0081584559 27:0.0058303834 28:-0.017251447 29:0.087876596 30:0.020447614 31:-0.088208025 32:-0.017931102 33:-0.012167068 34:0.01869844 35:0.079407729 36:0.04374809 37:-0.0021469054 38:-0.024878482 39:0.041125301 40:-0.023741195 41:0.061859166 42:0.040855455 43:-0.041242596 44:0.039779837 45:-0.092024246 46:-0.035993976 47:-0.011626983 48:0.030952025 49:-0.023682889 50:-0.056718759 
137.187 1:0.10806279 2:-0.030659062 3:0.002750196 4:0.025728127 5:-0.014253731 6:0.03030193 7:-0.04723123 8:0.089763609 9:0.0098390221 10:-0.023246459 11:0.1010326 12:-0.121786 13:-0.0070916538 14:0.010202623 15:0.01830223 16:-0.015452872 17:0.038036557 18:0.014677528 19:0.11627536 20:0.0018536433 21:-0.044398908 22:-0.073872607 23:-0.10010081 24:-0.0048690717 25:-0.0076214299 26:-0.09702128 27:-0.033238595 28:-0.050621094 29:0.04667327 30:-0.088317668 31:0.056964478 32:-0.065527488 33:-0.024981081 34:-0.12932022 35:-0.0053412791 36:0.12652864 37:-0.13358906 38:0.04311424 39:0.063921457 40:-0.10164348 41:0.078092022 42:0.034771016 43:-0.0061639733 44:-0.066954392 45:0.057538829 46:0.093903638 47:-0.041315029 48:0.083063382 49:-0.026631355 50:0.07120987 
137.187 1:-0.14689096 2:0.15630133 3:-0.02767823 4:-0.022245519 5:0.068544913 6:0.014854772 7:0.10715366 8:0.023253461 9:-0.11610144 10:-0.063275957 11:0.032578893 12:0.045326492 13:0.0089392664 14:-0.015999375 15:-0.0093055049 16:0.039079758 17:-0.019834746 18:-0.017534565 19:-0.032240823 20:-0.062526002 21:-0.0071254039 22:-0.014345961 23:0.087495261 24:0.031117218 25:0.087976811 26:0.020505639 27:0.016193063 28:0.085356647 29:-0.013432178 30:0.012759616 31:-0.010772745 32:0.063059982 33:-0.027294202 34:-0.057315309 35:-0.054146995 36:-0.0057922239 37:-0.0091026161 38:0.0063272606 39:0.04875128 40:0.055893595 41:0.11334089 42:-0.038789913 43:-0.0032175006 44:-0.0020616459 45:-0.0091298848 46:-0.025942549 47:-0.0010345618 48:-0.039374598 49:-0.037507896 50:0.084006738 
137.187 1:0.070150797 2:0.31329723 3:0.044691729 4:0.048506487 5:0.011889654 6:0.072709166 7:-0.11113797 8:0.10271689 9:-0.069087424 10:0.031993265 11:0.017362738 12:0.01090843 13:-0.10448752 14:-0.080910774 15:0.083859832 16:0.01392838 17:-0.0931453 18:-0.025174292 19:0.025958603 20:-0.0058569334 21:0.030436382 22:-0.015365037 23:0.031041396 24:-0.034938428 25:-0.035756858 26:0.13057771 27:0.017807055 28:-0.066321202 29:-0.079495926 30:0.062992945 31:0.080292152 32:-0.034746755 33:-0.062112166 34:-0.052664561 35:-0.080495869 36:0.01708014 37:-0.13437786 38:-0.039692145 39:-0.00027010855 40:0.093287766 41:-0.033397902 42:0.12836641 43:-0.028255133 44:0.022752088 45:-0.10456228 46:-0.12555211 47:0.12063246 48:-0.026441008 49:-0.064571556 50:-0.085064583 
137.187 1:0.06158859 2:0.059596835 3:-0.0013014003 4:-0.0048991178 5:-0.11395537 6:-0.16196052 7:0.011118846 8:0.0083117487 9:-0.06182401 10:-0.063810298 11:-0.0078298993 12:0.11056426 13:0.12475327 14:-0.0058539444 15:-0.048555346 16:-0.12607961 17:0.059512963 18:0.0059939224 19:-0.052037363 20:-0.11223538 21:-0.04038197 22:0.033703624 23:-0.14930577 24:0.062892359 25:-0.09430812 26:-0.028721558 27:0.003821506 28:0.044044874 29:0.050225794 30:0.024861718 31:0.073537572 32:-0.13264714 33:0.03975159 34:0.012373804 35:0.13875709 36:-0.03936696 37:0.076397506 38:0.16105238 39:-0.11747021 40:0.12245245 41:-0.11998344 42:0.048665496 43:-0.14336732 44:-0.063801675 45:-0.080322201 46:-0.13601457 47:0.055972239 48:-0.16916245 49:0.0074585351 50:0.14261397 
-137.187 1:0.02564637 2:0.14388291 3:0.14650727 4:-0.092599565 5:-0.05523418 6:-0.043066981 7:-0.14112303 8:0.026873546 9:0.046105917 10:-0.078497194 11:0.097972606 12:-0.11168348 13:-0.016936393 14:-0.053112242 15:-0.074140174 16:-0.0036357326 17:0.0028241785 18:0.022603687 19:0.015084606 20:0.0040060155 21:0.11843914 22:-0.024254143 23:0.01793792 24:0.014419547 25:-0.0125858 26:-0.093485086 27:-0.059776143 28:0.10096483 29:-0.053398674 30:-0.087629265 31:-0.036845814 32:-0.074640393 33:-0.042820077 34:0.034692042 35:-0.085182878 36:-0.0051381791 37:-0.0099913495 38:-0.06757904 39:-0.05261973 40:0.080727346 41:-0.02886581 42:0.05798064 43:0.041094459 44:0.02136018 45:0.06286497 46:-0.15451372 47:-0.030672144 48:-0.071883514 49:-0.017036903 50:-0.0044605953 
137.187 1:-0.14985749 2:0.033270515 3:0.063357217 4:0.026412455 5:0.11103011 6:-0.0050745415 7:0.11286901 8:0.052387647 9:-0.01039426 10:-0.082144277 11:0.061897413 12:-0.0041517133 13:-0.059921741 14:0.073394782 15:0.012255519 16:0.0092913291 17:0.04587121 18:-0.043082928 19:-0.12879399 20:0.080160531 21:0.057793376 22:0.033236501 23:0.038799363 24:0.12058343 25:-0.13234533 26:-0.030940963 27:0.029224825 28:0.095984717 29:-0.013670736 30:0.052883121 31:0.016712424 32:0.015771674 33:0.047132443 34:0.10646611 35:0.066207687 36:-0.015288631 37:-0.014010015 38:-0.1076806 39:0.057169613 40:-0.05012016 41:-0.068216599 42:-0.10953127 43:-0.0076215692 44:-0.077575738 45:-0.018277234 46:0.032253794 47:0.1277037 48:-0.054647975 49:0.030661904 50:0.061826888 
-83.10765918831645 1:0.29371216 2:-0.13464546 3:-0.028901004 4:-0.038391993 5:-0.077046245 6:0.012771609 7:-0.079787336 8:0.079002179 9:-0.047563171 10:-0.026264395 11:-0.086090152 12:-0.037510164 13:0.039684911 14:0.0011681474 15:0.068051474 16:-0.061332978 17:0.029055513 18:-0.061942782 19:0.024434054 20:-0.0051604849 21:0.019773788 22:-0.059423317 23:0.026249235 24:0.032691404 25:0.0031778946 26:-0.077946545 27:0.11848369 28:0.019500309 29:-0.023278082 30:-0.079882389 31:0.011068035 32:0.090217939 33:-0.015518363 34:-0.0027799429 35:0.082921356 36:-0.012878781 37:-0.059346646 38:0.047680592 39:0.069695084 40:-0.13392872 41:0.044186573 42:-0.017842464 43:0.19620981 44:-0.024154817 45:0.072790789 46:-0.014435514 47:-0.11976892 48:-0.016530178 49:0.057847738 50:-0.084335934 
120.6151040785654 1:0.15786978 2:-0.12152602 3:-0.093002344 4:0.053486872 5:-0.11556611 6:-0.15170567 7:-0.070068901 8:0.019802819 9:0.22147219 10:-0.012149417 11:0.028260866 12:0.049161633 13:0.0045734248 14:0.075807088 15:0.1953703 16:-0.048573789 17:0.0038768716 18:0.10896714 19:0.058270344 20:-0.2186359 21:0.005144444 22:-0.12859037 23:0.10917847 24:0.032120118 25:-0.017933695 26:-0.11042333 27:-0.027984292 28:0.108389 29:0.098157541 30:0.096345694 31:-0.14199852 32:-0.018819146 33:0.036230367 34:-0.091221785 35:0.052969452 36:0.12601247 37:-0.027500817 38:0.082882267 39:0.09740126 40:-0.037238182 41:0.035979114 42:-0.15011956 43:-0.1727105 44:0.018964333 45:-0.038510762 46:0.057092035 47:-0.081092838 48:-0.078791896 49:0.0039970833 50:-0.024075974 
-23.11188511866441 1:-0.027784382 2:0.032215697 3:0.034553109 4:0.0088371105 5:-0.095315591 6:-0.19638718 7:-0.0057099175 8:-0.14289139 9:-0.040185313 10:0.14313523 11:-0.13910265 12:-0.10487544 13:0.14672281 14:0.062645509 15:0.12697178 16:-0.049603516 17:0.17110229 18:0.073352973 19:-0.066437122 20:0.080019427 21:-0.10900616 22:0.098358742 23:-0.075197361 24:-0.2362111 25:-0.0029072048 26:0.071751051 27:0.0041892443 28:-0.031018706 29:0.088323109 30:-0.069993975 31:0.099220866 32:-0.28370469 33:-0.0016111107 34:0.033305821 35:0.21836584 36:-0.066169738 37:0.27308719 38:-0.0061210175 39:0.070998337 40:0.031097992 41:-0.25729912 42:0.15295072 43:-0.066270932 44:-0.10195024 45:0.029929163 46:0.13594277 47:-0.033934904 48:-0.050733727 49:0.088224329 50:-0.10523263 
137.187 1:-0.26249028 2:-0.23529774 3:-0.22137518 4:-0.086458064 5:-0.069529931 6:0.057010884 7:0.068440305 8:-0.085723075 9:-0.0085946393 10:-0.010203022 11:0.13208742 12:-0.033572463 13:0.045156175 14:-0.08877458 15:0.054710768 16:0.089281049 17:0.055254897 18:-0.16507106 19:-0.035774753 20:0.13721851 21:0.028730727 22:0.095936419 23:-0.046663497 24:-0.027490589 25:0.051422536 26:-0.0070821277 27:0.010518114 28:0.11266665 29:0.027394108 30:-0.026831508 31:0.043107942 32:0.19426493 33:-0.0013609165 34:0.091011315 35:0.0905618 36:-0.094231496 37:-0.090084975 38:0.14975429 39:0.025144845 40:0.040300682 41:0.024450195 42:-0.034923852 43:-0.0014094527 44:-0.018910664 45:0.068436393 46:0.1317427 47:-0.0030708302 48:0.030919393 49:0.0088162079 50:-0.10226906 
137.187 1:-0.11236013 2:0.078957968 3:-0.02273845 4:0.00016369242 5:-0.033506064 6:0.049900529 7:-0.0077652851 8:0.046403927 9:0.03623151 10:0.022233564 11:-0.02434788 12:0.025044547 13:-0.0001495044 14:-0.0022613815 15:-0.065249093 16:-0.078775053 17:-0.022790964 18:-0.0038883683 19:-0.029809381 20:0.019194693 21:0.009553285 22:-0.033703459 23:-0.021291372 24:0.048000796 25:0.040319116 26:0.059844464 27:0.01960147 28:-0.0011204264 29:0.014971801 30:0.06424208 31:0.055291029 32:0.017101863 33:-0.029842827 34:-0.016662321 35:0.038693069 36:-0.049283027 37:-0.054897759 38:-0.016161488 39:0.029675351 40:0.029140957 41:0.031260875 42:0.10054317 43:-0.089703739 44:0.012595194 45:0.038034391 46:-0.017235552 47:0.026524075 48:0.012878624 49:0.049914911 50:-0.0056838807 
-137.187 1:0.039161188 2:0.067877685 3:-0.0023229461 4:-0.0053543635 5:0.047047625 6:-0.10731232 7:-0.072843956 8:0.099138041 9:-0.076551218 10:-0.10512188 11:0.076782394 12:0.022107152 13:-0.0073650637 14:0.022286278 15:0.085109249 16:-0.038188416 17:0.1126063 18:0.016540674 19:0.075076466 20:-0.01138896 21:-0.043969058 22:-0.088811967 23:-0.010781853 24:0.023333482 25:0.0054655743 26:0.055990647 27:-0.010173669 28:0.01697477 29:-0.037266198 30:0.036159237 31:-0.079096425 32:0.0045121056 33:-0.0050551363 34:0.051935377 35:0.018338041 36:0.02290881 37:0.046560337 38:0.071760554 39:-0.038109985 40:-0.059781856 41:-0.018685463 42:0.032355535 43:-0.012196341 44:-0.022193722 45:-0.15605309 46:0.091984711 47:0.0096493692 48:-0.082686637 49:-0.025084284 50:0.01918064 
76.78242219242651 1:0.20515981 2:-0.033163955 3:0.053157677 4:-0.022745999 5:0.22441313 6:-0.10640348 7:-0.074597209 8:-0.043789813 9:-0.0034955698 10:-0.022706537 11:-0.032421796 12:0.19511853 13:-0.055619969 14:0.061430676 15:0.079128502 16:0.050081698 17:-0.18466811 18:0.10892928 19:-0.087150645 20:-0.072482792 21:0.13316985 22:-0.09964809 23:0.078687511 24:-0.050740164 25:-0.054125568 26:-0.0050994054 27:0.032748151 28:0.034852948 29:-0.018290386 30:-0.00084815736 31:0.047843109 32:0.016944714 33:-0.12331356 34:0.046314603 35:-0.201052 36:0.19419526 37:-0.0059708185 38:0.052481405 39:0.061428991 40:-0.060509438 41:-0.042625981 42:-0.074756935 43:0.10158144 44:-0.15625273 45:-0.13956416 46:-0.056136125 47:0.080484966 48:-0.17436782 49:-0.0017672075 50:0.0022868153 
-80.67910540300521 1:-0.042917925 2:-0.07187715 3:0.071656054 4:0.013402186 5:0.091426424 6:-0.13144784 7:-0.042220713 8:-0.14000404 9:0.077548917 10:-0.0058461766 11:0.078613431 12:0.031224288 13:-0.061935455 14:0.09481497 15:-0.0010458754 16:-0.049547819 17:-0.094421264 18:-0.0706421 19:-0.088926973 20:0.10638387 21:0.14180538 22:-0.035679766 23:0.070278753 24:-0.025557026 25:0.03346756 26:-0.11112642 27:0.029088323 28:-0.0096863257 29:0.11492547 30:0.1894357 31:0.15032919 32:0.064710299 33:-0.035810575 34:-0.11447335 35:-0.041393374 36:-0.062200674 37:0.027069347 38:0.076124236 39:-0.0043345512 40:-0.12111473 41:-0.12770166 42:0.15230181 43:-0.088857951 44:-0.040704686 45:-0.025236599 46:0.16008983 47:0.013023413 48:-0.037207383 49:-0.066132823 50:-0.063227292 
-137.187 1:0.24112973 2:-0.11759867 3:-0.09661362 4:0.1058006 5:0.090668777 6:0.13929764 7:0.037491096 8:0.14493213 9:0.0069624545 10:-0.11248661 11:-0.14132516 12:0.034857541 13:0.11601718 14:0.018620154 15:-0.044633384 16:0.078204077 17:0.13950772 18:0.056330316 19:0.16348857 20:0.16553624 21:0.020190947 22:-0.0024125275 23:-0.15509113 24:-0.16056612 25:-0.15620976 26:0.12368392 27:0.040459694 28:-0.0063054482 29:-0.0098710947 30:0.10712545 31:0.072074555 32:0.12417205 33:-0.13036504 34:0.070021466 35:0.00027408918 36:0.083327846 37:0.10729866 38:0.031713237 39:-0.01926227 40:-0.055660882 41:-0.082183773 42:-0.077424898 43:-0.04378841 44:0.085592117 45:0.073160757 46:-0.060013101 47:-0.090530799 48:-0.053411209 49:0.065878255 50:0.062348068 
137.187 1:-0.017107255 2:0.14108309 3:0.080661468 4:-0.071981543 5:0.18104372 6:0.012204038 7:0.041856795 8:-0.067389071 9:0.02320541 10:0.018303737 11:-0.057466065 12:-0.041931636 13:-0.10141377 14:-0.067253335 15:0.077275155 16:-0.031115092 17:-0.00093192386 18:0.024357085 19:-0.15802946 20:0.0058178145 21:-0.047696286 22:0.052905034 23:0.044086719 24:-0.0041111628 25:-0.080035642 26:-0.062913099 27:0.046376707 28:0.035905106 29:0.02595915 30:0.080366873 31:0.1461752 32:-0.072597019 33:0.027393506 34:-0.032588295 35:0.047634391 36:-0.067772088 37:-0.016145473 38:0.0051970256 39:-0.068698419 40:-0.13673284 41:0.0027204934 42:-0.008380461 43:0.096189921 44:0.055860623 45:-0.085927691 46:0.094170697 47:-0.028957418 48:0.14215688 49:-0.0031440719 50:0.056944822 
137.187 1:0.10060208 2:0.060916685 3:-0.064740644 4:-0.073752189 5:0.025566522 6:-0.050997347 7:0.063312395 8:-0.10117678 9:0.019298731 10:0.10034019 11:0.068818856 12:0.11031575 13:-0.095666254 14:-0.047945693 15:-0.07584707 16:-0.11122742 17:0.13320135 18:0.052153964 19:-0.059091829 20:0.091390757 21:-0.057375574 22:0.13294075 23:0.020015184 24:-0.0074855375 25:-0.022506552 26:-0.012906473 27:-0.057866423 28:-0.084002604 29:-0.056223214 30:0.06375004 31:0.032507271 32:0.091498053 33:-0.079924069 34:-0.046060998 35:0.035342758 36:0.0091014143 37:0.0013669934 38:-0.010439242 39:0.11210262 40:0.040427084 41:-0.0035337403 42:0.0035071335 43:0.12497952 44:0.096587077 45:0.051213319 46:-0.01379799 47:0.089160657 48:-0.058890813 49:-0.32982871 50:0.18519424 
125.8809273377289 1:-0.35879891 2:-0.40159687 3:0.17579644 4:0.01998535 5:-0.0042880745 6:-0.031035217 7:0.022064209 8:-0.00026292935 9:0.045123076 10:-0.056690141 11:-0.10417408 12:-0.0042999561 13:0.064259017 14:0.059185153 15:-0.03407108 16:0.061650485 17:-0.08938022 18:-0.065178177 19:-0.017721533 20:0.059387567 21:0.12753737 22:-0.0089613759 23:0.055046102 24:0.018163419 25:-0.026062308 26:-0.070667616 27:0.0687752 28:0.085168577 29:0.068258106 30:-0.15058939 31:-0.0023663736 32:-0.070260792 33:-0.034823845 34:0.026913389 35:-0.010594144 36:0.1024632 37:-0.11257875 38:-0.036205825 39:0.0084632 40:-0.0070824044 41:-0.038253025 42:0.11230458 43:0.016552854 44:-0.13092274 45:-0.027100716 46:0.0038884937 47:0.078716047 48:0.048652164 49:0.037311061 50:0.0027503908 
137.187 1:0.13834395 2:-0.032747324 3:-0.096659624 4:0.17172908 5:0.039743508 6:0.055665455 7:-0.12361486 8:0.095143415 9:0.082791762 10:-0.088677467 11:0.035256513 12:-0.056318594 13:0.049858618 14:0.017386278 15:0.21723792 16:0.11264033 17:0.01621622 18:-0.10731196 19:0.062903695 20:-0.1708609 21:0.092911404 22:-0.15362812 23:-0.030226314 24:-0.0039522118 25:-0.11398896 26:-0.011915341 27:-0.034100885 28:-0.077215092 29:-0.027323122 30:0.097638886 31:-0.10817683 32:0.029701268 33:-0.019693876 34:0.056897639 35:0.073588677 36:-0.0041334576 37:-0.06419801 38:-0.12778138 39:-0.017521715 40:0.003018847 41:-0.13883418 42:0.079106991 43:-0.082385584 44:-0.057458734 45:0.0048993198 46:-0.046345787 47:0.056299528 48:-0.040962393 49:-0.086044645 50:0.02097133 
137.187 1:-0.016705934 2:0.007366369 3:-0.033748089 4:-0.03959353 5:-0.048727182 6:0.036235851 7:-0.15796938 8:0.03143871 9:0.046088655 10:0.089363854 11:0.074343753 12:0.066596048 13:0.12802747 14:0.088513591 15:-0.036997555 16:0.061089865 17:0.049274261 18:0.055219218 19:0.061125405 20:0.063430704 21:-0.011701964 22:-0.10261192 23:-0.09854056 24:0.075438437 25:-0.00098525793 26:-0.078159964 27:0.069581173 28:0.0082159324 29:0.016460016 30:0.038429719 31:0.0051691536 32:0.16461145 33:0.031681981 34:0.093724651 35:-0.049550402 36:-0.082894357 37:-0.075191012 38:0.0044551542 39:0.0010057707 40:0.21959539 41:-0.0039283636 42:-0.18911084 43:0.10259482 44:0.16214631 45:-0.13839943 46:0.082598504 47:0.05550062 48:-0.070118922 49:0.037332846 50:-0.043373026 
83.04124222907366 1:0.0070885323 2:-0.086252989 3:0.16410154 4:0.044199822 5:-0.062158092 6:0.079423994 7:-0.11871904 8:0.035481171 9:0.023778912 10:-0.013642554 11:0.012540477 12:0.0015321268 13:-0.14634805 14:-0.066819269 15:-0.050903395 16:-0.10667192 17:0.032299515 18:0.074705545 19:-0.029747657 20:-0.021892984 21:0.13319614 22:-0.026099419 23:-0.046896306 24:-0.058920552 25:-0.053659374 26:-0.049101485 27:0.095759886 28:0.046176888 29:-0.022588053 30:0.028781907 31:0.087297111 32:-0.20388243 33:0.066058367 34:0.029263053 35:0.027341599 36:0.061577269 37:-0.10995144 38:0.067120712 39:-0.046214484 40:-0.024140081 41:-0.33952174 42:-0.0012079467 43:0.056889957 44:-0.15362111 45:0.044033473 46:-0.019010633 47:0.10214865 48:-0.05346552 49:0.081886016 50:-0.070010969 
-137.187 1:-0.13269425 2:0.070027563 3:-0.0073697887 4:0.021466142 5:-0.041586914 6:-0.052029665 7:-0.0033492824 8:0.032529614 9:-0.04963132 10:-0.031529591 11:-0.010142955 12:-0.028219739 13:-0.049189207 14:-0.011596135 15:0.00054912537 16:-0.06619566 17:0.050451763 18:0.013941935 19:-0.048353553 20:-0.030449763 21:0.0092893999 22:0.057896241 23:0.018594305 24:0.024484697 25:0.045607427 26:0.032372633 27:0.063842893 28:0.026672185 29:0.036995825 30:0.10540137 31:-0.01334157 32:-0.038507147 33:-0.001751402 34:0.11412667 35:0.014207183 36:0.071635143 37:0.023315123 38:0.11655237 39:0.013383617 40:-0.011571775 41:0.031838232 42:-0.0037698655 43:-0.086420368 44:-0.0095897702 45:-0.11625291 46:-0.020197882 47:0.081654386 48:-0.024135078 49:-0.027508991 50:0.1002401 
-35.70281775150608 1:0.11449358 2:0.032809698 3:0.10777455 4:0.01555854 5:0.037025374 6:-0.16347133 7:-0.040693769 8:-0.057411458 9:-0.00042849664 10:-0.028126472 11:-0.093638793 12:-0.045096873 13:-0.010332499 14:0.051234419 15:-0.015566626 16:0.091385662 17:0.019168761 18:-0.069700123 19:0.063125179 20:-0.017435111 21:-0.11660883 22:0.002497618 23:-0.091862797 24:0.074834987 25:-0.04167681 26:-0.026929263 27:0.15630963 28:-0.071573312 29:0.037806352 30:-0.051193978 31:0.065981162 32:-0.090855054 33:0.017625841 34:0.0049849863 35:0.011317692 36:0.063871843 37:-0.047127561 38:0.016651192 39:0.039077248 40:-0.01998708 41:-0.018260064 42:0.0032855751 43:-0.0067005978 44:-0.01874967 45:0.037281519 46:0.0058770116 47:-0.057912734 48:-0.059985983 49:0.13008703 50:0.1305119 
-137.187 1:-0.11797689 2:-0.090034222 3:-0.14511776 4:0.016194937 5:-0.089659258 6:0.015932403 7:0.015420764 8:0.023159245 9:0.053067148 10:-0.027795731 11:0.04252831 12:0.078099954 13:0.071912224 14:-0.043355422 15:0.0040640115 16:0.037692803 17:0.03059314 18:-0.062588287 19:0.066694068 20:0.037646872 21:-0.049386677 22:0.002980667 23:-0.074305853 24:-0.043402123 25:0.048915354 26:-0.023761523 27:-0.023701652 28:0.010052784 29:0.04541212 30:-0.088880437 31:-0.079324799 32:0.039745677 33:0.0095431097 34:0.10867871 35:0.039262885 36:-0.0074948238 37:-0.0045308775 38:-0.020486876 39:-0.083561567 40:0.057612173 41:-0.057066375 42:-0.028484425 43:0.021588087 44:0.040009988 45:-0.087624156 46:0.0063740882 47:-0.0018729314 48:0.065648828 49:-0.043230846 50:0.12413015 
137.187 1:-0.10075221 2:0.072123169 3:0.0049879251 4:0.055673471 5:-0.058680727 6:-0.016038854 7:0.10860848 8:0.089382929 9:0.042573149 10:0.050849489 11:-0.0021510527 12:-0.007084891 13:0.097958793 14:-0.022421109 15:-0.040328119 16:-0.013516854 17:0.14237073 18:-0.056701703 19:0.017170195 20:0.069598248 21:0.077837152 22:0.06623709 23:-0.012800795 24:-0.0060913997 25:-0.072204567 26:0.0070251543 27:-0.020891672 28:0.038837524 29:-0.1169053 30:0.010591693 31:-0.082578176 32:-0.03332869 33:-0.040097184 34:0.025254729 35:0.066087162 36:0.1553571 37:-0.13670039 38:0.10420549 39:-0.049578393 40:-0.012534062 41:0.025899106 42:0.039881182 43:-0.031172991 44:0.0086513947 45:-0.070023193 46:-0.017085852 47:-0.072926725 48:0.0060490356 49:-0.041583843 50:0.050521687 
-32.28601844002721 1:-0.21933401 2:-0.65368781 3:0.7759104 4:0.37442093 5:0.023237782 6:-0.25746264 7:-0.1059509 8:-0.0096589516 9:0.046125437 10:0.24710269 11:0.26462739 12:-0.06316056 13:-0.065379221 14:0.013722762 15:-0.090929694 16:0.042020774 17:0.1226365 18:-0.063548822 19:0.131774 20:-0.060058444 21:0.14036103 22:0.06990036 23:0.034864888 24:0.10686902 25:0.0074564681 26:-0.02984014 27:-0.03014426 28:0.13689721 29:0.071653674 30:-0.12334978 31:-0.093492331 32:0.12606084 33:0.066493783 34:0.089869418 35:0.018879688 36:0.056239898 37:0.23089737 38:0.022563438 39:0.034206304 40:0.16096815 41:-0.046017777 42:0.1554548 43:0.022087066 44:0.070137588 45:0.0065042691 46:0.089008505 47:-0.013540846 48:-0.023485529 49:-0.047390956 50:0.082616838 
-3.859691349843747 1:-0.082091751 2:0.091925061 3:-0.05894184 4:-0.045310903 5:0.061212645 6:-0.026799204 7:0.072127738 8:0.019974917 9:-0.032060203 10:-0.059753147 11:0.0095996467 12:0.028781396 13:-0.10301464 14:-0.010182854 15:0.016719215 16:-0.038763125 17:-0.032615396 18:-0.077213622 19:0.020735887 20:0.017394141 21:-0.049934265 22:0.11297049 23:0.068765963 24:0.093489191 25:0.012777134 26:0.01819076 27:-0.0018760553 28:0.040308374 29:-0.059917475 30:0.0077937314 31:0.10362754 32:0.058761833 33:-0.028938247 34:0.070809025 35:0.036212025 36:0.035667512 37:-0.062605422 38:0.11648405 39:-0.0819639 40:-0.050035552 41:-0.13362245 42:0.015461493 43:0.0015184517 44:-0.10082928 45:-0.022242672 46:0.042508213 47:-0.057152045 48:0.07906015 49:-0.11387839 50:-0.10196149 
-17.40502365197648 1:0.028513986 2:0.17069889 3:0.096284196 4:0.0065980121 5:-0.030062998 6:0.026138875 7:-0.014185176 8:-0.063915308 9:-0.06833962 10:-0.049036487 11:-0.08937156 12:0.039461208 13:0.0098825644 14:-0.0066313176 15:0.1029072 16:0.059300585 17:-0.067338781 18:-0.13384047 19:-0.039502919 20:0.0684742 21:-0.088203961 22:0.009197512 23:0.066093391 24:0.037010152 25:-0.15946866 26:-0.077142806 27:0.067583673 28:-0.067648058 29:0.092109383 30:0.0018361769 31:0.10892412 32:-0.13298818 33:0.04887921 34:0.047398326 35:-0.061410211 36:-0.027525567 37:-0.052163047 38:0.015513933 39:-0.014214531 40:-0.015611307 41:0.064040759 42:-0.0064581608 43:0.0097800839 44:0.16070983 45:0.074919526 46:0.071751558 47:0.11212874 48:-0.0046101689 49:0.064590444 50:0.068463864 
