svm_type epsilon_svr
kernel_type rbf
gamma 0.14359
nr_class 2
total_sv 654
rho -113.306
SV
-578.2726383921923 1:0.10241252 2:-0.065901556 3:0.022170163 4:0.034521632 5:-0.01128368 6:0.0068418561 7:-0.038318047 8:-0.014753309 9:0.04096022 10:-0.019885697 11:0.045294811 12:0.026383549 13:-0.029043388 14:-0.040939234 15:-0.074180232 16:-0.04128277 17:-0.015621703 18:-0.052797312 19:-0.01858299 20:0.026632977 21:0.0085716096 22:-0.08207224 23:-0.018502204 24:0.0039519737 25:-0.094683852 26:0.0044203109 27:-0.065184465 28:-0.071304795 29:-0.07130895 30:0.068216931 31:-0.023243095 32:-0.10468178 33:0.0023318031 34:-0.02367665 35:0.061198994 36:-0.081868925 37:-0.023137809 38:0.16565707 39:-0.034231061 40:-0.017261113 41:-0.027429455 42:0.036871855 43:-0.0047929469 44:0.028361201 45:0.009703699 46:0.1352311 47:0.13439353 48:-0.012611839 49:0.033343094 50:0.015012626 
1267.119161889827 1:0.033220165 2:0.0154979 3:0.063390266 4:0.10759057 5:-0.044812346 6:0.047969789 7:0.030715449 8:0.03183562 9:-0.041656274 10:-0.01220683 11:-0.012446401 12:0.0917104 13:-0.028718775 14:0.042413587 15:-0.042378066 16:0.062521506 17:-0.011116028 18:0.041445155 19:-0.074413743 20:-0.056381209 21:-0.040267462 22:0.035338201 23:-0.009333091 24:0.026074332 25:-0.038314683 26:-0.044595145 27:-0.09210307 28:-0.0085542864 29:-0.059665466 30:0.050094574 31:0.047448226 32:-0.051435469 33:-0.062464271 34:0.067972664 35:0.057153856 36:-0.11494557 37:-0.047770973 38:0.12229121 39:-0.050960713 40:-0.092382709 41:0.024281305 42:0.10208247 43:-0.060647684 44:0.011135935 45:0.00060211854 46:0.047977327 47:0.046477182 48:-0.061386285 49:0.077504056 50:0.020619683 
-1782.8876 1:0.0083646954 2:-0.049420754 3:0.038645907 4:0.020633105 5:0.063048444 6:0.040068772 7:-0.017723626 8:0.043564904 9:0.037738592 10:-0.020548617 11:0.024815702 12:-0.0036825658 13:0.013297505 14:-0.044033221 15:0.023521595 16:-0.00091735104 17:0.033813139 18:0.012708037 19:-0.049649421 20:-0.033969014 21:0.033487562 22:0.092609959 23:-0.026767413 24:0.06817711 25:0.027839452 26:0.011763348 27:-0.082092364 28:0.0097216121 29:-0.038590766 30:0.014420193 31:0.08822721 32:-0.038600223 33:0.041066972 34:0.043913876 35:-0.0078815838 36:0.010020746 37:-0.011109239 38:0.03780516 39:0.055287217 40:-0.010327694 41:0.056128218 42:0.014405262 43:0.029765549 44:0.044708445 45:0.087545645 46:0.018657947 47:-0.040749263 48:-0.0060068484 49:0.0035642777 50:0.033893265 
1782.8876 1:-0.032846447 2:-0.13116378 3:0.085552313 4:0.064591204 5:0.092859494 6:-0.011942052 7:-0.079087276 8:0.022313489 9:0.0049158896 10:-0.021740697 11:-0.008890238 12:-0.07460055 13:-0.011725154 14:-0.032554287 15:-0.051480968 16:0.022342509 17:0.035495605 18:0.042471053 19:0.016064343 20:-0.0016146181 21:-0.053277702 22:-0.0011589281 23:-0.0080111421 24:0.018888079 25:0.0596686 26:0.042674351 27:-0.094799095 28:0.049462487 29:0.0089429075 30:-0.031128177 31:0.020472491 32:-0.03750116 33:0.025236099 34:0.050917357 35:-0.027201605 36:0.067281769 37:-0.035637046 38:-0.025528906 39:-0.099173256 40:-0.026504865 41:0.030245446 42:-0.019340849 43:-0.056097815 44:0.045379835 45:0.024312254 46:-0.06003557 47:-0.016554269 48:0.063745673 49:0.023442437 50:0.055400361 
-392.8419455452531 1:-0.12816166 2:0.020976944 3:0.11521596 4:-0.0050919935 5:0.038348409 6:-0.013957447 7:0.068445913 8:-0.038340701 9:-0.0085166422 10:-0.023551939 11:-0.089076292 12:0.015654401 13:0.04643449 14:0.065272085 15:0.067299304 16:0.052668573 17:0.089620395 18:-0.0053191538 19:-0.062905391 20:0.050831849 21:0.014141776 22:0.037979672 23:-0.032815059 24:-0.043613291 25:-0.01621138 26:0.023003723 27:0.11090332 28:-0.1051153 29:-0.066577973 30:0.013628675 31:0.059584512 32:-0.12680128 33:-0.01963563 34:0.024299711 35:-0.0045405913 36:-0.020244508 37:0.047167525 38:-0.15296975 39:0.048800636 40:0.022798135 41:0.02540883 42:-0.10162896 43:0.12386874 44:-0.050258038 45:0.039445483 46:0.03633205 47:0.056822178 48:-0.028150391 49:0.095386671 50:0.004053769 
-1782.8876 1:-0.1716978 2:0.039079673 3:-0.024414411 4:-0.022708955 5:0.061304621 6:0.043959063 7:-0.020017147 8:-0.033006065 9:0.024558611 10:0.039865921 11:-0.015891454 12:0.052980108 13:-0.13679853 14:-0.039577349 15:0.057163676 16:-0.019625297 17:0.067354964 18:-0.011389607 19:0.12901674 20:-0.021289229 21:-0.019144046 22:-0.030539105 23:-0.014540792 24:-0.041413939 25:0.0038478665 26:0.078647897 27:-0.068958508 28:0.052329336 29:-0.067005927 30:0.05358935 31:-0.032472825 32:-0.045838996 33:-0.020149266 34:-0.0020598738 35:0.10530676 36:0.17247312 37:-0.062991758 38:0.06619802 39:-0.084762911 40:-0.0014927938 41:0.036701437 42:0.078791348 43:-0.051697006 44:-0.054251058 45:0.0018433011 46:0.059353818 47:0.045644405 48:0.067649961 49:-0.003646376 50:-0.10770746 
-1772.503207060538 1:-0.11099657 2:-0.0013299833 3:0.023111986 4:-0.023819588 5:0.069797375 6:-0.045881049 7:0.061457916 8:-0.034184468 9:-0.0083688001 10:0.14317221 11:0.022335092 12:0.0063352797 13:0.034417964 14:0.0021876597 15:-0.090212713 16:0.0011893699 17:-0.061996258 18:-0.048710242 19:0.16841569 20:-0.016247378 21:-0.069864702 22:0.087830547 23:-0.031431258 24:-0.081530255 25:-0.12282165 26:-0.023958353 27:0.050808761 28:-0.039096045 29:0.01562805 30:0.040092258 31:-0.035630761 32:-0.10383221 33:-0.16461812 34:0.00071031419 35:-0.15923341 36:-0.062830702 37:-0.023813795 38:-0.049345017 39:0.023700297 40:0.081903638 41:-0.050701168 42:0.0036157228 43:0.10519884 44:1.3531536e-005 45:0.016849279 46:-0.16231598 47:-0.062098117 48:-0.01205781 49:0.014596685 50:0.12705265 
114.5381812910561 1:-0.14664677 2:-0.16829823 3:-0.054838467 4:-0.019481104 5:0.086201949 6:0.034221835 7:-0.099353061 8:0.123951 9:0.039906342 10:0.019729433 11:0.067814291 12:0.082484581 13:-0.035365602 14:-0.09600291 15:-0.053016371 16:-0.056887512 17:0.10070837 18:0.080259925 19:0.029994701 20:0.070851305 21:-0.06287881 22:0.10611248 23:-0.038626734 24:-0.016629661 25:-0.00059448139 26:-0.058659416 27:0.017051873 28:-0.036961119 29:-0.022803768 30:0.044623016 31:0.0078533937 32:-0.15080304 33:-0.077081025 34:0.00034358033 35:-0.0089860976 36:-0.0735319 37:0.003619313 38:-0.042524135 39:0.024196474 40:0.011115881 41:-0.055862266 42:-0.11595801 43:0.14107326 44:0.028183713 45:0.032440292 46:0.10556536 47:0.032250106 48:0.029064903 49:0.019607465 50:-0.071221306 
72.55828910988326 1:-0.23517422 2:-0.055780748 3:-0.046581115 4:-0.031530616 5:0.041470595 6:-0.0016824687 7:-0.011310833 8:0.023205255 9:-0.0040426021 10:0.0067117076 11:-0.015010374 12:0.018124621 13:-0.062024867 14:-0.065806387 15:-0.020361403 16:-0.0092037026 17:0.11720099 18:-0.032123949 19:0.090070751 20:-0.084724739 21:0.020652413 22:-0.071021441 23:-0.067703092 24:0.044467805 25:-0.025095565 26:0.10356859 27:-0.047640385 28:-0.019505845 29:-0.02494057 30:-0.10266657 31:0.032716179 32:-0.13833695 33:-0.054295195 34:0.035823935 35:-0.069966582 36:-0.1230021 37:-0.020668576 38:0.037125312 39:0.0047219375 40:-0.050490412 41:0.025064257 42:-0.094384038 43:0.065076603 44:-0.079887518 45:0.069802033 46:-0.03402499 47:0.061195054 48:0.06639202 49:-0.011945963 50:-0.028441434 
-627.0447198824368 1:-0.18911351 2:0.035781743 3:-0.14998407 4:-0.060909279 5:0.025039293 6:0.055021061 7:-0.026796111 8:0.047717724 9:-0.012076522 10:0.020905926 11:-0.045141989 12:0.021438125 13:-0.025327621 14:-0.041803145 15:-0.056083195 16:-0.077935537 17:0.034037672 18:0.10370393 19:-0.054947786 20:-0.1184908 21:0.078987911 22:-0.14619955 23:-0.05237303 24:-0.0088706435 25:-0.046000415 26:0.090406662 27:-0.15370977 28:0.041429247 29:-0.062387535 30:-0.084586675 31:-0.06205738 32:-0.13082781 33:-0.015024693 34:-0.0068595989 35:-0.012498598 36:-0.094343735 37:0.048674851 38:0.00019773717 39:-0.026325935 40:0.061038393 41:0.052263922 42:0.018167659 43:-0.054642186 44:-0.14800509 45:-0.022437625 46:-0.049392518 47:0.079756093 48:0.041006344 49:0.0087415426 50:-0.089183582 
-217.1981287143545 1:-0.10667096 2:0.09708173 3:-0.025811391 4:-0.087026882 5:-0.025153441 6:-0.039126753 7:-0.11382007 8:0.027679484 9:0.036025941 10:0.14710736 11:-0.0088050513 12:-0.10970364 13:-0.32764654 14:0.020402551 15:-0.066256151 16:0.39006117 17:-0.1354326 18:0.10115281 19:-0.05894466 20:-0.021365583 21:0.24842441 22:-0.16292189 23:0.030494566 24:0.054131105 25:0.074075284 26:0.12372971 27:-0.10756645 28:0.17342379 29:-0.10527028 30:0.074791957 31:-0.099320154 32:0.013553095 33:0.18953746 34:-0.023396519 35:-0.24382961 36:0.045212834 37:0.066953895 38:0.1405686 39:0.13114952 40:0.2176544 41:-0.048356517 42:0.069667959 43:0.010073744 44:0.13012307 45:0.098388134 46:-0.056392313 47:0.1631898 48:-0.054655783 49:-0.0086913048 50:0.10706246 
1017.117380386304 1:-0.13805318 2:0.11041726 3:-0.10092364 4:0.069047507 5:0.012745444 6:-0.025593937 7:-0.20588091 8:0.03901743 9:-0.26365273 10:-0.037814288 11:0.039664353 12:0.0019006792 13:-0.057473907 14:-0.15557146 15:0.17342385 16:-0.033505006 17:-0.17955464 18:0.035973256 19:-0.15990025 20:0.094909445 21:0.01593412 22:-0.0030521509 23:0.06183911 24:0.021009616 25:-0.11348038 26:0.15844701 27:-0.0027025858 28:0.14669012 29:0.07503177 30:0.17305474 31:0.072021309 32:0.023465503 33:-0.020847022 34:0.17707317 35:-0.071723442 36:0.025023593 37:0.051595793 38:-0.10220386 39:-0.046044581 40:0.013536346 41:0.012576464 42:-0.19804318 43:0.1371737 44:0.045432362 45:0.11555215 46:0.034451571 47:0.041093342 48:-0.095932043 49:-0.010572683 50:-0.11976389 
1782.8876 1:-0.1938055 2:0.085666911 3:-0.22913447 4:-0.022243963 5:-0.12933735 6:-0.076131179 7:-0.24800474 8:0.10007696 9:-0.051778891 10:-0.073711535 11:0.041449986 12:0.13318982 13:0.079921978 14:-0.13042434 15:-0.015230964 16:0.073883158 17:-0.0027052431 18:0.18271033 19:-0.11584284 20:-0.080036638 21:0.0080792649 22:0.021579931 23:0.15577947 24:0.060862378 25:0.069323719 26:0.21177909 27:-0.063035035 28:-0.096119142 29:0.0006119919 30:-0.011079408 31:0.067422012 32:-0.067878663 33:-0.10591934 34:0.039629429 35:-0.0036507036 36:-0.10228906 37:0.087017685 38:-0.057159192 39:0.094282786 40:-0.11446167 41:-0.046667776 42:0.0055837355 43:0.0038805556 44:-0.09502857 45:0.060724302 46:0.022588989 47:0.014881144 48:-0.011966487 49:0.02415081 50:0.0068287112 
-1034.940590829106 1:-0.28496176 2:0.069780026 3:-0.37970644 4:-0.023968949 5:-0.053611478 6:-0.10909929 7:-0.39295443 8:0.3949693 9:-0.14456707 10:-0.16982486 11:-0.034432736 12:0.18353358 13:0.1767173 14:-0.23969561 15:-0.020227436 16:0.1997078 17:0.016130539 18:0.38850442 19:-0.10662135 20:-0.031871947 21:-0.0097909922 22:-0.0035586489 23:0.084760109 24:0.046876932 25:0.0048552147 26:0.39443272 27:-0.14656453 28:-0.23063615 29:-0.044000543 30:-0.09909867 31:0.071759296 32:-0.054392711 33:-0.14839014 34:-0.06626459 35:0.047892803 36:-0.11580213 37:-0.079568638 38:-0.047523925 39:-0.018300277 40:-0.28348875 41:-0.051481854 42:-0.011265411 43:0.18439823 44:-0.16041954 45:0.08376009 46:-0.079954334 47:0.021950041 48:-0.0085758489 49:-0.071636519 50:-0.046838048 
1782.8876 1:0.27219878 2:0.015445257 3:7.3900859e-005 4:0.12703162 5:-0.055453751 6:-0.035642316 7:0.028652206 8:-0.072261026 9:0.053958894 10:-0.036439922 11:-0.073372924 12:-0.020757661 13:-0.017141297 14:-0.092284468 15:-0.026716944 16:-0.11709113 17:0.067779663 18:-0.058667936 19:0.023364688 20:-0.021847841 21:0.059336551 22:0.016620115 23:0.019585234 24:0.037299076 25:-0.060762407 26:0.012986769 27:0.056840249 28:0.070517729 29:0.066761654 30:0.031351625 31:-0.0059653848 32:-0.035169194 33:0.039226081 34:0.01745785 35:-0.031591186 36:0.018661363 37:-0.064912336 38:-0.048336496 39:-0.074049903 40:-0.02234088 41:0.015831191 42:-0.0045212307 43:-0.026753996 44:0.024922286 45:0.087728527 46:0.040557622 47:-0.02644311 48:-0.044951262 49:-0.047368571 50:0.0086487665 
-1782.8876 1:0.06708924 2:0.035023866 3:0.10015351 4:0.0057944965 5:-0.0068199803 6:0.057536638 7:-0.022381083 8:-0.014440504 9:0.085217935 10:-0.0539445 11:-0.010825827 12:0.062998403 13:-0.013408687 14:0.006486533 15:0.024426323 16:0.011686247 17:0.011523073 18:-0.052206617 19:0.048056497 20:-0.075800053 21:0.11206503 22:0.00029931998 23:-0.049260147 24:0.01080593 25:0.0032583916 26:-0.089721625 27:-0.054880069 28:0.043788546 29:-0.0089748564 30:-0.0027824596 31:-0.078801657 32:-0.050646584 33:0.062383734 34:-0.079673967 35:-0.01659861 36:-0.017815081 37:-0.058655722 38:0.021024128 39:-0.042163369 40:-0.061590739 41:-0.13301048 42:-0.053340504 43:0.1396653 44:-0.044667546 45:0.071013443 46:0.066789832 47:0.029819665 48:0.010874451 49:0.0028091011 50:-0.1200075 
-1782.8876 1:0.097706968 2:0.016170913 3:0.055940274 4:0.068235497 5:-0.043502209 6:-0.020239702 7:-0.0062910542 8:-0.03476444 9:0.018238022 10:-0.0076237503 11:0.12131058 12:0.027470406 13:-0.03247726 14:-0.045023575 15:-0.046269517 16:-0.046659517 17:-0.022037304 18:-0.0091749241 19:0.039526378 20:-0.08786282 21:0.056262396 22:-0.075468122 23:-0.044199454 24:-0.023482141 25:-0.044073067 26:-0.033364988 27:-0.0070504265 28:0.059856805 29:-0.10360923 30:0.026844938 31:-0.092349648 32:0.14059259 33:-0.041092194 34:0.051981305 35:0.0073859725 36:-0.051799279 37:-0.0531783 38:-0.016857566 39:-0.059901845 40:0.056969653 41:-0.023751925 42:0.0013485298 43:-0.007205848 44:0.0026422756 45:0.012486803 46:0.069426582 47:0.019963131 48:0.011704045 49:0.044175913 50:-0.047115925 
-1325.565505016789 1:0.071553549 2:-0.043948432 3:-0.028696776 4:0.068999806 5:-0.040847675 6:0.019230638 7:-0.045461417 8:0.02687384 9:0.066254126 10:-0.043124711 11:0.0077449349 12:0.020443061 13:-0.047320756 14:0.075623599 15:-0.06901825 16:-0.015811754 17:0.030241515 18:-0.018601991 19:0.037716614 20:0.07039223 21:0.04741619 22:0.047702807 23:-0.0011405234 24:-0.0190167 25:0.13876556 26:0.0180361 27:-0.026529308 28:0.085870241 29:0.02882135 30:0.1925762 31:0.068026963 32:0.06881139 33:0.079013152 34:0.073668383 35:0.17067761 36:-0.089341035 37:-0.070116821 38:-0.24227925 39:-0.079344287 40:-0.058429702 41:0.04130738 42:0.12510369 43:-0.013194253 44:-0.15816174 45:-0.010911867 46:0.028214524 47:-0.044333342 48:-0.11196915 49:0.0035302068 50:0.1499526 
43.72290214968037 1:-0.027710292 2:0.0028567703 3:0.081431926 4:0.0068671325 5:-0.061891648 6:0.066701012 7:-0.021795455 8:-0.039792041 9:0.02158726 10:-0.044770891 11:0.0035116092 12:-0.0056514551 13:-0.042180934 14:-0.070932526 15:-0.00049108554 16:-0.046975545 17:-0.024201738 18:-0.0047629586 19:0.010736213 20:-0.013451482 21:-0.0029453499 22:-0.024003532 23:-0.034182722 24:-0.00068911883 25:-0.0072897618 26:-0.06208489 27:0.033928918 28:0.031509788 29:-0.03780864 30:-0.050240451 31:-0.045507099 32:-0.00055588749 33:0.032537947 34:-0.045298997 35:-0.02783478 36:-0.095487232 37:-0.03618073 38:-0.1541328 39:0.088479791 40:0.0046476394 41:0.041967017 42:-0.040254191 43:-0.06132335 44:-0.051210826 45:-0.0020596666 46:0.061522047 47:0.10417541 48:-0.008296296 49:0.0016385393 50:0.017841176 
1782.8876 1:-0.034304692 2:-0.042783312 3:0.025465744 4:-0.098667633 5:-0.003543158 6:0.079837931 7:-0.011730997 8:-0.019236366 9:0.0063463654 10:0.0095593049 11:0.045711435 12:0.062192718 13:0.030526465 14:0.036502319 15:0.027736969 16:-0.0090270384 17:0.03129269 18:-0.055356699 19:0.0079378595 20:-0.054378587 21:0.0088195707 22:0.075841689 23:0.051629669 24:0.028892527 25:0.0271726 26:0.0072853748 27:-0.050553165 28:0.02956154 29:0.0087227393 30:0.01958238 31:0.048071176 32:0.0077258208 33:-0.015616524 34:0.0051842268 35:0.038677695 36:-0.02924427 37:0.012106665 38:-0.052552141 39:0.018622266 40:-0.036099671 41:0.037181601 42:0.0060952677 43:0.01781855 44:0.017539531 45:0.062167333 46:-0.10108225 47:-0.036238468 48:-0.043024034 49:-0.06300387 50:0.021396083 
1782.8876 1:-0.070628117 2:-0.10525306 3:0.10116427 4:-0.013854112 5:0.023450543 6:0.0096107593 7:-0.036340799 8:-0.032231527 9:0.018175166 10:0.0011836622 11:0.091725118 12:-0.016390796 13:0.07583011 14:-0.022047736 15:0.033764836 16:0.04358948 17:-0.0067316733 18:-0.0082428666 19:-0.024305224 20:-0.037739567 21:0.031933146 22:-0.0082495068 23:0.010575035 24:0.02266559 25:0.02933357 26:0.0050845084 27:0.08022905 28:-0.050631612 29:0.075941689 30:0.063743908 31:-0.053525544 32:0.13052361 33:0.032134899 34:-0.053614419 35:0.035444996 36:0.026107014 37:-0.027784163 38:-0.060168794 39:0.044842452 40:-0.041457667 41:0.017361957 42:0.034005586 43:0.032379465 44:-0.063708531 45:0.043661582 46:0.095077242 47:0.021781191 48:-0.058884863 49:0.048488777 50:-0.0077740172 
-1200.064463407657 1:-0.098686836 2:-0.041394918 3:0.070421982 4:-0.10522795 5:0.031797414 6:0.050560514 7:0.0046811104 8:-0.029951788 9:0.049156182 10:0.020976724 11:0.060606712 12:0.054979365 13:0.030577753 14:0.068512499 15:0.0067752923 16:0.029624083 17:0.055460874 18:-0.078073532 19:-0.030015008 20:0.004902808 21:0.0043795838 22:0.013739875 23:0.10128794 24:0.0071646944 25:0.13500644 26:0.18517636 27:-0.10616184 28:0.0017512322 29:0.0064072158 30:-0.0066545395 31:0.034525917 32:0.06929314 33:0.18454624 34:0.02799201 35:-0.0083069365 36:-0.09321136 37:-0.023910828 38:0.087928758 39:0.078968909 40:-0.06977473 41:-0.058003949 42:-0.010548305 43:-0.096792546 44:-0.057698634 45:-0.054655995 46:0.0015492248 47:0.020786222 48:-0.052226409 49:0.021076459 50:0.053672695 
1782.8876 1:-0.014549926 2:-0.076958318 3:0.049607165 4:-0.0024909455 5:0.083890649 6:-0.01152629 7:-0.046024912 8:0.036372128 9:0.064982404 10:0.067871517 11:0.036369211 12:-0.00039788435 13:0.056821841 14:0.022643728 15:0.031592176 16:-0.00023655729 17:-0.082358387 18:0.060102289 19:0.053921161 20:0.0062693628 21:0.006870072 22:0.065956877 23:-0.057062571 24:-0.10845887 25:0.014445169 26:0.068360002 27:0.039353288 28:-0.032591153 29:0.12355891 30:-0.037026031 31:0.053774641 32:0.01367758 33:-0.026583101 34:-0.01293401 35:-0.023390952 36:-0.031716142 37:0.0035151238 38:-0.011027148 39:-0.015541184 40:-0.019327515 41:0.11929054 42:0.014042632 43:0.0098006207 44:0.061413201 45:0.063280212 46:0.05426937 47:-0.0090393954 48:0.034761398 49:-0.019190198 50:-0.0037400828 
1378.721666903144 1:-0.12426508 2:-0.047444242 3:0.06784503 4:-0.035680387 5:0.049964278 6:0.0053375319 7:-0.084134185 8:-0.020416267 9:0.0041055495 10:0.024705595 11:0.087888723 12:0.018103509 13:-0.033011503 14:-0.068103547 15:0.026645325 16:0.044954122 17:0.040663295 18:-0.028931621 19:-0.03837318 20:0.10797441 21:0.13422881 22:-0.011011718 23:-0.013542902 24:0.012197494 25:0.13498946 26:-0.020891282 27:-0.0076251796 28:0.077042761 29:-0.048000277 30:0.0893824 31:-0.043038747 32:0.075522778 33:0.031753148 34:-0.012327287 35:0.046912389 36:-0.0440327 37:0.016264465 38:-0.10306752 39:0.061391101 40:0.017378385 41:-0.0063426594 42:-0.0412421 43:0.099436631 44:-0.05726413 45:0.0064133593 46:0.017140545 47:0.020157288 48:0.048093298 49:0.01739683 50:0.010243277 
360.1609272600995 1:-0.10748781 2:0.015516676 3:0.061674568 4:-0.054746389 5:-0.050971785 6:-0.0065888399 7:-0.0011882668 8:0.057219433 9:-0.069706638 10:0.0010704155 11:-0.063635072 12:0.093297294 13:0.010233979 14:-0.055339743 15:-0.042198256 16:0.043599578 17:0.001935824 18:0.011339261 19:-0.084788705 20:-0.028719884 21:0.042259292 22:-0.054502054 23:-0.15775072 24:-0.032298201 25:0.053964842 26:0.038185046 27:0.031977324 28:0.046574475 29:0.10282046 30:-0.079751433 31:-0.18608069 32:-0.044915179 33:0.021444901 34:0.019431435 35:-0.054062953 36:0.055326636 37:-0.070770701 38:0.078449575 39:0.12584296 40:0.054976038 41:-0.056648095 42:-0.025928844 43:-0.045108778 44:0.077410399 45:-0.11448749 46:-0.036140122 47:0.0040487972 48:0.032592734 49:0.0082156654 50:0.13908443 
1782.8876 1:-0.0084543029 2:-0.034601864 3:0.047472395 4:-0.032501104 5:0.025861343 6:0.10659511 7:-0.0051485289 8:-0.062704856 9:-0.069453957 10:-0.076115848 11:0.029305507 12:-0.040513997 13:0.038253237 14:0.07493403 15:0.016762353 16:0.029922087 17:0.046826119 18:-0.013593108 19:-0.011972547 20:-0.088069134 21:0.040201656 22:-0.071992888 23:-0.036530503 24:0.25870138 25:-0.0006695998 26:-0.017478031 27:0.077195181 28:0.072822191 29:-0.12111167 30:-0.17706119 31:-0.03880822 32:0.082972485 33:0.032758344 34:-0.22604831 35:-0.021298231 36:-0.098462371 37:0.07482888 38:0.039091658 39:-0.032525011 40:-0.045746147 41:-0.0029197232 42:0.031442691 43:0.068412164 44:-0.06345499 45:-0.037043717 46:-0.075803229 47:-0.0070637981 48:0.02211131 49:0.054317481 50:-0.15396964 
1445.808481813534 1:-0.14415588 2:0.0015931037 3:0.020663595 4:-0.052766493 5:0.068264949 6:-0.015220519 7:0.022422186 8:-0.0032572084 9:0.086497547 10:0.051465949 11:-0.1241125 12:0.072829643 13:0.0631318 14:0.024379121 15:0.12112418 16:-0.037195229 17:0.096015085 18:-0.073361629 19:0.044484078 20:-0.10769173 21:0.10003165 22:-0.1456918 23:-0.14132331 24:0.047574547 25:-0.016181263 26:0.070671321 27:-0.11152231 28:0.024628697 29:-0.10139362 30:0.032889146 31:-0.082182398 32:0.017036537 33:0.043733384 34:0.015055018 35:-0.14081714 36:0.044729361 37:-0.011932154 38:-0.131322 39:-0.053547137 40:-0.0028752526 41:0.1625295 42:0.017812416 43:-0.14462926 44:0.0395965 45:0.00058444711 46:-0.0050381388 47:0.020931724 48:-0.031823956 49:-0.11233371 50:-0.046674253 
313.3606078900578 1:-0.10660828 2:-0.029584847 3:0.02940292 4:0.071365266 5:0.11715341 6:0.020346929 7:0.012329377 8:0.02841084 9:-0.19281559 10:0.031637862 11:-0.027111151 12:-0.0075558745 13:0.014251176 14:0.090681732 15:-0.007529988 16:-0.090666328 17:0.0558115 18:0.02963897 19:-0.039382331 20:0.093859693 21:0.037300953 22:0.12799863 23:-0.18781816 24:0.048010041 25:0.15356897 26:-0.0099114936 27:-0.08890014 28:0.24672772 29:-0.12694902 30:-0.058755379 31:-0.083559593 32:0.079906086 33:-0.012024546 34:0.15503553 35:0.048533137 36:0.049827991 37:0.12109642 38:-0.11916551 39:0.1522382 40:0.0051691127 41:-0.06449501 42:-0.077914978 43:-0.082924064 44:0.01206825 45:-0.075670931 46:-0.070417977 47:0.023194417 48:0.10765863 49:0.21258657 50:-0.065682051 
1576.113010421836 1:-0.13592003 2:-0.084177898 3:-0.0042219691 4:-0.056184486 5:0.078025591 6:-0.10551358 7:0.064360315 8:-0.031690846 9:-0.068675542 10:0.051264273 11:-0.13371618 12:0.087149106 13:0.075050094 14:0.0075357248 15:0.026894598 16:-0.0027650107 17:0.016175029 18:-0.10798357 19:0.010348417 20:0.011504831 21:0.010812498 22:-0.18632497 23:-0.092265137 24:0.035772483 25:0.0057385114 26:0.047489665 27:0.01229577 28:-0.02027857 29:-0.058120578 30:0.060877129 31:-0.019953095 32:0.14142948 33:0.14067358 34:0.088167157 35:-0.1723825 36:-9.0375852e-005 37:0.010488358 38:-0.03162393 39:-0.055777212 40:-0.089284415 41:0.067537903 42:0.021994881 43:-0.092936104 44:0.038985579 45:0.0086825947 46:0.044861104 47:0.075822844 48:0.038304921 49:-0.11977124 50:-0.078250436 
1782.8876 1:-0.089554762 2:0.059993162 3:-0.099180499 4:0.084817625 5:-0.14742832 6:-0.016521709 7:-0.033634785 8:0.078553646 9:0.10387199 10:-0.12321527 11:-0.033794283 12:-0.18400665 13:0.019109183 14:0.05591704 15:0.1213958 16:-0.10581421 17:-0.0077751198 18:0.067508898 19:0.15295197 20:-0.12172837 21:0.048007779 22:0.047468636 23:-0.14741404 24:-0.021527781 25:0.032601966 26:0.098074062 27:0.028258016 28:0.0026442834 29:-0.16501846 30:-0.0049132998 31:0.019352084 32:0.1466944 33:-0.021273967 34:-0.059101745 35:0.025812674 36:0.0377699 37:-0.028222886 38:0.020369454 39:0.099014098 40:-0.07873822 41:0.0038860536 42:0.0063215148 43:0.0074496252 44:0.024904887 45:-0.030357603 46:-0.044967522 47:0.11452943 48:0.12938753 49:0.036971558 50:0.032727066 
-1782.8876 1:-0.21698979 2:0.025630564 3:0.048287605 4:-0.011212301 5:0.061028828 6:0.053504224 7:0.052774783 8:0.013468974 9:0.037489331 10:-0.018982906 11:0.020817136 12:0.039283251 13:-0.052616139 14:0.056376684 15:0.083124954 16:-0.0080603383 17:0.056891473 18:-0.016619943 19:0.0085083632 20:0.045859244 21:0.11272015 22:-0.001809479 23:0.026811773 24:-0.041088132 25:-0.053104529 26:0.033912024 27:-0.046443662 28:-0.011416635 29:-0.096849939 30:-0.094987533 31:0.048891871 32:-0.041515465 33:0.06444303 34:-0.11340393 35:0.057478996 36:0.059178386 37:-0.12337009 38:0.051620638 39:-0.069058568 40:-0.00053598369 41:0.036413697 42:-0.016383885 43:0.082184192 44:-0.00019541136 45:0.038134276 46:-0.030298259 47:0.0023530589 48:0.024480148 49:0.0056666481 50:-0.01054377 
1782.8876 1:-0.063808085 2:0.013071214 3:0.034231503 4:-0.041544465 5:-0.019196116 6:0.048434843 7:0.015575352 8:0.017696408 9:0.045476844 10:0.03090172 11:0.0017513243 12:-0.038604142 13:-0.017670785 14:-0.017597688 15:0.042219982 16:0.014934944 17:-0.0018252813 18:-0.030466176 19:0.0089714143 20:0.077106546 21:-0.0052435991 22:-0.060388121 23:-0.0038866489 24:-0.029426324 25:-0.087286767 26:0.021988586 27:0.0086333631 28:-0.047641906 29:0.034655196 30:-0.0031507352 31:0.049632617 32:-0.00041968015 33:-0.074864527 34:-0.048003414 35:-0.019249355 36:0.048012718 37:-0.069193063 38:0.0011822315 39:0.067459678 40:-0.0020416076 41:0.01878596 42:0.015047927 43:0.019458084 44:-0.026929165 45:-0.044057409 46:0.050496256 47:0.011487737 48:-0.024239385 49:-0.0042207384 50:-0.076136251 
1782.8876 1:-0.11745715 2:-0.049187328 3:0.027742036 4:-0.02748221 5:0.027869081 6:-0.00049665524 7:0.010413101 8:0.068098645 9:0.031867846 10:0.090869609 11:0.015210459 12:0.017540501 13:0.00010516403 14:0.012502954 15:-0.010362354 16:-0.040791414 17:0.1370026 18:-0.032488368 19:0.028272077 20:0.042893094 21:-0.029221365 22:-0.07356069 23:0.017337385 24:-0.056858892 25:-0.028249971 26:0.025089563 27:-0.0063352028 28:0.067565005 29:-0.027307914 30:-0.06552237 31:-0.037057651 32:0.066094471 33:0.017245598 34:0.033875221 35:0.012154982 36:0.079937586 37:-0.092408573 38:0.051319818 39:-0.0023800328 40:-0.010086113 41:-0.062691977 42:0.0042232673 43:-0.002791988 44:-0.025536195 45:-0.0053400425 46:-0.012826014 47:-0.014149514 48:0.0083278709 49:0.016275117 50:0.030485067 
1782.8876 1:-0.093170883 2:-0.019775478 3:0.019863774 4:-0.0002213578 5:-0.0068344609 6:0.021987061 7:0.053933546 8:0.024246093 9:0.01574576 10:0.050406914 11:-0.034119699 12:-0.10015942 13:-0.086009994 14:0.0018526388 15:0.0045028548 16:-0.020485473 17:-4.6848068e-005 18:-0.0029151991 19:0.070343429 20:0.058483503 21:0.040766361 22:-0.094291778 23:0.0094228285 24:0.019951164 25:-0.061013724 26:0.044981582 27:0.012023845 28:0.02936821 29:-0.029148808 30:-0.024140088 31:0.067090068 32:-0.041703516 33:-0.049255009 34:-0.051750852 35:0.010340494 36:0.05381122 37:-0.027456697 38:-0.05756522 39:0.074915439 40:0.0060928137 41:-0.0078828732 42:0.0067388737 43:0.019415767 44:-0.032178873 45:0.020741938 46:0.060947803 47:-0.015294478 48:-0.071735363 49:-0.018252243 50:-0.1180167 
1782.8876 1:-0.16168271 2:0.014631518 3:-0.030288614 4:0.054461984 5:-0.046692366 6:0.0056031691 7:0.084402524 8:0.029002789 9:0.061454343 10:-0.074772289 11:0.03988461 12:-0.055870892 13:-0.067894312 14:0.020026828 15:-0.03332826 16:-0.044602072 17:0.14086171 18:-0.060274551 19:0.039934629 20:0.057887856 21:0.0029746407 22:-0.035143171 23:-0.029396241 24:-0.052937014 25:0.011347202 26:-0.035291595 27:-0.03123414 28:0.03944419 29:0.0042099448 30:-0.039619175 31:0.05173775 32:0.044493397 33:-0.0045375699 34:0.11350735 35:-0.054098456 36:-0.0089273517 37:-0.025220907 38:0.015116623 39:0.022189443 40:0.005305347 41:0.00052672453 42:-0.029825137 43:-0.0034133315 44:-0.04931454 45:-0.054504488 46:-0.047136823 47:-0.071985491 48:-0.017576533 49:-0.00057326062 50:-0.0070028033 
-893.0513486528383 1:-0.26826818 2:0.092285763 3:-0.073971816 4:0.14945919 5:-0.17927992 6:-0.027162033 7:-0.048066767 8:0.073279496 9:0.099902654 10:-0.12663534 11:-0.043718289 12:-0.19327587 13:0.049562515 14:-0.028265063 15:0.18682278 16:0.053457927 17:0.12093769 18:-0.06011122 19:0.21524774 20:-0.049738716 21:-0.0039990294 22:-0.075222626 23:-0.14450771 24:0.060269574 25:-0.13745954 26:0.0061865121 27:0.051858292 28:-7.1260813e-005 29:-0.09990794 30:0.020498323 31:0.032951135 32:0.23362432 33:-0.083328406 34:-0.0075731779 35:-0.10729028 36:0.014458589 37:-0.12099417 38:-0.062127912 39:0.098540889 40:-0.10257921 41:0.0068005427 42:-0.018440638 43:-0.087199854 44:0.081402497 45:0.06936135 46:-0.059814371 47:0.071522819 48:0.036057283 49:0.077796984 50:0.040988846 
1782.8876 1:-0.083265438 2:-0.023567936 3:-0.1698242 4:-0.00580338 5:0.024938511 6:-0.13387326 7:-0.0010513128 8:-0.0099646383 9:0.062339529 10:-0.17334572 11:0.054053289 12:0.0043229306 13:-0.20536386 14:0.038235805 15:0.17429495 16:0.068299244 17:0.10686099 18:-0.023595565 19:0.089504213 20:0.031599493 21:0.1456173 22:-0.026592685 23:-0.03788651 24:-0.13338849 25:-0.03310828 26:-0.15442922 27:-0.05602059 28:0.16760284 29:-0.0032096183 30:-0.00057897181 31:0.061686569 32:0.012837097 33:-0.32409378 34:0.080567803 35:-0.0041527856 36:-0.033840531 37:0.075083828 38:0.07057615 39:0.13960081 40:0.012418595 41:-0.11392391 42:-0.00058959037 43:0.018490738 44:0.024946867 45:-0.038136871 46:-0.058725656 47:-0.029873808 48:-0.0072491163 49:0.053810247 50:-0.080734343 
1782.8876 1:-0.18443116 2:0.081793639 3:-0.022030817 4:-0.016492305 5:-0.10719978 6:-0.0057249271 7:-0.051713286 8:-0.039637529 9:0.13837914 10:-0.054968948 11:-0.060732227 12:-0.077287385 13:0.095909364 14:0.086683319 15:0.042223121 16:-0.0050686507 17:0.058793326 18:0.019734407 19:-0.10458809 20:-0.003165577 21:0.064371793 22:-0.16435787 23:0.014240867 24:0.052625166 25:-0.064324902 26:0.15725363 27:-0.043997147 28:-0.036296674 29:-0.084846873 30:-0.069641301 31:0.041414774 32:0.069188288 33:0.015523429 34:0.099604106 35:0.038870675 36:0.089356102 37:-0.028700793 38:0.033511178 39:0.0076977808 40:0.010656835 41:-0.056607426 42:0.09477001 43:-0.088674063 44:-0.03445196 45:-0.012445381 46:0.11611768 47:-0.1208525 48:0.013818801 49:0.12737477 50:-0.052688219 
-353.0391380432747 1:-0.23749079 2:0.066748056 3:-0.042023594 4:-0.11042083 5:-0.21972113 6:-0.10428972 7:0.178766 8:-0.17685932 9:0.006756655 10:-0.27796619 11:0.24562411 12:-0.11889689 13:-0.24169137 14:-0.055676875 15:-0.10959031 16:-0.029446234 17:0.12478302 18:-0.068048188 19:0.062407722 20:-0.054232629 21:-0.055852066 22:0.027120762 23:0.10847549 24:-0.086744582 25:0.18190064 26:0.012101638 27:-0.15026177 28:-0.18585207 29:-0.077712645 30:-0.024150614 31:0.1244572 32:0.20056592 33:-0.10943009 34:0.0080064862 35:0.034425942 36:-0.01857892 37:0.0097025215 38:0.0023488143 39:0.14163263 40:0.040997797 41:-0.031139223 42:-0.10608914 43:-0.072514489 44:0.016023752 45:-0.014680621 46:-0.078104788 47:-0.11065614 48:0.012268351 49:-0.0025969584 50:-0.059853796 
-84.00560209882096 1:-0.12057325 2:0.15193084 3:-0.14321407 4:0.022597077 5:-0.46077573 6:-0.13851709 7:0.00073120888 8:0.074896625 9:0.060128088 10:-0.26316938 11:0.14129458 12:-0.47870688 13:0.047862054 14:0.17045923 15:-0.024053058 16:-0.0070310339 17:0.25706707 18:0.066686772 19:0.14057044 20:0.11259272 21:-0.17316872 22:-0.30313671 23:0.082469008 24:-0.0068324085 25:-0.19708551 26:0.21417349 27:0.18064418 28:0.18778514 29:-0.012693953 30:-0.086917431 31:-0.019921682 32:-0.12499761 33:0.010393576 34:0.12987235 35:0.11290065 36:0.023939815 37:-0.054499364 38:0.12292492 39:0.12096287 40:0.16079635 41:0.0257785 42:0.16469355 43:0.026310492 44:-0.070716126 45:-0.060101441 46:-0.014835442 47:-0.053718736 48:0.016156406 49:-0.15845631 50:0.18170053 
402.1640526444469 1:-0.16204111 2:0.1549067 3:-0.075268922 4:0.060305925 5:-0.4230928 6:0.0094187386 7:0.12573213 8:0.0036192635 9:0.03666078 10:-0.23506708 11:0.32701961 12:-0.39690338 13:-0.12237521 14:0.070393143 15:-0.076731419 16:-0.18561341 17:0.27526308 18:0.0093511829 19:0.02825328 20:0.15299537 21:-0.045106123 22:-0.087686952 23:0.07111825 24:-0.021378558 25:-0.041660143 26:0.1930863 27:0.011657003 28:0.020974987 29:0.0084188473 30:-0.12963679 31:-0.0024072154 32:0.037678294 33:0.03719636 34:0.16432762 35:0.048125853 36:0.065841448 37:0.20307668 38:0.15251328 39:0.12487668 40:0.088397889 41:0.062960806 42:-0.10644533 43:0.055513679 44:-0.067145501 45:0.15173651 46:0.033501295 47:-0.0017421005 48:0.0115331 49:0.10150428 50:-0.062599356 
-328.2651123106142 1:-0.21350178 2:-0.016987599 3:-0.14910694 4:0.12226505 5:-0.15631974 6:0.18221263 7:0.18554749 8:-0.20098673 9:-0.31517559 10:0.12164504 11:-0.073105867 12:-0.13247001 13:0.24507036 14:0.20778031 15:-0.099056302 16:-0.11987506 17:0.25397508 18:0.0090842799 19:-0.19271378 20:-0.12756115 21:0.048588731 22:0.26901674 23:-0.059329622 24:0.11671759 25:-0.27253069 26:-0.14991883 27:-0.02994686 28:-0.23243157 29:0.093329321 30:0.047312074 31:-0.15500392 32:0.057745104 33:0.094495538 34:0.063140085 35:-0.16188096 36:0.13885316 37:0.026474649 38:0.0022940455 39:-0.033493999 40:-0.063644819 41:-0.12486687 42:-0.09354695 43:-0.093227612 44:0.053377489 45:0.19934552 46:0.078198114 47:0.036348241 48:-0.095714664 49:-0.19021966 50:0.068864019 
1154.202561391917 1:-0.028146485 2:0.04541703 3:-0.0017149613 4:0.028539891 5:-0.024344775 6:-0.035503146 7:-0.023258622 8:-0.040988158 9:0.0068324449 10:0.0089628844 11:0.042049662 12:-0.012234645 13:0.044092381 14:-0.0091517335 15:-0.055176732 16:-0.00021084006 17:-0.07141134 18:-0.048025809 19:0.13035752 20:-0.0092118874 21:-0.071719038 22:0.011385565 23:0.035097424 24:-0.081303792 25:-0.039831713 26:0.13601377 27:0.046908632 28:-0.086510432 29:0.0045427023 30:0.027055351 31:0.19494531 32:-0.031617826 33:0.01896178 34:0.10695436 35:-0.0016754652 36:-0.0023894815 37:-0.16947986 38:0.057577815 39:0.017445138 40:0.13163911 41:0.053034788 42:-0.0057048705 43:0.023352089 44:0.046558481 45:-0.02734946 46:0.075628789 47:0.064787016 48:0.0059963874 49:0.019309649 50:-0.024958446 
848.9330359196831 1:-0.09264063 2:-0.090143216 3:0.065058357 4:0.0058107387 5:-0.023948031 6:0.002906289 7:-0.055181595 8:-0.11955593 9:0.0039747479 10:-0.023064369 11:-0.0097253673 12:0.15668011 13:0.048818117 14:0.076769981 15:-0.083641712 16:-0.077707274 17:-0.057668003 18:-0.10593231 19:-0.033194187 20:0.11564708 21:0.08896843 22:-0.014030398 23:0.050372144 24:-0.017717042 25:0.022206546 26:-0.095701735 27:0.020341642 28:0.034994935 29:0.036899581 30:-0.042244624 31:0.16263724 32:-0.07681506 33:0.012496968 34:0.026936457 35:0.0097666011 36:0.037413687 37:0.053568231 38:-0.11229026 39:0.099128698 40:0.12320732 41:0.078341957 42:0.21732356 43:0.016953178 44:-0.0026212433 45:0.086352629 46:-0.18953151 47:0.16016262 48:-0.033308684 49:0.053245968 50:-0.11930227 
697.5545333271867 1:-0.16073629 2:0.028777381 3:0.13482921 4:-0.047678522 5:0.10216267 6:0.062453171 7:0.020624222 8:-0.039256953 9:-0.18416709 10:-0.019354941 11:0.042867352 12:-0.048386579 13:0.0094404238 14:0.010943301 15:0.05343266 16:-0.0044247923 17:-0.073089293 18:-0.034394519 19:-0.027555175 20:-0.084416105 21:0.012196776 22:0.059056317 23:0.013055549 24:0.13677103 25:0.045201516 26:-0.003053352 27:0.077832048 28:0.047775053 29:-0.04001363 30:-0.051732358 31:0.12955567 32:-0.0044599644 33:-0.040623335 34:-0.12412067 35:0.025271571 36:-0.12417315 37:0.018922916 38:0.17914996 39:-0.11997455 40:-0.048186247 41:0.1923991 42:-0.048871454 43:-0.09577088 44:-0.16168892 45:-0.024297484 46:-0.082491903 47:-0.0768798 48:0.054027082 49:0.007655636 50:-0.0981257 
590.0497920045912 1:-0.1376842 2:0.029945401 3:-0.0046781442 4:-0.062707362 5:0.074100655 6:0.014838249 7:0.062085621 8:-0.043838549 9:-0.003012655 10:0.081519349 11:0.0047390447 12:-0.012211121 13:-0.088457487 14:-0.0042902776 15:0.024846078 16:-0.066135277 17:-0.011628401 18:-0.048312471 19:0.1291365 20:-0.11170873 21:0.085082797 22:-0.057872164 23:-0.002884149 24:0.11158801 25:0.061682387 26:-0.050004531 27:-0.002212025 28:0.020814606 29:-0.031997411 30:0.028121696 31:-0.055320462 32:-0.33109135 33:0.037106261 34:0.010662737 35:0.038874349 36:-0.057723432 37:-0.18527121 38:0.088015609 39:-0.048885845 40:-0.16055469 41:0.12451639 42:-0.05830039 43:-0.048657533 44:-0.098983912 45:0.13558691 46:-0.082562545 47:0.032554858 48:0.0085583527 49:0.049863626 50:-0.29090119 
1483.245433745845 1:-0.12590769 2:0.0087380304 3:-0.078588599 4:-0.0048212511 5:0.11021778 6:-0.091117469 7:0.0056572909 8:0.031510754 9:-0.037461052 10:0.037212525 11:0.063712131 12:0.086866881 13:0.15503867 14:-0.0060153724 15:0.010672294 16:-0.020132575 17:0.0018877964 18:-0.095963327 19:-0.035712615 20:-0.13059568 21:-0.050407397 22:-0.17485657 23:0.095668709 24:0.03249574 25:0.15536518 26:-0.1175575 27:0.045178639 28:0.02126845 29:0.11046363 30:0.046248981 31:-0.068205757 32:0.029222269 33:-0.019187273 34:-0.060415437 35:0.0065871467 36:0.041120143 37:0.10009187 38:0.069559822 39:0.028645781 40:-0.08607856 41:-0.0047387477 42:0.10664517 43:0.013930703 44:-0.02816886 45:0.018071684 46:-0.1037246 47:0.06079133 48:0.048934814 49:0.014288089 50:-0.035900992 
-1144.672421520165 1:-0.16098462 2:-0.027648218 3:-0.098370268 4:-0.065873342 5:0.0053935945 6:-0.013808135 7:-0.025919665 8:-0.059771297 9:-0.19346308 10:-0.0079620473 11:0.10491354 12:0.08723368 13:0.031082585 14:-0.086007067 15:-0.0014816208 16:0.0076201151 17:-0.05335374 18:-0.050716301 19:0.0078567418 20:-0.044788354 21:0.027586667 22:-0.019273729 23:0.1803355 24:-0.020733942 25:-0.052272747 26:-0.1925924 27:0.16360221 28:-0.096097691 29:-0.039248961 30:-0.029329865 31:-0.2004333 32:0.19045917 33:-0.071556086 34:-0.10533293 35:0.06088137 36:-0.028817808 37:0.032165609 38:0.17026828 39:-0.02425735 40:0.00033060877 41:0.1179689 42:0.26112899 43:-0.068295568 44:-0.069495155 45:-0.017717537 46:-0.042535972 47:-0.053633507 48:-0.01197239 49:-0.039984134 50:-0.074989298 
1782.8876 1:-0.16349919 2:0.081923481 3:-0.077202546 4:0.12145074 5:-0.066380191 6:-0.06282409 7:-0.094315243 8:0.060553749 9:-0.077921429 10:-0.062546345 11:0.089286263 12:-0.039623655 13:-0.084681298 14:-0.084563645 15:0.11186471 16:-0.11588232 17:-0.14035808 18:-0.22172129 19:-0.060961704 20:-0.14145511 21:0.083045097 22:0.10102134 23:0.022369315 24:-0.070768982 25:-0.040980693 26:-0.090455773 27:0.063713358 28:0.075659297 29:-0.016349925 30:0.10741121 31:0.13170894 32:-0.067727134 33:-0.012779823 34:0.0097364706 35:0.013863536 36:0.042476232 37:-0.06875454 38:-0.052750524 39:-0.061349991 40:0.04301841 41:-0.014029487 42:0.030390629 43:0.082124051 44:-0.070996781 45:0.062151366 46:0.093359839 47:-0.026609935 48:-0.051839695 49:0.031632965 50:0.056725957 
1515.089869536007 1:-0.22389066 2:0.16080764 3:-0.036292234 4:-0.039640072 5:-0.04740452 6:-0.16204371 7:0.022437091 8:-0.10438903 9:-0.049324929 10:-0.13567809 11:0.15709923 12:-0.011230884 13:0.033044979 14:-0.077629191 15:-0.017866622 16:-0.12478839 17:-0.1132748 18:-0.16187341 19:0.020754298 20:0.0089228421 21:0.011330152 22:0.065746655 23:-0.083842566 24:0.21476653 25:0.067163276 26:0.020520252 27:-0.053439927 28:-0.10487375 29:0.012974317 30:0.073341989 31:0.048788844 32:-0.1043635 33:0.10373689 34:-0.1607739 35:-0.062416675 36:-0.0096592025 37:-0.079656423 38:0.17738609 39:0.16582423 40:0.085669785 41:0.058907566 42:-0.0017772911 43:0.11360643 44:0.11032392 45:-0.079247656 46:-0.065621188 47:0.027714894 48:0.012377478 49:-0.085789012 50:-0.1061632 
976.9069271963085 1:-0.24099135 2:0.12015845 3:-0.075919647 4:-0.032892462 5:-0.16281549 6:-0.0052769483 7:-0.058963996 8:-0.22719336 9:-0.0082627495 10:-0.20699358 11:0.21687942 12:-0.0082903269 13:-0.23946394 14:-0.08702383 15:-0.04418115 16:-0.012937668 17:-0.0023048873 18:-0.18015289 19:0.033264644 20:-0.20765253 21:-0.10260362 22:0.095334933 23:0.13719584 24:-0.096926525 25:0.1165696 26:-0.084543648 27:-0.18578311 28:-0.062787558 29:0.049702831 30:-0.0065744742 31:0.087665878 32:0.10946457 33:0.098345915 34:-0.055524384 35:-0.056061293 36:-0.06841969 37:-0.031580264 38:-0.10160532 39:-0.047188875 40:-0.029484541 41:0.14364285 42:0.024375801 43:-0.053189321 44:0.04584839 45:-0.03009871 46:0.017096107 47:0.055406735 48:0.01431177 49:-0.015049055 50:0.051802327 
-133.2325219817681 1:-0.3009963 2:0.10783248 3:-0.22237081 4:0.20085649 5:-0.041154943 6:-0.099636161 7:-0.17837569 8:-0.13474101 9:-0.0087389354 10:-0.31174147 11:-0.06371037 12:0.091610943 13:-0.29062702 14:-0.15076565 15:0.021424439 16:-0.050039735 17:-0.070754377 18:-0.23266853 19:0.11865893 20:-0.31902308 21:0.10831186 22:-0.010888163 23:-0.047644402 24:-0.077386301 25:-0.042650805 26:-0.25829521 27:0.03795327 28:0.070666755 29:0.03046792 30:0.033051155 31:0.088558708 32:-0.13197487 33:0.05915115 34:0.010789751 35:0.01073352 36:0.039379717 37:-0.0085257067 38:0.04263678 39:0.06902427 40:-0.014085467 41:-0.0052399422 42:0.18380516 43:0.026315391 44:-0.053899421 45:0.17650984 46:0.21707251 47:0.14363766 48:-0.045728127 49:0.063650392 50:0.2700128 
31.67505206424225 1:-0.41744453 2:1.73288 3:1.2521961 4:-0.35743366 5:0.05008386 6:-0.29493742 7:-0.18567235 8:-0.099776393 9:-0.018577442 10:0.16994612 11:-0.075670901 12:-0.055558111 13:0.10915243 14:-0.058887566 15:0.014199025 16:-0.032829865 17:0.041735167 18:0.074750839 19:0.014930178 20:-0.086120131 21:0.061453235 22:0.010207278 23:-0.03255178 24:0.021677044 25:-0.020565212 26:-0.014594195 27:0.065444707 28:-0.10905951 29:-0.017314646 30:-0.0048609884 31:0.068125468 32:0.038078905 33:0.031722525 34:0.07367726 35:0.036050516 36:-0.020557572 37:-0.010025823 38:0.0025803023 39:0.025954694 40:-0.056655549 41:-0.052879256 42:0.017118973 43:0.028407154 44:0.01315015 45:-0.014612239 46:0.0048449916 47:0.027544746 48:-0.0011927315 49:0.021982901 50:-0.021323509 
26.51369364792395 1:-0.21353957 2:0.6963351 3:-0.042389945 4:1.5301615 5:0.50095281 6:0.43039447 7:0.10718937 8:0.093052687 9:-0.046507925 10:-0.011061906 11:0.087564202 12:-0.0030505443 13:-0.034609185 14:0.015194233 15:-0.11735449 16:-0.011010121 17:0.03049031 18:-0.1257201 19:-0.0066053128 20:-0.022833031 21:0.0012716625 22:-0.18891675 23:0.098429243 24:0.061361633 25:0.051588623 26:0.01609829 27:-0.055863641 28:0.042614385 29:0.092883812 30:-0.057367058 31:-0.056079208 32:-0.0068449168 33:-0.028325666 34:-0.039439685 35:-0.012840387 36:-0.10028128 37:-0.051371486 38:0.049778018 39:0.070853306 40:0.042590569 41:-0.0070646933 42:0.029421222 43:0.0099597604 44:-0.027432142 45:-0.061885649 46:-0.026127752 47:0.034523305 48:0.046295748 49:-0.053142335 50:-0.026552522 
-1782.8876 1:-0.1338759 2:-0.017118104 3:-0.023725389 4:0.0096377628 5:0.020234235 6:0.04688531 7:0.085012483 8:0.018026552 9:0.030620654 10:0.11420829 11:0.0196125 12:-0.058038632 13:-0.042176518 14:0.057512759 15:0.041977352 16:0.0001148508 17:-0.0079557636 18:-0.028112292 19:-0.019596441 20:-0.0018595138 21:-0.028190586 22:0.045161887 23:0.021344636 24:-0.0048859419 25:-0.084454862 26:0.04877788 27:-0.0468937 28:-0.015286788 29:0.022542971 30:0.023916176 31:0.033527113 32:-0.073866828 33:0.061779809 34:-0.072572612 35:-0.042713885 36:0.071298629 37:-0.05703416 38:-0.023819572 39:-0.077033969 40:-0.065677618 41:0.003034948 42:-0.15259677 43:0.093838646 44:0.042278791 45:-0.077546051 46:-0.040311155 47:-0.023216338 48:0.05435241 49:0.034657421 50:0.014847816 
1782.8876 1:-0.047110411 2:-0.023550153 3:-0.083844273 4:0.039714167 5:0.041736425 6:0.056154192 7:0.014373368 8:-0.014544328 9:0.039709528 10:-0.010746808 11:-0.037900553 12:-0.004323978 13:0.012403722 14:-0.050882364 15:0.024076786 16:-0.02544692 17:-0.030732832 18:0.058015001 19:-0.037494278 20:0.090552844 21:-0.05591513 22:0.038715182 23:-0.036310381 24:-0.022265747 25:0.080522904 26:0.03011381 27:0.01922107 28:-0.046584083 29:0.036636108 30:-0.037484663 31:-0.056191732 32:-0.045683227 33:0.0011735591 34:0.042081996 35:-0.026666685 36:-0.027274685 37:0.042946905 38:0.099535581 39:0.058010903 40:0.057752768 41:-0.036767831 42:-0.028616227 43:-0.037336171 44:0.017587647 45:-0.022728561 46:0.029878131 47:0.014578228 48:0.049695701 49:-0.0050708091 50:0.012173747 
1782.8876 1:-0.15738326 2:0.004757999 3:0.031853712 4:0.039498594 5:0.097751725 6:-0.011088349 7:0.067059434 8:0.045984228 9:-0.032871902 10:0.081353199 11:0.0046997063 12:-0.035654202 13:-0.0021566253 14:0.0038317849 15:0.025720392 16:-0.10570228 17:-0.016632486 18:-0.042725641 19:-0.054052159 20:0.0066024613 21:0.0067471615 22:0.025069731 23:-0.041384225 24:-0.0015901767 25:-0.040381292 26:-0.057474536 27:0.026725897 28:0.099259784 29:-0.0098411625 30:-0.01300301 31:-0.0018816347 32:0.014392412 33:-0.044942015 34:0.0045969973 35:-0.062712403 36:0.020780683 37:-0.010841628 38:-0.030845757 39:-0.0491079 40:-0.018156948 41:0.033359766 42:-0.045415923 43:0.051045858 44:-0.026620204 45:-0.035864124 46:-0.045953999 47:0.021421799 48:0.069355738 49:0.081767449 50:0.050648213 
1782.8876 1:-0.18197127 2:0.021588271 3:-0.031054033 4:0.01253761 5:0.10352797 6:-0.019408011 7:0.082931776 8:-0.029840537 9:-0.029990181 10:0.097605186 11:0.0067429892 12:-0.086550267 13:-0.022176576 14:-0.014235635 15:0.020709381 16:-0.044624122 17:-0.071014356 18:-0.049658664 19:0.047289519 20:0.0087914233 21:-0.0045743904 22:0.06218153 23:-0.076452409 24:0.027831453 25:-0.1114339 26:0.086719931 27:-0.016076907 28:0.060763627 29:-0.007639906 30:0.0060732848 31:-0.047445491 32:0.0053136925 33:-0.081492275 34:0.10724516 35:-0.051030198 36:-0.01510882 37:0.069496603 38:0.0087970334 39:-0.053901139 40:0.053923839 41:-0.031118028 42:-0.053309207 43:0.066074398 44:-0.029885062 45:-0.089892925 46:-0.027126113 47:-0.019207064 48:0.10196626 49:0.14316167 50:0.10258531 
-1782.8876 1:-0.18161122 2:0.10762641 3:-0.099697683 4:0.026136084 5:-0.04487716 6:-0.10324141 7:0.13037861 8:-0.049527142 9:-0.050215397 10:0.013284151 11:0.064205313 12:-0.092890559 13:0.10023205 14:0.021461493 15:0.057266047 16:-0.073962304 17:-0.0074641394 18:-0.093789489 19:-0.014150304 20:0.027319039 21:-0.0097392446 22:0.079993862 23:-0.060067784 24:0.09024888 25:-0.15586684 26:0.076054314 27:0.0064750471 28:0.080420347 29:-0.0092707645 30:-0.024962338 31:-0.05383674 32:0.019964917 33:-0.0042150269 34:-0.028651913 35:-0.043332499 36:-0.012741627 37:-0.0031488608 38:0.029891299 39:-0.066844216 40:-0.085326364 41:0.028858634 42:0.0097405709 43:0.15331662 44:-0.018745259 45:-0.12761284 46:0.077273093 47:-0.056493041 48:0.044419576 49:0.037324693 50:0.088724515 
-282.8986019461693 1:-0.18464203 2:0.12834933 3:-0.095934022 4:0.027081156 5:-0.1336505 6:-0.16885681 7:-0.033789496 8:0.014333105 9:-0.047472142 10:-0.0085227235 11:0.034108024 12:-0.11196752 13:0.12073664 14:-0.032256793 15:0.080744698 16:-0.029570992 17:-0.1342026 18:-0.069295444 19:-0.067231175 20:0.023097592 21:-0.031429548 22:0.023907779 23:-0.025428243 24:0.012879472 25:-0.15489417 26:0.032702216 27:-0.023210203 28:0.14792189 29:-0.010520947 30:0.082301875 31:-0.077462231 32:0.033630349 33:0.10222994 34:0.027798082 35:-0.10487647 36:-0.10054818 37:-0.016491172 38:0.011297805 39:-0.011980152 40:0.013807954 41:0.056870966 42:-0.08771147 43:-0.0016297365 44:-0.0193535 45:-0.092499613 46:0.052396421 47:-0.056616566 48:-0.063176527 49:-0.061905435 50:0.052637182 
1782.8876 1:-0.091049938 2:0.042416826 3:-0.077207417 4:-0.019270851 5:-0.12435069 6:-0.088319408 7:-0.069516815 8:0.17889022 9:-0.028798448 10:-0.11783133 11:-0.058126154 12:0.13618369 13:-0.010653217 14:0.097607298 15:-0.16758492 16:0.014059516 17:0.023155873 18:-0.13997778 19:-0.019669955 20:0.14291156 21:0.028411132 22:0.097769231 23:0.10332473 24:0.099082238 25:-0.015890891 26:-0.13847012 27:0.0634686 28:-0.063527226 29:0.11186676 30:-0.0063583093 31:-0.027986862 32:0.044363007 33:0.10239516 34:0.073483051 35:-0.015519787 36:0.081314605 37:0.1076879 38:-0.0099010133 39:-0.05590304 40:0.083650796 41:0.12988674 42:-0.17837602 43:-0.06587369 44:-0.10423968 45:-0.0018032059 46:-0.015054735 47:0.017145459 48:-0.064507276 49:0.0668607 50:-0.060702987 
69.85497665394695 1:-0.24278368 2:-0.031945896 3:-0.17720098 4:-0.081879943 5:-0.12402875 6:-0.1201668 7:0.095445645 8:-0.16093298 9:-0.015597787 10:-0.19531241 11:0.18300965 12:0.052949436 13:-0.04628375 14:-0.10365658 15:-0.092212823 16:-0.074005659 17:-0.22047275 18:-0.10713538 19:-0.022426416 20:0.005371179 21:-0.01466931 22:0.022808566 23:-0.18306345 24:0.12632508 25:0.093582911 26:0.12850401 27:-0.067409725 28:-0.051667565 29:-0.091790262 30:0.053909669 31:-0.022181197 32:-0.056316535 33:0.081501531 34:-0.12044773 35:-0.034909505 36:-0.021470754 37:-0.012672393 38:0.041589101 39:0.10472007 40:0.099973252 41:0.05572324 42:-0.065704955 43:0.19844509 44:0.12645248 45:-0.0912213 46:-0.033118017 47:-0.10922844 48:0.036091666 49:-0.05717849 50:-0.010181059 
1179.642034428762 1:-0.20976544 2:0.064839492 3:-0.12815971 4:-0.032734897 5:-0.08993002 6:-0.025395287 7:0.061773973 8:-0.17280834 9:0.039530011 10:-0.0034578493 11:-0.040417102 12:0.048993132 13:0.035242307 14:0.037295409 15:-0.12133599 16:0.063879384 17:0.1110717 18:0.052660588 19:-0.083824752 20:-0.0033495942 21:0.037815927 22:-0.094942391 23:-0.0086166838 24:0.083877346 25:-0.17041307 26:0.13452557 27:-0.073466562 28:-0.027074842 29:0.027410991 30:0.11574181 31:0.031377124 32:-0.12896979 33:-0.01740529 34:-0.082558954 35:-0.069627195 36:0.032344137 37:-0.027055085 38:0.036076628 39:0.022371198 40:0.089801048 41:-0.045978902 42:-0.032189102 43:-0.039648799 44:-0.036283712 45:-0.14320493 46:0.19649003 47:-0.20553104 48:-0.016876169 49:0.031203481 50:-0.0074292052 
1782.8876 1:-0.2080932 2:0.051661165 3:-0.093866056 4:-0.018416183 5:0.0238788 6:-0.14032239 7:0.071633699 8:-0.012425531 9:0.11200667 10:-0.03715303 11:0.031536645 12:-0.072272604 13:0.050243391 14:-0.096268006 15:-0.02335668 16:-0.099472295 17:-0.11018525 18:-0.087582387 19:-0.088814622 20:-0.077711441 21:-0.064534812 22:-0.0055838021 23:0.014491024 24:0.026030424 25:-0.015724649 26:0.073404968 27:-0.13990833 28:0.15820393 29:0.11422229 30:-0.033231828 31:-0.098550642 32:0.043874574 33:0.14986644 34:0.083390098 35:0.012827452 36:-0.018255741 37:0.035412785 38:-0.050485916 39:-0.040304246 40:-0.033256819 41:0.043401754 42:-0.037188459 43:0.012207579 44:0.05437463 45:-0.064476256 46:-0.0074037766 47:-0.047257521 48:0.069702273 49:-0.028255646 50:0.078650223 
1782.8876 1:-0.084950119 2:0.009936023 3:-0.080323667 4:0.016038385 5:-0.11297101 6:0.12536645 7:0.027510535 8:-0.17241737 9:-0.2272294 10:0.17947194 11:-0.013959053 12:0.0053909603 13:0.18378136 14:0.22259919 15:-0.074713036 16:0.0067634637 17:0.089807281 18:0.028051483 19:-0.052794724 20:-0.048348416 21:0.10288301 22:0.16983051 23:-0.11651126 24:0.05328974 25:-0.18827818 26:-0.083974303 27:-0.016728317 28:-0.23614826 29:-0.049245 30:0.060071164 31:-0.064862834 32:0.025010788 33:-0.012408248 34:0.071662651 35:-0.077093716 36:0.13003941 37:-0.011700025 38:-0.11733511 39:0.023424865 40:-0.024334276 41:-0.053994797 42:0.099403489 43:0.15041239 44:0.02688696 45:0.016312991 46:0.027308572 47:0.11041797 48:-0.050168958 49:-0.17939608 50:0.02964306 
-1782.8876 1:-0.22326878 2:0.011024786 3:-0.056364912 4:-0.00030707181 5:0.080966792 6:0.011375358 7:-0.020318861 8:-0.033915208 9:-0.16996523 10:0.02626453 11:-0.1023083 12:-0.11236948 13:0.018606764 14:-0.035022595 15:0.15089702 16:-0.12002117 17:-0.016724644 18:0.016367566 19:0.12617608 20:0.13891895 21:0.025081855 22:0.045612333 23:-0.034692025 24:-0.029791832 25:0.13884762 26:0.006882245 27:-0.16856791 28:-0.17685597 29:0.1373149 30:0.10225686 31:-0.097369849 32:0.07206269 33:0.077777333 34:0.062036847 35:0.057998886 36:-0.074524785 37:-0.016419806 38:0.10336754 39:-0.07209231 40:-0.025471527 41:-0.086613592 42:0.061817242 43:-0.010107137 44:0.08334574 45:-0.11534049 46:0.04152198 47:-0.016054365 48:0.13241027 49:0.082716297 50:-0.043777335 
-1448.372257122764 1:-0.18222822 2:0.016442919 3:-0.072282898 4:0.019959968 5:0.07033393 6:0.0071936572 7:0.0089212545 8:-0.033286184 9:-0.08631529 10:0.073975795 11:0.059538765 12:-0.052273515 13:0.051506893 14:-0.031763045 15:0.084502316 16:-0.042985119 17:-0.046688119 18:-0.062417476 19:0.044748268 20:-0.048282141 21:-0.043116795 22:0.032755113 23:-0.13048112 24:0.042977794 25:0.034083835 26:0.0073186222 27:-0.12409752 28:0.10196664 29:0.074310643 30:0.090854775 31:0.051021485 32:-0.084328684 33:0.029970945 34:0.05899508 35:-0.022742987 36:0.0049321648 37:-0.057045695 38:0.048687133 39:-0.071949288 40:0.021268407 41:-0.077301042 42:0.041649709 43:-0.064818861 44:0.062489397 45:0.010398907 46:-0.021300581 47:-0.099504972 48:0.076884045 49:0.0088164564 50:0.017203488 
-1782.8876 1:-0.21227753 2:0.037185549 3:-0.03929173 4:0.0049866223 5:0.0037616059 6:0.014351716 7:0.039184564 8:0.011651385 9:-0.27351518 10:0.074307557 11:-0.045008165 12:-0.072382479 13:0.027226135 14:0.022648807 15:0.065080492 16:-0.06151018 17:-0.024041423 18:-0.042110814 19:0.081746426 20:0.029815085 21:0.0068451576 22:0.099096369 23:-0.039094482 24:0.0078762885 25:0.021743758 26:0.0040352084 27:-0.067865064 28:0.077958924 29:0.030536463 30:-0.022911921 31:-0.041376014 32:0.019033861 33:-0.081644219 34:0.15859874 35:0.047290267 36:-0.08781972 37:-0.0069010863 38:-0.021420393 39:-0.031150615 40:0.046651546 41:-0.11998253 42:-0.0046731973 43:0.054669231 44:0.11888927 45:-0.022228029 46:0.02803651 47:0.022875152 48:0.027394427 49:0.041776211 50:0.034440854 
1782.8876 1:-0.1588126 2:0.007803425 3:-0.14910282 4:-0.026077546 5:-0.034094932 6:0.072546937 7:0.010190491 8:-0.062210307 9:-0.08597135 10:-0.0010703101 11:0.0049693545 12:0.089426419 13:-0.0070407573 14:0.034575068 15:0.093904323 16:-0.055447062 17:-0.031072926 18:-0.069792211 19:0.078337003 20:0.023705249 21:-0.0053017646 22:0.017730181 23:-0.10506903 24:0.0026182874 25:0.13577203 26:-0.016228302 27:-0.056078116 28:0.077683913 29:-0.016339537 30:-0.022133361 31:0.038999316 32:-0.01729487 33:0.046367294 34:0.1946622 35:0.00010264502 36:-0.099291214 37:0.02190032 38:0.00125546 39:0.010029567 40:0.045237346 41:-0.011918659 42:0.06009934 43:-0.046355141 44:-0.043704761 45:0.061660999 46:0.014853263 47:-0.016135164 48:-0.00092068431 49:-0.023449338 50:0.035436052 
1782.8876 1:-0.16077994 2:0.017533691 3:-0.089032899 4:-0.03774821 5:-0.052665158 6:0.040326709 7:-0.054002447 8:0.089407927 9:-0.23620237 10:0.051526453 11:0.0077755781 12:-0.028573845 13:0.037778394 14:-0.018742019 15:0.046875198 16:-0.11026843 17:-0.13863147 18:-0.059081416 19:0.013439023 20:-0.016065204 21:-0.02003904 22:0.059469267 23:-0.034030057 24:-0.046614088 25:-0.0012449209 26:-0.010549666 27:0.020959264 28:0.12594901 29:-0.017654703 30:0.042403233 31:-0.099569324 32:0.0250269 33:-0.058492738 34:0.019745261 35:-0.0024376659 36:0.01218657 37:-0.0888614 38:-0.043878928 39:-0.0020354925 40:0.022337626 41:-0.091884922 42:0.042797126 43:-0.062294964 44:0.1372715 45:0.040934885 46:0.029311558 47:-0.046990066 48:0.057525049 49:-0.042406217 50:-0.026423752 
783.2135397750265 1:-0.12748488 2:0.10064738 3:-0.073510107 4:-0.057441169 5:-0.10775813 6:-0.032668751 7:0.071644113 8:-0.047441206 9:-0.41048323 10:0.17663062 11:-0.064814018 12:0.06079206 13:-0.080897149 14:0.095471448 15:-0.0069321463 16:0.086644364 17:-0.037798936 18:-0.075368117 19:0.16346546 20:0.008369979 21:-0.019395086 22:0.096152721 23:0.024199033 24:0.028221464 25:-0.026188451 26:0.04217823 27:-0.12826572 28:0.029309716 29:0.024266326 30:-0.010213735 31:0.036406685 32:0.033395776 33:-0.041236236 34:0.022731627 35:0.066103284 36:0.064240274 37:-0.12225305 38:-0.0017572813 39:-0.028688853 40:0.099767876 41:0.025494787 42:0.022996713 43:-0.028160212 44:-0.032280609 45:0.054214952 46:0.072121792 47:-0.0050431525 48:0.042896474 49:0.065207146 50:-0.069588453 
1782.8876 1:-0.13533995 2:0.029300234 3:-0.060925682 4:-0.044233215 5:-0.014732914 6:-0.02024753 7:0.17918235 8:-0.090496368 9:-0.24927977 10:0.10930888 11:-0.052281285 12:0.15855104 13:0.074606594 14:0.07852975 15:0.047939494 16:-0.091600615 17:-0.02453475 18:0.023997259 19:0.10411577 20:0.040424049 21:-0.0094120197 22:0.027601458 23:0.003640486 24:-0.020966748 25:0.097823394 26:0.099583529 27:-0.15011823 28:0.093918295 29:0.14294097 30:0.081345103 31:-0.0096372088 32:0.18016963 33:-0.033573522 34:0.16991965 35:-0.028842281 36:-0.10431224 37:-0.073010333 38:-0.038506455 39:-0.0053647456 40:0.046164532 41:-0.054721697 42:0.014786204 43:-0.030722286 44:0.067278784 45:0.05563048 46:0.027044497 47:0.038746301 48:0.036324054 49:0.028054925 50:-0.01158259 
342.8453579011421 1:-0.15442209 2:0.093404373 3:-0.074615957 4:-0.039725858 5:-0.10865546 6:0.0181231 7:0.079428852 8:-0.26687512 9:-0.098144451 10:-0.17197306 11:0.29428704 12:0.12680235 13:-0.35038674 14:-0.09099578 15:-0.063389598 16:-0.046955232 17:0.039508361 18:-0.03630865 19:0.00072643036 20:-0.16975473 21:-0.074415109 22:0.043636132 23:0.23171721 24:-0.040372948 25:0.25724336 26:-0.025612572 27:-0.2813387 28:-0.10494412 29:0.14960562 30:-0.043300546 31:0.1038857 32:0.27112938 33:-0.039112212 34:0.17557785 35:-0.035189492 36:-0.066966421 37:0.014171093 38:-0.31084591 39:-0.010324725 40:-0.02996435 41:-0.023101903 42:-0.017954226 43:-0.15309064 44:-0.0134636 45:-0.13159505 46:-0.084608527 47:0.016861794 48:-0.058453678 49:-0.095066746 50:0.052303302 
496.0340160850248 1:-0.19070065 2:0.12994271 3:-0.32727091 4:0.0092001962 5:-0.18564073 6:0.22645384 7:-0.25186227 8:-0.50974548 9:0.089113783 10:0.34080537 11:0.054200551 12:0.14321766 13:-0.1339811 14:-0.067922648 15:0.09523071 16:0.01428479 17:0.12572384 18:-0.070466278 19:0.12687324 20:0.13489604 21:-0.19582149 22:0.068873264 23:-0.096399646 24:0.10601436 25:0.040970891 26:0.14568836 27:0.0284079 28:0.0019294846 29:0.067501674 30:-0.0015119343 31:0.00081286691 32:-0.07748953 33:-0.093146534 34:-0.018398799 35:0.066168962 36:0.1053933 37:0.13991992 38:0.013786505 39:0.018634893 40:-0.05444605 41:-0.061137448 42:0.094092243 43:0.030418207 44:-0.0017908235 45:-0.014592652 46:-0.040436859 47:0.10603536 48:0.05000544 49:0.007940508 50:-0.020646304 
1782.8876 1:-0.084090528 2:0.063853616 3:-0.14363266 4:0.046433524 5:-0.14224289 6:0.11479136 7:0.099793785 8:-0.16847844 9:-0.32860919 10:0.043375075 11:-0.0031836046 12:0.026921764 13:0.068225547 14:0.12925853 15:-0.019597125 16:0.041284428 17:0.080649263 18:0.0054268652 19:0.065720287 20:0.093796017 21:0.074363258 22:0.13136776 23:0.0025769866 24:0.072046896 25:-0.016689018 26:0.038796817 27:-0.18043709 28:-0.062234438 29:0.12778745 30:0.018588332 31:0.038938293 32:0.099606398 33:0.018022048 34:0.10629817 35:-0.097246787 36:-0.0068252285 37:0.05865207 38:-0.014423697 39:0.069881698 40:0.032011626 41:-0.057943464 42:0.079319873 43:-0.020657092 44:0.060056309 45:0.1510917 46:0.11364703 47:0.039654763 48:0.025070352 49:-0.019079642 50:-0.034000309 
245.9208491901518 1:-0.079250435 2:0.12370133 3:-0.12257863 4:-0.23094545 5:-0.33249521 6:0.42284892 7:-0.10713039 8:-0.24544684 9:-0.22747234 10:-0.088065528 11:0.043701478 12:-0.072913376 13:0.58612737 14:-0.15541403 15:-0.36707872 16:0.48407538 17:-0.066870821 18:-0.48831736 19:0.048534041 20:0.16561095 21:0.2719462 22:-0.19497132 23:0.09623012 24:-0.10371581 25:0.12340533 26:-0.036809678 27:-0.0013884427 28:0.026202448 29:-0.074461564 30:-0.18800011 31:0.053477111 32:-0.15051988 33:-0.065220893 34:0.028122628 35:0.16812953 36:-0.1874684 37:-0.0085102784 38:0.017479068 39:-0.078406697 40:-0.0034786667 41:0.029759844 42:-0.095642709 43:-0.057280766 44:0.073104712 45:-0.03486684 46:0.10365129 47:-0.022141042 48:0.10534762 49:0.0051414565 50:-0.0087646453 
56.71613845453617 1:-0.2938084 2:0.51420638 3:-0.22765326 4:-0.25429309 5:-0.80951435 6:0.9344971 7:0.21588103 8:0.4971225 9:0.24658041 10:0.14875837 11:0.22280387 12:0.33575574 13:-0.09001208 14:0.10919504 15:0.23274442 16:-0.10858542 17:-0.21857773 18:-0.0061766856 19:0.015224843 20:-0.036014526 21:-0.059140798 22:0.012362744 23:-0.15581894 24:0.085201089 25:0.049728642 26:-0.077145257 27:-0.0096439542 28:-0.0071872312 29:0.088764141 30:0.0062211351 31:-0.0032153384 32:-0.084092055 33:0.018542221 34:0.00074279311 35:0.11320554 36:0.021314321 37:-0.040903499 38:-0.10208653 39:-0.0071025635 40:-0.021920792 41:0.028708674 42:0.10835273 43:-0.035379148 44:-0.030491756 45:0.041252011 46:0.0035286388 47:0.034425966 48:-0.052556335 49:0.097217918 50:-0.0033178525 
-684.8050795558473 1:0.26574924 2:0.17497771 3:-0.060442241 4:-0.039625106 5:0.020126415 6:-0.023505045 7:0.055071802 8:-0.0064915908 9:0.13980692 10:0.045879505 11:-0.061492906 12:0.024370601 13:0.012690442 14:-0.1248768 15:0.030891267 16:0.071502448 17:0.12131951 18:0.024654939 19:0.016018554 20:0.0054094612 21:-0.049184751 22:0.0032200149 23:0.00085972929 24:0.12324147 25:0.028701228 26:0.031322839 27:0.061644518 28:0.15018854 29:0.016955333 30:0.05883193 31:0.0016271346 32:0.0097039552 33:-0.10903417 34:-0.034617723 35:-0.069353874 36:-0.065152129 37:0.015690336 38:0.025301684 39:-0.11893689 40:0.074724268 41:0.015596483 42:0.13207189 43:0.046147304 44:-0.053479704 45:-0.076489114 46:0.010071814 47:0.035443698 48:0.05733159 49:0.070606985 50:-0.038589493 
-677.0648176930763 1:-0.12733786 2:-0.046196523 3:0.013989506 4:-0.075435858 5:0.064102836 6:0.022988388 7:0.062801171 8:-0.0094341714 9:0.040281108 10:0.094883102 11:-0.039805806 12:-0.030801982 13:-0.092806174 14:0.025705393 15:-0.0073620025 16:-0.021172617 17:-0.019625387 18:-0.13836351 19:0.069452074 20:0.019381669 21:0.049833193 22:0.031243739 23:0.11863906 24:-0.056449407 25:-0.031947272 26:0.11082101 27:0.014834649 28:-0.11824691 29:-0.11012214 30:0.10928179 31:-0.047065653 32:0.047637871 33:-0.11686725 34:0.021348562 35:0.044329922 36:0.1216373 37:-0.035532253 38:0.097424992 39:-0.17082496 40:-0.13005559 41:-0.035865947 42:0.13172236 43:-0.0048221285 44:-0.003394217 45:-0.10170436 46:0.021160706 47:0.13019002 48:0.050361651 49:-0.034772129 50:-0.10158256 
-756.3190066063754 1:-0.13199206 2:0.040044877 3:-0.024934473 4:0.005411362 5:-0.019951832 6:0.068315524 7:-0.061660306 8:0.13423393 9:-0.052274363 10:0.092206893 11:0.0051183146 12:0.097029005 13:0.0026114534 14:0.050382043 15:-0.15048355 16:-0.14209823 17:0.1072678 18:0.082442644 19:0.095123256 20:0.084597702 21:-0.086008172 22:0.092283471 23:0.099424895 24:-0.018065202 25:0.061080845 26:-0.10205872 27:0.13226224 28:0.10433123 29:-0.11796723 30:0.057790834 31:-0.16644071 32:0.019002895 33:0.028562098 34:0.096551109 35:-0.005787731 36:-0.026140881 37:-0.034443769 38:-0.0050876949 39:0.077042435 40:-0.021397989 41:0.135282 42:0.0088188178 43:-0.016620176 44:0.064142963 45:0.030191407 46:-0.015980488 47:0.026395652 48:-0.01954906 49:-0.095615715 50:-0.045940671 
1782.8876 1:-0.10512628 2:-0.0026265007 3:-0.023076964 4:-0.056814879 5:0.03183515 6:0.018517588 7:0.010021133 8:0.012548413 9:0.0027692887 10:-0.036363463 11:0.00238919 12:0.0022816008 13:0.0046687682 14:-0.0034482288 15:-0.061472968 16:-0.048936807 17:-0.0041768137 18:-0.009710155 19:0.029232145 20:0.013816834 21:-0.0098892291 22:-0.012182436 23:-0.029917168 24:-0.0403836 25:-0.012132697 26:-0.019743422 27:0.021694233 28:-0.062861921 29:-0.032824617 30:-0.0051133593 31:-0.089603441 32:0.042519238 33:0.019849461 34:-0.037586031 35:-0.019260817 36:0.10251308 37:-0.039905173 38:0.024439511 39:0.010452628 40:-0.068121817 41:-0.081183197 42:0.022223741 43:-0.056641852 44:0.022031984 45:-0.02013978 46:-0.083375544 47:-0.025252301 48:-0.0096055924 49:0.0043523187 50:-0.081296969 
1688.044544033115 1:-0.096300571 2:-0.025191758 3:-0.086537894 4:-0.063537961 5:0.033598302 6:0.018328604 7:0.030725776 8:-0.062908152 9:-0.09930147 10:-0.043825352 11:0.013962674 12:0.014775192 13:-0.0037368039 14:-0.034849593 15:0.039189886 16:0.0089560677 17:-0.070987593 18:0.034290905 19:0.068335585 20:0.033373313 21:0.018108162 22:-0.059859861 23:0.023591932 24:-0.085130384 25:0.0028068892 26:-0.0164098 27:0.20499919 28:-0.068964778 29:-0.16055707 30:-0.054519645 31:-0.32981805 32:0.10306938 33:-0.059296849 34:-0.0089659343 35:-0.0015938025 36:-0.0412415 37:-0.13455051 38:0.12789566 39:0.090178389 40:-0.06302904 41:0.08110782 42:0.18990268 43:-0.081274687 44:0.0080135056 45:0.0669411 46:-0.039492166 47:0.0077627644 48:0.04717437 49:-0.012522417 50:-0.044598602 
-90.07445760995967 1:-0.22966113 2:-0.019578021 3:-0.1293464 4:0.15731761 5:-0.12644818 6:0.050016143 7:0.043501301 8:0.066574653 9:0.060206601 10:-0.15036561 11:-0.18190423 12:-0.074089219 13:0.086121513 14:0.068037997 15:0.088534803 16:0.060603458 17:0.048428718 18:-0.0028382289 19:0.23574876 20:-0.020250951 21:-0.084828287 22:0.13262682 23:-0.12668452 24:0.10608449 25:-0.11005533 26:0.015027062 27:0.11213899 28:-0.075360089 29:-0.28092052 30:0.11379399 31:-0.018489053 32:0.36716786 33:0.028146993 34:0.019374989 35:-0.022412751 36:-0.045143757 37:-0.23588944 38:0.050501075 39:0.0944871 40:-0.23214849 41:0.044152829 42:-0.20991433 43:-0.13212614 44:0.14605201 45:0.01536773 46:-0.089199153 47:0.11208686 48:0.015588553 49:0.1562653 50:-0.018965835 
-202.079083423119 1:-0.19220103 2:0.073005702 3:-0.19376171 4:-0.017962471 5:0.070537306 6:-0.12004841 7:0.065273908 8:0.14912109 9:0.037918129 10:0.044639304 11:-0.11320841 12:0.086254651 13:0.047461621 14:0.039675885 15:-0.19349701 16:0.096603221 17:-0.15151006 18:-0.065894141 19:0.055445355 20:-0.13075018 21:-0.18042634 22:0.16589235 23:0.027813336 24:0.014284283 25:-0.011933428 26:0.026279547 27:0.061096619 28:-0.12094124 29:-0.11211042 30:-0.13726637 31:-0.099401112 32:0.088544224 33:0.02670196 34:0.065130561 35:0.024499091 36:-0.031518203 37:-0.22398489 38:-0.02411973 39:0.20789082 40:-0.012059512 41:-0.12040932 42:0.0030856841 43:-0.050906024 44:-0.1059957 45:-0.014182881 46:0.02228998 47:0.027092264 48:-0.0098153965 49:0.060826083 50:-0.030289656 
547.7892842351143 1:-0.17901428 2:0.071324581 3:-0.17607799 4:0.095632464 5:-0.093354378 6:-0.11737207 7:-0.18509445 8:0.14733728 9:0.031878291 10:-0.19184262 11:-0.1626908 12:0.17980095 13:0.013784113 14:0.094961224 15:-0.097171306 16:0.095839304 17:-0.01703419 18:-0.1393968 19:0.085494173 20:0.14108908 21:-0.069631805 22:0.055867538 23:0.046700181 24:-0.011137581 25:-0.037349997 26:-0.24409367 27:0.0044526628 28:0.046605849 29:0.056023544 30:-0.066339841 31:-0.079445467 32:-0.0021455822 33:0.0083233104 34:0.017883622 35:-0.092887763 36:0.14361611 37:-0.13063119 38:0.016159333 39:-0.064512932 40:0.09590198 41:0.19591284 42:-0.073987858 43:-0.12747859 44:0.088933665 45:0.026945838 46:0.0054336757 47:-0.14540216 48:0.024295676 49:0.088683802 50:0.0019986245 
1782.8876 1:0.26484037 2:0.00066593576 3:-0.077493603 4:-0.0046933891 5:-0.01038992 6:0.015249919 7:0.034412495 8:0.053978675 9:0.03600137 10:0.054538704 11:-0.012674814 12:-0.017241818 13:-0.050835441 14:0.0055170027 15:0.0099513961 16:-0.038994574 17:0.012916363 18:0.006382753 19:-0.03698655 20:0.017777982 21:0.056968826 22:-0.044363507 23:0.041760635 24:-0.046574338 25:-0.053856589 26:-0.040946815 27:-0.0078046698 28:0.013605795 29:0.055883833 30:-0.027335456 31:0.062426706 32:-0.058197705 33:-0.0038691317 34:0.016201087 35:-0.03091618 36:-0.040406943 37:0.00014198761 38:-0.0066040488 39:0.095054958 40:-0.070382071 41:0.0229654 42:-0.032053152 43:-0.057434623 44:0.0047173125 45:-0.051516069 46:-0.01281506 47:0.018785722 48:-0.0055660158 49:0.018951033 50:0.044464891 
-1782.8876 1:-0.034079447 2:-0.022282155 3:0.012427125 4:0.00015007573 5:-0.029427933 6:-0.046614863 7:0.0048701357 8:-0.055415807 9:-0.00141054 10:0.065816251 11:0.0083109237 12:-0.010703021 13:-0.0012557968 14:0.0023463327 15:-0.027244133 16:0.015391918 17:-0.03063696 18:-0.036937637 19:-0.045788317 20:0.021253511 21:-0.11087821 22:0.015855078 23:-0.0060230842 24:0.03470181 25:-0.015955265 26:0.0033834114 27:-0.08852606 28:-0.042830149 29:-0.044567073 30:0.043894677 31:-0.049198267 32:-0.035588939 33:0.031666569 34:0.046429407 35:0.026821564 36:0.02491702 37:0.065408256 38:-0.010467701 39:0.056796778 40:0.03301988 41:0.041531252 42:-0.0025247655 43:0.051816343 44:0.040137046 45:0.079089603 46:0.081352203 47:-0.067404792 48:-0.00073396398 49:-0.030716979 50:-0.074357581 
-1782.8876 1:0.028225564 2:-0.021708199 3:0.018827353 4:0.0081698596 5:-0.040491607 6:0.010114203 7:0.02081664 8:-0.018134385 9:-0.032345051 10:-0.0090757755 11:-0.011203475 12:-0.01196711 13:0.050838021 14:-0.024691556 15:0.0056125452 16:-0.064381983 17:-0.029036276 18:0.043634719 19:-0.0013451148 20:-0.0090381293 21:-0.017081817 22:0.073084327 23:0.011804124 24:0.023882727 25:0.0045824718 26:-0.011977193 27:0.012535502 28:0.00063693908 29:-0.015541664 30:0.024375975 31:-0.0091530782 32:-0.08169199 33:0.043455867 34:-0.0028218792 35:-0.01421406 36:-0.06957581 37:-0.037883748 38:-0.017001088 39:-0.00064067472 40:0.039178027 41:0.073105639 42:0.019372265 43:-0.020725616 44:0.022493096 45:0.05802046 46:-0.045584215 47:-0.025530177 48:-0.02886814 49:-0.016599087 50:0.018825019 
-1782.8876 1:-0.070713445 2:-0.044764847 3:0.015494387 4:-0.013949578 5:-0.0066491271 6:-0.0027712867 7:-0.035840811 8:-0.00064598814 9:0.044421444 10:-0.038568908 11:-0.030998032 12:0.005061935 13:0.00026626436 14:-0.049828257 15:0.050915532 16:0.0011403057 17:0.058464685 18:0.033018022 19:-0.024615256 20:-0.0076093349 21:0.018308972 22:-0.0082582606 23:0.012841679 24:-0.00071505086 25:-0.038386941 26:0.013731314 27:-0.00080718156 28:-0.034294962 29:0.003868146 30:0.056358204 31:-0.034391374 32:-0.012321862 33:-0.020328803 34:0.0025955959 35:0.0029380287 36:0.039716624 37:-0.0021162995 38:-0.047975773 39:0.067493051 40:-0.028571905 41:-0.046787119 42:0.083929952 43:0.087646809 44:0.12056225 45:-0.011784304 46:0.0053925233 47:0.0055960601 48:-0.066338476 49:-0.0095342337 50:0.049982049 
1782.8876 1:-0.017543938 2:-0.11523228 3:0.045201976 4:-0.03061934 5:0.061970738 6:0.054743297 7:0.0077048957 8:-0.0020241919 9:-0.10815174 10:-0.057065701 11:-0.059564824 12:-0.026983511 13:-0.0049615302 14:0.1117906 15:-0.017658544 16:0.01250107 17:0.045444429 18:-0.10545001 19:-0.010118934 20:-0.017976193 21:0.0027442371 22:0.11122388 23:-0.029938413 24:-0.0099400015 25:0.021213662 26:0.053152518 27:0.094413832 28:0.030708653 29:-0.16217042 30:0.08596189 31:-0.089695563 32:-0.068064042 33:-0.075391077 34:0.032073031 35:-0.0057023538 36:-0.022942687 37:0.10587662 38:-0.13299362 39:0.01993388 40:0.0079581348 41:0.11140693 42:-0.079266857 43:0.072872452 44:-0.076042324 45:-0.023586072 46:-0.022229503 47:-0.0014697946 48:0.01539538 49:0.02424073 50:0.16023245 
-1782.8876 1:-0.21660608 2:-0.012228683 3:-0.054545377 4:0.0092261741 5:0.12305937 6:0.022012954 7:0.050944407 8:0.024246072 9:0.045663103 10:-0.001179764 11:-0.024760326 12:-0.034268497 13:0.040864908 14:-0.084267958 15:-0.0029851126 16:0.11223822 17:0.033524163 18:0.023263845 19:-0.024431032 20:-0.0046667083 21:0.038205984 22:-0.004501824 23:0.037713722 24:-0.092049326 25:0.021247511 26:-0.032562475 27:-0.012727222 28:0.023660491 29:-0.083068275 30:-0.02162545 31:0.046807982 32:0.026173696 33:-0.0342638 34:-0.012866628 35:0.01474507 36:0.0093621049 37:0.10611793 38:-0.010535055 39:-0.092176498 40:0.046936646 41:0.031388179 42:0.018491852 43:0.061080878 44:0.042874809 45:0.00013394718 46:-0.024786913 47:0.025035661 48:-0.0057938088 49:0.090319341 50:-0.025134094 
1782.8876 1:-0.075453778 2:-0.086452918 3:0.012918567 4:-0.016043918 5:0.029002598 6:0.051489217 7:-0.050666799 8:-0.031054907 9:0.032829591 10:-0.0068426205 11:0.023927919 12:0.013993259 13:0.051393619 14:0.073951151 15:-0.031446706 16:-0.033201968 17:-0.02633502 18:0.011004403 19:-0.027416188 20:0.043803253 21:0.018451173 22:0.043225692 23:-0.0025800457 24:0.041204973 25:0.033398698 26:0.033267192 27:0.013945329 28:-0.040633153 29:-0.0071196518 30:0.11341955 31:-0.02089135 32:-0.062202141 33:0.028852838 34:-0.040649224 35:-0.0023583243 36:-0.042681042 37:-0.018580369 38:0.042845694 39:0.131247 40:0.013711892 41:0.014250683 42:0.077169124 43:0.042653516 44:-0.0014913239 45:-0.009787285 46:-0.07391046 47:-0.044796803 48:-0.01029964 49:0.079203036 50:0.081264373 
-331.5967589998564 1:-0.080496814 2:-0.020211082 3:0.025592445 4:-0.088708512 5:0.101942 6:-0.0093796241 7:0.076558364 8:-0.0032806785 9:0.098983391 10:0.070020055 11:-0.15825626 12:-0.020731367 13:-0.02766569 14:0.0024552313 15:0.029668302 16:0.053769643 17:0.016096536 18:0.050127262 19:0.072986057 20:-0.09586232 21:-0.053354105 22:-0.066116275 23:-0.00053388181 24:-0.054684197 25:-0.057419744 26:-0.03716606 27:0.010300643 28:0.070570174 29:-0.076752319 30:0.10262902 31:0.0066175238 32:0.013169691 33:0.11970325 34:-0.011641194 35:0.056083212 36:0.11789111 37:-0.055795328 38:0.047618296 39:0.042748171 40:-0.0078921277 41:0.032171356 42:-0.068696128 43:0.027115483 44:0.020732307 45:0.052620981 46:-0.036205326 47:-0.0036718405 48:-0.00042587968 49:0.070343106 50:0.079975217 
466.7289529069854 1:-0.12691475 2:-0.01645099 3:0.018471817 4:0.003135851 5:0.064953547 6:-0.0089416731 7:-0.019684975 8:0.0064147906 9:-0.020166198 10:-0.071744546 11:-0.043341741 12:0.018160475 13:0.0613294 14:0.022805712 15:-0.011253946 16:0.028334375 17:-0.043792643 18:0.072927915 19:-0.068937421 20:0.064494986 21:0.052260768 22:-0.010411398 23:-0.035310738 24:-0.0094547001 25:0.03616736 26:0.059182219 27:0.035605414 28:-0.0096356634 29:-0.019287842 30:0.05445527 31:0.027723546 32:-0.045212608 33:-0.0044092009 34:-0.015486418 35:0.0096014031 36:-0.096040086 37:0.023830705 38:-0.039983774 39:0.085989116 40:-0.032691124 41:0.080896704 42:0.085531793 43:0.039448875 44:0.046728109 45:-0.060891867 46:-0.014108637 47:0.012434614 48:0.063115873 49:0.077166432 50:0.087805329 
1782.8876 1:-0.14446144 2:-0.039389279 3:-0.026445314 4:-0.041448411 5:0.089594999 6:-0.024120682 7:0.0017718101 8:-0.015644658 9:0.012946122 10:-0.026258393 11:0.01268062 12:-0.025952802 13:-0.038511733 14:-0.053194182 15:-0.0097499191 16:0.00320829 17:0.060146779 18:0.0010265249 19:-0.010352414 20:-0.044348029 21:-0.054716873 22:-0.16514718 23:-0.031255719 24:0.029910258 25:-0.0053071657 26:-0.0052919677 27:0.041490543 28:-0.10095922 29:-0.057725896 30:0.025101359 31:-0.048756812 32:-0.067484164 33:-0.019413283 34:-0.033383367 35:-0.032213264 36:-0.041588398 37:-0.025609026 38:-0.056450738 39:0.0062761829 40:0.031105943 41:0.081614543 42:0.075607781 43:-0.087917987 44:0.057869844 45:-0.10739124 46:0.040787025 47:-0.06461057 48:0.042052326 49:0.028204537 50:-0.025687141 
1682.125099371752 1:-0.12657702 2:-0.025554676 3:-0.068266068 4:-0.12288462 5:0.040060846 6:0.022010322 7:0.071003296 8:-0.079034792 9:0.010860772 10:0.0084974042 11:-0.018676402 12:0.024443246 13:0.06832927 14:0.047516376 15:-0.022036709 16:0.093615753 17:0.15318095 18:-0.004745336 19:-0.061175075 20:-0.10685993 21:-0.018910296 22:-0.17826732 23:-0.0090900116 24:-0.045028488 25:-0.031794207 26:0.024158176 27:0.066928041 28:-0.13520101 29:0.041370232 30:0.18509122 31:-0.025223482 32:-0.15874769 33:-0.042578518 34:0.016975746 35:-0.022077755 36:-0.040369937 37:-0.024120791 38:0.051674486 39:-0.04830402 40:-0.01762284 41:0.16839478 42:0.10743759 43:0.022363384 44:-0.14771996 45:-0.055669014 46:-0.069816606 47:-0.16604891 48:0.055292232 49:0.02655438 50:-0.091289646 
-889.3582022769436 1:-0.22733653 2:-0.07894056 3:-0.13574163 4:0.033170029 5:0.10761285 6:-0.029315974 7:0.034371178 8:0.0087687874 9:-0.086187939 10:0.031880515 11:-0.0074431274 12:-0.092386211 13:0.020519932 14:-0.030220761 15:-0.028269407 16:0.03679317 17:-0.067130263 18:-0.074618106 19:-0.11553379 20:0.010063385 21:-0.0017488076 22:0.086249087 23:-0.0573656 24:0.0154549 25:0.010460054 26:0.078451508 27:-0.087233721 28:0.074819478 29:-0.067641972 30:0.093786463 31:-0.017090768 32:0.022673489 33:0.0062260295 34:0.09615211 35:-0.077613875 36:0.044117298 37:0.19991396 38:-0.04663398 39:0.029939384 40:-0.051300075 41:-0.017545137 42:-0.052644012 43:0.074069493 44:0.043873737 45:0.012550705 46:-0.042282978 47:0.12374354 48:0.13247456 49:0.12425397 50:0.007742461 
1277.082953412919 1:-0.12477091 2:-0.018583857 3:-0.08796724 4:-0.13833069 5:-0.03450336 6:0.014906543 7:-0.034606701 8:0.0011333274 9:0.041095755 10:-0.004707478 11:-0.063810785 12:-0.08663274 13:-0.10934111 14:0.118907 15:-0.063651926 16:0.081195563 17:-0.071470382 18:0.08724705 19:-0.053687811 20:0.022050615 21:0.082749322 22:-0.028626326 23:0.024556624 24:0.065358657 25:0.087821669 26:-0.0057643148 27:-0.024874585 28:0.055355548 29:-0.045683838 30:-0.0091531076 31:-0.11724772 32:0.042027894 33:0.014290474 34:-0.077910164 35:-0.075732797 36:-0.10054643 37:0.13269268 38:0.078949627 39:0.10101525 40:-0.055082383 41:-0.013248888 42:0.037477876 43:-0.038774717 44:0.056165091 45:0.041543757 46:0.10085813 47:0.016994197 48:-0.023594703 49:0.069375289 50:0.0059248737 
1782.8876 1:-0.096218559 2:-0.033473067 3:-0.0070931341 4:-0.011601558 5:-0.029841372 6:-0.067235345 7:-0.013212305 8:0.01744036 9:-0.01690819 10:0.030727042 11:-0.066963374 12:-0.080265116 13:-0.11659115 14:0.036128793 15:0.035009022 16:0.024962177 17:0.028162235 18:-0.0076077982 19:-0.19121464 20:0.081736627 21:0.08904353 22:-0.0049268253 23:-0.01905347 24:0.067273732 25:0.011237533 26:0.045973526 27:-0.019142658 28:0.0061883564 29:0.016177716 30:0.011446787 31:0.021923745 32:0.014954464 33:0.097390728 34:-0.054922631 35:-0.017010681 36:-0.098161087 37:0.016332456 38:-0.012323956 39:-0.023710495 40:0.042836591 41:-0.010561108 42:-0.034737241 43:0.0048043179 44:-0.019563128 45:0.0062675099 46:-0.013080938 47:-0.094550054 48:-0.055402629 49:0.048985596 50:0.017613482 
1782.8876 1:-0.27119408 2:0.0030525858 3:-0.013517498 4:-0.017291833 5:0.015367773 6:-0.014360152 7:-0.036233832 8:0.08344476 9:0.038054062 10:0.036769846 11:-0.026798048 12:-0.055725173 13:-0.071705644 14:0.01367019 15:0.16558089 16:0.024290322 17:-0.030020049 18:-0.032567304 19:-0.24634779 20:0.11986326 21:-0.061031435 22:-0.1307406 23:0.065759885 24:-0.07109217 25:0.018574609 26:-0.026851029 27:-0.066118654 28:-0.088131227 29:-0.13924702 30:-0.087064112 31:0.013107052 32:-0.10364596 33:0.053041167 34:-0.12075447 35:-0.0090405008 36:-0.071711742 37:0.069123402 38:0.030508493 39:0.067405044 40:0.04197076 41:-0.081970655 42:-0.018593071 43:-0.0031146522 44:0.051911008 45:-0.040996524 46:0.00081475035 47:0.015074015 48:0.014061563 49:0.064629943 50:0.0012463648 
305.0041078895109 1:0.29487918 2:0.14277798 3:-0.11137278 4:-0.023280996 5:0.065834272 6:-0.0013433147 7:-0.034647055 8:0.01288889 9:-0.040749474 10:-0.022046968 11:0.039735213 12:0.024577836 13:0.070477362 14:0.029948753 15:0.056563338 16:0.059099549 17:-0.018223293 18:0.04595922 19:-0.019745169 20:-0.0077115834 21:-0.08381243 22:-0.077847688 23:-0.033278727 24:-0.0098299076 25:0.013751443 26:0.028977982 27:-0.021976867 28:0.040301012 29:-0.027100279 30:0.022709651 31:-0.02607796 32:0.049446721 33:0.027821003 34:0.024256885 35:-0.015558577 36:0.077093985 37:0.025823944 38:-0.0090855102 39:0.021463414 40:-0.011816809 41:-0.012723591 42:-0.047087995 43:-0.025385525 44:-0.022754527 45:-0.02396417 46:-0.0047772227 47:0.045556985 48:-0.0022135209 49:-0.051100478 50:-0.0020211696 
-167.0208029430375 1:0.27299437 2:0.067424 3:-0.082477059 4:-0.04031102 5:-0.030364122 6:0.10946335 7:0.048899107 8:0.010282682 9:0.021799358 10:0.02584714 11:-0.10676982 12:0.013379745 13:-0.024739598 14:-0.098551498 15:0.033525184 16:0.063202679 17:0.044297789 18:-0.055053069 19:-0.073485196 20:-0.014612984 21:-0.094305314 22:-0.0048058699 23:-0.063813531 24:0.037826207 25:-0.072707697 26:-0.011701783 27:0.096710594 28:-0.07820658 29:-0.15041626 30:0.029156709 31:-0.039593271 32:0.043619141 33:0.013563447 34:0.062443342 35:-0.009305178 36:-0.044043631 37:-0.053297118 38:-0.11573853 39:-0.12322203 40:-0.06543756 41:-0.012759308 42:0.032623495 43:0.1641051 44:0.052828155 45:0.074772174 46:-0.025863717 47:0.04385117 48:-0.081103948 49:-0.057121326 50:0.037287709 
1268.936182986973 1:0.27741417 2:0.024727954 3:-0.026110963 4:-0.016390035 5:-0.027149186 6:-0.082465352 7:-0.0050459349 8:0.019471918 9:-0.013963414 10:-0.035078087 11:-0.012396823 12:0.073633699 13:-0.019698139 14:0.06120778 15:-0.087718754 16:-0.075246374 17:-0.010342424 18:-0.053040455 19:0.051577642 20:0.080988939 21:0.083711593 22:0.029567889 23:0.017764473 24:-0.078752847 25:-0.11556304 26:0.039316962 27:0.061536989 28:0.018749935 29:0.014413308 30:0.039512788 31:-0.020230945 32:-0.0054025108 33:-0.091189067 34:-0.031150638 35:-0.029174189 36:-0.094051762 37:0.038641941 38:0.0072358695 39:0.063319956 40:-0.026393406 41:-0.038800833 42:0.013093799 43:0.014404651 44:0.086143841 45:-0.016250289 46:-0.12660111 47:0.04065411 48:-0.098784404 49:0.029730424 50:-0.073496355 
-1782.8876 1:0.034932996 2:0.024982943 3:0.011963289 4:-0.015606051 5:-0.011117647 6:-0.042575069 7:-0.0095866377 8:0.082068447 9:-0.026041301 10:-0.035319501 11:0.034590009 12:0.077216154 13:0.015391816 14:0.033358339 15:-0.14184334 16:0.0028753182 17:-0.045730731 18:0.035600371 19:0.018594398 20:0.035240494 21:-0.065179405 22:-0.075054447 23:-0.032876217 24:0.04726193 25:-0.037390653 26:-0.094987602 27:0.11626121 28:0.076458487 29:-0.091862241 30:-0.052042034 31:0.026974907 32:0.010996551 33:0.0016235454 34:-0.10538782 35:0.054237772 36:0.0017861441 37:0.12254841 38:0.0050896445 39:-0.062522817 40:-0.010869251 41:-0.066337298 42:0.005108217 43:0.082997912 44:0.023829144 45:-0.14527272 46:0.035207486 47:0.12491845 48:0.0039571988 49:-0.098313491 50:-0.074213311 
-1100.154660347195 1:-0.025904545 2:0.010424462 3:0.045308706 4:0.039101575 5:-0.0028364421 6:0.0072020932 7:-0.13244755 8:-0.012728862 9:0.033113822 10:-0.067245129 11:-0.0074429994 12:-0.002291436 13:-0.044634342 14:-0.021556256 15:-0.053194364 16:0.040896919 17:-2.4454644e-005 18:-0.10711932 19:-0.10020903 20:0.013496872 21:-0.058564143 22:-0.034544989 23:-0.13723844 24:-0.035454385 25:0.0055760106 26:-0.079651577 27:0.005095855 28:0.015964504 29:0.11761093 30:0.10805267 31:-0.035954629 32:0.078280665 33:-0.079366587 34:-0.11202454 35:0.054086457 36:-0.092737889 37:0.033169008 38:-0.035875301 39:-0.012711404 40:0.027521326 41:0.062640418 42:-0.043955151 43:0.095394696 44:0.010876802 45:0.087425084 46:-0.046898688 47:0.062189836 48:-0.042208947 49:0.013564844 50:-0.047952581 
-1782.8876 1:0.0068359171 2:-0.061821578 3:-0.021221325 4:0.00068793382 5:0.046380563 6:0.024968158 7:-0.057051415 8:-0.0096282279 9:0.055600457 10:0.041999865 11:-0.011958311 12:0.023953171 13:0.09302773 14:-0.027094803 15:-0.057045261 16:-0.063403761 17:0.010848888 18:0.019558263 19:0.026203979 20:0.020320876 21:-0.026448474 22:0.0080871681 23:-0.01640553 24:-0.023794315 25:0.022821591 26:-0.015064057 27:0.028555166 28:0.014371914 29:0.018858363 30:0.03445509 31:-0.083927955 32:-0.079648269 33:-0.019770118 34:0.0088330677 35:0.070546497 36:-0.066815055 37:-0.0035924647 38:-0.003802956 39:0.11021625 40:0.051484603 41:-0.050709537 42:-0.01285619 43:0.00091980518 44:-0.033268167 45:0.045008661 46:-0.0032972242 47:-0.032711031 48:-0.069545978 49:-0.011599282 50:0.010124493 
-1782.8876 1:-0.071439041 2:0.026940328 3:0.09234733 4:-0.056296203 5:-0.054894876 6:0.055276509 7:0.053616945 8:0.12132884 9:0.023180347 10:0.030073405 11:0.015696076 12:-0.00071116944 13:0.098184471 14:0.022861094 15:0.052062331 16:0.03428348 17:0.042057363 18:-0.079343566 19:-0.072529792 20:0.0075263696 21:0.060001973 22:0.12629419 23:0.034292801 24:0.042116792 25:-0.0064470771 26:-0.053805206 27:0.083071671 28:0.078899731 29:0.071317702 30:0.053189596 31:0.01353901 32:-0.0029271192 33:-0.12547323 34:-0.03421128 35:-0.093957798 36:-0.058625118 37:0.12341686 38:-0.012644365 39:0.075473806 40:-0.035784747 41:-0.0050544079 42:0.032360265 43:-0.015834511 44:-0.01090523 45:0.016175519 46:-0.065888472 47:0.076053999 48:0.12401478 49:0.022762722 50:0.061893183 
-835.3845857587268 1:-0.01600782 2:0.0075695557 3:0.039757812 4:-0.033282528 5:-0.010754159 6:0.055986472 7:-0.0095675877 8:-0.027971794 9:-0.019291582 10:-0.072806206 11:0.060110421 12:0.0080604625 13:-0.069553195 14:-0.13608756 15:0.14517395 16:-0.083572445 17:-0.040237344 18:-0.0013084597 19:0.034007018 20:-0.040818244 21:-0.093022227 22:0.0087922477 23:0.11464842 24:-0.05781156 25:0.068356899 26:0.015361836 27:-0.020336041 28:0.055504718 29:-0.042322868 30:-0.14894773 31:0.044879238 32:0.069708393 33:0.061701773 34:-0.040243627 35:-0.032261628 36:0.055969661 37:0.074078321 38:-0.093907821 39:-0.10068231 40:0.072726429 41:-0.038449903 42:0.022205633 43:-0.14314934 44:-0.011252748 45:-0.10797829 46:-0.16064443 47:0.14104962 48:0.0015104337 49:-0.044223428 50:-0.016169502 
1782.8876 1:-0.036754542 2:-0.039244738 3:0.055188736 4:0.015646389 5:0.00079088295 6:0.033550564 7:-0.04035775 8:-0.012155898 9:0.049130137 10:-0.039736869 11:0.0067461687 12:-0.0058215096 13:-0.086701929 14:0.020059694 15:-0.035678546 16:-0.042398364 17:0.039978671 18:0.0093079932 19:-0.0092235534 20:-0.05758817 21:-0.024733803 22:0.032470122 23:0.043194825 24:0.052441321 25:0.023077043 26:0.021529659 27:-0.052282525 28:0.029107947 29:0.0097321011 30:-0.023682285 31:-0.086639989 32:-0.071040749 33:-0.023390568 34:-0.15468456 35:0.010737338 36:0.0070455925 37:0.025824662 38:-0.072283398 39:-0.13486845 40:-0.018062359 41:-0.055341608 42:-0.18591935 43:0.0084237917 44:-0.05723513 45:0.0727361 46:0.01285942 47:0.14039707 48:-0.23046308 49:-0.043194853 50:-0.019258653 
-209.3302435667601 1:-0.11903471 2:0.01606293 3:0.12679233 4:0.027337482 5:0.042250749 6:0.0063658406 7:0.0027002981 8:0.055414204 9:0.0026905219 10:-0.084858629 11:-0.02489516 12:-0.049645125 13:-0.0043255561 14:0.13391456 15:-0.055021258 16:-0.068800951 17:0.097608376 18:0.080252069 19:-0.077850263 20:-0.13697669 21:0.14012064 22:0.075679926 23:0.038711234 24:0.026390698 25:0.011660555 26:0.11168461 27:-0.019691584 28:-0.222063 29:0.0014681629 30:0.0054388501 31:-0.11703902 32:0.037600983 33:-0.033362035 34:-0.11853533 35:0.062336795 36:-0.027186109 37:0.16732498 38:-0.17370766 39:0.069673174 40:0.054457822 41:0.010135087 42:0.044096156 43:-0.041575914 44:-0.14744962 45:-0.001511997 46:0.066632006 47:0.09061737 48:-0.084745405 49:0.049902266 50:-0.046620956 
-1157.73820929804 1:-0.12160175 2:-0.087366985 3:0.021483546 4:0.0050053153 5:0.030200108 6:0.075879967 7:0.037450439 8:0.057184286 9:0.058866677 10:0.0025347354 11:0.026901001 12:0.055466791 13:-0.00087603869 14:-0.045542891 15:-0.077025917 16:0.0074151101 17:-0.049158318 18:0.014963968 19:-0.03822519 20:0.056660529 21:-0.10275273 22:-0.055431872 23:0.078765392 24:-0.025993639 25:-0.087667887 26:0.02051166 27:-0.051502889 28:0.12189988 29:-0.070909918 30:0.058593055 31:-0.048251811 32:-0.030104152 33:0.12862695 34:-0.13648916 35:-0.077167355 36:-0.095543293 37:0.013006984 38:0.0040082806 39:-0.11399281 40:-0.03655303 41:0.042502136 42:0.11266629 43:0.012668308 44:0.058750396 45:-0.095493158 46:0.031671789 47:0.068000137 48:0.006827796 49:0.1041426 50:-0.06872166 
728.152775902388 1:-0.11966941 2:0.045383302 3:0.089630219 4:-0.015484735 5:0.13587171 6:0.010632945 7:-0.0075334409 8:0.05337926 9:-0.055021344 10:-0.01776683 11:0.12694092 12:0.0089631922 13:-0.11547535 14:-0.023303068 15:-0.17021216 16:-0.10695326 17:0.13774738 18:-0.075214794 19:0.018814625 20:0.07669441 21:-0.11908605 22:0.093395717 23:-0.0037708344 24:-0.022589666 25:0.07589312 26:0.22082308 27:0.14399652 28:0.0014979132 29:-0.089426465 30:0.27273817 31:-0.039161843 32:0.017425838 33:-0.095766774 34:0.093740697 35:-0.032802384 36:0.043017113 37:0.071252075 38:-0.070934546 39:0.01069416 40:-0.074109912 41:0.032862312 42:-0.042290669 43:0.12907867 44:-0.025915145 45:-0.086149378 46:0.11704717 47:0.0017172764 48:0.089935947 49:0.12510541 50:-0.0010294842 
289.1237156835164 1:-0.1664697 2:-0.086193259 3:0.0021516091 4:-0.13416354 5:0.013062917 6:0.05672932 7:0.015761722 8:0.022291718 9:0.031546388 10:-0.0090366579 11:-0.016502656 12:0.079681428 13:-0.048436119 14:-0.030920924 15:-0.12302643 16:-0.06570323 17:0.0027936329 18:-0.015514994 19:0.042819691 20:0.0088857114 21:-0.037413638 22:0.078408855 23:-0.036769349 24:-0.062568139 25:0.033251463 26:-0.032061027 27:0.058514659 28:0.092198614 29:-0.095847855 30:0.16881367 31:-0.00064156744 32:-0.046149021 33:0.055186841 34:-0.084842282 35:-0.023208521 36:-0.077466637 37:0.073016509 38:-0.039557906 39:-0.039331359 40:-0.12229529 41:-0.12630173 42:-0.004307285 43:0.050835903 44:-0.029957946 45:-0.1253305 46:0.013508537 47:-0.023008148 48:-0.096894522 49:0.05657651 50:-0.051924415 
-1782.8876 1:0.24404125 2:0.0030675934 3:-0.0773949 4:-0.060849548 5:0.040818245 6:0.031354697 7:0.023872347 8:-0.0024907184 9:0.024454154 10:-0.050850304 11:0.0075789549 12:0.019664935 13:-0.037228459 14:-0.0077425296 15:-0.012972729 16:0.087789763 17:0.056006537 18:-0.037739532 19:0.023678497 20:-0.018338383 21:-0.034340493 22:-0.059389977 23:-0.12360296 24:0.045413088 25:-0.055853388 26:-0.059963227 27:-0.011183816 28:0.091669305 29:-0.029418217 30:-0.024959901 31:0.042214741 32:0.02580656 33:-0.017458265 34:-0.059420335 35:0.0097254413 36:0.018350163 37:-0.046396286 38:-0.03222486 39:0.011078973 40:0.015190311 41:0.061429874 42:0.058232919 43:0.03463017 44:0.011728716 45:-0.09123313 46:-0.00053620841 47:0.021233126 48:0.092040092 49:-0.012823593 50:-0.050685188 
133.7710780695755 1:0.17506537 2:0.010937339 3:-0.012709991 4:-0.00093810724 5:-0.0023484768 6:-0.049039813 7:0.0070017368 8:-0.022425117 9:0.028441233 10:0.096400545 11:-0.0015602583 12:-0.033818237 13:0.048521004 14:0.048091408 15:-0.0079510355 16:0.045542408 17:-0.075334336 18:-0.0331595 19:0.084230723 20:0.04915874 21:-0.015133172 22:-0.064122249 23:0.16273962 24:0.022280817 25:0.016858038 26:-0.067232204 27:0.005826125 28:0.039773058 29:0.055652043 30:-0.14477246 31:-0.079162557 32:-0.042410346 33:-0.05807576 34:-0.061858838 35:0.018157376 36:-0.031101826 37:0.11651737 38:-0.07390027 39:-0.057488827 40:0.038536413 41:0.013715616 42:-0.13979998 43:-0.052179439 44:-0.016239903 45:0.059599763 46:0.018695532 47:-0.027853359 48:-0.020604731 49:-0.015280999 50:-0.18786802 
-1406.839679282762 1:0.075438382 2:-0.087350235 3:0.099690975 4:0.029214548 5:-0.028948941 6:-0.090898281 7:-0.12879183 8:-0.018808401 9:-0.031326135 10:0.045392923 11:0.040052155 12:0.038636049 13:-0.099416097 14:0.068257781 15:-0.1759785 16:-0.13340278 17:-0.020029781 18:0.084749522 19:0.025218248 20:0.0087212174 21:0.046770494 22:0.076622385 23:-0.024940433 24:0.055055299 25:0.013124747 26:-0.11769269 27:-0.14501571 28:-0.062232732 29:0.0079867204 30:-0.088107291 31:0.066251261 32:-0.064480695 33:0.02477259 34:0.051978598 35:0.064815196 36:-0.038266017 37:0.12582488 38:0.053009531 39:-0.12565587 40:0.029927472 41:0.080551505 42:0.03814351 43:0.0042424239 44:0.036317308 45:0.11102725 46:0.042772011 47:-0.0044493961 48:0.12082078 49:0.033807955 50:-0.019221426 
-1782.8876 1:0.095979024 2:-0.0046482305 3:0.045662657 4:0.038636095 5:-0.047624529 6:-0.042675497 7:-0.028525791 8:0.1036725 9:0.050009981 10:0.049486107 11:0.0040005884 12:0.04021377 13:-0.013467926 14:-0.033002752 15:-0.064429328 16:-0.045257584 17:0.006960783 18:-0.03956043 19:-0.00096814933 20:-0.035271014 21:0.060022596 22:-0.07086794 23:-0.052484148 24:0.0047703166 25:-0.019648413 26:-0.039889154 27:0.049672905 28:-0.05419104 29:0.018437003 30:-0.016063503 31:0.058443407 32:0.0054701937 33:0.0956357 34:0.023033365 35:-0.026399165 36:0.1025679 37:-0.020113051 38:0.025440862 39:-0.16387407 40:0.030859399 41:-0.1287134 42:0.039434184 43:-0.035430562 44:-0.012368339 45:-0.11094391 46:0.10286658 47:0.036567325 48:-0.054843811 49:-0.041816139 50:0.013875076 
-1283.125668557271 1:0.078684116 2:0.010969321 3:0.04473124 4:0.03733251 5:0.015281718 6:-0.020158769 7:-0.011323094 8:0.018286411 9:0.021300678 10:0.086488044 11:-0.013735242 12:-0.023479351 13:-0.015711849 14:0.042156574 15:0.019435626 16:0.025118816 17:-0.051356924 18:-0.022592758 19:-0.028609129 20:-0.025877371 21:0.060695093 22:-0.11230083 23:0.031563039 24:-0.0062515889 25:0.13915732 26:-0.086174028 27:0.0071140817 28:-0.032723637 29:0.019119136 30:0.037319416 31:-0.014495023 32:-0.039284948 33:0.0062262181 34:-0.029646093 35:-0.0034966802 36:-0.0098865554 37:0.015376632 38:0.053526423 39:-0.09781081 40:0.055357468 41:0.18031522 42:-0.095180556 43:-0.022968964 44:-0.0026158629 45:-0.1064528 46:-0.16609781 47:-0.056946205 48:-0.022690255 49:-0.014843214 50:0.038880129 
1782.8876 1:0.052265678 2:-0.084322911 3:0.039314758 4:0.063160091 5:-0.049857405 6:-0.028756577 7:0.02267834 8:-0.062409505 9:0.038778224 10:0.065421397 11:0.027752828 12:0.010509442 13:0.016712995 14:0.050440045 15:0.036752059 16:0.045559807 17:-0.028266752 18:-0.020116808 19:0.051207457 20:0.054143045 21:-0.047094556 22:-0.11897173 23:-0.0081647245 24:-0.0075552521 25:0.066749188 26:-0.09341019 27:0.0087217683 28:0.031543909 29:0.033207354 30:0.11935345 31:-0.044135681 32:0.1120065 33:0.092045088 34:-0.07322565 35:0.037266682 36:0.010069756 37:-0.042545027 38:0.025218037 39:-0.00073304367 40:0.021423476 41:-0.035873762 42:0.014001014 43:0.091553618 44:-0.042320479 45:0.017882542 46:-0.107099 47:-0.053964586 48:0.11337381 49:0.03729939 50:0.090311434 
-1219.035959708519 1:0.011365456 2:-0.029161957 3:0.046725028 4:0.011581318 5:-0.0943882 6:0.048457692 7:0.0033674377 8:0.035670459 9:0.002004794 10:-0.06355784 11:-0.018542356 12:-0.019061675 13:-0.1026981 14:0.03253166 15:0.012824233 16:0.058890311 17:-0.058324291 18:-0.10446506 19:-0.013469074 20:-0.053863532 21:0.071427652 22:-0.052239972 23:-0.14899445 24:-0.003068574 25:-0.057275557 26:0.01857514 27:0.067074759 28:0.014867319 29:0.12596196 30:0.060071973 31:0.024823576 32:0.1543886 33:-0.012471751 34:-0.0040326381 35:0.02719133 36:-0.097749345 37:0.050104314 38:-0.043131702 39:-0.11888014 40:-0.004211605 41:0.062986325 42:0.20792995 43:0.098663004 44:0.055180856 45:0.039996543 46:-0.066197778 47:-0.074695693 48:0.024784823 49:0.046480501 50:0.12550789 
269.957261164549 1:0.012177411 2:0.057589304 3:0.14059487 4:0.056983644 5:-0.10783187 6:-0.044811668 7:-0.034531864 8:-0.016331371 9:0.010534058 10:-0.0051218174 11:-0.017378855 12:0.024006444 13:0.00058415793 14:0.075174991 15:0.026096034 16:-0.0054541136 17:0.048129522 18:0.056078926 19:0.042715158 20:0.069887813 21:0.091406811 22:-0.000830828 23:0.10711607 24:-0.05658551 25:0.03383173 26:0.052603897 27:-0.012399129 28:0.058859034 29:0.014203755 30:-0.11109035 31:-0.096805831 32:-0.057715095 33:0.030327568 34:-0.01609308 35:-0.017766557 36:-0.026966396 37:-0.033072955 38:-0.041591682 39:-0.054194653 40:0.038489028 41:0.082213285 42:-0.14979625 43:-0.062076154 44:0.015772066 45:-0.043942639 46:0.071339919 47:-0.087437661 48:-0.024735332 49:-0.074204177 50:0.1095078 
-1214.27973016419 1:-0.0321468 2:-0.054384844 3:0.079209536 4:-0.037990526 5:0.049843065 6:0.031418054 7:0.0091011418 8:-0.010113619 9:-0.047337273 10:-0.0038084228 11:0.025601805 12:-0.0026578486 13:0.058669538 14:-0.017056418 15:0.04255279 16:0.034861446 17:-0.040209234 18:0.014933676 19:0.0057444124 20:-0.018594223 21:-0.022040287 22:-0.023388643 23:0.030805835 24:-0.0035578863 25:0.023500336 26:-0.059027745 27:0.031982521 28:-0.013889991 29:0.0060857006 30:0.061933092 31:-0.1265887 32:0.026442157 33:-0.072912874 34:0.056691523 35:-0.042305014 36:0.043904056 37:-0.039444298 38:-0.038991676 39:0.044437844 40:-0.017546846 41:-0.081758768 42:-0.0031492506 43:-0.0056922745 44:-0.022412303 45:-0.035970277 46:-0.052798713 47:0.0067786475 48:-0.031941077 49:-0.040000215 50:0.0042791297 
-1782.8876 1:-0.1441145 2:0.030886672 3:0.052036073 4:-0.045314727 5:0.057807914 6:0.024003667 7:-0.026235838 8:0.001146036 9:-0.0020705603 10:0.088524954 11:0.049105264 12:0.0051683982 13:-0.017906112 14:0.059985353 15:-0.044674082 16:0.10161104 17:0.032118318 18:-0.024615109 19:-0.056842155 20:-0.033308706 21:0.013771723 22:-0.050380355 23:0.043337853 24:0.072966693 25:-0.026823728 26:-0.14425431 27:-0.07914136 28:0.080190901 29:-0.051830348 30:-0.033885254 31:-0.0018733239 32:0.029563334 33:-0.051136749 34:-0.0040106991 35:0.014274848 36:0.050870416 37:-0.030351085 38:0.011594576 39:-0.057695958 40:-0.017086937 41:-0.062537156 42:-0.0027714688 43:0.029204188 44:-0.007965881 45:-0.038788004 46:-0.039636708 47:-0.085687577 48:-0.082759895 49:-0.029515669 50:0.034150185 
-288.1378505708893 1:-0.06667219 2:-0.027717429 3:0.068064144 4:-0.091611885 5:0.022085451 6:0.042092791 7:-0.01063717 8:-0.010290516 9:-0.01316662 10:0.08258035 11:0.053970367 12:-0.027748727 13:-0.025349867 14:-0.012357706 15:0.0011714093 16:0.053740251 17:-0.013088892 18:0.029459957 19:-0.087522455 20:-0.063627377 21:-0.017983622 22:-0.077157808 23:0.039026768 24:0.0066481062 25:0.046183045 26:-0.094836099 27:0.085210489 28:0.064330812 29:0.012253246 30:-0.04666563 31:-0.057657905 32:0.020808032 33:0.019309942 34:-0.067468195 35:0.011778942 36:0.0063997935 37:0.0025571813 38:0.0045814882 39:0.024613129 40:-0.036440243 41:-0.018491237 42:-0.070008886 43:-0.0043249235 44:-0.075281794 45:0.055566437 46:-0.10968336 47:-0.083634956 48:0.063291679 49:-0.09604947 50:-0.0052951853 
1782.8876 1:-0.090286823 2:-0.047356877 3:-0.021361171 4:-0.061887571 5:-0.016886068 6:0.08867454 7:0.052773653 8:-0.021833357 9:0.11175635 10:-0.03158893 11:0.049976163 12:0.043583598 13:-0.033929434 14:0.020068138 15:0.011227237 16:0.040519359 17:0.0067206176 18:-0.077555143 19:0.036687122 20:-0.0065241238 21:0.0065014194 22:0.0064112315 23:0.02473028 24:-0.012932114 25:-0.054338234 26:0.027569176 27:-0.12147809 28:0.053160555 29:-0.029387037 30:0.017185862 31:0.0011044382 32:-0.006144672 33:0.089910454 34:0.054294982 35:0.12318069 36:-0.048074508 37:0.019962401 38:0.15768504 39:-0.055184001 40:-0.036368909 41:0.074348581 42:-0.044067416 43:0.072695751 44:0.062588752 45:-0.025813298 46:0.025382044 47:-0.025695203 48:-0.063629898 49:0.11962943 50:-0.04921983 
-1782.8876 1:0.1303909 2:0.028134864 3:-0.025549851 4:0.048393628 5:-0.019966615 6:-0.039607914 7:0.033388968 8:0.040084669 9:-0.007102033 10:0.090805906 11:0.01201026 12:-0.017458511 13:-0.0030389819 14:-0.03353393 15:-0.022393567 16:0.027247097 17:-0.018978557 18:0.007251721 19:0.034960451 20:0.038208183 21:0.005917653 22:-0.0077490003 23:-0.0085510275 24:0.0370729 25:0.059793179 26:-0.020926839 27:0.041104765 28:-0.00041332552 29:-0.01992151 30:-0.0055473364 31:0.039309243 32:-0.025552102 33:0.0022934647 34:0.02440496 35:-0.027996436 36:0.032506509 37:0.071243041 38:0.023054742 39:0.036756051 40:0.087097348 41:0.060380321 42:0.02002428 43:0.062851411 44:0.065471341 45:-0.0016589632 46:-0.092179195 47:0.03118358 48:-0.080566346 49:-0.076453556 50:-0.033886812 
590.254971170583 1:0.14534003 2:0.019123931 3:0.019168114 4:0.069543917 5:-0.0083436386 6:-0.020854357 7:-0.012818685 8:0.0035662828 9:0.0063439028 10:-0.0097143708 11:0.035828297 12:0.04409207 13:-0.08404505 14:-0.093926374 15:-0.031135844 16:-0.078008764 17:0.050268231 18:0.022304583 19:0.023305817 20:-0.062631287 21:0.0067158966 22:-0.025522269 23:-0.0067718315 24:-0.045995806 25:-0.018563365 26:-0.023529073 27:-0.044097193 28:-0.031439765 29:-0.069938488 30:0.0085441429 31:-0.0081689769 32:0.019758975 33:-0.081581766 34:0.059099261 35:0.041069906 36:-0.048027985 37:0.074376983 38:0.022115141 39:0.044169498 40:-0.065445919 41:0.11582794 42:0.10230525 43:-0.075578415 44:0.082099592 45:0.097750594 46:0.07004287 47:-0.061530888 48:0.057891905 49:0.020609913 50:-0.032457828 
1782.8876 1:0.14502287 2:-0.050485067 3:0.027812455 4:0.040888359 5:-0.014669487 6:0.048245135 7:-0.01347243 8:0.052713319 9:0.073249754 10:0.057652777 11:0.043640433 12:-0.038802617 13:0.0047673244 14:-0.059100589 15:-0.053013945 16:-0.063459801 17:0.12087844 18:0.036279655 19:0.060106822 20:-0.0028478284 21:0.086923142 22:0.047355033 23:-0.084148565 24:0.087343208 25:-0.040204236 26:0.018364836 27:-0.049269964 28:-0.050322418 29:0.009178295 30:0.055288687 31:0.12407352 32:-0.016990647 33:0.028226406 34:0.030459343 35:0.03553712 36:0.037320176 37:-0.0069457721 38:-0.025025691 39:0.057894596 40:0.023254118 41:-0.033074259 42:0.067950687 43:0.070992454 44:0.065691313 45:0.053391321 46:-0.071830395 47:0.035776936 48:0.019337371 49:0.01552555 50:-0.031221205 
1782.8876 1:0.093717529 2:0.0057111239 3:0.10688602 4:0.03106434 5:0.050985506 6:0.076612047 7:0.02038034 8:-0.034289657 9:-0.051179055 10:0.023566103 11:0.024770368 12:0.046814321 13:0.064890327 14:-0.10347544 15:-0.019814925 16:0.05391845 17:-0.016480073 18:0.02223227 19:0.083158624 20:0.012711274 21:-0.078302372 22:0.073983761 23:0.047985813 24:-0.056360781 25:-0.047659509 26:0.027649569 27:-0.024614984 28:0.076408445 29:-0.1488997 30:0.064896693 31:0.02707474 32:0.029038262 33:0.10220536 34:0.035893545 35:-0.0084920121 36:0.035377332 37:0.044800354 38:0.02562373 39:0.024339605 40:-0.0056708887 41:0.056909578 42:0.016542894 43:-0.019832809 44:-0.063546044 45:0.047050476 46:0.094912217 47:-0.017769086 48:-0.0047495187 49:0.0054015827 50:0.00046925002 
